FANN_FLO_2.1
num_layers=3
learning_rate=0.800000
connection_rate=1.000000
network_type=0
learning_momentum=0.000000
training_algorithm=0
train_error_function=1
train_stop_function=0
cascade_output_change_fraction=0.010000
quickprop_decay=-0.000100
quickprop_mu=1.750000
rprop_increase_factor=1.200000
rprop_decrease_factor=0.500000
rprop_delta_min=0.000000
rprop_delta_max=50.000000
rprop_delta_zero=0.100000
cascade_output_stagnation_epochs=12
cascade_candidate_change_fraction=0.010000
cascade_candidate_stagnation_epochs=12
cascade_max_out_epochs=150
cascade_min_out_epochs=50
cascade_max_cand_epochs=150
cascade_min_cand_epochs=50
cascade_num_candidate_groups=2
bit_fail_limit=3.49999994039535522461e-01
cascade_candidate_limit=1.00000000000000000000e+03
cascade_weight_multiplier=4.00000005960464477539e-01
cascade_activation_functions_count=10
cascade_activation_functions=3 5 7 8 10 11 14 15 16 17 
cascade_activation_steepnesses_count=4
cascade_activation_steepnesses=2.50000000000000000000e-01 5.00000000000000000000e-01 7.50000000000000000000e-01 1.00000000000000000000e+00 
layer_sizes=61 7 5 
scale_included=0
neurons (num_inputs, activation_function, activation_steepness)=(0, 0, 0.00000000000000000000e+00) (0, 0, 0.00000000000000000000e+00) (0, 0, 0.00000000000000000000e+00) (0, 0, 0.00000000000000000000e+00) (0, 0, 0.00000000000000000000e+00) (0, 0, 0.00000000000000000000e+00) (0, 0, 0.00000000000000000000e+00) (0, 0, 0.00000000000000000000e+00) (0, 0, 0.00000000000000000000e+00) (0, 0, 0.00000000000000000000e+00) (0, 0, 0.00000000000000000000e+00) (0, 0, 0.00000000000000000000e+00) (0, 0, 0.00000000000000000000e+00) (0, 0, 0.00000000000000000000e+00) (0, 0, 0.00000000000000000000e+00) (0, 0, 0.00000000000000000000e+00) (0, 0, 0.00000000000000000000e+00) (0, 0, 0.00000000000000000000e+00) (0, 0, 0.00000000000000000000e+00) (0, 0, 0.00000000000000000000e+00) (0, 0, 0.00000000000000000000e+00) (0, 0, 0.00000000000000000000e+00) (0, 0, 0.00000000000000000000e+00) (0, 0, 0.00000000000000000000e+00) (0, 0, 0.00000000000000000000e+00) (0, 0, 0.00000000000000000000e+00) (0, 0, 0.00000000000000000000e+00) (0, 0, 0.00000000000000000000e+00) (0, 0, 0.00000000000000000000e+00) (0, 0, 0.00000000000000000000e+00) (0, 0, 0.00000000000000000000e+00) (0, 0, 0.00000000000000000000e+00) (0, 0, 0.00000000000000000000e+00) (0, 0, 0.00000000000000000000e+00) (0, 0, 0.00000000000000000000e+00) (0, 0, 0.00000000000000000000e+00) (0, 0, 0.00000000000000000000e+00) (0, 0, 0.00000000000000000000e+00) (0, 0, 0.00000000000000000000e+00) (0, 0, 0.00000000000000000000e+00) (0, 0, 0.00000000000000000000e+00) (0, 0, 0.00000000000000000000e+00) (0, 0, 0.00000000000000000000e+00) (0, 0, 0.00000000000000000000e+00) (0, 0, 0.00000000000000000000e+00) (0, 0, 0.00000000000000000000e+00) (0, 0, 0.00000000000000000000e+00) (0, 0, 0.00000000000000000000e+00) (0, 0, 0.00000000000000000000e+00) (0, 0, 0.00000000000000000000e+00) (0, 0, 0.00000000000000000000e+00) (0, 0, 0.00000000000000000000e+00) (0, 0, 0.00000000000000000000e+00) (0, 0, 0.00000000000000000000e+00) (0, 0, 0.00000000000000000000e+00) (0, 0, 0.00000000000000000000e+00) (0, 0, 0.00000000000000000000e+00) (0, 0, 0.00000000000000000000e+00) (0, 0, 0.00000000000000000000e+00) (0, 0, 0.00000000000000000000e+00) (0, 0, 0.00000000000000000000e+00) (61, 3, 5.00000000000000000000e-01) (61, 3, 5.00000000000000000000e-01) (61, 3, 5.00000000000000000000e-01) (61, 3, 5.00000000000000000000e-01) (61, 3, 5.00000000000000000000e-01) (61, 3, 5.00000000000000000000e-01) (0, 3, 0.00000000000000000000e+00) (7, 3, 5.00000000000000000000e-01) (7, 3, 5.00000000000000000000e-01) (7, 3, 5.00000000000000000000e-01) (7, 3, 5.00000000000000000000e-01) (0, 3, 0.00000000000000000000e+00) 
connections (connected_to_neuron, weight)=(0, -8.90343189239501953125e+00) (1, 4.41087150573730468750e+01) (2, 3.35488929748535156250e+01) (3, 9.12867164611816406250e+00) (4, -3.35965309143066406250e+01) (5, -4.20722484588623046875e+00) (6, -1.41827621459960937500e+01) (7, 4.31045112609863281250e+01) (8, -1.88189468383789062500e+01) (9, 1.25150547027587890625e+01) (10, 1.38690547943115234375e+01) (11, -5.49837150573730468750e+01) (12, -6.57582759857177734375e+00) (13, -1.50333271026611328125e+01) (14, 1.96171760559082031250e+01) (15, -3.30122876167297363281e+00) (16, 8.99669933319091796875e+00) (17, -2.87365627288818359375e+01) (18, -2.71770839691162109375e+01) (19, 1.50262355804443359375e+01) (20, 2.47350063323974609375e+01) (21, 5.53242301940917968750e+00) (22, -9.34351825714111328125e+00) (23, 1.94516801834106445312e+00) (24, 1.60910022258758544922e+00) (25, 1.02677688598632812500e+01) (26, -6.55487537384033203125e-01) (27, -2.41383304595947265625e+01) (28, 2.35051364898681640625e+01) (29, -9.09536933898925781250e+00) (30, 5.95685529708862304688e+00) (31, -2.41046485900878906250e+01) (32, 4.36417198181152343750e+01) (33, -3.77492294311523437500e+01) (34, -1.74148826599121093750e+01) (35, 3.69044685363769531250e+01) (36, 2.60445747375488281250e+01) (37, -5.41222610473632812500e+01) (38, -2.14916229248046875000e+00) (39, 1.50381622314453125000e+01) (40, 1.71177463531494140625e+01) (41, 4.73568878173828125000e+01) (42, 2.60293731689453125000e+01) (43, 1.44458494186401367188e+01) (44, 5.39696197509765625000e+01) (45, 5.17564582824707031250e+00) (46, -5.18935585021972656250e+00) (47, -2.08494234085083007812e+00) (48, 2.12093019485473632812e+00) (49, -2.34965763092041015625e+01) (50, -1.09023571014404296875e+01) (51, 5.36578369140625000000e+00) (52, 1.46179647445678710938e+01) (53, 1.87246751785278320312e+00) (54, -1.21716318130493164062e+01) (55, -6.75672531127929687500e+00) (56, -1.89613151550292968750e+01) (57, -8.68062877655029296875e+00) (58, 9.47934436798095703125e+00) (59, 3.02414817810058593750e+01) (60, -5.91189718246459960938e+00) (0, 2.55248718261718750000e+01) (1, -2.28375282287597656250e+01) (2, -2.62563490867614746094e+00) (3, 2.99436044692993164062e+00) (4, -3.39122810363769531250e+01) (5, -3.01918869018554687500e+01) (6, -8.58819103240966796875e+00) (7, 8.50211238861083984375e+00) (8, -1.40643367767333984375e+01) (9, 3.96583061218261718750e+01) (10, -4.85240669250488281250e+01) (11, -2.86590785980224609375e+01) (12, -9.30843067169189453125e+00) (13, -1.95465106964111328125e+01) (14, -7.31235742568969726562e+00) (15, -1.67969150543212890625e+01) (16, 2.97021408081054687500e+01) (17, -3.20543060302734375000e+01) (18, -5.47113609313964843750e+00) (19, 1.20821390151977539062e+01) (20, 3.17240581512451171875e+01) (21, -1.10114932060241699219e+00) (22, 6.07586240768432617188e+00) (23, 4.12097320556640625000e+01) (24, -4.08716583251953125000e+00) (25, 1.77289981842041015625e+01) (26, -1.10303306579589843750e+01) (27, 5.25981178283691406250e+01) (28, 8.54427051544189453125e+00) (29, -1.50865135192871093750e+01) (30, 1.52816553115844726562e+01) (31, -1.82472934722900390625e+01) (32, -4.88890647888183593750e+00) (33, 2.57816390991210937500e+01) (34, 1.07019538879394531250e+01) (35, -2.32144126892089843750e+01) (36, -4.74460639953613281250e+01) (37, 2.34667282104492187500e+01) (38, -5.47871685028076171875e+00) (39, 2.96363410949707031250e+01) (40, 1.02750053405761718750e+01) (41, -9.40673828125000000000e+00) (42, -1.34010839462280273438e+00) (43, -1.40634584426879882812e+01) (44, 3.30587387084960937500e+00) (45, -1.86228199005126953125e+01) (46, -2.72660465240478515625e+01) (47, -4.73258361816406250000e+01) (48, -1.81416721343994140625e+01) (49, 1.13150215148925781250e+01) (50, 5.90882658958435058594e-01) (51, 1.01710844039916992188e+00) (52, -5.05785293579101562500e+01) (53, 5.73582553863525390625e+00) (54, -1.78835415840148925781e+00) (55, -9.55312538146972656250e+00) (56, -5.87958860397338867188e+00) (57, -4.09361076354980468750e+01) (58, 2.95647659301757812500e+01) (59, -4.13443565368652343750e+00) (60, 1.95458507537841796875e+01) (0, 1.32564115524291992188e+01) (1, 3.78505973815917968750e+01) (2, 2.10006523132324218750e+01) (3, -9.21028852462768554688e-02) (4, 3.93116569519042968750e+01) (5, -1.22670812606811523438e+01) (6, 1.06946039199829101562e+01) (7, 3.95019874572753906250e+01) (8, -5.00825271606445312500e+01) (9, 1.76519107818603515625e+01) (10, 4.71079368591308593750e+01) (11, -3.77285766601562500000e+01) (12, 1.32395052909851074219e+00) (13, -4.59273815155029296875e+00) (14, -1.70456314086914062500e+01) (15, -1.87365951538085937500e+01) (16, -2.20313091278076171875e+01) (17, -3.16144676208496093750e+01) (18, -5.47736663818359375000e+01) (19, -5.96557760238647460938e+00) (20, 5.22579717636108398438e+00) (21, -1.71255683898925781250e+01) (22, -2.83795223236083984375e+01) (23, 6.43004531860351562500e+01) (24, -3.42730979919433593750e+01) (25, 1.88817882537841796875e+01) (26, 2.84453773498535156250e+01) (27, 7.51122999191284179688e+00) (28, 3.66195831298828125000e+01) (29, -2.66399230957031250000e+01) (30, 1.37396936416625976562e+01) (31, 4.11377525329589843750e+00) (32, -2.45968818664550781250e+00) (33, -5.83098888397216796875e-01) (34, -2.09636363983154296875e+01) (35, 7.60091686248779296875e+00) (36, -9.82242488861083984375e+00) (37, 2.51296558380126953125e+01) (38, -2.74784698486328125000e+01) (39, 2.70493888854980468750e+01) (40, -8.08106517791748046875e+00) (41, 6.25398206710815429688e+00) (42, 1.24040870666503906250e+01) (43, -3.13762340545654296875e+01) (44, 1.30932531356811523438e+01) (45, 2.27855510711669921875e+01) (46, -1.93129673004150390625e+01) (47, 1.43401346206665039062e+01) (48, -2.68270635604858398438e+00) (49, 6.83570718765258789062e+00) (50, -4.11686563491821289062e+00) (51, 4.73108339309692382812e+00) (52, 5.97761440277099609375e+00) (53, 2.35524215698242187500e+01) (54, 1.90483436584472656250e+01) (55, 6.40684986114501953125e+00) (56, -9.82766151428222656250e+00) (57, -6.40933561325073242188e+00) (58, -2.03823642730712890625e+01) (59, 7.82540988922119140625e+00) (60, -4.26619052886962890625e+00) (0, 1.97575569152832031250e+01) (1, -8.34369659423828125000e+00) (2, -2.10187034606933593750e+01) (3, -7.69314098358154296875e+00) (4, -1.65129680633544921875e+01) (5, 5.62855243682861328125e+00) (6, 4.96904640197753906250e+01) (7, 2.95379714965820312500e+01) (8, 3.12473831176757812500e+01) (9, 1.79100093841552734375e+01) (10, -9.89521121978759765625e+00) (11, -2.72596168518066406250e+01) (12, -1.54997272491455078125e+01) (13, -3.21621437072753906250e+01) (14, -2.40494785308837890625e+01) (15, -1.94469928741455078125e+01) (16, 2.86032524108886718750e+01) (17, -8.29959964752197265625e+00) (18, 2.88021774291992187500e+01) (19, 4.73020553588867187500e+01) (20, 8.96923065185546875000e+00) (21, -4.07831230163574218750e+01) (22, 3.93261299133300781250e+01) (23, 3.30159645080566406250e+01) (24, 1.35937767028808593750e+01) (25, 1.09956705570220947266e+00) (26, 2.06034202575683593750e+01) (27, 2.06182718276977539062e+00) (28, -6.40656890869140625000e+01) (29, -3.17734146118164062500e+01) (30, 1.93483829498291015625e+01) (31, 5.11734352111816406250e+01) (32, 2.92818679809570312500e+01) (33, -7.96662950515747070312e+00) (34, -3.57884216308593750000e+00) (35, 1.07143163681030273438e+01) (36, -9.92066192626953125000e+00) (37, 3.71071586608886718750e+01) (38, 2.69643249511718750000e+01) (39, -2.24911499023437500000e+01) (40, -6.05263977050781250000e+01) (41, -1.22971820831298828125e+01) (42, -1.01902723312377929688e+01) (43, 2.42597522735595703125e+01) (44, -1.54614000320434570312e+01) (45, -9.31951045989990234375e+00) (46, -5.02844161987304687500e+01) (47, -2.20158367156982421875e+01) (48, -5.23582458496093750000e+01) (49, 9.47057437896728515625e+00) (50, -7.00152730941772460938e+00) (51, -1.77636647224426269531e+00) (52, 4.68252897262573242188e+00) (53, 7.52006340026855468750e+00) (54, -8.15720596313476562500e+01) (55, 3.14048633575439453125e+01) (56, 4.48568153381347656250e+01) (57, -2.93210372924804687500e+01) (58, 2.59336624145507812500e+01) (59, -2.01642570495605468750e+01) (60, 3.61112709045410156250e+01) (0, 9.18169975280761718750e+00) (1, -6.52786302566528320312e+00) (2, 1.95295372009277343750e+01) (3, -4.07740554809570312500e+01) (4, -2.00366382598876953125e+01) (5, -2.70125961303710937500e+01) (6, -2.77912483215332031250e+01) (7, -2.18659076690673828125e+01) (8, 2.04714984893798828125e+01) (9, 1.62751293182373046875e+01) (10, 1.68072259426116943359e+00) (11, 2.33916339874267578125e+01) (12, -2.51506233215332031250e+00) (13, 2.99932403564453125000e+01) (14, 7.45694017410278320312e+00) (15, 1.87693252563476562500e+01) (16, 1.24801635742187500000e+01) (17, -4.35219116210937500000e+01) (18, 1.43475828170776367188e+01) (19, -3.10493679046630859375e+01) (20, -3.08876934051513671875e+01) (21, -1.02187461853027343750e+01) (22, 5.09309883117675781250e+01) (23, -5.33910522460937500000e+01) (24, -2.17120504379272460938e+00) (25, -1.40096330642700195312e+00) (26, -1.94370365142822265625e+01) (27, 4.25144720077514648438e+00) (28, -3.17768020629882812500e+01) (29, -5.80513801574707031250e+01) (30, 1.27717056274414062500e+01) (31, 1.28570203781127929688e+01) (32, -1.95044403076171875000e+01) (33, -6.17815589904785156250e+00) (34, -5.00525999069213867188e+00) (35, -1.23366651535034179688e+01) (36, -5.65470647811889648438e+00) (37, 1.85535697937011718750e+01) (38, -8.55317115783691406250e+00) (39, 2.60602207183837890625e+01) (40, -1.30558118820190429688e+01) (41, 1.05344450473785400391e+00) (42, 2.71067142486572265625e+01) (43, -2.58492336273193359375e+01) (44, -8.11913299560546875000e+00) (45, 1.05416440963745117188e+01) (46, -3.56079006195068359375e+00) (47, 3.70348777770996093750e+01) (48, 3.10552291870117187500e+01) (49, 9.91984486579895019531e-01) (50, -6.04611539840698242188e+00) (51, 2.44516515731811523438e+00) (52, -3.25880622863769531250e+01) (53, 3.66019210815429687500e+01) (54, -3.04973049163818359375e+01) (55, -3.47004241943359375000e+01) (56, 3.18599014282226562500e+01) (57, -3.32307205200195312500e+01) (58, 2.71366367340087890625e+01) (59, 8.77274155616760253906e-01) (60, -1.13869752883911132812e+01) (0, -3.84509506225585937500e+01) (1, -3.64951057434082031250e+01) (2, 7.73030638694763183594e-01) (3, -1.45346879959106445312e+00) (4, 1.47733097076416015625e+01) (5, -1.80463352203369140625e+01) (6, -7.29841232299804687500e+00) (7, -6.02424240112304687500e+01) (8, 5.14815788269042968750e+01) (9, -1.02497606277465820312e+01) (10, 1.31757068634033203125e+01) (11, 2.17940425872802734375e+01) (12, -9.80836677551269531250e+00) (13, 9.65602588653564453125e+00) (14, -1.70617771148681640625e+01) (15, 3.55602531433105468750e+01) (16, -2.86634559631347656250e+01) (17, -3.40198287963867187500e+01) (18, -2.72063045501708984375e+01) (19, 1.59982900619506835938e+01) (20, -1.18264341354370117188e+01) (21, 1.69661617279052734375e+00) (22, 3.61256670951843261719e+00) (23, 1.74958114624023437500e+01) (24, -3.32880210876464843750e+01) (25, -8.25843048095703125000e+00) (26, -3.96322174072265625000e+01) (27, -2.35044002532958984375e+00) (28, -1.64492111206054687500e+01) (29, 1.28024835586547851562e+01) (30, -9.49443054199218750000e+00) (31, -2.45600376129150390625e+01) (32, -2.26129112243652343750e+01) (33, -3.22961044311523437500e+01) (34, -2.71931304931640625000e+01) (35, -7.57221698760986328125e+00) (36, 5.05877828598022460938e+00) (37, 5.25372648239135742188e+00) (38, 2.10542144775390625000e+01) (39, -7.53777933120727539062e+00) (40, -2.98273086547851562500e+00) (41, 1.56159229278564453125e+01) (42, 9.35402202606201171875e+00) (43, 1.80978450775146484375e+01) (44, -5.16742181777954101562e+00) (45, 4.03277168273925781250e+01) (46, 6.85542488098144531250e+00) (47, -3.33140792846679687500e+01) (48, 2.14628982543945312500e+01) (49, 3.43201522827148437500e+01) (50, -4.60042566061019897461e-01) (51, -2.65717849731445312500e+01) (52, 4.47216835021972656250e+01) (53, -4.51701393127441406250e+01) (54, 3.82280006408691406250e+01) (55, -6.47495031356811523438e-01) (56, -5.61452827453613281250e+01) (57, 1.31201362609863281250e+00) (58, -1.84663429260253906250e+01) (59, 4.32772779464721679688e+00) (60, 3.41280722618103027344e+00) (61, 5.91074991226196289062e+00) (62, 1.92551078796386718750e+01) (63, 1.70763607025146484375e+01) (64, -8.42997193336486816406e-01) (65, -2.66881561279296875000e+01) (66, -5.95196456909179687500e+01) (67, -3.95463523864746093750e+01) (61, 5.25135421752929687500e+00) (62, 2.37484245300292968750e+01) (63, -4.75760688781738281250e+01) (64, 1.11806135177612304688e+01) (65, 2.48766670227050781250e+01) (66, -2.73335914611816406250e+01) (67, -2.24417343139648437500e+01) (61, -3.78102760314941406250e+01) (62, 3.03408985137939453125e+01) (63, 9.55601119995117187500e+00) (64, -5.39073848724365234375e+00) (65, -1.77553005218505859375e+01) (66, -1.47451801300048828125e+01) (67, -1.73447837829589843750e+01) (61, -1.67434902191162109375e+01) (62, 5.11000633239746093750e+00) (63, -2.09469928741455078125e+01) (64, 1.82027006149291992188e+00) (65, -2.08062858581542968750e+01) (66, 2.79344749450683593750e+01) (67, -1.87027606964111328125e+01) 
