FANN_FLO_2.1
num_layers=3
learning_rate=0.800000
connection_rate=1.000000
network_type=0
learning_momentum=0.000000
training_algorithm=0
train_error_function=1
train_stop_function=0
cascade_output_change_fraction=0.010000
quickprop_decay=-0.000100
quickprop_mu=1.750000
rprop_increase_factor=1.200000
rprop_decrease_factor=0.500000
rprop_delta_min=0.000000
rprop_delta_max=50.000000
rprop_delta_zero=0.100000
cascade_output_stagnation_epochs=12
cascade_candidate_change_fraction=0.010000
cascade_candidate_stagnation_epochs=12
cascade_max_out_epochs=150
cascade_min_out_epochs=50
cascade_max_cand_epochs=150
cascade_min_cand_epochs=50
cascade_num_candidate_groups=2
bit_fail_limit=3.49999994039535522461e-01
cascade_candidate_limit=1.00000000000000000000e+03
cascade_weight_multiplier=4.00000005960464477539e-01
cascade_activation_functions_count=10
cascade_activation_functions=3 5 7 8 10 11 14 15 16 17 
cascade_activation_steepnesses_count=4
cascade_activation_steepnesses=2.50000000000000000000e-01 5.00000000000000000000e-01 7.50000000000000000000e-01 1.00000000000000000000e+00 
layer_sizes=61 7 5 
scale_included=0
neurons (num_inputs, activation_function, activation_steepness)=(0, 0, 0.00000000000000000000e+00) (0, 0, 0.00000000000000000000e+00) (0, 0, 0.00000000000000000000e+00) (0, 0, 0.00000000000000000000e+00) (0, 0, 0.00000000000000000000e+00) (0, 0, 0.00000000000000000000e+00) (0, 0, 0.00000000000000000000e+00) (0, 0, 0.00000000000000000000e+00) (0, 0, 0.00000000000000000000e+00) (0, 0, 0.00000000000000000000e+00) (0, 0, 0.00000000000000000000e+00) (0, 0, 0.00000000000000000000e+00) (0, 0, 0.00000000000000000000e+00) (0, 0, 0.00000000000000000000e+00) (0, 0, 0.00000000000000000000e+00) (0, 0, 0.00000000000000000000e+00) (0, 0, 0.00000000000000000000e+00) (0, 0, 0.00000000000000000000e+00) (0, 0, 0.00000000000000000000e+00) (0, 0, 0.00000000000000000000e+00) (0, 0, 0.00000000000000000000e+00) (0, 0, 0.00000000000000000000e+00) (0, 0, 0.00000000000000000000e+00) (0, 0, 0.00000000000000000000e+00) (0, 0, 0.00000000000000000000e+00) (0, 0, 0.00000000000000000000e+00) (0, 0, 0.00000000000000000000e+00) (0, 0, 0.00000000000000000000e+00) (0, 0, 0.00000000000000000000e+00) (0, 0, 0.00000000000000000000e+00) (0, 0, 0.00000000000000000000e+00) (0, 0, 0.00000000000000000000e+00) (0, 0, 0.00000000000000000000e+00) (0, 0, 0.00000000000000000000e+00) (0, 0, 0.00000000000000000000e+00) (0, 0, 0.00000000000000000000e+00) (0, 0, 0.00000000000000000000e+00) (0, 0, 0.00000000000000000000e+00) (0, 0, 0.00000000000000000000e+00) (0, 0, 0.00000000000000000000e+00) (0, 0, 0.00000000000000000000e+00) (0, 0, 0.00000000000000000000e+00) (0, 0, 0.00000000000000000000e+00) (0, 0, 0.00000000000000000000e+00) (0, 0, 0.00000000000000000000e+00) (0, 0, 0.00000000000000000000e+00) (0, 0, 0.00000000000000000000e+00) (0, 0, 0.00000000000000000000e+00) (0, 0, 0.00000000000000000000e+00) (0, 0, 0.00000000000000000000e+00) (0, 0, 0.00000000000000000000e+00) (0, 0, 0.00000000000000000000e+00) (0, 0, 0.00000000000000000000e+00) (0, 0, 0.00000000000000000000e+00) (0, 0, 0.00000000000000000000e+00) (0, 0, 0.00000000000000000000e+00) (0, 0, 0.00000000000000000000e+00) (0, 0, 0.00000000000000000000e+00) (0, 0, 0.00000000000000000000e+00) (0, 0, 0.00000000000000000000e+00) (0, 0, 0.00000000000000000000e+00) (61, 3, 5.00000000000000000000e-01) (61, 3, 5.00000000000000000000e-01) (61, 3, 5.00000000000000000000e-01) (61, 3, 5.00000000000000000000e-01) (61, 3, 5.00000000000000000000e-01) (61, 3, 5.00000000000000000000e-01) (0, 3, 0.00000000000000000000e+00) (7, 3, 5.00000000000000000000e-01) (7, 3, 5.00000000000000000000e-01) (7, 3, 5.00000000000000000000e-01) (7, 3, 5.00000000000000000000e-01) (0, 3, 0.00000000000000000000e+00) 
connections (connected_to_neuron, weight)=(0, 1.51747989654541015625e+01) (1, 2.50489735603332519531e+00) (2, 8.31839847564697265625e+00) (3, 2.42606449127197265625e+01) (4, 1.58381509780883789062e+00) (5, -6.55508041381835937500e+00) (6, 1.46245841979980468750e+01) (7, 1.51655902862548828125e+01) (8, -1.15715904235839843750e+01) (9, -1.22102701663970947266e+00) (10, 1.09911565780639648438e+01) (11, 5.52370929718017578125e+00) (12, -7.25066471099853515625e+00) (13, -2.27369976043701171875e+01) (14, 6.60900831222534179688e+00) (15, 2.30307364463806152344e+00) (16, -2.02864036560058593750e+01) (17, -6.94429111480712890625e+00) (18, 1.21417455673217773438e+01) (19, -1.91956865787506103516e+00) (20, 1.00561714172363281250e+01) (21, 2.75128817558288574219e+00) (22, -1.84287567138671875000e+01) (23, 6.76335811614990234375e+00) (24, -1.15329694747924804688e+00) (25, -2.31117496490478515625e+01) (26, 9.40198326110839843750e+00) (27, -2.37979946136474609375e+01) (28, 1.07971382141113281250e+01) (29, 2.68151855468750000000e+00) (30, -3.78794555664062500000e+01) (31, 1.15330886840820312500e+01) (32, -4.82823324203491210938e+00) (33, -1.70666465759277343750e+01) (34, -2.85691928863525390625e+00) (35, -1.00003852844238281250e+01) (36, 9.61277389526367187500e+00) (37, -8.50497055053710937500e+00) (38, -1.59248600006103515625e+01) (39, -7.47712898254394531250e+00) (40, -6.99487686157226562500e+00) (41, 1.03904933929443359375e+01) (42, 7.85507583618164062500e+00) (43, -1.24391202926635742188e+01) (44, -4.50013065338134765625e+00) (45, -2.65606451034545898438e+00) (46, 9.00303959846496582031e-01) (47, -8.86307239532470703125e-01) (48, -1.81826019287109375000e+01) (49, 3.21242980957031250000e+01) (50, -1.55463180541992187500e+01) (51, 4.22274589538574218750e+00) (52, -1.22445459365844726562e+01) (53, 2.03363304138183593750e+01) (54, 2.12965145111083984375e+01) (55, 5.65341234207153320312e+00) (56, -9.41852188110351562500e+00) (57, -1.06757869720458984375e+01) (58, -1.00765438079833984375e+01) (59, 2.80301737785339355469e+00) (60, -1.85008335113525390625e+01) (0, 9.49041080474853515625e+00) (1, 5.40197038650512695312e+00) (2, 3.64436798095703125000e+01) (3, 5.95812797546386718750e+00) (4, -1.02950601577758789062e+01) (5, -3.92470359802246093750e+00) (6, 5.36485958099365234375e+00) (7, -4.22953033447265625000e+00) (8, -2.47929210662841796875e+01) (9, -3.00924873352050781250e+01) (10, -8.75003337860107421875e+00) (11, 6.26000738143920898438e+00) (12, 5.86818122863769531250e+00) (13, 4.34082078933715820312e+00) (14, -3.75095272064208984375e+00) (15, -9.66112899780273437500e+00) (16, -1.51322555541992187500e+01) (17, -8.39058399200439453125e+00) (18, -6.94836330413818359375e+00) (19, 1.43232698440551757812e+01) (20, 1.16470253467559814453e+00) (21, -5.15288257598876953125e+00) (22, 2.78401813507080078125e+01) (23, 5.38408756256103515625e-01) (24, -3.13312292098999023438e+00) (25, -3.69808316230773925781e+00) (26, 1.03395805358886718750e+01) (27, -1.42374057769775390625e+01) (28, -3.19528541564941406250e+01) (29, 6.88692378997802734375e+00) (30, -1.74066209793090820312e+00) (31, 1.54561738967895507812e+01) (32, -1.53729228973388671875e+01) (33, -3.58798980712890625000e-01) (34, 1.11201858520507812500e+01) (35, -1.31668639183044433594e+00) (36, 7.16398906707763671875e+00) (37, -1.14153432846069335938e+01) (38, 7.35035133361816406250e+00) (39, 8.01372337341308593750e+00) (40, -1.16379470825195312500e+01) (41, 2.54369735717773437500e+00) (42, -7.98589348793029785156e-01) (43, -4.07398462295532226562e-01) (44, 7.63247013092041015625e+00) (45, -2.39246063232421875000e+01) (46, 1.15274250507354736328e+00) (47, -5.26372575759887695312e+00) (48, -1.03329591751098632812e+01) (49, -1.30601987838745117188e+01) (50, 1.25208110809326171875e+01) (51, -8.05313968658447265625e+00) (52, -8.23791122436523437500e+00) (53, -2.92621612548828125000e+00) (54, 7.98880910873413085938e+00) (55, -1.48196113109588623047e+00) (56, -9.31136894226074218750e+00) (57, -4.45892715454101562500e+00) (58, 5.26453685760498046875e+00) (59, 1.78054351806640625000e+01) (60, 7.43470144271850585938e+00) (0, -7.93569612503051757812e+00) (1, -8.71838474273681640625e+00) (2, -1.08384823799133300781e+00) (3, 1.27275228500366210938e-01) (4, 2.10043258666992187500e+01) (5, 1.78535995483398437500e+01) (6, 1.56706485748291015625e+01) (7, 1.01388168334960937500e+01) (8, 1.53754627704620361328e+00) (9, 1.16208114624023437500e+01) (10, -7.98760318756103515625e+00) (11, -9.03186202049255371094e-03) (12, 1.20679244995117187500e+01) (13, -9.75771903991699218750e+00) (14, 3.87544136047363281250e+01) (15, 4.88593673706054687500e+00) (16, 9.17096138000488281250e+00) (17, 9.21569633483886718750e+00) (18, -1.70885200500488281250e+01) (19, -6.85407257080078125000e+00) (20, -5.30001640319824218750e+00) (21, 1.19683218002319335938e+01) (22, -2.74870853424072265625e+01) (23, 3.56039848327636718750e+01) (24, -2.56659889221191406250e+01) (25, 1.43819532394409179688e+01) (26, -6.51264858245849609375e+00) (27, 1.41809110641479492188e+01) (28, 2.59005260467529296875e+00) (29, 5.81604194641113281250e+00) (30, 7.07065391540527343750e+00) (31, 5.02722215652465820312e+00) (32, 5.74614048004150390625e+00) (33, 2.02028155326843261719e+00) (34, 8.47048759460449218750e+00) (35, 5.94990825653076171875e+00) (36, -1.92978839874267578125e+01) (37, 7.53437757492065429688e-01) (38, -1.00321035385131835938e+01) (39, 3.07670478820800781250e+01) (40, 1.38484573364257812500e+00) (41, 7.54612112045288085938e+00) (42, -3.60291004180908203125e+00) (43, -1.09434280395507812500e+01) (44, 1.35824232101440429688e+01) (45, -2.31867790222167968750e+00) (46, 1.70245647430419921875e+01) (47, -2.03843927383422851562e+00) (48, 8.13607990741729736328e-01) (49, 1.77731266021728515625e+01) (50, -6.11818695068359375000e+00) (51, 1.01551885604858398438e+01) (52, -1.36411342620849609375e+01) (53, -4.18510055541992187500e+00) (54, -3.50373911857604980469e+00) (55, -2.59055924415588378906e+00) (56, 8.46615028381347656250e+00) (57, 2.57476878166198730469e+00) (58, 7.31788873672485351562e-01) (59, -1.75121536254882812500e+01) (60, 6.26001596450805664062e+00) (0, -3.00948190689086914062e+00) (1, 2.37904930114746093750e+00) (2, -1.33094196319580078125e+01) (3, 3.14815759658813476562e+00) (4, 8.91370677947998046875e+00) (5, 1.37789669036865234375e+01) (6, -3.88610100746154785156e+00) (7, -1.56734824180603027344e+00) (8, 9.21738815307617187500e+00) (9, 5.45013141632080078125e+00) (10, -1.61001682281494140625e+01) (11, -3.72204446792602539062e+00) (12, -1.41036005020141601562e+01) (13, 4.49495792388916015625e+00) (14, -1.69300234317779541016e+00) (15, 1.16458444595336914062e+01) (16, -6.35336351394653320312e+00) (17, 1.18078680038452148438e+01) (18, 6.08149242401123046875e+00) (19, -5.00561428070068359375e+00) (20, -6.06569910049438476562e+00) (21, 8.75344944000244140625e+00) (22, 1.20987105369567871094e+00) (23, -1.23242273330688476562e+01) (24, -8.67034244537353515625e+00) (25, 4.10604906082153320312e+00) (26, -2.37640309333801269531e+00) (27, 1.06916427612304687500e-02) (28, -1.89746131896972656250e+01) (29, 7.50399541854858398438e+00) (30, -2.02974090576171875000e+01) (31, -1.33730049133300781250e+01) (32, -1.31852073669433593750e+01) (33, 2.73667526245117187500e+00) (34, -1.07108650207519531250e+01) (35, -4.29630565643310546875e+00) (36, 4.86875057220458984375e-01) (37, -2.91111259460449218750e+01) (38, 2.06963520050048828125e+01) (39, 4.87947225570678710938e-01) (40, -9.49316859245300292969e-01) (41, -9.93677806854248046875e+00) (42, 4.26867008209228515625e+00) (43, 8.89218139648437500000e+00) (44, 1.64922924041748046875e+01) (45, 8.75194644927978515625e+00) (46, -5.89834165573120117188e+00) (47, -2.38468894958496093750e+01) (48, 4.30817699432373046875e+00) (49, 3.30523643493652343750e+01) (50, 7.40750217437744140625e+00) (51, 7.82909154891967773438e+00) (52, -1.77941131591796875000e+00) (53, 4.62559127807617187500e+00) (54, -9.17390155792236328125e+00) (55, -7.61382675170898437500e+00) (56, -2.33252406120300292969e-01) (57, 4.94128274917602539062e+00) (58, -1.13179645538330078125e+01) (59, 2.42809152603149414062e+00) (60, 1.64273262023925781250e+01) (0, 5.94134283065795898438e+00) (1, -1.33781075477600097656e-01) (2, 6.45246458053588867188e+00) (3, -4.06435966491699218750e+00) (4, 2.24715919494628906250e+01) (5, -8.35976696014404296875e+00) (6, 5.04863452911376953125e+00) (7, 9.35677242279052734375e+00) (8, 1.31468362808227539062e+01) (9, -3.86166000366210937500e+00) (10, 1.96798491477966308594e+00) (11, 1.59181909561157226562e+01) (12, 5.63754796981811523438e+00) (13, -6.54590749740600585938e+00) (14, 1.92896056175231933594e+00) (15, 1.26515684127807617188e+01) (16, 6.75613045692443847656e-01) (17, 4.53087282180786132812e+00) (18, 5.11798858642578125000e-01) (19, -2.79060897827148437500e+01) (20, -4.53838586807250976562e+00) (21, 4.48445558547973632812e-01) (22, 2.76549935340881347656e-01) (23, -2.65399150848388671875e+01) (24, 2.07001743316650390625e+01) (25, 1.93081340789794921875e+01) (26, 5.44132614135742187500e+00) (27, -9.69484901428222656250e+00) (28, -2.38305759429931640625e+01) (29, -4.13122177124023437500e+00) (30, -8.97034358978271484375e+00) (31, 2.07664127349853515625e+01) (32, -9.24283695220947265625e+00) (33, 1.65134799480438232422e+00) (34, 8.96273326873779296875e+00) (35, -1.14087915420532226562e+01) (36, -7.64726817607879638672e-01) (37, -1.15559577941894531250e+00) (38, -3.67066621780395507812e-01) (39, 1.17101335525512695312e+01) (40, -1.84137654304504394531e+00) (41, 1.51302461624145507812e+01) (42, 4.40399360656738281250e+00) (43, 9.37121963500976562500e+00) (44, 1.29073953628540039062e+01) (45, 2.36870307922363281250e+01) (46, -4.69063520431518554688e+00) (47, 6.08111667633056640625e+00) (48, -1.31103267669677734375e+01) (49, -1.82751810550689697266e+00) (50, -1.38453226089477539062e+01) (51, 9.84491729736328125000e+00) (52, -7.67561435699462890625e-01) (53, 1.43593854904174804688e+01) (54, -1.85476036071777343750e+01) (55, 1.60252552032470703125e+01) (56, -2.61475229263305664062e+00) (57, 1.72635841369628906250e+01) (58, 2.81070733070373535156e+00) (59, -6.55419683456420898438e+00) (60, 8.07048988342285156250e+00) (0, -7.49017238616943359375e+00) (1, 1.48509407043457031250e+01) (2, -2.95543694496154785156e+00) (3, -1.86382055282592773438e+00) (4, -1.13095645904541015625e+01) (5, 2.63847017288208007812e+00) (6, -2.29025688171386718750e+01) (7, 7.17987537384033203125e+00) (8, -1.14549007415771484375e+01) (9, -1.60452175140380859375e+01) (10, 6.86852455139160156250e+00) (11, 1.02491796016693115234e+00) (12, -7.84343767166137695312e+00) (13, -2.24538874626159667969e+00) (14, -1.11511373519897460938e+01) (15, 1.01474428176879882812e+01) (16, -8.43194866180419921875e+00) (17, 1.18350772857666015625e+01) (18, -1.80433349609375000000e+01) (19, -8.58458709716796875000e+00) (20, 2.86240768432617187500e+00) (21, 5.55612659454345703125e+00) (22, -1.70844888687133789062e+00) (23, 2.08365364074707031250e+01) (24, -7.35912895202636718750e+00) (25, 4.08491230010986328125e+00) (26, 1.60122795104980468750e+01) (27, 1.37264232635498046875e+01) (28, 1.44329586029052734375e+01) (29, -2.10589866638183593750e+01) (30, -1.87674751281738281250e+01) (31, 2.73806571960449218750e+00) (32, 3.57199764251708984375e+00) (33, 1.01629695892333984375e+01) (34, -2.62927961349487304688e+00) (35, -6.25255346298217773438e-01) (36, 1.18461275100708007812e+01) (37, 7.02982187271118164062e+00) (38, 8.80139541625976562500e+00) (39, 5.15942859649658203125e+00) (40, -8.50431346893310546875e+00) (41, -5.47026252746582031250e+00) (42, 1.02619571685791015625e+01) (43, 1.06543388366699218750e+01) (44, -1.46582994461059570312e+01) (45, 2.86153392791748046875e+01) (46, -7.06126260757446289062e+00) (47, 5.82793426513671875000e+00) (48, -7.18419742584228515625e+00) (49, -1.82254981994628906250e+01) (50, 4.37368011474609375000e+00) (51, -5.82809782028198242188e+00) (52, 9.77783393859863281250e+00) (53, -2.01252975463867187500e+01) (54, 4.97987413406372070312e+00) (55, 7.07565069198608398438e+00) (56, -3.17249369621276855469e+00) (57, -7.37202739715576171875e+00) (58, 5.36301708221435546875e+00) (59, 1.20062808990478515625e+01) (60, 6.89946651458740234375e+00) (61, 2.08101272583007812500e+01) (62, 6.99135017395019531250e+00) (63, 1.04171876907348632812e+01) (64, -1.11599998474121093750e+01) (65, -1.11086225509643554688e+01) (66, 1.45568256378173828125e+01) (67, -9.96415328979492187500e+00) (61, -2.63521480560302734375e+01) (62, 2.95520343780517578125e+01) (63, -1.44859743118286132812e+01) (64, 1.37173509597778320312e+01) (65, 1.13478460311889648438e+01) (66, -1.46993036270141601562e+01) (67, -1.33076610565185546875e+01) (61, -6.06995677947998046875e+00) (62, -1.68729038238525390625e+01) (63, 6.42297363281250000000e+00) (64, -2.47953109741210937500e+01) (65, 2.66764187812805175781e+00) (66, -2.47532439231872558594e+00) (67, -4.21398067474365234375e+00) (61, -2.04814109802246093750e+01) (62, 4.78536367416381835938e+00) (63, 7.83784329891204833984e-01) (64, -1.33213214874267578125e+01) (65, -1.32644300460815429688e+01) (66, 6.72406482696533203125e+00) (67, 1.32753086090087890625e+01) 
