FANN_FLO_2.1
num_layers=3
learning_rate=0.800000
connection_rate=1.000000
network_type=0
learning_momentum=0.000000
training_algorithm=0
train_error_function=1
train_stop_function=0
cascade_output_change_fraction=0.010000
quickprop_decay=-0.000100
quickprop_mu=1.750000
rprop_increase_factor=1.200000
rprop_decrease_factor=0.500000
rprop_delta_min=0.000000
rprop_delta_max=50.000000
rprop_delta_zero=0.100000
cascade_output_stagnation_epochs=12
cascade_candidate_change_fraction=0.010000
cascade_candidate_stagnation_epochs=12
cascade_max_out_epochs=150
cascade_min_out_epochs=50
cascade_max_cand_epochs=150
cascade_min_cand_epochs=50
cascade_num_candidate_groups=2
bit_fail_limit=3.49999994039535522461e-01
cascade_candidate_limit=1.00000000000000000000e+03
cascade_weight_multiplier=4.00000005960464477539e-01
cascade_activation_functions_count=10
cascade_activation_functions=3 5 7 8 10 11 14 15 16 17 
cascade_activation_steepnesses_count=4
cascade_activation_steepnesses=2.50000000000000000000e-01 5.00000000000000000000e-01 7.50000000000000000000e-01 1.00000000000000000000e+00 
layer_sizes=61 7 5 
scale_included=0
neurons (num_inputs, activation_function, activation_steepness)=(0, 0, 0.00000000000000000000e+00) (0, 0, 0.00000000000000000000e+00) (0, 0, 0.00000000000000000000e+00) (0, 0, 0.00000000000000000000e+00) (0, 0, 0.00000000000000000000e+00) (0, 0, 0.00000000000000000000e+00) (0, 0, 0.00000000000000000000e+00) (0, 0, 0.00000000000000000000e+00) (0, 0, 0.00000000000000000000e+00) (0, 0, 0.00000000000000000000e+00) (0, 0, 0.00000000000000000000e+00) (0, 0, 0.00000000000000000000e+00) (0, 0, 0.00000000000000000000e+00) (0, 0, 0.00000000000000000000e+00) (0, 0, 0.00000000000000000000e+00) (0, 0, 0.00000000000000000000e+00) (0, 0, 0.00000000000000000000e+00) (0, 0, 0.00000000000000000000e+00) (0, 0, 0.00000000000000000000e+00) (0, 0, 0.00000000000000000000e+00) (0, 0, 0.00000000000000000000e+00) (0, 0, 0.00000000000000000000e+00) (0, 0, 0.00000000000000000000e+00) (0, 0, 0.00000000000000000000e+00) (0, 0, 0.00000000000000000000e+00) (0, 0, 0.00000000000000000000e+00) (0, 0, 0.00000000000000000000e+00) (0, 0, 0.00000000000000000000e+00) (0, 0, 0.00000000000000000000e+00) (0, 0, 0.00000000000000000000e+00) (0, 0, 0.00000000000000000000e+00) (0, 0, 0.00000000000000000000e+00) (0, 0, 0.00000000000000000000e+00) (0, 0, 0.00000000000000000000e+00) (0, 0, 0.00000000000000000000e+00) (0, 0, 0.00000000000000000000e+00) (0, 0, 0.00000000000000000000e+00) (0, 0, 0.00000000000000000000e+00) (0, 0, 0.00000000000000000000e+00) (0, 0, 0.00000000000000000000e+00) (0, 0, 0.00000000000000000000e+00) (0, 0, 0.00000000000000000000e+00) (0, 0, 0.00000000000000000000e+00) (0, 0, 0.00000000000000000000e+00) (0, 0, 0.00000000000000000000e+00) (0, 0, 0.00000000000000000000e+00) (0, 0, 0.00000000000000000000e+00) (0, 0, 0.00000000000000000000e+00) (0, 0, 0.00000000000000000000e+00) (0, 0, 0.00000000000000000000e+00) (0, 0, 0.00000000000000000000e+00) (0, 0, 0.00000000000000000000e+00) (0, 0, 0.00000000000000000000e+00) (0, 0, 0.00000000000000000000e+00) (0, 0, 0.00000000000000000000e+00) (0, 0, 0.00000000000000000000e+00) (0, 0, 0.00000000000000000000e+00) (0, 0, 0.00000000000000000000e+00) (0, 0, 0.00000000000000000000e+00) (0, 0, 0.00000000000000000000e+00) (0, 0, 0.00000000000000000000e+00) (61, 3, 5.00000000000000000000e-01) (61, 3, 5.00000000000000000000e-01) (61, 3, 5.00000000000000000000e-01) (61, 3, 5.00000000000000000000e-01) (61, 3, 5.00000000000000000000e-01) (61, 3, 5.00000000000000000000e-01) (0, 3, 0.00000000000000000000e+00) (7, 3, 5.00000000000000000000e-01) (7, 3, 5.00000000000000000000e-01) (7, 3, 5.00000000000000000000e-01) (7, 3, 5.00000000000000000000e-01) (0, 3, 0.00000000000000000000e+00) 
connections (connected_to_neuron, weight)=(0, 2.79881572723388671875e+01) (1, -1.05026655197143554688e+01) (2, 3.17563796043395996094e+00) (3, 3.93364410400390625000e+01) (4, 9.74880981445312500000e+00) (5, -1.42712354660034179688e-01) (6, 1.15292692184448242188e+01) (7, 2.00900058746337890625e+01) (8, -3.00931472778320312500e+01) (9, -4.06579113006591796875e+00) (10, 1.19913921356201171875e+01) (11, 1.52674312591552734375e+01) (12, 6.65013432502746582031e-01) (13, -1.59820117950439453125e+01) (14, 1.62794268131256103516e+00) (15, 1.99132490158081054688e+00) (16, -1.18434286117553710938e+01) (17, -1.19682302474975585938e+01) (18, 8.60596179962158203125e+00) (19, -1.23284034729003906250e+01) (20, -1.76689541339874267578e+00) (21, 5.10894060134887695312e+00) (22, -1.00262136459350585938e+01) (23, 1.36540460586547851562e+00) (24, -2.96743273735046386719e+00) (25, -2.86873149871826171875e+01) (26, -1.06083154678344726562e+01) (27, -1.70824604034423828125e+01) (28, 1.03062829971313476562e+01) (29, 1.28645420074462890625e+01) (30, -3.02928905487060546875e+01) (31, 6.46458959579467773438e+00) (32, -9.71121788024902343750e+00) (33, -1.97405567169189453125e+01) (34, 4.02947235107421875000e+00) (35, -5.86350536346435546875e+00) (36, 3.02772674560546875000e+01) (37, -3.30605201721191406250e+01) (38, -2.57208366394042968750e+01) (39, -7.15273380279541015625e+00) (40, -7.94019079208374023438e+00) (41, 9.12465476989746093750e+00) (42, 4.60608196258544921875e+00) (43, -1.64357509613037109375e+01) (44, -3.13741302490234375000e+00) (45, -1.66283035278320312500e+01) (46, 1.31511449813842773438e+00) (47, -2.51959872245788574219e+00) (48, -8.93575477600097656250e+00) (49, 2.93330192565917968750e+01) (50, -1.65078659057617187500e+01) (51, 1.45072708129882812500e+01) (52, -6.43592453002929687500e+00) (53, 2.02735538482666015625e+01) (54, 2.63157424926757812500e+01) (55, -7.93164825439453125000e+00) (56, -9.90968990325927734375e+00) (57, -1.19338073730468750000e+01) (58, -2.77694845199584960938e+00) (59, -6.53223323822021484375e+00) (60, -1.99652976989746093750e+01) (0, 1.28478040695190429688e+01) (1, 6.47552394866943359375e+00) (2, 3.21344375610351562500e+01) (3, 1.21796436309814453125e+01) (4, -1.32083654403686523438e+00) (5, -6.07774877548217773438e+00) (6, 7.79653978347778320312e+00) (7, -3.05791616439819335938e-01) (8, -3.67767486572265625000e+01) (9, -3.25045509338378906250e+01) (10, -1.00515947341918945312e+01) (11, 3.28103041648864746094e+00) (12, 7.07364273071289062500e+00) (13, -1.16322250366210937500e+01) (14, 6.02651596069335937500e+00) (15, -9.23311233520507812500e+00) (16, -1.85410232543945312500e+01) (17, -3.39671230316162109375e+00) (18, -1.36826572418212890625e+01) (19, 2.47868132591247558594e+00) (20, 5.60628890991210937500e+00) (21, 1.16804141998291015625e+01) (22, 1.67764835357666015625e+01) (23, 6.96184730529785156250e+00) (24, 1.05842089653015136719e+00) (25, 2.92667913436889648438e+00) (26, -3.12347316741943359375e+00) (27, -1.11106605529785156250e+01) (28, -2.45448875427246093750e+01) (29, 3.39130926132202148438e+00) (30, 4.37400627136230468750e+00) (31, 5.50261545181274414062e+00) (32, -1.31355829238891601562e+01) (33, -1.15809500217437744141e+00) (34, 1.20534257888793945312e+01) (35, -2.11826872825622558594e+00) (36, 1.97410831451416015625e+01) (37, -1.67374744415283203125e+01) (38, 1.76114597320556640625e+01) (39, 3.20065903663635253906e+00) (40, -7.25465488433837890625e+00) (41, -1.40698802471160888672e+00) (42, 1.14717254638671875000e+01) (43, -1.07624852657318115234e+00) (44, 1.92235004901885986328e+00) (45, -2.42476615905761718750e+01) (46, -5.99435186386108398438e+00) (47, -1.15555543899536132812e+01) (48, -1.01988401412963867188e+01) (49, -2.06816616058349609375e+01) (50, 1.73092288970947265625e+01) (51, 7.53214120864868164062e-01) (52, -1.57510585784912109375e+01) (53, -1.78888916969299316406e-01) (54, 1.19395208358764648438e+01) (55, -3.47606372833251953125e+00) (56, -1.53038330078125000000e+01) (57, -6.30063438415527343750e+00) (58, -5.40640234947204589844e-01) (59, 1.18674087524414062500e+01) (60, 2.58696022033691406250e+01) (0, -1.19735307693481445312e+01) (1, -3.78005409240722656250e+00) (2, -3.56117391586303710938e+00) (3, -2.78448772430419921875e+00) (4, 2.25136814117431640625e+01) (5, 6.19212579727172851562e+00) (6, 1.54486351013183593750e+01) (7, 6.51388454437255859375e+00) (8, 8.03191661834716796875e+00) (9, 6.42386531829833984375e+00) (10, -1.08501348495483398438e+01) (11, -2.48668575286865234375e+00) (12, 1.13036251068115234375e+01) (13, -1.29269981384277343750e+01) (14, 3.38800125122070312500e+01) (15, 1.74202594757080078125e+01) (16, 1.99690074920654296875e+01) (17, 9.46904563903808593750e+00) (18, -2.66213130950927734375e+01) (19, -1.51107234954833984375e+01) (20, 8.59795570373535156250e+00) (21, 1.84653091430664062500e+01) (22, -1.17721366882324218750e+01) (23, 3.73617553710937500000e+01) (24, -3.59222793579101562500e+01) (25, 1.61081314086914062500e+01) (26, -1.09867191314697265625e+01) (27, 1.48755254745483398438e+01) (28, 7.66214942932128906250e+00) (29, -4.44445991516113281250e+00) (30, 1.22172555923461914062e+01) (31, -7.42744112014770507812e+00) (32, 5.44123697280883789062e+00) (33, 1.05215377807617187500e+01) (34, 2.09621810913085937500e+00) (35, 1.46674513816833496094e+00) (36, -2.20734367370605468750e+01) (37, -1.98973262310028076172e+00) (38, -1.81054763793945312500e+01) (39, 1.51256294250488281250e+01) (40, -5.93042945861816406250e+00) (41, 2.93010692596435546875e+01) (42, 5.68098211288452148438e+00) (43, -1.17453422546386718750e+01) (44, 1.02791557312011718750e+01) (45, -3.04672193527221679688e+00) (46, 1.42008581161499023438e+01) (47, -7.30310559272766113281e-01) (48, -2.56100273132324218750e+00) (49, 1.72171821594238281250e+01) (50, -4.33886384963989257812e+00) (51, 5.73750638961791992188e+00) (52, -2.66156406402587890625e+01) (53, -2.87811946868896484375e+00) (54, -3.17603659629821777344e+00) (55, -8.62364959716796875000e+00) (56, -2.00021123886108398438e+00) (57, -4.11869525909423828125e+00) (58, 4.56533241271972656250e+00) (59, -4.28740644454956054688e+00) (60, -2.66910982131958007812e+00) (0, -2.20718169212341308594e+00) (1, 9.24008846282958984375e-01) (2, -9.25781250000000000000e+00) (3, 5.52475929260253906250e+00) (4, 2.11085948944091796875e+01) (5, 3.30442810058593750000e+00) (6, 6.75698184967041015625e+00) (7, 6.24397039413452148438e+00) (8, 2.85580492019653320312e+00) (9, 1.00237293243408203125e+01) (10, -3.07872056961059570312e+00) (11, -3.72118234634399414062e+00) (12, -4.53454399108886718750e+00) (13, -5.32140350341796875000e+00) (14, -7.78855657577514648438e+00) (15, 1.09868545532226562500e+01) (16, -5.55038881301879882812e+00) (17, 7.68938541412353515625e+00) (18, 1.85534706115722656250e+01) (19, -7.59413099288940429688e+00) (20, -3.79024124145507812500e+00) (21, -7.50699806213378906250e+00) (22, 1.14154558181762695312e+01) (23, -2.15949707031250000000e+01) (24, -7.68972063064575195312e+00) (25, 9.89217472076416015625e+00) (26, -3.39878749847412109375e+00) (27, -5.11273479461669921875e+00) (28, -1.56361169815063476562e+01) (29, 1.30742444992065429688e+01) (30, -2.63928451538085937500e+01) (31, 1.83462142944335937500e-01) (32, -3.30191802978515625000e+01) (33, 1.91243553161621093750e+00) (34, -2.05378093719482421875e+01) (35, -1.59161739349365234375e+01) (36, 7.32468748092651367188e+00) (37, -1.65025520324707031250e+01) (38, 1.48377780914306640625e+01) (39, 4.15739965438842773438e+00) (40, -1.02993488311767578125e+01) (41, -3.47616219520568847656e+00) (42, -5.79358398914337158203e-01) (43, -1.00050914287567138672e+00) (44, 2.35254745483398437500e+01) (45, 1.33790864944458007812e+01) (46, -7.35069847106933593750e+00) (47, -3.79734344482421875000e+01) (48, -6.00129508972167968750e+00) (49, 2.29125118255615234375e+01) (50, -4.09713649749755859375e+00) (51, -4.11432266235351562500e+00) (52, 4.95529413223266601562e-01) (53, 3.90835905075073242188e+00) (54, -7.15440273284912109375e+00) (55, -4.38991260528564453125e+00) (56, 5.34453535079956054688e+00) (57, 1.28757944107055664062e+01) (58, -6.62807464599609375000e+00) (59, 2.78136348724365234375e+00) (60, 1.80300045013427734375e+01) (0, 1.09327259063720703125e+01) (1, 3.87146019935607910156e+00) (2, 5.67430496215820312500e+00) (3, -3.88760709762573242188e+00) (4, 2.87361202239990234375e+01) (5, -1.33461694717407226562e+01) (6, -1.62100257873535156250e+01) (7, 1.86492843627929687500e+01) (8, 7.05410242080688476562e+00) (9, 3.63025093078613281250e+00) (10, -7.40557098388671875000e+00) (11, 2.05738315582275390625e+01) (12, 6.58205032348632812500e+00) (13, 3.16124749183654785156e+00) (14, 3.65676689147949218750e+00) (15, 4.06783819198608398438e-01) (16, -9.84289836883544921875e+00) (17, 1.12037200927734375000e+01) (18, -2.35403037071228027344e+00) (19, -1.30030441284179687500e+01) (20, -1.24471387863159179688e+01) (21, -4.66542387008666992188e+00) (22, -1.07909851074218750000e+01) (23, -3.15192241668701171875e+01) (24, 2.72620887756347656250e+01) (25, 1.89872264862060546875e+01) (26, 3.42649888992309570312e+00) (27, -1.16517324447631835938e+01) (28, -1.75128536224365234375e+01) (29, -1.36315898895263671875e+01) (30, -4.65976333618164062500e+00) (31, 2.80849990844726562500e+01) (32, -5.60208320617675781250e+00) (33, -1.95553624629974365234e+00) (34, 8.71227264404296875000e+00) (35, -8.10394001007080078125e+00) (36, 6.24485015869140625000e+00) (37, -9.87429141998291015625e+00) (38, -6.17842078208923339844e-02) (39, 5.09789991378784179688e+00) (40, -3.15283298492431640625e+00) (41, 2.24069747924804687500e+01) (42, 8.23194324970245361328e-01) (43, -1.07699289321899414062e+01) (44, 1.53604078292846679688e+01) (45, 2.10434436798095703125e+01) (46, 5.68359136581420898438e+00) (47, 1.32541694641113281250e+01) (48, -4.55295181274414062500e+00) (49, -7.37819957733154296875e+00) (50, -1.07155618667602539062e+01) (51, 7.44922161102294921875e+00) (52, 7.43129062652587890625e+00) (53, 1.22709064483642578125e+01) (54, -1.79514884948730468750e+01) (55, 2.99791479110717773438e+00) (56, -5.97434616088867187500e+00) (57, 6.59231901168823242188e+00) (58, 7.63164806365966796875e+00) (59, -8.77705097198486328125e+00) (60, 8.71585845947265625000e+00) (0, 2.40212035179138183594e+00) (1, 3.80963683128356933594e-01) (2, 5.71268796920776367188e-01) (3, 1.53861942291259765625e+01) (4, -1.58159933090209960938e+01) (5, 5.05920791625976562500e+00) (6, 9.83503532409667968750e+00) (7, 6.12727212905883789062e+00) (8, -1.55079517364501953125e+01) (9, -1.39401655197143554688e+01) (10, 5.28811550140380859375e+00) (11, -4.63522624969482421875e+00) (12, -1.69454669952392578125e+01) (13, -1.10971069335937500000e+01) (14, -3.47389221191406250000e+00) (15, 1.35144567489624023438e+01) (16, -1.73968334197998046875e+01) (17, 1.24847435951232910156e+00) (18, -6.65986251831054687500e+00) (19, -3.78984093666076660156e+00) (20, 5.74545717239379882812e+00) (21, 6.17319583892822265625e-01) (22, -1.93800377845764160156e+00) (23, 1.30307931900024414062e+01) (24, -1.73325634002685546875e+01) (25, -1.04573535919189453125e+00) (26, 1.17664661407470703125e+01) (27, -8.05450153350830078125e+00) (28, 1.84347076416015625000e+01) (29, -2.59189929962158203125e+01) (30, -3.35563735961914062500e+01) (31, -8.89817476272583007812e-01) (32, 4.87951946258544921875e+00) (33, 2.91690025329589843750e+01) (34, 1.10339946746826171875e+01) (35, -1.92279028892517089844e+00) (36, 1.53226490020751953125e+01) (37, -2.06006598472595214844e+00) (38, 2.38119297027587890625e+01) (39, -6.21756649017333984375e+00) (40, -7.63409805297851562500e+00) (41, -2.02069625854492187500e+01) (42, 1.51137189865112304688e+01) (43, 9.99938678741455078125e+00) (44, -5.78668880462646484375e+00) (45, 2.43625679016113281250e+01) (46, -1.29480400085449218750e+01) (47, 2.64775962829589843750e+01) (48, 1.01346225738525390625e+01) (49, -1.82380714416503906250e+01) (50, -5.39119815826416015625e+00) (51, -1.75272808074951171875e+01) (52, 2.49396190643310546875e+01) (53, -2.96795024871826171875e+01) (54, 1.25848579406738281250e+00) (55, 1.07605247497558593750e+01) (56, 6.54339408874511718750e+00) (57, 5.77488064765930175781e-01) (58, 5.69115352630615234375e+00) (59, 1.05651702880859375000e+01) (60, 4.01627826690673828125e+00) (61, 2.07861919403076171875e+01) (62, 1.68804950714111328125e+01) (63, 5.76740741729736328125e-01) (64, -5.44468259811401367188e+00) (65, -3.62916827201843261719e+00) (66, 1.89529132843017578125e+01) (67, -2.45082855224609375000e+01) (61, -1.62482624053955078125e+01) (62, 2.80185508728027343750e+01) (63, 1.98079919815063476562e+00) (64, 1.07292232513427734375e+01) (65, 8.06309032440185546875e+00) (66, -1.44833898544311523438e+01) (67, -3.07134628295898437500e+01) (61, 5.40168237686157226562e+00) (62, -1.76910915374755859375e+01) (63, 1.59267864227294921875e+01) (64, -2.90625076293945312500e+01) (65, 1.02558259963989257812e+01) (66, -3.49466562271118164062e-01) (67, 7.42896842956542968750e+00) (61, -1.62296504974365234375e+01) (62, 2.01257181167602539062e+00) (63, 7.71869122982025146484e-01) (64, -7.93634986877441406250e+00) (65, -1.49620733261108398438e+01) (66, 1.84342980384826660156e-01) (67, 2.86482677459716796875e+01) 
