FANN_FLO_2.1
num_layers=3
learning_rate=0.800000
connection_rate=1.000000
network_type=0
learning_momentum=0.000000
training_algorithm=0
train_error_function=1
train_stop_function=0
cascade_output_change_fraction=0.010000
quickprop_decay=-0.000100
quickprop_mu=1.750000
rprop_increase_factor=1.200000
rprop_decrease_factor=0.500000
rprop_delta_min=0.000000
rprop_delta_max=50.000000
rprop_delta_zero=0.100000
cascade_output_stagnation_epochs=12
cascade_candidate_change_fraction=0.010000
cascade_candidate_stagnation_epochs=12
cascade_max_out_epochs=150
cascade_min_out_epochs=50
cascade_max_cand_epochs=150
cascade_min_cand_epochs=50
cascade_num_candidate_groups=2
bit_fail_limit=3.49999994039535522461e-01
cascade_candidate_limit=1.00000000000000000000e+03
cascade_weight_multiplier=4.00000005960464477539e-01
cascade_activation_functions_count=10
cascade_activation_functions=3 5 7 8 10 11 14 15 16 17 
cascade_activation_steepnesses_count=4
cascade_activation_steepnesses=2.50000000000000000000e-01 5.00000000000000000000e-01 7.50000000000000000000e-01 1.00000000000000000000e+00 
layer_sizes=61 7 5 
scale_included=0
neurons (num_inputs, activation_function, activation_steepness)=(0, 0, 0.00000000000000000000e+00) (0, 0, 0.00000000000000000000e+00) (0, 0, 0.00000000000000000000e+00) (0, 0, 0.00000000000000000000e+00) (0, 0, 0.00000000000000000000e+00) (0, 0, 0.00000000000000000000e+00) (0, 0, 0.00000000000000000000e+00) (0, 0, 0.00000000000000000000e+00) (0, 0, 0.00000000000000000000e+00) (0, 0, 0.00000000000000000000e+00) (0, 0, 0.00000000000000000000e+00) (0, 0, 0.00000000000000000000e+00) (0, 0, 0.00000000000000000000e+00) (0, 0, 0.00000000000000000000e+00) (0, 0, 0.00000000000000000000e+00) (0, 0, 0.00000000000000000000e+00) (0, 0, 0.00000000000000000000e+00) (0, 0, 0.00000000000000000000e+00) (0, 0, 0.00000000000000000000e+00) (0, 0, 0.00000000000000000000e+00) (0, 0, 0.00000000000000000000e+00) (0, 0, 0.00000000000000000000e+00) (0, 0, 0.00000000000000000000e+00) (0, 0, 0.00000000000000000000e+00) (0, 0, 0.00000000000000000000e+00) (0, 0, 0.00000000000000000000e+00) (0, 0, 0.00000000000000000000e+00) (0, 0, 0.00000000000000000000e+00) (0, 0, 0.00000000000000000000e+00) (0, 0, 0.00000000000000000000e+00) (0, 0, 0.00000000000000000000e+00) (0, 0, 0.00000000000000000000e+00) (0, 0, 0.00000000000000000000e+00) (0, 0, 0.00000000000000000000e+00) (0, 0, 0.00000000000000000000e+00) (0, 0, 0.00000000000000000000e+00) (0, 0, 0.00000000000000000000e+00) (0, 0, 0.00000000000000000000e+00) (0, 0, 0.00000000000000000000e+00) (0, 0, 0.00000000000000000000e+00) (0, 0, 0.00000000000000000000e+00) (0, 0, 0.00000000000000000000e+00) (0, 0, 0.00000000000000000000e+00) (0, 0, 0.00000000000000000000e+00) (0, 0, 0.00000000000000000000e+00) (0, 0, 0.00000000000000000000e+00) (0, 0, 0.00000000000000000000e+00) (0, 0, 0.00000000000000000000e+00) (0, 0, 0.00000000000000000000e+00) (0, 0, 0.00000000000000000000e+00) (0, 0, 0.00000000000000000000e+00) (0, 0, 0.00000000000000000000e+00) (0, 0, 0.00000000000000000000e+00) (0, 0, 0.00000000000000000000e+00) (0, 0, 0.00000000000000000000e+00) (0, 0, 0.00000000000000000000e+00) (0, 0, 0.00000000000000000000e+00) (0, 0, 0.00000000000000000000e+00) (0, 0, 0.00000000000000000000e+00) (0, 0, 0.00000000000000000000e+00) (0, 0, 0.00000000000000000000e+00) (61, 3, 5.00000000000000000000e-01) (61, 3, 5.00000000000000000000e-01) (61, 3, 5.00000000000000000000e-01) (61, 3, 5.00000000000000000000e-01) (61, 3, 5.00000000000000000000e-01) (61, 3, 5.00000000000000000000e-01) (0, 3, 0.00000000000000000000e+00) (7, 3, 5.00000000000000000000e-01) (7, 3, 5.00000000000000000000e-01) (7, 3, 5.00000000000000000000e-01) (7, 3, 5.00000000000000000000e-01) (0, 3, 0.00000000000000000000e+00) 
connections (connected_to_neuron, weight)=(0, 8.38934516906738281250e+00) (1, -1.29241914749145507812e+01) (2, 7.26245727539062500000e+01) (3, -6.50188064575195312500e+01) (4, 4.56894569396972656250e+01) (5, -4.49376449584960937500e+01) (6, 1.43676626682281494141e+00) (7, -5.76408309936523437500e+01) (8, 2.63885135650634765625e+01) (9, 3.57410926818847656250e+01) (10, -1.27703781127929687500e+01) (11, -3.57166099548339843750e+01) (12, -2.01623702049255371094e+00) (13, -2.30895543098449707031e+00) (14, -5.16655445098876953125e+00) (15, -2.08488426208496093750e+01) (16, -5.13156929016113281250e+01) (17, 1.08528129577636718750e+02) (18, -6.29173965454101562500e+01) (19, 3.20574989318847656250e+01) (20, 8.05492496490478515625e+00) (21, -1.95198650360107421875e+01) (22, 8.51701450347900390625e+00) (23, 1.10090103149414062500e+02) (24, -2.73525218963623046875e+01) (25, -8.99434967041015625000e+01) (26, -4.74610137939453125000e+01) (27, -5.80729866027832031250e+00) (28, 4.06542587280273437500e+01) (29, -3.54644355773925781250e+01) (30, 2.38099861145019531250e+01) (31, -1.73094730377197265625e+01) (32, -5.71048212051391601562e+00) (33, 5.35635604858398437500e+01) (34, -5.28869247436523437500e+01) (35, -1.18330604553222656250e+02) (36, 5.16100406646728515625e-01) (37, -1.06189556121826171875e+01) (38, 6.65173292160034179688e+00) (39, -8.78461608886718750000e+01) (40, -3.38337593078613281250e+01) (41, 5.68130912780761718750e+01) (42, -3.79275741577148437500e+01) (43, 2.88465099334716796875e+01) (44, -1.94491004943847656250e+01) (45, 6.25948867797851562500e+01) (46, 6.26260423660278320312e+00) (47, -4.73168830871582031250e+01) (48, 1.01950359344482421875e+00) (49, -2.39701557159423828125e+01) (50, -4.21982460021972656250e+01) (51, 9.81851577758789062500e+01) (52, -1.45261211395263671875e+01) (53, -3.75500297546386718750e+01) (54, 3.66394386291503906250e+01) (55, -5.78941726684570312500e+00) (56, 2.10492649078369140625e+01) (57, 1.69743709564208984375e+01) (58, -3.89103317260742187500e+01) (59, 9.30741310119628906250e+00) (60, 7.68095329403877258301e-02) (0, -9.74924850463867187500e+00) (1, 7.26961374282836914062e-01) (2, 6.36467285156250000000e+01) (3, 5.30867767333984375000e+01) (4, 4.24388351440429687500e+01) (5, -9.29622173309326171875e+00) (6, 3.59610939025878906250e+01) (7, -7.19902038574218750000e+00) (8, -3.44939002990722656250e+01) (9, 3.88218383789062500000e+01) (10, 2.76943435668945312500e+01) (11, -2.81388015747070312500e+01) (12, 1.06887817382812500000e+01) (13, 3.47695693969726562500e+01) (14, 1.63701190948486328125e+01) (15, -3.72198448181152343750e+01) (16, 4.41047515869140625000e+01) (17, 7.74690093994140625000e+01) (18, -7.64467620849609375000e+00) (19, 5.25697479248046875000e+01) (20, -4.14642372131347656250e+01) (21, -1.23587493896484375000e+02) (22, 1.17044464111328125000e+02) (23, -2.62215976715087890625e+01) (24, -2.83404216766357421875e+01) (25, 2.58756999969482421875e+01) (26, -3.41768112182617187500e+01) (27, 2.11649799346923828125e+01) (28, -3.60341835021972656250e+01) (29, -2.36954193115234375000e+01) (30, -1.64423637390136718750e+01) (31, 5.06711158752441406250e+01) (32, 2.42251014709472656250e+01) (33, -1.37528495788574218750e+01) (34, -1.39281854629516601562e+01) (35, 3.64833068847656250000e+01) (36, 1.40698204040527343750e+01) (37, 6.20892791748046875000e+01) (38, -1.18590717315673828125e+01) (39, -1.55308790206909179688e+01) (40, 4.85595626831054687500e+01) (41, -4.98018531799316406250e+01) (42, -5.10741844177246093750e+01) (43, -2.20871524810791015625e+01) (44, 3.32725763320922851562e-01) (45, 8.34730720520019531250e+00) (46, -7.74403429031372070312e+00) (47, 2.36245899200439453125e+01) (48, -3.05386772155761718750e+01) (49, 1.08278259277343750000e+02) (50, 1.35920391082763671875e+01) (51, 6.53703117370605468750e+00) (52, -8.98359832763671875000e+01) (53, -4.44025802612304687500e+00) (54, -4.91926727294921875000e+01) (55, -3.50500450134277343750e+01) (56, 2.76936817169189453125e+01) (57, -2.38920249938964843750e+01) (58, 8.02591629028320312500e+01) (59, -5.41003036499023437500e+00) (60, -1.51293304443359375000e+02) (0, 5.61114807128906250000e+01) (1, 8.22102966308593750000e+01) (2, 2.90142707824707031250e+01) (3, 1.32871265411376953125e+01) (4, 4.46165809631347656250e+01) (5, 1.64428997039794921875e+01) (6, 3.28056182861328125000e+01) (7, 1.50364379882812500000e+02) (8, -1.11034042358398437500e+02) (9, 8.97254943847656250000e+00) (10, -1.11476335525512695312e+01) (11, -5.26277847290039062500e+01) (12, -9.79511547088623046875e+00) (13, -4.56271934509277343750e+01) (14, -1.46398115158081054688e+01) (15, -1.60069446563720703125e+01) (16, -4.75550765991210937500e+01) (17, 1.71117439270019531250e+01) (18, -1.88288154602050781250e+01) (19, -1.60498924255371093750e+01) (20, -7.66661596298217773438e+00) (21, 2.35025620460510253906e+00) (22, -2.76155681610107421875e+01) (23, 1.85548915863037109375e+01) (24, -4.57245521545410156250e+01) (25, -4.43605709075927734375e+00) (26, 5.25357627868652343750e+01) (27, -3.77560729980468750000e+01) (28, 9.38343200683593750000e+01) (29, -1.60710639953613281250e+01) (30, 2.76509151458740234375e+01) (31, 2.51856498718261718750e+01) (32, -8.41755676269531250000e+01) (33, -9.41645145416259765625e-01) (34, -4.24966764450073242188e+00) (35, 2.65485191345214843750e+01) (36, 5.63165187835693359375e-01) (37, 2.63792438507080078125e+01) (38, -7.64517116546630859375e+00) (39, -3.42085876464843750000e+01) (40, -5.41812705993652343750e+01) (41, 6.33865661621093750000e+01) (42, 2.85888442993164062500e+01) (43, -1.77505359649658203125e+01) (44, 4.67761278152465820312e+00) (45, 2.72932548522949218750e+01) (46, -9.60543823242187500000e+01) (47, -4.29483413696289062500e+01) (48, -5.61830749511718750000e+01) (49, -6.89516754150390625000e+01) (50, 8.90079116821289062500e+00) (51, -1.48235483169555664062e+01) (52, -1.27259330749511718750e+02) (53, 1.41730529785156250000e+02) (54, -4.79736061096191406250e+01) (55, -9.32640838623046875000e+01) (56, 8.87076339721679687500e+01) (57, -3.92334961891174316406e+00) (58, 2.72150020599365234375e+01) (59, -2.44216556549072265625e+01) (60, 6.23089981079101562500e+00) (0, 2.85139122009277343750e+01) (1, -1.24889011383056640625e+01) (2, -5.05510749816894531250e+01) (3, -3.02731628417968750000e+01) (4, 4.42117404937744140625e+00) (5, 2.77086334228515625000e+01) (6, 1.02190948486328125000e+02) (7, -2.86531424522399902344e+00) (8, -9.25168800354003906250e+00) (9, 6.85853958129882812500e+01) (10, 4.09203643798828125000e+01) (11, 2.63150424957275390625e+01) (12, -6.12707633972167968750e+01) (13, 1.08900650024414062500e+02) (14, 6.05646781921386718750e+01) (15, -7.74736862182617187500e+01) (16, -3.91899871826171875000e+01) (17, -7.45489883422851562500e+01) (18, -1.16459465026855468750e+02) (19, -3.49846115112304687500e+01) (20, 1.43767700195312500000e+01) (21, 2.08429336547851562500e+01) (22, 4.48698014020919799805e-01) (23, 3.87051849365234375000e+01) (24, -1.19911289215087890625e+00) (25, 1.04392402648925781250e+02) (26, 6.69950561523437500000e+01) (27, -1.66394481658935546875e+01) (28, -4.69160509109497070312e+00) (29, 1.39782390594482421875e+01) (30, -5.76097831726074218750e+01) (31, 4.94842338562011718750e+01) (32, -8.68972015380859375000e+01) (33, 9.87074584960937500000e+01) (34, 1.68226242065429687500e+01) (35, 4.78448982238769531250e+01) (36, 4.32424201965332031250e+01) (37, 3.32675361633300781250e+01) (38, 1.69228267669677734375e+01) (39, 2.84809398651123046875e+01) (40, 6.31014585494995117188e+00) (41, 2.09914264678955078125e+01) (42, 4.34358253479003906250e+01) (43, 1.17778186798095703125e+01) (44, -1.48834848403930664062e+00) (45, -2.76715469360351562500e+01) (46, -3.14715366363525390625e+01) (47, 7.22446670532226562500e+01) (48, 2.61007118225097656250e+01) (49, 4.52095069885253906250e+01) (50, 2.01171741485595703125e+01) (51, -4.60199279785156250000e+01) (52, -2.48894081115722656250e+01) (53, -7.30428981781005859375e+00) (54, -9.36057510375976562500e+01) (55, -6.57182006835937500000e+01) (56, -4.44641590118408203125e-01) (57, -1.08072059631347656250e+02) (58, -4.09279680252075195312e+00) (59, -2.27274494171142578125e+01) (60, -2.05490612983703613281e+00) (0, 4.46124153137207031250e+01) (1, 1.20247898101806640625e+01) (2, -1.03202419281005859375e+01) (3, 4.70601806640625000000e+01) (4, -2.13399338722229003906e+00) (5, 1.73246955871582031250e+01) (6, 2.94739608764648437500e+01) (7, -6.50381851196289062500e+01) (8, -9.01211547851562500000e+00) (9, -9.72131576538085937500e+01) (10, 3.19129295349121093750e+01) (11, -5.44079360961914062500e+01) (12, -1.74727420806884765625e+01) (13, -7.79896392822265625000e+01) (14, -1.85425834655761718750e+01) (15, 4.13884925842285156250e+01) (16, 6.20560150146484375000e+01) (17, -7.51404876708984375000e+01) (18, 1.04879104614257812500e+02) (19, 8.76599311828613281250e+00) (20, -6.53952407836914062500e+01) (21, -4.39407730102539062500e+01) (22, -1.09994361877441406250e+02) (23, -4.99779739379882812500e+01) (24, -1.02815647125244140625e+01) (25, 3.12965888977050781250e+01) (26, -6.58348312377929687500e+01) (27, -8.29587554931640625000e+01) (28, 9.05979728698730468750e+00) (29, 8.46721267700195312500e+00) (30, -4.12535715103149414062e+00) (31, 9.19426155090332031250e+00) (32, 8.00996475219726562500e+01) (33, 1.86291122436523437500e+01) (34, 7.78248310089111328125e-01) (35, -5.17575912475585937500e+01) (36, -6.51983213424682617188e+00) (37, -4.57400016784667968750e+01) (38, -3.33750724792480468750e+01) (39, 6.70272111892700195312e-01) (40, 1.89291725158691406250e+01) (41, -1.65043964385986328125e+01) (42, -7.59373569488525390625e+00) (43, 4.70953178405761718750e+01) (44, -2.87058429718017578125e+01) (45, -4.21592063903808593750e+01) (46, 7.47917251586914062500e+01) (47, 1.29594440460205078125e+01) (48, -4.80982818603515625000e+01) (49, 9.71349143981933593750e+00) (50, 6.53527879714965820312e+00) (51, -4.92983932495117187500e+01) (52, -2.31775331497192382812e+00) (53, 5.78924789428710937500e+01) (54, 4.39030685424804687500e+01) (55, 6.53791198730468750000e+01) (56, -4.71734542846679687500e+01) (57, 1.44945632934570312500e+02) (58, -1.09077285766601562500e+02) (59, 4.96883621215820312500e+01) (60, -7.92367553710937500000e+01) (0, 7.82065505981445312500e+01) (1, -3.46416549682617187500e+01) (2, 5.39464645385742187500e+01) (3, -1.82748775482177734375e+01) (4, 4.37627792358398437500e-01) (5, -1.25697576999664306641e+00) (6, 4.12516593933105468750e-02) (7, -8.92221603393554687500e+01) (8, 8.28303337097167968750e+00) (9, -8.28879776000976562500e+01) (10, 2.08360881805419921875e+01) (11, 2.46646690368652343750e+01) (12, -8.60472106933593750000e+00) (13, 8.42740478515625000000e+01) (14, 5.98159360885620117188e+00) (15, -5.50403823852539062500e+01) (16, -7.54280376434326171875e+00) (17, 1.48178234100341796875e+01) (18, -1.06330802917480468750e+02) (19, -3.02598495483398437500e+01) (20, -5.62994003295898437500e-01) (21, 7.25456771850585937500e+01) (22, -5.64489746093750000000e+01) (23, 1.44708465576171875000e+02) (24, -5.36564941406250000000e+01) (25, 3.76185493469238281250e+01) (26, 6.65692062377929687500e+01) (27, -1.94216403961181640625e+01) (28, 5.70886344909667968750e+01) (29, -1.30150737762451171875e+01) (30, 4.11673622131347656250e+01) (31, 1.40353408813476562500e+02) (32, 1.07103176116943359375e+01) (33, 7.36184768676757812500e+01) (34, 1.14555966854095458984e+00) (35, 2.60635128021240234375e+01) (36, -2.52643356323242187500e+01) (37, 5.55290718078613281250e+01) (38, -1.45024200439453125000e+02) (39, 2.03407821655273437500e+01) (40, -7.87097015380859375000e+01) (41, -8.43218612670898437500e+01) (42, 1.43551435470581054688e+01) (43, -8.06053619384765625000e+01) (44, 8.32682991027832031250e+00) (45, -3.24345436096191406250e+01) (46, 5.96256294250488281250e+01) (47, -6.42452716827392578125e+00) (48, 3.09121303558349609375e+01) (49, -2.92600955963134765625e+01) (50, -2.84567260742187500000e+01) (51, 8.37130308151245117188e-01) (52, -1.43814659118652343750e+01) (53, 9.56750774383544921875e+00) (54, -2.15927982330322265625e+00) (55, -1.77199649810791015625e+01) (56, 4.96400680541992187500e+01) (57, -2.84091072082519531250e+01) (58, -3.69277191162109375000e+01) (59, -1.99629878997802734375e+01) (60, 1.95868854522705078125e+01) (61, -1.30603599548339843750e+01) (62, -3.34538002014160156250e+01) (63, 1.01880744934082031250e+02) (64, -2.66842079162597656250e+01) (65, 3.70877151489257812500e+01) (66, -6.01243171691894531250e+01) (67, -8.94300689697265625000e+01) (61, -4.48314056396484375000e+01) (62, 2.51628704071044921875e+01) (63, -3.02574901580810546875e+01) (64, 3.30575599670410156250e+01) (65, -8.34627838134765625000e+01) (66, -7.33650360107421875000e+01) (67, -3.03015213012695312500e+01) (61, -2.42188510894775390625e+01) (62, -1.65961723327636718750e+01) (63, -2.77947559356689453125e+01) (64, -6.43221206665039062500e+01) (65, 2.77675819396972656250e+01) (66, 1.08117317199707031250e+02) (67, -7.00737457275390625000e+01) (61, -5.70302696228027343750e+01) (62, -7.01459350585937500000e+01) (63, -1.19030464172363281250e+02) (64, 6.02480888366699218750e+01) (65, 1.82296905517578125000e+01) (66, -5.13981819152832031250e+01) (67, 1.72072353363037109375e+01) 
