FANN_FLO_2.1
num_layers=4
learning_rate=0.700000
connection_rate=1.000000
network_type=0
learning_momentum=0.000000
training_algorithm=2
train_error_function=1
train_stop_function=0
cascade_output_change_fraction=0.010000
quickprop_decay=-0.000100
quickprop_mu=1.750000
rprop_increase_factor=1.200000
rprop_decrease_factor=0.500000
rprop_delta_min=0.000000
rprop_delta_max=50.000000
rprop_delta_zero=0.100000
cascade_output_stagnation_epochs=12
cascade_candidate_change_fraction=0.010000
cascade_candidate_stagnation_epochs=12
cascade_max_out_epochs=150
cascade_min_out_epochs=50
cascade_max_cand_epochs=150
cascade_min_cand_epochs=50
cascade_num_candidate_groups=2
bit_fail_limit=3.49999994039535522461e-01
cascade_candidate_limit=1.00000000000000000000e+03
cascade_weight_multiplier=4.00000005960464477539e-01
cascade_activation_functions_count=10
cascade_activation_functions=3 5 7 8 10 11 14 15 16 17 
cascade_activation_steepnesses_count=4
cascade_activation_steepnesses=2.50000000000000000000e-01 5.00000000000000000000e-01 7.50000000000000000000e-01 1.00000000000000000000e+00 
layer_sizes=57 17 17 5 
scale_included=0
neurons (num_inputs, activation_function, activation_steepness)=(0, 0, 0.00000000000000000000e+00) (0, 0, 0.00000000000000000000e+00) (0, 0, 0.00000000000000000000e+00) (0, 0, 0.00000000000000000000e+00) (0, 0, 0.00000000000000000000e+00) (0, 0, 0.00000000000000000000e+00) (0, 0, 0.00000000000000000000e+00) (0, 0, 0.00000000000000000000e+00) (0, 0, 0.00000000000000000000e+00) (0, 0, 0.00000000000000000000e+00) (0, 0, 0.00000000000000000000e+00) (0, 0, 0.00000000000000000000e+00) (0, 0, 0.00000000000000000000e+00) (0, 0, 0.00000000000000000000e+00) (0, 0, 0.00000000000000000000e+00) (0, 0, 0.00000000000000000000e+00) (0, 0, 0.00000000000000000000e+00) (0, 0, 0.00000000000000000000e+00) (0, 0, 0.00000000000000000000e+00) (0, 0, 0.00000000000000000000e+00) (0, 0, 0.00000000000000000000e+00) (0, 0, 0.00000000000000000000e+00) (0, 0, 0.00000000000000000000e+00) (0, 0, 0.00000000000000000000e+00) (0, 0, 0.00000000000000000000e+00) (0, 0, 0.00000000000000000000e+00) (0, 0, 0.00000000000000000000e+00) (0, 0, 0.00000000000000000000e+00) (0, 0, 0.00000000000000000000e+00) (0, 0, 0.00000000000000000000e+00) (0, 0, 0.00000000000000000000e+00) (0, 0, 0.00000000000000000000e+00) (0, 0, 0.00000000000000000000e+00) (0, 0, 0.00000000000000000000e+00) (0, 0, 0.00000000000000000000e+00) (0, 0, 0.00000000000000000000e+00) (0, 0, 0.00000000000000000000e+00) (0, 0, 0.00000000000000000000e+00) (0, 0, 0.00000000000000000000e+00) (0, 0, 0.00000000000000000000e+00) (0, 0, 0.00000000000000000000e+00) (0, 0, 0.00000000000000000000e+00) (0, 0, 0.00000000000000000000e+00) (0, 0, 0.00000000000000000000e+00) (0, 0, 0.00000000000000000000e+00) (0, 0, 0.00000000000000000000e+00) (0, 0, 0.00000000000000000000e+00) (0, 0, 0.00000000000000000000e+00) (0, 0, 0.00000000000000000000e+00) (0, 0, 0.00000000000000000000e+00) (0, 0, 0.00000000000000000000e+00) (0, 0, 0.00000000000000000000e+00) (0, 0, 0.00000000000000000000e+00) (0, 0, 0.00000000000000000000e+00) (0, 0, 0.00000000000000000000e+00) (0, 0, 0.00000000000000000000e+00) (0, 0, 0.00000000000000000000e+00) (57, 3, 5.00000000000000000000e-01) (57, 3, 5.00000000000000000000e-01) (57, 3, 5.00000000000000000000e-01) (57, 3, 5.00000000000000000000e-01) (57, 3, 5.00000000000000000000e-01) (57, 3, 5.00000000000000000000e-01) (57, 3, 5.00000000000000000000e-01) (57, 3, 5.00000000000000000000e-01) (57, 3, 5.00000000000000000000e-01) (57, 3, 5.00000000000000000000e-01) (57, 3, 5.00000000000000000000e-01) (57, 3, 5.00000000000000000000e-01) (57, 3, 5.00000000000000000000e-01) (57, 3, 5.00000000000000000000e-01) (57, 3, 5.00000000000000000000e-01) (57, 3, 5.00000000000000000000e-01) (0, 3, 0.00000000000000000000e+00) (17, 3, 5.00000000000000000000e-01) (17, 3, 5.00000000000000000000e-01) (17, 3, 5.00000000000000000000e-01) (17, 3, 5.00000000000000000000e-01) (17, 3, 5.00000000000000000000e-01) (17, 3, 5.00000000000000000000e-01) (17, 3, 5.00000000000000000000e-01) (17, 3, 5.00000000000000000000e-01) (17, 3, 5.00000000000000000000e-01) (17, 3, 5.00000000000000000000e-01) (17, 3, 5.00000000000000000000e-01) (17, 3, 5.00000000000000000000e-01) (17, 3, 5.00000000000000000000e-01) (17, 3, 5.00000000000000000000e-01) (17, 3, 5.00000000000000000000e-01) (17, 3, 5.00000000000000000000e-01) (0, 3, 0.00000000000000000000e+00) (17, 3, 5.00000000000000000000e-01) (17, 3, 5.00000000000000000000e-01) (17, 3, 5.00000000000000000000e-01) (17, 3, 5.00000000000000000000e-01) (0, 3, 0.00000000000000000000e+00) 
connections (connected_to_neuron, weight)=(0, 1.50000000000000000000e+03) (1, 6.02345132827758789062e+00) (2, 1.38334894180297851562e+00) (3, 1.76584854722023010254e-01) (4, -3.80117863416671752930e-01) (5, -1.65395629405975341797e+00) (6, -9.56865727901458740234e-01) (7, -2.57486701011657714844e+00) (8, 1.12088692188262939453e+00) (9, -5.62937641143798828125e+00) (10, -1.14919722080230712891e+00) (11, -2.97761172056198120117e-01) (12, -3.73676151037216186523e-01) (13, 3.76659691333770751953e-01) (14, 1.50000000000000000000e+03) (15, -4.53685646057128906250e+01) (16, -8.57250442504882812500e+01) (17, -7.54855394363403320312e-01) (18, 1.48476243019104003906e-01) (19, -3.02612519264221191406e+00) (20, -2.30253505706787109375e+00) (21, -6.28398656845092773438e+00) (22, -4.57306718826293945312e+00) (23, -2.33353877067565917969e+00) (24, -5.83493947982788085938e+00) (25, -2.21294116973876953125e+00) (26, 3.94624888896942138672e-01) (27, 1.08055865764617919922e+00) (28, -6.32933715820312500000e+02) (29, 7.65734291076660156250e+00) (30, -1.68354499340057373047e+00) (31, -2.00873718261718750000e+02) (32, 1.23044094070792198181e-02) (33, -1.12534105777740478516e+00) (34, 1.65383160114288330078e-01) (35, -4.34288072586059570312e+00) (36, -1.91834375262260437012e-01) (37, -8.53994064331054687500e+01) (38, -1.11696767807006835938e+00) (39, -4.76391881704330444336e-01) (40, 2.01094344258308410645e-01) (41, 1.33362281322479248047e+00) (42, 1.50000000000000000000e+03) (43, 1.75000345706939697266e+00) (44, 1.11455590820312500000e+03) (45, 1.71437752246856689453e+00) (46, 1.11452148437500000000e+03) (47, 1.63084554672241210938e+00) (48, 2.42432689666748046875e+00) (49, 8.09449481964111328125e+00) (50, -1.03053543090820312500e+02) (51, 1.50000000000000000000e+03) (52, -1.83436429500579833984e+00) (53, -1.67426049709320068359e-01) (54, 5.72469353675842285156e-01) (55, -1.03220510482788085938e+01) (56, -4.46337521076202392578e-01) (0, 1.50000000000000000000e+03) (1, 1.19349527359008789062e+01) (2, -1.49979472160339355469e-01) (3, 2.19942998886108398438e+00) (4, -1.93706586956977844238e-01) (5, 6.09926283359527587891e-01) (6, 1.72929346561431884766e+00) (7, -8.18729877471923828125e+00) (8, 2.09034204483032226562e-01) (9, -4.51736629009246826172e-01) (10, -3.78021073341369628906e+00) (11, 5.78705668449401855469e-01) (12, 8.82856726646423339844e-01) (13, 2.99019455909729003906e-01) (14, 1.50000000000000000000e+03) (15, -3.47496294975280761719e+00) (16, -8.18633605957031250000e+02) (17, 5.34566283226013183594e-01) (18, 8.74225497245788574219e-01) (19, -1.84343421459197998047e+00) (20, -3.76344418525695800781e+00) (21, -1.05026407241821289062e+01) (22, 2.13229012489318847656e+00) (23, -6.73686096191406250000e+02) (24, -5.14686441421508789062e+00) (25, -1.11279559135437011719e+00) (26, 2.33501720428466796875e+00) (27, 8.41902554035186767578e-01) (28, 3.88482818603515625000e+01) (29, 1.59760694950819015503e-02) (30, -1.85003614425659179688e+00) (31, -7.22492218017578125000e-01) (32, -1.02357959747314453125e+00) (33, -1.28085994720458984375e+00) (34, -1.17658011615276336670e-01) (35, -2.34340324401855468750e+01) (36, 7.83374726772308349609e-01) (37, -1.68224406242370605469e+00) (38, -1.60773646831512451172e+00) (39, -6.39769494533538818359e-01) (40, 4.89923283457756042480e-02) (41, 8.50398480892181396484e-01) (42, 1.50000000000000000000e+03) (43, 3.23233270645141601562e+00) (44, 1.02613782882690429688e+01) (45, 4.23773956298828125000e+00) (46, 5.98880481719970703125e+00) (47, 6.39138460159301757812e-01) (48, 1.45756590366363525391e+00) (49, 6.86412382125854492188e+00) (50, -1.06491291522979736328e+00) (51, 1.50000000000000000000e+03) (52, -5.38826227188110351562e-01) (53, 5.61980485916137695312e-01) (54, 2.09924206137657165527e-02) (55, -1.66396200656890869141e+00) (56, -8.07665511965751647949e-02) (0, 1.50000000000000000000e+03) (1, -1.14120359420776367188e+01) (2, 5.84968328475952148438e+00) (3, -1.19286704063415527344e+00) (4, -5.84844017028808593750e+00) (5, -2.48409533500671386719e+00) (6, -1.88587367534637451172e+00) (7, -9.61510086059570312500e+00) (8, 1.25240385532379150391e+00) (9, 6.23730599880218505859e-01) (10, 4.14574050903320312500e+00) (11, -3.27298313379287719727e-01) (12, 2.30520200729370117188e+00) (13, 8.08849143981933593750e+00) (14, 1.50000000000000000000e+03) (15, -1.58267676830291748047e+00) (16, 3.43291320800781250000e+01) (17, 7.75379955768585205078e-01) (18, -2.15463399887084960938e+00) (19, 1.63209772109985351562e+00) (20, 7.70397961139678955078e-01) (21, 9.64272689819335937500e+00) (22, -2.33080482482910156250e+00) (23, 1.26769132614135742188e+01) (24, -1.48619341850280761719e+00) (25, -2.16829597949981689453e-01) (26, 9.34978201985359191895e-02) (27, 7.03382194042205810547e-01) (28, -1.35488415527343750000e+03) (29, 2.54521799087524414062e+00) (30, 5.84065318107604980469e-01) (31, 1.46052956581115722656e-01) (32, 4.89566802978515625000e+00) (33, 4.61672186851501464844e-01) (34, -1.63360133767127990723e-01) (35, -1.33753156661987304688e+00) (36, -9.74174439907073974609e-01) (37, 8.02827644348144531250e+00) (38, 9.91723537445068359375e+00) (39, 4.13625448942184448242e-01) (40, 2.77645379304885864258e-01) (41, 8.63603878021240234375e+00) (42, 1.50000000000000000000e+03) (43, 1.77530121803283691406e+00) (44, 1.54444549560546875000e+02) (45, 7.20684885978698730469e-01) (46, 2.64789104461669921875e+01) (47, 4.63457107543945312500e-01) (48, 3.83865088224411010742e-01) (49, 9.45033848285675048828e-01) (50, -7.69722652435302734375e+00) (51, 1.50000000000000000000e+03) (52, -6.60371661186218261719e-01) (53, 3.80024403333663940430e-01) (54, -5.13026416301727294922e-02) (55, -2.47606968879699707031e+00) (56, 6.06445789337158203125e-01) (0, 1.50000000000000000000e+03) (1, -6.59435927867889404297e-01) (2, 2.62493824958801269531e+00) (3, -4.50916320085525512695e-01) (4, -4.57662200927734375000e+00) (5, -9.34446692466735839844e-01) (6, -1.15129065513610839844e+00) (7, 3.36067825555801391602e-01) (8, -2.52924710512161254883e-01) (9, -4.05756072998046875000e+01) (10, -1.51411557197570800781e+00) (11, -5.01024246215820312500e-01) (12, 1.45855057239532470703e+00) (13, -1.92422494292259216309e-01) (14, 1.50000000000000000000e+03) (15, -7.62235820293426513672e-01) (16, -4.46986312866210937500e+01) (17, 6.06666803359985351562e-02) (18, -2.15100049972534179688e+00) (19, -2.12544465065002441406e+00) (20, -2.29483461380004882812e+00) (21, -2.97738075256347656250e+00) (22, -9.05953884124755859375e+00) (23, -3.37114982604980468750e+01) (24, -4.79081630706787109375e+00) (25, -1.26407349109649658203e+00) (26, -7.81069278717041015625e-01) (27, 7.84429132938385009766e-01) (28, 1.91932411193847656250e+01) (29, 1.73473572731018066406e+00) (30, -5.98397254943847656250e-01) (31, -5.82110118865966796875e+00) (32, -3.86428743600845336914e-01) (33, -3.48232579231262207031e+00) (34, -2.05743923783302307129e-01) (35, -4.98011159896850585938e+00) (36, 1.02106833457946777344e+00) (37, 4.46532869338989257812e+00) (38, -7.90202558040618896484e-01) (39, -5.25423943996429443359e-01) (40, 1.42051160335540771484e+00) (41, 1.15531735122203826904e-01) (42, 1.50000000000000000000e+03) (43, -3.25905036926269531250e+00) (44, 1.00742016601562500000e+03) (45, 8.57284736633300781250e+00) (46, 1.35432910156250000000e+03) (47, 1.16493129730224609375e+00) (48, 2.07648110389709472656e+00) (49, 8.59529876708984375000e+00) (50, 1.68008923530578613281e+00) (51, 1.50000000000000000000e+03) (52, 1.88119459152221679688e+00) (53, 1.33990907669067382812e+00) (54, 1.09717178344726562500e+00) (55, -2.80689501762390136719e+00) (56, -2.68425434827804565430e-01) (0, 1.50000000000000000000e+03) (1, -3.06573448181152343750e+01) (2, -9.81559157371520996094e-01) (3, 3.27199757099151611328e-01) (4, 3.42538833618164062500e+01) (5, -1.45807147026062011719e+00) (6, -1.48333346843719482422e+00) (7, -1.63309535980224609375e+01) (8, -1.13379507064819335938e+01) (9, 2.00071841478347778320e-01) (10, 1.01636819839477539062e+01) (11, -3.76459658145904541016e-01) (12, 6.62045300006866455078e-01) (13, 1.06257736682891845703e+00) (14, 1.50000000000000000000e+03) (15, -7.17980325222015380859e-01) (16, -2.14540266990661621094e+00) (17, -1.28480625152587890625e+00) (18, 3.63725841045379638672e-01) (19, 3.15509200096130371094e-01) (20, 5.90239942073822021484e-01) (21, -9.42026042938232421875e+00) (22, 1.83907115459442138672e+00) (23, -8.36654434204101562500e+01) (24, -4.91261422634124755859e-01) (25, 3.15931409597396850586e-01) (26, 2.31739521026611328125e-01) (27, 7.43204474449157714844e-01) (28, -5.20760375976562500000e+02) (29, 1.07153463363647460938e+00) (30, 1.71759867668151855469e+00) (31, 9.44792628288269042969e-01) (32, -5.47057271003723144531e-01) (33, 3.39527368545532226562e-01) (34, 1.77333727478981018066e-01) (35, 4.09142160415649414062e+00) (36, 4.36654210090637207031e-01) (37, 8.49918518066406250000e+01) (38, -7.44721829891204833984e-01) (39, 3.47257167100906372070e-01) (40, -1.15460902452468872070e-01) (41, -1.18505561351776123047e+00) (42, 1.50000000000000000000e+03) (43, 4.07598447799682617188e+00) (44, 4.36194753646850585938e+00) (45, 4.13661813735961914062e+00) (46, 6.20655775070190429688e-01) (47, 5.70182323455810546875e-01) (48, 1.51107954978942871094e+00) (49, 2.39044857025146484375e+00) (50, -3.87041121721267700195e-01) (51, 1.50000000000000000000e+03) (52, -5.82963153719902038574e-02) (53, -1.50273153558373451233e-02) (54, -2.58764147758483886719e-01) (55, 3.94365578889846801758e-01) (56, -1.66080430150032043457e-01) (0, 1.50000000000000000000e+03) (1, -8.23199176788330078125e+00) (2, 9.85505676269531250000e+00) (3, -7.91970396041870117188e+00) (4, -7.90547418594360351562e+00) (5, -1.77352830767631530762e-01) (6, -2.30079340934753417969e+00) (7, -1.02304677963256835938e+01) (8, 9.48334574699401855469e-01) (9, 1.17762041091918945312e+00) (10, -1.02448475360870361328e+00) (11, 5.00195741653442382812e-01) (12, 2.94156002998352050781e+00) (13, 3.38812675476074218750e+01) (14, 1.50000000000000000000e+03) (15, -1.67951655387878417969e+00) (16, 1.94178295135498046875e+01) (17, 2.78851127624511718750e+00) (18, 1.27668869495391845703e+00) (19, 8.23653161525726318359e-01) (20, 7.43009209632873535156e-01) (21, 5.40085172653198242188e+00) (22, -3.46579933166503906250e+00) (23, 2.40348320007324218750e+01) (24, 4.45244729518890380859e-01) (25, -1.30658054351806640625e+00) (26, 3.43936592340469360352e-01) (27, 6.40861988067626953125e-01) (28, -1.35486083984375000000e+03) (29, -1.52450275421142578125e+01) (30, -1.64889736175537109375e+01) (31, -3.69683551788330078125e+00) (32, 2.65535831451416015625e+00) (33, -7.14966654777526855469e-01) (34, -2.82879137992858886719e+00) (35, 1.01264631748199462891e+00) (36, 5.84490835666656494141e-01) (37, -1.98742942810058593750e+01) (38, 1.04533891677856445312e+01) (39, 3.39582979679107666016e-01) (40, 3.20816248655319213867e-01) (41, 9.14046645164489746094e-01) (42, 1.50000000000000000000e+03) (43, 6.15822505950927734375e+00) (44, 3.41030311584472656250e+01) (45, 4.82012987136840820312e+00) (46, 7.69522476196289062500e+01) (47, 4.57984894514083862305e-01) (48, 2.36520320177078247070e-02) (49, 4.23795127868652343750e+00) (50, -4.64297676086425781250e+00) (51, 1.50000000000000000000e+03) (52, 1.82409957051277160645e-02) (53, 3.55995893478393554688e-01) (54, -2.61167049407958984375e-01) (55, -9.15516018867492675781e-01) (56, 3.64962100982666015625e-01) (0, 1.50000000000000000000e+03) (1, 1.76408061981201171875e+01) (2, 3.66674423217773437500e+00) (3, 4.43627309799194335938e+00) (4, 2.50674653053283691406e+00) (5, 4.83762294054031372070e-01) (6, 4.47049021720886230469e-01) (7, 1.32797765731811523438e+00) (8, 1.11608040332794189453e+00) (9, 3.75108808279037475586e-01) (10, -5.89392900466918945312e-01) (11, -7.70723521709442138672e-01) (12, 5.67211389541625976562e-01) (13, -3.13399982452392578125e+00) (14, 1.50000000000000000000e+03) (15, -7.33471810817718505859e-02) (16, -4.92391082763671875000e+02) (17, -2.11121249198913574219e+00) (18, 2.12550342082977294922e-01) (19, -5.94900310039520263672e-01) (20, -2.05917119979858398438e+00) (21, 2.04622521996498107910e-01) (22, 4.93581104278564453125e+00) (23, 2.05093908309936523438e+00) (24, -4.88597059249877929688e+00) (25, 9.84862670302391052246e-02) (26, 2.10784339904785156250e+00) (27, 1.89871966838836669922e+00) (28, 4.30304687500000000000e+02) (29, 2.96890759468078613281e+00) (30, 1.12312889099121093750e+00) (31, 1.31829118728637695312e+00) (32, -3.28721761703491210938e+00) (33, -6.64874315261840820312e-01) (34, -3.85451942682266235352e-01) (35, -2.32287812232971191406e+00) (36, 3.76868057250976562500e+00) (37, 9.19271659851074218750e+00) (38, -1.31345152854919433594e+00) (39, -5.29465198516845703125e+00) (40, 2.18467935919761657715e-02) (41, 3.70032072067260742188e-01) (42, 1.50000000000000000000e+03) (43, 4.70779514312744140625e+00) (44, 1.68128073215484619141e-01) (45, 4.36804008483886718750e+00) (46, 2.03332042694091796875e+00) (47, 2.89323002099990844727e-01) (48, 1.32816874980926513672e+00) (49, -1.14357793331146240234e+00) (50, 3.82451934814453125000e+01) (51, 1.50000000000000000000e+03) (52, -3.14816498756408691406e+00) (53, 1.00387620925903320312e+00) (54, 2.82862567901611328125e+00) (55, -9.18709456920623779297e-01) (56, 3.47566860727965831757e-03) (0, 1.50000000000000000000e+03) (1, 1.40889835357666015625e+01) (2, 4.29064065217971801758e-01) (3, 4.16094958782196044922e-01) (4, 6.90433406829833984375e+00) (5, 4.06156837940216064453e-01) (6, 4.08805578947067260742e-01) (7, 1.22898635864257812500e+01) (8, 1.75627756118774414062e+00) (9, 4.45390015840530395508e-01) (10, 6.80136108398437500000e+00) (11, 2.25723564624786376953e-01) (12, -2.80421674251556396484e-01) (13, 4.04128611087799072266e-01) (14, 1.50000000000000000000e+03) (15, -1.02688884735107421875e+00) (16, -4.06883835792541503906e-01) (17, 3.33215832710266113281e+00) (18, 5.34703969955444335938e-01) (19, -2.90587365627288818359e-01) (20, -6.41791582107543945312e-01) (21, 5.04019594192504882812e+00) (22, 1.55757915973663330078e+00) (23, 1.08848709106445312500e+02) (24, 3.52316796779632568359e-02) (25, -1.67931124567985534668e-01) (26, -5.64937651157379150391e-01) (27, -4.19975280761718750000e+00) (28, -6.97366333007812500000e+01) (29, 1.09946303069591522217e-01) (30, 4.58149433135986328125e-01) (31, -4.43375396728515625000e+00) (32, -2.71645188331604003906e+00) (33, -2.02399969100952148438e+00) (34, -4.56998571753501892090e-02) (35, -1.88069963455200195312e+00) (36, -2.34628534317016601562e+00) (37, -1.02367224121093750000e+03) (38, 8.37400674819946289062e-01) (39, -9.83821451663970947266e-01) (40, 2.75103735923767089844e+00) (41, 2.34018898010253906250e+01) (42, 1.50000000000000000000e+03) (43, 6.36312901973724365234e-01) (44, 4.87311124801635742188e+00) (45, 1.11645257472991943359e+00) (46, -1.00965666770935058594e+00) (47, 6.79938030242919921875e+00) (48, -1.04899847507476806641e+00) (49, 2.44169980287551879883e-01) (50, -1.73180377483367919922e+00) (51, 1.50000000000000000000e+03) (52, -2.11988329887390136719e+00) (53, 1.50141346454620361328e+00) (54, 2.43843972682952880859e-01) (55, -2.75627166032791137695e-01) (56, 3.63118678331375122070e-01) (0, 1.50000000000000000000e+03) (1, 5.49631166458129882812e+00) (2, -2.13981926441192626953e-01) (3, 6.05617985129356384277e-02) (4, 1.26641809940338134766e-01) (5, -1.26413393020629882812e+00) (6, -9.47994291782379150391e-01) (7, -2.30430364608764648438e+00) (8, 1.48520648479461669922e+00) (9, 1.68886995315551757812e+00) (10, -1.54977941513061523438e+00) (11, -3.88767570257186889648e-01) (12, -1.19006305932998657227e-01) (13, 4.42680835723876953125e-01) (14, 1.50000000000000000000e+03) (15, -3.07275695800781250000e+01) (16, -1.00569038391113281250e+02) (17, 1.33947813510894775391e+00) (18, -5.04584503173828125000e+00) (19, -1.55950832366943359375e+00) (20, -2.68575596809387207031e+00) (21, 6.13287866115570068359e-01) (22, 5.28814935684204101562e+00) (23, 4.64861106872558593750e+00) (24, -5.33731269836425781250e+00) (25, -1.41166472434997558594e+00) (26, 1.03788292407989501953e+00) (27, 1.65665471553802490234e+00) (28, -7.16408264160156250000e+02) (29, 5.14565086364746093750e+00) (30, -1.43944597244262695312e+00) (31, -2.39594578742980957031e+00) (32, -4.85475510358810424805e-01) (33, -1.13519132137298583984e+00) (34, -2.56492104381322860718e-03) (35, -3.96685051918029785156e+00) (36, -2.22989177703857421875e+00) (37, -7.55284347534179687500e+01) (38, -2.91424214839935302734e-01) (39, 1.98397397994995117188e-01) (40, 8.59432399272918701172e-01) (41, 4.11579847335815429688e+00) (42, 1.50000000000000000000e+03) (43, 2.73770689964294433594e+00) (44, 1.35426416015625000000e+03) (45, 3.47444820404052734375e+00) (46, 1.35429699707031250000e+03) (47, 1.45410513877868652344e+00) (48, 2.16116356849670410156e+00) (49, 6.21874237060546875000e+00) (50, -4.41660213470458984375e+00) (51, 1.50000000000000000000e+03) (52, -3.73599171638488769531e+00) (53, -9.67130005359649658203e-01) (54, 4.15373563766479492188e-01) (55, -8.92668628692626953125e+00) (56, -5.39374113082885742188e-01) (0, 1.50000000000000000000e+03) (1, -5.29138374328613281250e+00) (2, -8.00061225891113281250e+00) (3, 2.16265112161636352539e-01) (4, 1.31012749671936035156e+00) (5, -2.24913263320922851562e+00) (6, -2.37625336647033691406e+00) (7, -1.59527368545532226562e+01) (8, -9.10577714443206787109e-01) (9, 2.40241956710815429688e+00) (10, 2.47948482632637023926e-01) (11, -8.49484860897064208984e-01) (12, -6.93681314587593078613e-02) (13, -2.90414154529571533203e-01) (14, 1.50000000000000000000e+03) (15, -1.92547166347503662109e+00) (16, -6.33762836456298828125e-01) (17, -5.56137502193450927734e-01) (18, -4.47457742691040039062e+00) (19, -1.52894890308380126953e+00) (20, -8.80026757717132568359e-01) (21, -8.07262516021728515625e+00) (22, -2.66846513748168945312e+00) (23, -4.15106803178787231445e-01) (24, 8.84132623672485351562e-01) (25, -1.53568375110626220703e+00) (26, 4.60210442543029785156e-02) (27, 1.42474257946014404297e+00) (28, -7.25639465332031250000e+02) (29, 1.63757860660552978516e-01) (30, 2.37125992774963378906e+00) (31, -7.79789760708808898926e-02) (32, 5.06603240966796875000e-01) (33, 6.20078779757022857666e-02) (34, 1.17284119129180908203e+00) (35, 2.10359916090965270996e-01) (36, -1.19984853267669677734e+00) (37, 8.00473937988281250000e+01) (38, 1.97691053152084350586e-01) (39, 2.95907765626907348633e-01) (40, -1.04895718395709991455e-02) (41, 9.84218716621398925781e-03) (42, 1.50000000000000000000e+03) (43, 1.77567303180694580078e+00) (44, 2.49122810363769531250e+01) (45, 2.01498985290527343750e+00) (46, 2.52982807159423828125e+01) (47, 9.22393500804901123047e-01) (48, 1.99507141113281250000e+00) (49, 7.00214195251464843750e+00) (50, -6.50561428070068359375e+00) (51, 1.50000000000000000000e+03) (52, -1.91007018089294433594e+00) (53, 2.11299061775207519531e+00) (54, 5.81141486763954162598e-02) (55, 2.47409248352050781250e+00) (56, -2.54290610551834106445e-01) (0, 1.50000000000000000000e+03) (1, -1.01142144203186035156e+00) (2, 8.23410391807556152344e-01) (3, 3.74879837036132812500e-01) (4, 9.21804547309875488281e-01) (5, 1.17807559669017791748e-01) (6, -1.59403109550476074219e+00) (7, 2.42110681533813476562e+00) (8, 1.60943853855133056641e+00) (9, 1.06177210807800292969e+00) (10, 5.13909959793090820312e+00) (11, 2.82903522253036499023e-01) (12, 5.27087867259979248047e-01) (13, 4.14856255054473876953e-01) (14, 1.50000000000000000000e+03) (15, -1.04995784759521484375e+01) (16, -8.04991271972656250000e+02) (17, 4.37832057476043701172e-01) (18, 1.97407507896423339844e+00) (19, -4.36723327636718750000e+00) (20, -2.08837056159973144531e+00) (21, -1.83483168482780456543e-01) (22, -1.20851078033447265625e+01) (23, -1.35483288574218750000e+03) (24, -1.14918613433837890625e+01) (25, -9.17041718959808349609e-01) (26, 2.55689430236816406250e+00) (27, 8.28812956809997558594e-01) (28, 1.13605394363403320312e+01) (29, 3.18638134002685546875e+00) (30, -1.60195755958557128906e+00) (31, -2.20306038856506347656e+00) (32, -3.90505075454711914062e-01) (33, -2.36160326004028320312e+00) (34, -8.45420435070991516113e-02) (35, -1.10011386871337890625e+00) (36, 3.13669800758361816406e+00) (37, 3.26477974653244018555e-01) (38, -2.08353590965270996094e+00) (39, -6.07080459594726562500e-01) (40, 1.01396584510803222656e+00) (41, 1.12127971649169921875e+00) (42, 1.50000000000000000000e+03) (43, 9.08253073692321777344e-01) (44, 5.63883666992187500000e+02) (45, -3.46784806251525878906e+00) (46, 7.27967224121093750000e+02) (47, 8.75663757324218750000e-01) (48, 1.86556792259216308594e+00) (49, 1.31124228239059448242e-01) (50, -2.14701652526855468750e+00) (51, 1.50000000000000000000e+03) (52, -5.85860908031463623047e-01) (53, 5.49489915370941162109e-01) (54, -6.91643297672271728516e-01) (55, -3.91776895523071289062e+00) (56, -3.82984876632690429688e-01) (0, 1.50000000000000000000e+03) (1, -1.29991241455078125000e+02) (2, -3.52772533893585205078e-01) (3, -2.06208038330078125000e+00) (4, -1.53255462646484375000e+01) (5, -1.36888101696968078613e-01) (6, -8.72264742851257324219e-01) (7, 8.88756179809570312500e+00) (8, 8.93817424774169921875e+00) (9, -2.35341095924377441406e+00) (10, -6.65779769420623779297e-01) (11, -1.39012324810028076172e+00) (12, -6.49299335479736328125e+00) (13, 1.22653126716613769531e+00) (14, 1.50000000000000000000e+03) (15, -2.92995810508728027344e-01) (16, 3.93283081054687500000e+00) (17, 1.39071190357208251953e+00) (18, -1.82667136192321777344e+00) (19, 1.27388715744018554688e+00) (20, 9.75572407245635986328e-01) (21, 5.18861636519432067871e-02) (22, -4.68718261718750000000e+02) (23, 1.81634788513183593750e+01) (24, -2.51417160034179687500e+00) (25, 1.24598264694213867188e+00) (26, 2.30153656005859375000e+00) (27, -1.44482147693634033203e+00) (28, -6.33031616210937500000e+02) (29, -1.12384443283081054688e+01) (30, -1.05226524353027343750e+02) (31, -3.23940063476562500000e+02) (32, 2.54209756851196289062e+00) (33, -7.90559887886047363281e-01) (34, -4.19969856739044189453e-01) (35, -1.35106372833251953125e+01) (36, -3.24512738734483718872e-03) (37, -5.13348144531250000000e+02) (38, 1.74763703346252441406e+00) (39, -4.40222650766372680664e-01) (40, 4.97969418764114379883e-01) (41, 2.83893918991088867188e+00) (42, 1.50000000000000000000e+03) (43, 5.98215579986572265625e+00) (44, 7.24423122406005859375e+00) (45, -3.51072463989257812500e+01) (46, 6.66593360900878906250e+00) (47, 1.35718011856079101562e+00) (48, 8.00322592258453369141e-01) (49, 2.96533107757568359375e+00) (50, -5.14367198944091796875e+00) (51, 1.50000000000000000000e+03) (52, -4.86286544799804687500e+00) (53, 5.90005934238433837891e-01) (54, -7.18742065429687500000e+01) (55, -2.47745990753173828125e+00) (56, -1.19666308164596557617e-01) (0, 1.50000000000000000000e+03) (1, -1.35660657882690429688e+01) (2, -2.54941582679748535156e+00) (3, -9.03465449810028076172e-01) (4, -5.00941514968872070312e-01) (5, -1.36500239372253417969e+00) (6, -1.10768163204193115234e+00) (7, -1.62514247894287109375e+01) (8, 2.15267032384872436523e-01) (9, 6.20724558830261230469e-01) (10, 3.18856644630432128906e+00) (11, -7.77557075023651123047e-01) (12, -1.09561294317245483398e-01) (13, -3.62761831283569335938e+00) (14, 1.50000000000000000000e+03) (15, -6.96382808685302734375e+00) (16, 9.19899702072143554688e-01) (17, -4.82882887125015258789e-01) (18, -1.08456058502197265625e+01) (19, -2.09136390686035156250e+00) (20, -1.02817308902740478516e+00) (21, -1.22564077377319335938e+01) (22, -2.75630164146423339844e+00) (23, -1.29582977294921875000e+02) (24, 4.21816289424896240234e-01) (25, -2.18161010742187500000e+00) (26, 1.76743537187576293945e-01) (27, 1.14756333827972412109e+00) (28, -2.83421630859375000000e+02) (29, 5.65880918502807617188e+00) (30, 5.32848691940307617188e+00) (31, 4.49625939130783081055e-01) (32, 4.54275751113891601562e+00) (33, -1.34483173489570617676e-01) (34, 1.66106700897216796875e-01) (35, 2.15604454278945922852e-01) (36, -6.18107378482818603516e-01) (37, 8.32949676513671875000e+01) (38, 2.88058876991271972656e+00) (39, -1.93344980478286743164e-01) (40, -7.06330537796020507812e-02) (41, -2.01073360443115234375e+00) (42, 1.50000000000000000000e+03) (43, 1.03183543682098388672e+00) (44, 1.36693668365478515625e+01) (45, 2.51295876502990722656e+00) (46, 1.21390419006347656250e+01) (47, 2.58914375305175781250e+00) (48, 2.24447417259216308594e+00) (49, 9.42812252044677734375e+00) (50, 6.01276397705078125000e+00) (51, 1.50000000000000000000e+03) (52, -1.74787724018096923828e+00) (53, -6.54029130935668945312e-01) (54, -5.00205397605895996094e-01) (55, 2.70582532882690429688e+00) (56, -3.98057341575622558594e-01) (0, 1.50000000000000000000e+03) (1, -7.12752267718315124512e-02) (2, 2.98452281951904296875e+00) (3, -6.89436048269271850586e-02) (4, -6.12616968154907226562e+00) (5, -4.50503587722778320312e-01) (6, -1.37866735458374023438e+00) (7, 2.10394668579101562500e+00) (8, -2.00208234786987304688e+00) (9, -4.68576164245605468750e+01) (10, 2.26986005902290344238e-01) (11, -1.96577414870262145996e-01) (12, 1.57239401340484619141e+00) (13, 2.08343818783760070801e-01) (14, 1.50000000000000000000e+03) (15, 8.21943378448486328125e+00) (16, -1.47367034912109375000e+02) (17, -8.72456970214843750000e+01) (18, -4.27362346649169921875e+00) (19, -1.96512651443481445312e+00) (20, -3.63067603111267089844e+00) (21, -3.92661428451538085938e+00) (22, -6.22458267211914062500e+00) (23, -6.53831787109375000000e+02) (24, -4.92361545562744140625e+00) (25, -1.55459260940551757812e+00) (26, 2.24654793739318847656e+00) (27, 1.27110481262207031250e+00) (28, 1.02258996963500976562e+01) (29, 2.42896032333374023438e+00) (30, 1.09665513038635253906e+00) (31, -3.10470700263977050781e+00) (32, -5.38879215717315673828e-01) (33, -3.95541834831237792969e+00) (34, -1.62998318672180175781e-01) (35, -3.55919837951660156250e+00) (36, -3.22563079833984375000e+02) (37, 2.81782007217407226562e+00) (38, -2.51441073417663574219e+00) (39, 4.81498539447784423828e-01) (40, 2.61117100715637207031e-01) (41, 8.73815566301345825195e-02) (42, 1.50000000000000000000e+03) (43, -4.88558769226074218750e+00) (44, 1.35425097656250000000e+03) (45, 6.42569494247436523438e+00) (46, 1.35427209472656250000e+03) (47, 1.47957229614257812500e+00) (48, 1.36737275123596191406e+00) (49, 4.49969482421875000000e+00) (50, -8.07500183582305908203e-01) (51, 1.50000000000000000000e+03) (52, 9.70381855964660644531e-01) (53, 4.93517965078353881836e-01) (54, 1.10234689712524414062e+00) (55, -1.84754979610443115234e+00) (56, -2.80253171920776367188e-01) (0, 1.50000000000000000000e+03) (1, 1.62799167633056640625e+01) (2, -1.39680314064025878906e+00) (3, 1.31305921077728271484e+00) (4, 1.82988071441650390625e+00) (5, 2.93658018112182617188e-01) (6, -2.20590218901634216309e-01) (7, 2.27669582366943359375e+01) (8, -3.83218359947204589844e+00) (9, -9.76270914077758789062e-01) (10, -1.31909227371215820312e+00) (11, -1.19744658470153808594e+00) (12, -4.83571338653564453125e+00) (13, -1.64729297161102294922e-01) (14, 1.50000000000000000000e+03) (15, 5.74776124954223632812e+00) (16, -8.18598571777343750000e+02) (17, -5.73454513549804687500e+01) (18, -2.76224482804536819458e-02) (19, -8.19403469562530517578e-01) (20, -1.07264649868011474609e+00) (21, 2.71888494491577148438e-01) (22, 9.65069591999053955078e-01) (23, -1.68458366394042968750e+00) (24, -6.00578927993774414062e+00) (25, 3.93260508775711059570e-01) (26, 1.42559313774108886719e+00) (27, 1.69061589241027832031e+00) (28, 4.48462768554687500000e+02) (29, -3.14085602760314941406e+00) (30, 1.05340862274169921875e+00) (31, -1.33771204948425292969e+00) (32, -6.10776960849761962891e-01) (33, -2.54708313941955566406e+00) (34, -3.05951714515686035156e-01) (35, -1.13982808589935302734e+00) (36, 8.39680969715118408203e-01) (37, -2.67926921844482421875e+01) (38, -3.26874637603759765625e+00) (39, -1.26439678668975830078e+00) (40, 3.74693489074707031250e+00) (41, -1.98770987987518310547e+00) (42, 1.50000000000000000000e+03) (43, 8.55739879608154296875e+00) (44, 7.80541324615478515625e+00) (45, 1.96287608146667480469e+00) (46, 3.93762016296386718750e+00) (47, 7.11426019668579101562e-01) (48, 1.27054560184478759766e+00) (49, 3.01809217780828475952e-02) (50, 1.42515897750854492188e-01) (51, 1.50000000000000000000e+03) (52, 2.37942409515380859375e+00) (53, 1.49080169200897216797e+00) (54, -6.69830322265625000000e-01) (55, 3.95660567283630371094e+00) (56, -1.55513629317283630371e-01) (0, 1.50000000000000000000e+03) (1, 1.29930467605590820312e+01) (2, 1.50447821617126464844e+00) (3, -1.07111144065856933594e+00) (4, 2.48501086235046386719e+00) (5, -2.59862709045410156250e+00) (6, 8.95729213953018188477e-02) (7, -1.67323150634765625000e+01) (8, 3.65820598602294921875e+00) (9, -4.28394985198974609375e+00) (10, 7.90574908256530761719e-01) (11, -1.14243060350418090820e-01) (12, -8.60999003052711486816e-02) (13, 2.26807856559753417969e+00) (14, 1.50000000000000000000e+03) (15, -6.50481998920440673828e-01) (16, 7.93397094726562500000e+02) (17, 1.37054758071899414062e+01) (18, -2.00897073745727539062e+00) (19, 1.03938853740692138672e+00) (20, 1.39523959159851074219e+00) (21, 2.27930688858032226562e+00) (22, -7.50054883956909179688e+00) (23, 4.41173889160156250000e+02) (24, -3.47336113452911376953e-01) (25, -5.94650745391845703125e-01) (26, 1.93546742200851440430e-01) (27, 1.41224193572998046875e+00) (28, 3.85643646240234375000e+02) (29, 1.31613492965698242188e+01) (30, 4.87076416015625000000e+01) (31, 1.48287355899810791016e-01) (32, 6.01638889312744140625e+00) (33, 1.79425135254859924316e-01) (34, 1.73392742872238159180e-01) (35, 1.55396163463592529297e+00) (36, 8.60224366188049316406e-01) (37, 8.64866104125976562500e+01) (38, 5.22843456268310546875e+00) (39, 1.19340944290161132812e+00) (40, 3.41605961322784423828e-01) (41, 3.24358654022216796875e+00) (42, 1.50000000000000000000e+03) (43, -3.72249870300292968750e+01) (44, 1.58179759979248046875e+00) (45, 1.32025086879730224609e+00) (46, -2.10474348068237304688e+00) (47, -7.32977807521820068359e-01) (48, -3.08500647544860839844e-01) (49, 2.45654273033142089844e+00) (50, 3.01988627761602401733e-02) (51, 1.50000000000000000000e+03) (52, -5.08820533752441406250e+00) (53, 1.61659449338912963867e-01) (54, -3.29768204689025878906e+00) (55, -4.74810004234313964844e-01) (56, 3.32472950220108032227e-01) (57, 6.83835983276367187500e-01) (58, -1.54446148872375488281e+00) (59, 4.67649698257446289062e-01) (60, 3.85948985815048217773e-01) (61, 2.89388537406921386719e+00) (62, 1.16013586521148681641e+00) (63, -5.75190782546997070312e-01) (64, -8.95412787795066833496e-02) (65, 1.39900791645050048828e+00) (66, 2.11192893981933593750e+00) (67, -1.71492648124694824219e+00) (68, 1.11524379253387451172e+00) (69, 2.62096595764160156250e+00) (70, 2.60751038789749145508e-01) (71, -1.31165337562561035156e+00) (72, 3.69714856147766113281e-01) (73, -7.32814669609069824219e-01) (57, 2.29757261276245117188e+00) (58, -1.38116431236267089844e+00) (59, 4.45697039365768432617e-01) (60, 4.22999337315559387207e-02) (61, 1.70535922050476074219e+00) (62, 6.11457467079162597656e-01) (63, -8.24979007244110107422e-01) (64, -2.05844804644584655762e-01) (65, 1.64752817153930664062e+00) (66, 1.49623715877532958984e+00) (67, -2.38545879721641540527e-01) (68, 9.33979526162147521973e-02) (69, 1.80661237239837646484e+00) (70, 3.38635444641113281250e-02) (71, -2.19379520416259765625e+00) (72, 3.28852504491806030273e-01) (73, -2.39108800888061523438e-01) (57, -1.08707869052886962891e+00) (58, -3.25748348236083984375e+00) (59, 6.02360963821411132812e-01) (60, -1.75772756338119506836e-01) (61, -5.74490949511528015137e-02) (62, 7.78214514255523681641e-01) (63, -1.27477407455444335938e+00) (64, 1.73119455575942993164e-01) (65, -9.13114786148071289062e-01) (66, -2.52423081547021865845e-02) (67, -7.35167801380157470703e-01) (68, -6.98419094085693359375e-01) (69, -3.28240245580673217773e-01) (70, -3.91291171312332153320e-01) (71, -1.27285432815551757812e+00) (72, 1.10680246353149414062e+00) (73, 2.89504319429397583008e-01) (57, 1.07924451828002929688e+01) (58, 1.35449278354644775391e+00) (59, -5.09933173656463623047e-01) (60, -4.67103064060211181641e-01) (61, -3.36679601669311523438e+00) (62, -1.07275247573852539062e+00) (63, 2.19685649871826171875e+00) (64, 4.56360769271850585938e+00) (65, 1.25046958923339843750e+01) (66, -2.52381515502929687500e+00) (67, 1.28665184974670410156e+00) (68, 2.37717294692993164062e+00) (69, -1.97194612026214599609e+00) (70, 1.98912715911865234375e+00) (71, 1.68941962718963623047e+00) (72, -4.91518735885620117188e-01) (73, 5.47961443662643432617e-02) (57, -5.54717421531677246094e-01) (58, -1.32975103333592414856e-02) (59, -3.37508380413055419922e-01) (60, -2.59428679943084716797e-01) (61, -5.01585721969604492188e-01) (62, -9.85706329345703125000e-01) (63, 1.80532884597778320312e+00) (64, 8.18205475807189941406e-01) (65, -1.47374558448791503906e+00) (66, -7.29251146316528320312e-01) (67, -2.71700900048017501831e-02) (68, -1.33142575621604919434e-01) (69, -6.72721207141876220703e-01) (70, -3.37662637233734130859e-01) (71, 7.14502930641174316406e-02) (72, -2.11454153060913085938e-01) (73, 3.51584047079086303711e-01) (57, 1.80284667015075683594e+00) (58, 4.68981933593750000000e+00) (59, -1.25581240653991699219e+00) (60, 2.10122227668762207031e+00) (61, -3.49489271640777587891e-01) (62, -3.22135329246520996094e+00) (63, 1.77924561500549316406e+00) (64, 1.35508356615900993347e-02) (65, 1.16881620883941650391e+00) (66, -8.08605492115020751953e-01) (67, 2.17457151412963867188e+00) (68, -2.74895787239074707031e-01) (69, 2.95235067605972290039e-01) (70, 2.32973027229309082031e+00) (71, 2.79499077796936035156e+00) (72, -1.42727184295654296875e+00) (73, -2.25387886166572570801e-01) (57, 2.61406040191650390625e+00) (58, -1.37562465667724609375e+00) (59, 5.57432532310485839844e-01) (60, 9.25433114171028137207e-02) (61, 1.68563497066497802734e+00) (62, 3.32161331176757812500e+00) (63, -2.13045597076416015625e+00) (64, -1.38080447912216186523e-01) (65, 3.60895538330078125000e+00) (66, 1.46916699409484863281e+00) (67, -3.35131549835205078125e+00) (68, 7.73263812065124511719e-01) (69, 1.57494878768920898438e+00) (70, 1.29710778594017028809e-01) (71, -2.36829710006713867188e+00) (72, 4.94999289512634277344e-01) (73, -2.68511891365051269531e-01) (57, 6.39353990554809570312e-01) (58, 9.03815567493438720703e-01) (59, 6.32014423608779907227e-02) (60, 2.06800729036331176758e-01) (61, -1.19603186845779418945e-01) (62, 1.36409491300582885742e-01) (63, -2.52283811569213867188e+00) (64, -3.75441551208496093750e-01) (65, 6.69273197650909423828e-01) (66, -1.20425069332122802734e+00) (67, 8.82871985435485839844e-01) (68, 8.57666492462158203125e-01) (69, 3.86952221393585205078e-01) (70, 2.01278018951416015625e+00) (71, 7.28942990303039550781e-01) (72, 2.59624570608139038086e-01) (73, -7.56811946630477905273e-02) (57, 1.11822664737701416016e+00) (58, -7.85605788230895996094e-01) (59, 1.29725766181945800781e+00) (60, 9.05934944748878479004e-02) (61, 8.41739475727081298828e-01) (62, 1.63790762424468994141e+00) (63, -1.84347009658813476562e+00) (64, -2.85406857728958129883e-01) (65, 1.37497150897979736328e+00) (66, 2.76114296913146972656e+00) (67, -4.68772560358047485352e-01) (68, 2.14683264493942260742e-01) (69, 1.45422148704528808594e+00) (70, 2.23288964480161666870e-02) (71, -1.55729544162750244141e+00) (72, 7.12932050228118896484e-01) (73, -1.72732710838317871094e-01) (57, 1.62523841857910156250e+00) (58, -1.68634200096130371094e+00) (59, 3.47680121660232543945e-01) (60, 5.48660695552825927734e-01) (61, 3.35676938295364379883e-01) (62, 5.32958090305328369141e-01) (63, -8.72827887535095214844e-01) (64, -1.17404006421566009521e-01) (65, 1.91346585750579833984e+00) (66, 3.35028022527694702148e-01) (67, 1.16282664239406585693e-01) (68, 4.30811226367950439453e-01) (69, 3.85495096445083618164e-01) (70, 3.69571596384048461914e-01) (71, -7.70604670047760009766e-01) (72, 6.60283863544464111328e-01) (73, 4.18440019711852073669e-03) (57, -1.89396989345550537109e+00) (58, -2.77303552627563476562e+00) (59, 1.68069553375244140625e+00) (60, -1.13338923454284667969e+00) (61, 1.00513488054275512695e-01) (62, 1.08083295822143554688e+00) (63, -1.40560448169708251953e+00) (64, -1.18744283914566040039e-01) (65, -1.86429607868194580078e+00) (66, -4.77616675198078155518e-02) (67, -4.91934871673583984375e+00) (68, -6.29517018795013427734e-01) (69, -8.95198732614517211914e-02) (70, -1.60939836502075195312e+00) (71, -2.54620862007141113281e+00) (72, 1.70915389060974121094e+00) (73, 4.91219073534011840820e-01) (57, 7.89941906929016113281e-01) (58, 2.11065363883972167969e+00) (59, -1.68334305286407470703e+00) (60, 2.08288168907165527344e+00) (61, -2.67206519842147827148e-01) (62, -1.78971564769744873047e+00) (63, 2.22314810752868652344e+00) (64, -1.60123720765113830566e-01) (65, 5.81072747707366943359e-01) (66, 1.16018496453762054443e-01) (67, 1.89591431617736816406e+00) (68, 2.61309593915939331055e-01) (69, 1.23126411437988281250e+00) (70, 2.73961925506591796875e+00) (71, 1.81716835498809814453e+00) (72, -1.16415071487426757812e+00) (73, 2.06177448853850364685e-03) (57, -1.29136681556701660156e+00) (58, 3.03600072860717773438e-01) (59, -9.04394686222076416016e-01) (60, -4.69873219728469848633e-01) (61, 1.60253822803497314453e-01) (62, -2.14074087142944335938e+00) (63, 2.99794769287109375000e+00) (64, 8.00845921039581298828e-01) (65, -2.77040052413940429688e+00) (66, -6.53955459594726562500e-01) (67, 1.02185316383838653564e-01) (68, -4.25342500209808349609e-01) (69, -3.45554590225219726562e-01) (70, -5.41074037551879882812e-01) (71, 7.82273173332214355469e-01) (72, -1.72074079513549804688e+00) (73, 3.71173411607742309570e-01) (57, -1.22280013561248779297e+00) (58, -6.01212859153747558594e-01) (59, 2.26688355207443237305e-01) (60, -4.80515599250793457031e-01) (61, -2.27151867002248764038e-02) (62, 5.26684895157814025879e-02) (63, 3.15892606973648071289e-01) (64, 3.83162777870893478394e-03) (65, -1.24068737030029296875e+00) (66, -3.91007214784622192383e-03) (67, -8.75442028045654296875e-01) (68, -3.93846845626831054688e+00) (69, -3.69410872459411621094e-01) (70, -1.29805648326873779297e+00) (71, -3.00199538469314575195e-01) (72, 1.99021935462951660156e+00) (73, 7.50112950801849365234e-01) (57, 1.64073073863983154297e+00) (58, -7.14808702468872070312e-01) (59, 5.25045275688171386719e-01) (60, 6.46768212318420410156e-01) (61, 2.93587327003479003906e-01) (62, 2.81649500131607055664e-01) (63, -2.99212074279785156250e+00) (64, -3.33893626928329467773e-01) (65, 1.65718507766723632812e+00) (66, 1.88493013381958007812e-01) (67, 7.27064669132232666016e-01) (68, 1.68367698788642883301e-02) (69, 1.26319491863250732422e+00) (70, 7.78718292713165283203e-01) (71, -1.36181187629699707031e+00) (72, 1.72799384593963623047e+00) (73, -1.49665147066116333008e-01) (57, 1.66079223155975341797e+00) (58, -1.22493989765644073486e-02) (59, -3.87193173170089721680e-01) (60, -1.37851178646087646484e+00) (61, -3.94095015525817871094e+00) (62, -7.35405743122100830078e-01) (63, 2.86801457405090332031e+00) (64, 6.23760795593261718750e+00) (65, -8.30766975879669189453e-01) (66, -1.15801298618316650391e+00) (67, -2.99147725105285644531e-01) (68, 1.93643689155578613281e+00) (69, -3.88676929473876953125e+00) (70, -1.22882962226867675781e+00) (71, 7.02820718288421630859e-01) (72, -1.85129702091217041016e-01) (73, 6.12294189631938934326e-02) (74, -9.12692129611968994141e-01) (75, -8.52582097053527832031e-01) (76, -9.56308722496032714844e-01) (77, 4.48892235755920410156e-01) (78, 1.53560125827789306641e+00) (79, 8.24467897415161132812e-01) (80, -2.29785442352294921875e+00) (81, -1.08736112713813781738e-01) (82, -1.62514841556549072266e+00) (83, -3.81275266408920288086e-01) (84, -1.14676320552825927734e+00) (85, 8.12364399433135986328e-01) (86, 5.25323629379272460938e+00) (87, -4.13569360971450805664e-02) (88, -2.92515754699707031250e-01) (89, 4.63712692260742187500e-01) (90, -2.00010150671005249023e-01) (74, -6.29776060581207275391e-01) (75, -6.45701825618743896484e-01) (76, 1.96993812918663024902e-01) (77, 2.64450311660766601562e+00) (78, 1.92713409662246704102e-01) (79, -9.55169010162353515625e+00) (80, -4.36410963535308837891e-01) (81, -2.84406006336212158203e-01) (82, -4.08959984779357910156e-01) (83, -3.13933074474334716797e-01) (84, 8.76598805189132690430e-02) (85, -3.99142622947692871094e+00) (86, 1.51356518268585205078e-01) (87, -1.13580667972564697266e+00) (88, -6.32631123065948486328e-01) (89, 5.31450843811035156250e+00) (90, -1.08424592763185501099e-02) (74, 4.39592272043228149414e-01) (75, 3.65401506423950195312e-01) (76, 1.03827869892120361328e+00) (77, -5.14273214340209960938e+00) (78, 2.26447612047195434570e-01) (79, -4.15846824645996093750e-01) (80, 6.85697272419929504395e-02) (81, -2.79329985380172729492e-01) (82, 2.75014847517013549805e-01) (83, -5.06592914462089538574e-02) (84, 8.47119510173797607422e-01) (85, -3.34897577762603759766e-01) (86, 9.53999817371368408203e-01) (87, 2.88833475112915039062e+00) (88, -7.43261352181434631348e-02) (89, -5.92583131790161132812e+00) (90, 4.94261622428894042969e-01) (74, 7.03839004039764404297e-01) (75, 7.35291421413421630859e-01) (76, -1.97005569934844970703e+00) (77, -2.84355580806732177734e-01) (78, -4.60074281692504882812e+00) (79, 7.57177174091339111328e-01) (80, 7.37326085567474365234e-01) (81, 3.99841874837875366211e-01) (82, 7.22466766834259033203e-01) (83, 3.90012770891189575195e-01) (84, -3.24544262886047363281e+00) (85, 6.79892957210540771484e-01) (86, -1.27244079113006591797e+00) (87, -5.51760101318359375000e+00) (88, 5.29781758785247802734e-01) (89, -9.46652472019195556641e-01) (90, 1.88122600317001342773e-01) 
