FANN_FLO_2.1
num_layers=3
learning_rate=0.800000
connection_rate=1.000000
network_type=0
learning_momentum=0.000000
training_algorithm=0
train_error_function=1
train_stop_function=0
cascade_output_change_fraction=0.010000
quickprop_decay=-0.000100
quickprop_mu=1.750000
rprop_increase_factor=1.200000
rprop_decrease_factor=0.500000
rprop_delta_min=0.000000
rprop_delta_max=50.000000
rprop_delta_zero=0.100000
cascade_output_stagnation_epochs=12
cascade_candidate_change_fraction=0.010000
cascade_candidate_stagnation_epochs=12
cascade_max_out_epochs=150
cascade_min_out_epochs=50
cascade_max_cand_epochs=150
cascade_min_cand_epochs=50
cascade_num_candidate_groups=2
bit_fail_limit=3.49999994039535522461e-01
cascade_candidate_limit=1.00000000000000000000e+03
cascade_weight_multiplier=4.00000005960464477539e-01
cascade_activation_functions_count=10
cascade_activation_functions=3 5 7 8 10 11 14 15 16 17 
cascade_activation_steepnesses_count=4
cascade_activation_steepnesses=2.50000000000000000000e-01 5.00000000000000000000e-01 7.50000000000000000000e-01 1.00000000000000000000e+00 
layer_sizes=61 7 5 
scale_included=0
neurons (num_inputs, activation_function, activation_steepness)=(0, 0, 0.00000000000000000000e+00) (0, 0, 0.00000000000000000000e+00) (0, 0, 0.00000000000000000000e+00) (0, 0, 0.00000000000000000000e+00) (0, 0, 0.00000000000000000000e+00) (0, 0, 0.00000000000000000000e+00) (0, 0, 0.00000000000000000000e+00) (0, 0, 0.00000000000000000000e+00) (0, 0, 0.00000000000000000000e+00) (0, 0, 0.00000000000000000000e+00) (0, 0, 0.00000000000000000000e+00) (0, 0, 0.00000000000000000000e+00) (0, 0, 0.00000000000000000000e+00) (0, 0, 0.00000000000000000000e+00) (0, 0, 0.00000000000000000000e+00) (0, 0, 0.00000000000000000000e+00) (0, 0, 0.00000000000000000000e+00) (0, 0, 0.00000000000000000000e+00) (0, 0, 0.00000000000000000000e+00) (0, 0, 0.00000000000000000000e+00) (0, 0, 0.00000000000000000000e+00) (0, 0, 0.00000000000000000000e+00) (0, 0, 0.00000000000000000000e+00) (0, 0, 0.00000000000000000000e+00) (0, 0, 0.00000000000000000000e+00) (0, 0, 0.00000000000000000000e+00) (0, 0, 0.00000000000000000000e+00) (0, 0, 0.00000000000000000000e+00) (0, 0, 0.00000000000000000000e+00) (0, 0, 0.00000000000000000000e+00) (0, 0, 0.00000000000000000000e+00) (0, 0, 0.00000000000000000000e+00) (0, 0, 0.00000000000000000000e+00) (0, 0, 0.00000000000000000000e+00) (0, 0, 0.00000000000000000000e+00) (0, 0, 0.00000000000000000000e+00) (0, 0, 0.00000000000000000000e+00) (0, 0, 0.00000000000000000000e+00) (0, 0, 0.00000000000000000000e+00) (0, 0, 0.00000000000000000000e+00) (0, 0, 0.00000000000000000000e+00) (0, 0, 0.00000000000000000000e+00) (0, 0, 0.00000000000000000000e+00) (0, 0, 0.00000000000000000000e+00) (0, 0, 0.00000000000000000000e+00) (0, 0, 0.00000000000000000000e+00) (0, 0, 0.00000000000000000000e+00) (0, 0, 0.00000000000000000000e+00) (0, 0, 0.00000000000000000000e+00) (0, 0, 0.00000000000000000000e+00) (0, 0, 0.00000000000000000000e+00) (0, 0, 0.00000000000000000000e+00) (0, 0, 0.00000000000000000000e+00) (0, 0, 0.00000000000000000000e+00) (0, 0, 0.00000000000000000000e+00) (0, 0, 0.00000000000000000000e+00) (0, 0, 0.00000000000000000000e+00) (0, 0, 0.00000000000000000000e+00) (0, 0, 0.00000000000000000000e+00) (0, 0, 0.00000000000000000000e+00) (0, 0, 0.00000000000000000000e+00) (61, 3, 5.00000000000000000000e-01) (61, 3, 5.00000000000000000000e-01) (61, 3, 5.00000000000000000000e-01) (61, 3, 5.00000000000000000000e-01) (61, 3, 5.00000000000000000000e-01) (61, 3, 5.00000000000000000000e-01) (0, 3, 0.00000000000000000000e+00) (7, 3, 5.00000000000000000000e-01) (7, 3, 5.00000000000000000000e-01) (7, 3, 5.00000000000000000000e-01) (7, 3, 5.00000000000000000000e-01) (0, 3, 0.00000000000000000000e+00) 
connections (connected_to_neuron, weight)=(0, 7.00001525878906250000e+00) (1, 3.96382255554199218750e+01) (2, 3.55693168640136718750e+01) (3, 1.62309970855712890625e+01) (4, -6.36191253662109375000e+01) (5, -4.31640625000000000000e+00) (6, -4.40742378234863281250e+01) (7, 6.48936462402343750000e+01) (8, -4.14678039550781250000e+01) (9, 1.36446762084960937500e+01) (10, 2.69132671356201171875e+01) (11, -5.74642372131347656250e+01) (12, -2.81816291809082031250e+01) (13, -6.31550025939941406250e+00) (14, 2.41457748413085937500e+01) (15, -5.22122025489807128906e-01) (16, -7.98593711853027343750e+00) (17, -4.97839164733886718750e+00) (18, -2.41938323974609375000e+01) (19, 1.20786504745483398438e+01) (20, 1.27143735885620117188e+01) (21, 6.04719972610473632812e+00) (22, -1.93171577453613281250e+01) (23, 2.61856536865234375000e+01) (24, 5.80116319656372070312e+00) (25, 2.86305294036865234375e+01) (26, 1.31655626296997070312e+01) (27, -5.74465370178222656250e+00) (28, 2.37252311706542968750e+01) (29, -3.43454867601394653320e-01) (30, 7.63647937774658203125e+00) (31, -8.88999271392822265625e+00) (32, 6.32290534973144531250e+01) (33, -3.31153182983398437500e+01) (34, -1.59435119628906250000e+01) (35, 1.85390987396240234375e+01) (36, 2.75258674621582031250e+01) (37, -7.68177185058593750000e+01) (38, -1.05258178710937500000e+01) (39, 4.68131160736083984375e+00) (40, -6.21984243392944335938e-01) (41, 2.97336902618408203125e+01) (42, 3.31217269897460937500e+01) (43, 4.85144348144531250000e+01) (44, 3.11795768737792968750e+01) (45, -2.97351016998291015625e+01) (46, 2.11744594573974609375e+01) (47, 1.31835067272186279297e+00) (48, -3.95483541488647460938e+00) (49, -2.21246738433837890625e+01) (50, -2.20027923583984375000e+01) (51, 2.98206233978271484375e+01) (52, 2.02787456512451171875e+01) (53, -2.28864746093750000000e+01) (54, -1.38645401000976562500e+01) (55, -8.60802364349365234375e+00) (56, -6.28520345687866210938e+00) (57, 1.23295764923095703125e+01) (58, 3.32577466964721679688e+00) (59, 4.20036468505859375000e+01) (60, 8.87143898010253906250e+00) (0, 2.00097179412841796875e+01) (1, -7.65497779846191406250e+00) (2, -4.68637428283691406250e+01) (3, -1.07568407058715820312e+01) (4, -3.26635208129882812500e+01) (5, -2.94128627777099609375e+01) (6, -4.38444099426269531250e+01) (7, 1.23965950012207031250e+01) (8, -2.51277732849121093750e+01) (9, 3.66857147216796875000e+01) (10, -7.50687484741210937500e+01) (11, -1.58153457641601562500e+01) (12, -9.05914878845214843750e+00) (13, -5.85515975952148437500e+00) (14, -1.00288009643554687500e+01) (15, -1.46516704559326171875e+01) (16, 1.37333250045776367188e+01) (17, -9.61425094604492187500e+01) (18, -6.87435483932495117188e+00) (19, 4.12026634216308593750e+01) (20, -9.79830932617187500000e+00) (21, 1.41066617965698242188e+01) (22, 3.88766479492187500000e+00) (23, 3.47823181152343750000e+01) (24, -2.68028116226196289062e+00) (25, 1.07685127258300781250e+01) (26, -2.87287235260009765625e+01) (27, 6.74690170288085937500e+01) (28, 2.20206890106201171875e+01) (29, -2.87404327392578125000e+01) (30, 3.84845161437988281250e+01) (31, -1.51201066970825195312e+01) (32, -9.91644096374511718750e+00) (33, 7.26639633178710937500e+01) (34, 1.23359165191650390625e+01) (35, -3.86450004577636718750e+01) (36, -4.94490623474121093750e+01) (37, 2.34320449829101562500e+01) (38, -3.61694259643554687500e+01) (39, 1.27048892974853515625e+01) (40, 5.63655662536621093750e+00) (41, -4.47374763488769531250e+01) (42, 2.72221813201904296875e+01) (43, -1.34335632324218750000e+01) (44, -7.05667257308959960938e+00) (45, -3.48734321594238281250e+01) (46, -3.81369514465332031250e+01) (47, -4.68122673034667968750e+01) (48, -5.00601434707641601562e+00) (49, 1.70070304870605468750e+01) (50, 1.62688961029052734375e+01) (51, 2.77350902557373046875e+01) (52, -4.72487640380859375000e+01) (53, 1.25646066665649414062e+01) (54, -3.03644638061523437500e+01) (55, -2.97916831970214843750e+01) (56, -1.44660129547119140625e+01) (57, -3.92267456054687500000e+01) (58, 4.19005851745605468750e+01) (59, -1.80116786956787109375e+01) (60, 2.32784767150878906250e+01) (0, 1.64872264862060546875e+01) (1, 4.37880668640136718750e+01) (2, 1.77039718627929687500e+01) (3, 1.62930412292480468750e+01) (4, 3.18170032501220703125e+01) (5, 4.08448934555053710938e-01) (6, 1.86176700592041015625e+01) (7, 5.45921669006347656250e+01) (8, -7.77252197265625000000e+01) (9, 2.32644557952880859375e+01) (10, 5.71810951232910156250e+01) (11, -4.53645744323730468750e+01) (12, 1.90751671791076660156e+00) (13, -1.89620265960693359375e+01) (14, 5.18099641799926757812e+00) (15, -1.74354743957519531250e+01) (16, -5.88306083679199218750e+01) (17, -3.57935981750488281250e+01) (18, -4.99870262145996093750e+01) (19, -8.72771453857421875000e+00) (20, -1.25780458450317382812e+01) (21, -1.59111909866333007812e+01) (22, -1.15810298919677734375e+01) (23, 8.34023208618164062500e+01) (24, -5.29830322265625000000e+01) (25, 2.29992923736572265625e+01) (26, 1.88423500061035156250e+01) (27, -6.95789670944213867188e+00) (28, 4.87121810913085937500e+01) (29, -1.04103174209594726562e+01) (30, 2.87810668945312500000e+01) (31, -1.72429389953613281250e+01) (32, 2.55243148803710937500e+01) (33, -1.50809364318847656250e+01) (34, 1.87001743316650390625e+01) (35, 1.16569557189941406250e+01) (36, 8.53518390655517578125e+00) (37, 5.94761009216308593750e+01) (38, -5.39209594726562500000e+01) (39, 5.40500283241271972656e-01) (40, -5.13728332519531250000e+01) (41, -9.48821830749511718750e+00) (42, 1.08160314559936523438e+01) (43, -1.09718265533447265625e+01) (44, -4.13238716125488281250e+00) (45, 3.44451675415039062500e+01) (46, -3.24357948303222656250e+01) (47, 1.90511989593505859375e+01) (48, -4.55075502395629882812e+00) (49, 2.37079119682312011719e+00) (50, -1.93010997772216796875e+01) (51, 1.12914524078369140625e+01) (52, 9.38992881774902343750e+00) (53, 3.47862892150878906250e+01) (54, 1.00901432037353515625e+01) (55, 3.87766189575195312500e+01) (56, 1.10253505706787109375e+01) (57, -7.28653573989868164062e+00) (58, 9.05218124389648437500e+00) (59, -8.74179553985595703125e+00) (60, 1.26227874755859375000e+01) (0, 1.86309833526611328125e+01) (1, 1.71385631561279296875e+01) (2, -3.61295738220214843750e+01) (3, 9.89883041381835937500e+00) (4, -1.87746047973632812500e+01) (5, 1.70016632080078125000e+01) (6, 3.35252151489257812500e+01) (7, 5.71911392211914062500e+01) (8, 2.56466617584228515625e+01) (9, 4.99924011230468750000e+01) (10, -7.82382607460021972656e-01) (11, 8.64514350891113281250e+00) (12, 1.93811893463134765625e+01) (13, -3.91697273254394531250e+01) (14, -2.57846527099609375000e+01) (15, 4.20057144165039062500e+01) (16, 1.46570873260498046875e+01) (17, -2.53414173126220703125e+01) (18, 6.25672683715820312500e+01) (19, 6.50032043457031250000e+01) (20, -9.83063602447509765625e+00) (21, -6.40727081298828125000e+01) (22, 7.48390045166015625000e+01) (23, 1.26335458755493164062e+01) (24, 1.30481214523315429688e+01) (25, 1.65876045227050781250e+01) (26, 1.99535923004150390625e+01) (27, 2.93609733581542968750e+01) (28, -7.33234481811523437500e+01) (29, -5.07613487243652343750e+01) (30, 3.36790237426757812500e+01) (31, 6.13500938415527343750e+01) (32, 1.87971591949462890625e+01) (33, -5.46007633209228515625e+00) (34, 1.64341926574707031250e+00) (35, 1.40825557708740234375e+01) (36, 3.95789299011230468750e+01) (37, -2.40937924385070800781e+00) (38, 1.35122461318969726562e+01) (39, 1.89295792579650878906e+00) (40, -4.97714385986328125000e+01) (41, 8.61382961273193359375e+00) (42, -2.25886669158935546875e+01) (43, 2.17261257171630859375e+01) (44, -9.75733375549316406250e+00) (45, 1.26906166076660156250e+01) (46, -4.44197502136230468750e+01) (47, -2.93883018493652343750e+01) (48, -8.28731079101562500000e+01) (49, -5.75209999084472656250e+00) (50, -2.05713558197021484375e+01) (51, 2.21907091140747070312e+00) (52, 1.83623428344726562500e+01) (53, -5.69666099548339843750e+00) (54, -6.99258270263671875000e+01) (55, 1.95908050537109375000e+01) (56, 5.60501747131347656250e+01) (57, -1.53972959518432617188e+01) (58, 5.06333961486816406250e+01) (59, -4.10894088745117187500e+01) (60, 2.31240291595458984375e+01) (0, 2.78822402954101562500e+01) (1, -7.57930660247802734375e+00) (2, 3.52536201477050781250e+00) (3, -3.03404922485351562500e+01) (4, -1.63332138061523437500e+01) (5, -3.16889419555664062500e+01) (6, -2.74200320243835449219e+00) (7, -9.41987705230712890625e+00) (8, -1.92668557167053222656e+00) (9, -1.32532558441162109375e+01) (10, -1.44298763275146484375e+01) (11, 1.16891870498657226562e+01) (12, 9.50385689735412597656e-01) (13, 4.10852775573730468750e+01) (14, 1.17294168472290039062e+01) (15, 1.05086040496826171875e+01) (16, 1.95357933044433593750e+01) (17, -2.71873722076416015625e+01) (18, 1.36647453308105468750e+01) (19, 3.69954729080200195312e+00) (20, -3.07089748382568359375e+01) (21, -1.82962913513183593750e+01) (22, 6.25980224609375000000e+01) (23, -2.57754383087158203125e+01) (24, 1.19259042739868164062e+01) (25, -8.25771903991699218750e+00) (26, -1.99218101501464843750e+01) (27, 1.01815147399902343750e+01) (28, -5.68931350708007812500e+01) (29, -5.11198387145996093750e+01) (30, -1.54317483901977539062e+01) (31, 1.54828033447265625000e+01) (32, -2.50798130035400390625e+01) (33, -1.49927759170532226562e+01) (34, -3.26187133789062500000e+01) (35, 1.39919376373291015625e+01) (36, 5.42668342590332031250e+00) (37, 1.25152897834777832031e+00) (38, 1.78039073944091796875e+01) (39, 4.55697822570800781250e+01) (40, 2.66834902763366699219e+00) (41, 2.08060417175292968750e+01) (42, -2.06001138687133789062e+00) (43, -3.11377639770507812500e+01) (44, -2.44161167144775390625e+01) (45, 1.75914611816406250000e+01) (46, 2.28564310073852539062e+00) (47, 4.38319511413574218750e+01) (48, 8.38195114135742187500e+01) (49, -8.72724819183349609375e+00) (50, -3.33842086791992187500e+01) (51, 2.43979930877685546875e+00) (52, -2.62891883850097656250e+01) (53, 4.35908355712890625000e+01) (54, -2.79266815185546875000e+01) (55, -3.35036544799804687500e+01) (56, 4.83680458068847656250e+01) (57, -1.27018642425537109375e+01) (58, -2.23307342529296875000e+01) (59, 2.16943717002868652344e+00) (60, -3.54606208801269531250e+01) (0, -5.83058395385742187500e+01) (1, -3.76855850219726562500e+01) (2, -1.24649772644042968750e+01) (3, -2.84800109863281250000e+01) (4, -7.22470283508300781250e-02) (5, -4.05629825592041015625e+00) (6, -1.75700283050537109375e+01) (7, -7.86211853027343750000e+01) (8, 6.88954315185546875000e+01) (9, -2.65912475585937500000e+01) (10, 1.81848316192626953125e+01) (11, 2.10806694030761718750e+01) (12, 5.92520332336425781250e+00) (13, 2.08465251922607421875e+01) (14, -4.87510585784912109375e+00) (15, 3.15666255950927734375e+01) (16, -5.00835380554199218750e+01) (17, -1.86515808105468750000e+01) (18, -2.84508857727050781250e+01) (19, 2.22053384780883789062e+00) (20, -2.87154254913330078125e+01) (21, -1.16720533370971679688e+01) (22, -3.79283452033996582031e+00) (23, 4.14476509094238281250e+01) (24, -2.84227008819580078125e+01) (25, -2.73686485290527343750e+01) (26, -3.51574668884277343750e+01) (27, 2.15920906066894531250e+01) (28, -4.10346031188964843750e+01) (29, 5.53934478759765625000e+00) (30, 6.71927571296691894531e-01) (31, -5.40152015686035156250e+01) (32, -4.31480522155761718750e+01) (33, -1.72784976959228515625e+01) (34, -1.71394519805908203125e+01) (35, -9.59139156341552734375e+00) (36, 2.20317211151123046875e+01) (37, 8.66520118713378906250e+00) (38, 4.52747497558593750000e+01) (39, 1.69077825546264648438e+00) (40, -5.31446886062622070312e+00) (41, 1.28072748184204101562e+01) (42, -1.78733408451080322266e+00) (43, 1.56908636093139648438e+01) (44, -8.49267959594726562500e-01) (45, 5.11475791931152343750e+01) (46, 3.35851631164550781250e+01) (47, -5.05500450134277343750e+01) (48, 1.43741350173950195312e+01) (49, 2.63003253936767578125e+01) (50, 9.34643173217773437500e+00) (51, -4.28147792816162109375e+00) (52, 5.54889907836914062500e+01) (53, -7.15991897583007812500e+01) (54, 2.22915992736816406250e+01) (55, 1.59413299560546875000e+01) (56, -6.05163650512695312500e+01) (57, -2.85420322418212890625e+00) (58, -3.52173194885253906250e+01) (59, 7.25562477111816406250e+00) (60, -8.21846580505371093750e+00) (61, 5.60561704635620117188e+00) (62, 8.91652679443359375000e+00) (63, 1.22470111846923828125e+01) (64, 1.48443136215209960938e+01) (65, -4.32569694519042968750e+01) (66, -6.78568649291992187500e+01) (67, -3.16744441986083984375e+01) (61, -7.77933835983276367188e+00) (62, 5.29501295089721679688e+00) (63, -5.30674171447753906250e+01) (64, 1.64619483947753906250e+01) (65, 2.25138187408447265625e+01) (66, -4.51352310180664062500e+01) (67, -3.28854274749755859375e+00) (61, -4.73801116943359375000e+01) (62, 3.35187301635742187500e+01) (63, 1.50206594467163085938e+01) (64, -2.19216394424438476562e+00) (65, -3.07328987121582031250e+01) (66, -8.38730907440185546875e+00) (67, -2.65921096801757812500e+01) (61, -2.32125320434570312500e+01) (62, 2.23715744018554687500e+01) (63, -2.89619941711425781250e+01) (64, 7.07928228378295898438e+00) (65, -2.67329025268554687500e+01) (66, 3.86220283508300781250e+01) (67, -2.72798023223876953125e+01) 
