FANN_FLO_2.1
num_layers=3
learning_rate=0.800000
connection_rate=1.000000
network_type=0
learning_momentum=0.000000
training_algorithm=0
train_error_function=1
train_stop_function=0
cascade_output_change_fraction=0.010000
quickprop_decay=-0.000100
quickprop_mu=1.750000
rprop_increase_factor=1.200000
rprop_decrease_factor=0.500000
rprop_delta_min=0.000000
rprop_delta_max=50.000000
rprop_delta_zero=0.100000
cascade_output_stagnation_epochs=12
cascade_candidate_change_fraction=0.010000
cascade_candidate_stagnation_epochs=12
cascade_max_out_epochs=150
cascade_min_out_epochs=50
cascade_max_cand_epochs=150
cascade_min_cand_epochs=50
cascade_num_candidate_groups=2
bit_fail_limit=3.49999994039535522461e-01
cascade_candidate_limit=1.00000000000000000000e+03
cascade_weight_multiplier=4.00000005960464477539e-01
cascade_activation_functions_count=10
cascade_activation_functions=3 5 7 8 10 11 14 15 16 17 
cascade_activation_steepnesses_count=4
cascade_activation_steepnesses=2.50000000000000000000e-01 5.00000000000000000000e-01 7.50000000000000000000e-01 1.00000000000000000000e+00 
layer_sizes=61 7 5 
scale_included=0
neurons (num_inputs, activation_function, activation_steepness)=(0, 0, 0.00000000000000000000e+00) (0, 0, 0.00000000000000000000e+00) (0, 0, 0.00000000000000000000e+00) (0, 0, 0.00000000000000000000e+00) (0, 0, 0.00000000000000000000e+00) (0, 0, 0.00000000000000000000e+00) (0, 0, 0.00000000000000000000e+00) (0, 0, 0.00000000000000000000e+00) (0, 0, 0.00000000000000000000e+00) (0, 0, 0.00000000000000000000e+00) (0, 0, 0.00000000000000000000e+00) (0, 0, 0.00000000000000000000e+00) (0, 0, 0.00000000000000000000e+00) (0, 0, 0.00000000000000000000e+00) (0, 0, 0.00000000000000000000e+00) (0, 0, 0.00000000000000000000e+00) (0, 0, 0.00000000000000000000e+00) (0, 0, 0.00000000000000000000e+00) (0, 0, 0.00000000000000000000e+00) (0, 0, 0.00000000000000000000e+00) (0, 0, 0.00000000000000000000e+00) (0, 0, 0.00000000000000000000e+00) (0, 0, 0.00000000000000000000e+00) (0, 0, 0.00000000000000000000e+00) (0, 0, 0.00000000000000000000e+00) (0, 0, 0.00000000000000000000e+00) (0, 0, 0.00000000000000000000e+00) (0, 0, 0.00000000000000000000e+00) (0, 0, 0.00000000000000000000e+00) (0, 0, 0.00000000000000000000e+00) (0, 0, 0.00000000000000000000e+00) (0, 0, 0.00000000000000000000e+00) (0, 0, 0.00000000000000000000e+00) (0, 0, 0.00000000000000000000e+00) (0, 0, 0.00000000000000000000e+00) (0, 0, 0.00000000000000000000e+00) (0, 0, 0.00000000000000000000e+00) (0, 0, 0.00000000000000000000e+00) (0, 0, 0.00000000000000000000e+00) (0, 0, 0.00000000000000000000e+00) (0, 0, 0.00000000000000000000e+00) (0, 0, 0.00000000000000000000e+00) (0, 0, 0.00000000000000000000e+00) (0, 0, 0.00000000000000000000e+00) (0, 0, 0.00000000000000000000e+00) (0, 0, 0.00000000000000000000e+00) (0, 0, 0.00000000000000000000e+00) (0, 0, 0.00000000000000000000e+00) (0, 0, 0.00000000000000000000e+00) (0, 0, 0.00000000000000000000e+00) (0, 0, 0.00000000000000000000e+00) (0, 0, 0.00000000000000000000e+00) (0, 0, 0.00000000000000000000e+00) (0, 0, 0.00000000000000000000e+00) (0, 0, 0.00000000000000000000e+00) (0, 0, 0.00000000000000000000e+00) (0, 0, 0.00000000000000000000e+00) (0, 0, 0.00000000000000000000e+00) (0, 0, 0.00000000000000000000e+00) (0, 0, 0.00000000000000000000e+00) (0, 0, 0.00000000000000000000e+00) (61, 3, 5.00000000000000000000e-01) (61, 3, 5.00000000000000000000e-01) (61, 3, 5.00000000000000000000e-01) (61, 3, 5.00000000000000000000e-01) (61, 3, 5.00000000000000000000e-01) (61, 3, 5.00000000000000000000e-01) (0, 3, 0.00000000000000000000e+00) (7, 3, 5.00000000000000000000e-01) (7, 3, 5.00000000000000000000e-01) (7, 3, 5.00000000000000000000e-01) (7, 3, 5.00000000000000000000e-01) (0, 3, 0.00000000000000000000e+00) 
connections (connected_to_neuron, weight)=(0, -1.70235347747802734375e+01) (1, 3.33282165527343750000e+01) (2, 2.94827175140380859375e+01) (3, 1.95873546600341796875e+01) (4, -3.91670265197753906250e+01) (5, 7.57730007171630859375e+00) (6, -1.49805498123168945312e+01) (7, 4.56051063537597656250e+01) (8, -1.91948585510253906250e+01) (9, 7.27839040756225585938e+00) (10, -3.48903489112854003906e+00) (11, -5.69718894958496093750e+01) (12, -1.32349503040313720703e+00) (13, -1.33525981903076171875e+01) (14, 1.54820222854614257812e+01) (15, 5.25603368878364562988e-02) (16, 9.91835212707519531250e+00) (17, -2.56925163269042968750e+01) (18, -3.11821956634521484375e+01) (19, 1.04102773666381835938e+01) (20, 1.09771280288696289062e+01) (21, 8.78264808654785156250e+00) (22, -2.94337582588195800781e+00) (23, 4.78592157363891601562e+00) (24, 1.19239559173583984375e+01) (25, 1.85466670989990234375e+01) (26, -6.29360294342041015625e+00) (27, -2.74748363494873046875e+01) (28, 1.95000648498535156250e+01) (29, -7.52726697921752929688e+00) (30, -2.47166776657104492188e+00) (31, -2.53492832183837890625e+01) (32, 3.41786537170410156250e+01) (33, -3.61786041259765625000e+01) (34, -2.56391181945800781250e+01) (35, 3.03626823425292968750e+01) (36, 1.88154239654541015625e+01) (37, -5.40739364624023437500e+01) (38, 4.52702093124389648438e+00) (39, 8.16356849670410156250e+00) (40, 1.97956790924072265625e+01) (41, 4.82993125915527343750e+01) (42, 3.52197341918945312500e+01) (43, 1.42330980300903320312e+00) (44, 5.38141098022460937500e+01) (45, 3.22267293930053710938e+00) (46, -1.46410274505615234375e+00) (47, 6.83294582366943359375e+00) (48, 2.83966565132141113281e+00) (49, -2.07057437896728515625e+01) (50, -1.05229606628417968750e+01) (51, 7.80850887298583984375e+00) (52, 2.41866779327392578125e+01) (53, 5.02679395675659179688e+00) (54, -1.32515077590942382812e+01) (55, -4.73473548889160156250e+00) (56, -1.97258262634277343750e+01) (57, 1.50572657585144042969e+00) (58, -5.75242567062377929688e+00) (59, 2.66260681152343750000e+01) (60, -6.16372585296630859375e+00) (0, 4.05724449157714843750e+01) (1, -6.02033615112304687500e+00) (2, 8.39813804626464843750e+00) (3, 1.93193855285644531250e+01) (4, -2.70838127136230468750e+01) (5, -2.63030986785888671875e+01) (6, -1.62164955139160156250e+01) (7, 3.48926925659179687500e+00) (8, -1.23442010879516601562e+01) (9, 3.75986862182617187500e+01) (10, -4.72060012817382812500e+01) (11, -2.80172634124755859375e+01) (12, -1.25737848281860351562e+01) (13, -1.58000774383544921875e+01) (14, -1.50194768905639648438e+01) (15, -1.70790004730224609375e+01) (16, 2.32956371307373046875e+01) (17, -4.69737319946289062500e+01) (18, -6.12788772583007812500e+00) (19, 1.82844104766845703125e+01) (20, 2.76307754516601562500e+01) (21, 4.64965629577636718750e+00) (22, 7.55995988845825195312e+00) (23, 4.61533012390136718750e+01) (24, -7.34925329685211181641e-01) (25, 1.51843700408935546875e+01) (26, -3.31932306289672851562e+00) (27, 6.29912261962890625000e+01) (28, 5.35778760910034179688e+00) (29, -1.59224605560302734375e+01) (30, 1.97249088287353515625e+01) (31, -1.36829299926757812500e+01) (32, 4.18261432647705078125e+00) (33, 2.36793518066406250000e+01) (34, 3.96227097511291503906e+00) (35, -3.15410652160644531250e+01) (36, -5.30842132568359375000e+01) (37, 1.91125164031982421875e+01) (38, 2.41048336029052734375e+00) (39, 2.35575351715087890625e+01) (40, 9.25250053405761718750e+00) (41, -1.73255558013916015625e+01) (42, -1.20440874099731445312e+01) (43, -1.29307918548583984375e+01) (44, 6.84951257705688476562e+00) (45, -6.05729722976684570312e+00) (46, -2.68033256530761718750e+01) (47, -4.91030197143554687500e+01) (48, -1.32668485641479492188e+01) (49, 1.30715055465698242188e+01) (50, 6.84791231155395507812e+00) (51, -9.10075783729553222656e-01) (52, -4.53591880798339843750e+01) (53, 2.36295661926269531250e+01) (54, -1.08118820190429687500e+00) (55, -1.84334301948547363281e+00) (56, -6.47656726837158203125e+00) (57, -4.40290260314941406250e+01) (58, 2.08773231506347656250e+01) (59, -9.10713863372802734375e+00) (60, 1.43321695327758789062e+01) (0, 9.02451992034912109375e+00) (1, 3.13491096496582031250e+01) (2, 1.88636512756347656250e+01) (3, 2.33472704887390136719e+00) (4, 4.03114166259765625000e+01) (5, -1.18336086273193359375e+01) (6, 8.15994453430175781250e+00) (7, 3.84230690002441406250e+01) (8, -4.72689743041992187500e+01) (9, 1.94704303741455078125e+01) (10, 5.63249855041503906250e+01) (11, -2.54211502075195312500e+01) (12, -3.12463760375976562500e-01) (13, 2.11700224876403808594e+00) (14, -1.68784694671630859375e+01) (15, -1.95812129974365234375e+01) (16, -2.49809837341308593750e+01) (17, -3.32857971191406250000e+01) (18, -5.29866447448730468750e+01) (19, -2.32999730110168457031e+00) (20, 2.49228477478027343750e+00) (21, -1.48754129409790039062e+01) (22, -2.95046806335449218750e+01) (23, 6.19130821228027343750e+01) (24, -3.75569305419921875000e+01) (25, 1.75726528167724609375e+01) (26, 2.79719886779785156250e+01) (27, 3.80664348602294921875e+00) (28, 3.86486663818359375000e+01) (29, -2.55996589660644531250e+01) (30, 1.01599044799804687500e+01) (31, 8.50658226013183593750e+00) (32, -4.44106101989746093750e-01) (33, -5.83098888397216796875e-01) (34, -2.06952762603759765625e+01) (35, 6.87415504455566406250e+00) (36, -1.33169422149658203125e+01) (37, 3.02311992645263671875e+01) (38, -2.80499935150146484375e+01) (39, 3.04636268615722656250e+01) (40, -7.41416025161743164062e+00) (41, 8.15077304840087890625e+00) (42, 1.41397209167480468750e+01) (43, -2.45069789886474609375e+01) (44, 1.47174463272094726562e+01) (45, 2.57135715484619140625e+01) (46, -1.81994285583496093750e+01) (47, 1.39059648513793945312e+01) (48, -1.74637103080749511719e+00) (49, 1.29535179138183593750e+01) (50, -6.81542205810546875000e+00) (51, 4.73108339309692382812e+00) (52, 1.11948642730712890625e+01) (53, 2.38178215026855468750e+01) (54, 1.90483436584472656250e+01) (55, 7.43177890777587890625e+00) (56, -3.70594763755798339844e+00) (57, -6.33330821990966796875e+00) (58, -2.34693470001220703125e+01) (59, 8.85861682891845703125e+00) (60, -5.73420381546020507812e+00) (0, 1.63648262023925781250e+01) (1, -8.77373790740966796875e+00) (2, -2.09970302581787109375e+01) (3, -5.61812973022460937500e+00) (4, -2.18370399475097656250e+01) (5, 1.02752852439880371094e+00) (6, 4.94999771118164062500e+01) (7, 2.59657917022705078125e+01) (8, 3.54283676147460937500e+01) (9, 1.74517211914062500000e+01) (10, -9.85482692718505859375e+00) (11, -1.84979839324951171875e+01) (12, -1.16899461746215820312e+01) (13, -3.39849395751953125000e+01) (14, -2.46809749603271484375e+01) (15, -2.10896968841552734375e+01) (16, 2.96864395141601562500e+01) (17, -1.16427154541015625000e+01) (18, 3.19749679565429687500e+01) (19, 4.73020553588867187500e+01) (20, 1.11326646804809570312e+01) (21, -4.15218544006347656250e+01) (22, 3.78235664367675781250e+01) (23, 2.84836883544921875000e+01) (24, 1.22458095550537109375e+01) (25, 9.58043336868286132812e-01) (26, 1.63145427703857421875e+01) (27, 3.29654908180236816406e+00) (28, -6.71586990356445312500e+01) (29, -3.56251296997070312500e+01) (30, 2.17150993347167968750e+01) (31, 5.03889999389648437500e+01) (32, 2.57488059997558593750e+01) (33, -1.05443000793457031250e+01) (34, -2.47118210792541503906e+00) (35, 7.65531635284423828125e+00) (36, -2.92635738849639892578e-01) (37, 3.41443290710449218750e+01) (38, 2.01651744842529296875e+01) (39, -1.77116680145263671875e+01) (40, -6.38839874267578125000e+01) (41, -1.13179063796997070312e+01) (42, -9.65206623077392578125e+00) (43, 2.18700256347656250000e+01) (44, -1.41389894485473632812e+01) (45, -8.03967285156250000000e+00) (46, -5.50003013610839843750e+01) (47, -1.82663211822509765625e+01) (48, -4.98846054077148437500e+01) (49, 9.31224250793457031250e+00) (50, -6.92717790603637695312e+00) (51, 5.13500785827636718750e+00) (52, 2.84494876861572265625e+00) (53, 1.00319976806640625000e+01) (54, -8.62015457153320312500e+01) (55, 3.46438751220703125000e+01) (56, 4.77141342163085937500e+01) (57, -3.19217414855957031250e+01) (58, 2.17618122100830078125e+01) (59, -2.22022495269775390625e+01) (60, 3.61112709045410156250e+01) (0, 8.42784881591796875000e+00) (1, -2.68038964271545410156e+00) (2, 1.89556789398193359375e+01) (3, -4.50780143737792968750e+01) (4, -2.30922107696533203125e+01) (5, -2.22073822021484375000e+01) (6, -2.71290550231933593750e+01) (7, -2.32910728454589843750e+01) (8, 2.28580493927001953125e+01) (9, 1.75223388671875000000e+01) (10, 1.15849328041076660156e+00) (11, 2.09620532989501953125e+01) (12, 1.05129671096801757812e+00) (13, 2.55189533233642578125e+01) (14, 3.77840757369995117188e+00) (15, 1.61955604553222656250e+01) (16, 1.51124582290649414062e+01) (17, -4.34575119018554687500e+01) (18, 1.39658536911010742188e+01) (19, -3.24384613037109375000e+01) (20, -3.09938182830810546875e+01) (21, -8.95002746582031250000e+00) (22, 5.28572235107421875000e+01) (23, -5.23668022155761718750e+01) (24, -4.43439769744873046875e+00) (25, 1.32303762435913085938e+00) (26, -2.17907657623291015625e+01) (27, 4.87531805038452148438e+00) (28, -3.24901504516601562500e+01) (29, -6.17827148437500000000e+01) (30, 7.23205757141113281250e+00) (31, 1.21600818634033203125e+01) (32, -2.65057983398437500000e+01) (33, -1.02071533203125000000e+01) (34, -6.18065595626831054688e+00) (35, -9.87783908843994140625e+00) (36, -8.32523727416992187500e+00) (37, 1.38906717300415039062e+01) (38, -7.10248565673828125000e+00) (39, 2.36712245941162109375e+01) (40, -9.70683860778808593750e+00) (41, 2.81788253784179687500e+00) (42, 2.20081710815429687500e+01) (43, -2.66350021362304687500e+01) (44, -5.72357559204101562500e+00) (45, 9.48816490173339843750e+00) (46, 9.52405810356140136719e-01) (47, 3.86850280761718750000e+01) (48, 2.39123840332031250000e+01) (49, -7.05484056472778320312e+00) (50, -3.80913114547729492188e+00) (51, 2.67982292175292968750e+00) (52, -3.00333633422851562500e+01) (53, 3.33991088867187500000e+01) (54, -3.50735168457031250000e+01) (55, -3.66620864868164062500e+01) (56, 2.61030025482177734375e+01) (57, -3.32307205200195312500e+01) (58, 2.80477085113525390625e+01) (59, 2.66160631179809570312e+00) (60, -1.09535799026489257812e+01) (0, -4.38255538940429687500e+01) (1, -3.91274337768554687500e+01) (2, -5.40267705917358398438e+00) (3, -4.53243911266326904297e-01) (4, 9.64491367340087890625e+00) (5, -1.21197566986083984375e+01) (6, -7.29841232299804687500e+00) (7, -5.71231117248535156250e+01) (8, 4.75285301208496093750e+01) (9, -1.54664955139160156250e+01) (10, 5.44810628890991210938e+00) (11, 2.63635845184326171875e+01) (12, -1.01268177032470703125e+01) (13, 1.61936473846435546875e+01) (14, -1.72913322448730468750e+01) (15, 3.56328773498535156250e+01) (16, -3.31739768981933593750e+01) (17, -3.70478858947753906250e+01) (18, -2.72968006134033203125e+01) (19, 1.13720149993896484375e+01) (20, -1.99769191741943359375e+01) (21, 8.73711490631103515625e+00) (22, 1.30530462265014648438e+01) (23, 1.58447408676147460938e+01) (24, -2.68285274505615234375e+01) (25, -4.82694911956787109375e+00) (26, -2.74267368316650390625e+01) (27, 1.05272483825683593750e+00) (28, -1.21058673858642578125e+01) (29, -2.77554512023925781250e+00) (30, -1.14808340072631835938e+01) (31, -2.87851600646972656250e+01) (32, -2.81217784881591796875e+01) (33, -3.91830482482910156250e+01) (34, -2.67124786376953125000e+01) (35, 5.52081680297851562500e+00) (36, -3.51339888572692871094e+00) (37, 6.29957199096679687500e+00) (38, 1.72833156585693359375e+01) (39, 2.08604311943054199219e+00) (40, -1.13508391380310058594e+00) (41, 8.77647781372070312500e+00) (42, 1.68329772949218750000e+01) (43, 1.59902544021606445312e+01) (44, -7.05018997192382812500e+00) (45, 4.18959465026855468750e+01) (46, 8.74093914031982421875e+00) (47, -3.71069412231445312500e+01) (48, 3.41794662475585937500e+01) (49, 2.75763702392578125000e+01) (50, -1.81547188758850097656e+00) (51, -2.85940418243408203125e+01) (52, 3.18670291900634765625e+01) (53, -5.53162803649902343750e+01) (54, 2.86893959045410156250e+01) (55, 7.58969449996948242188e+00) (56, -5.74371490478515625000e+01) (57, 3.40981817245483398438e+00) (58, -1.73310985565185546875e+01) (59, -4.42859745025634765625e+00) (60, 2.02980399131774902344e+00) (61, 1.32387375831604003906e+00) (62, 1.58813943862915039062e+01) (63, 1.63054141998291015625e+01) (64, -4.41168498992919921875e+00) (65, -2.78290195465087890625e+01) (66, -5.70067749023437500000e+01) (67, -4.42113342285156250000e+01) (61, 4.51315164566040039062e+00) (62, 1.12108812332153320312e+01) (63, -4.45819549560546875000e+01) (64, 1.27837734222412109375e+01) (65, 3.17453479766845703125e+01) (66, -2.38241691589355468750e+01) (67, -1.83415393829345703125e+01) (61, -4.17961196899414062500e+01) (62, 2.48416862487792968750e+01) (63, 1.42096319198608398438e+01) (64, 2.30620217323303222656e+00) (65, -2.62505645751953125000e+01) (66, -1.26911201477050781250e+01) (67, -2.55984535217285156250e+01) (61, -1.56968393325805664062e+01) (62, 9.00321483612060546875e+00) (63, -1.69045295715332031250e+01) (64, 6.20463562011718750000e+00) (65, -1.91397705078125000000e+01) (66, 2.58186988830566406250e+01) (67, -2.71877632141113281250e+01) 
