FANN_FLO_2.1
num_layers=4
learning_rate=0.700000
connection_rate=1.000000
network_type=0
learning_momentum=0.000000
training_algorithm=2
train_error_function=1
train_stop_function=0
cascade_output_change_fraction=0.010000
quickprop_decay=-0.000100
quickprop_mu=1.750000
rprop_increase_factor=1.200000
rprop_decrease_factor=0.500000
rprop_delta_min=0.000000
rprop_delta_max=50.000000
rprop_delta_zero=0.100000
cascade_output_stagnation_epochs=12
cascade_candidate_change_fraction=0.010000
cascade_candidate_stagnation_epochs=12
cascade_max_out_epochs=150
cascade_min_out_epochs=50
cascade_max_cand_epochs=150
cascade_min_cand_epochs=50
cascade_num_candidate_groups=2
bit_fail_limit=3.49999994039535522461e-01
cascade_candidate_limit=1.00000000000000000000e+03
cascade_weight_multiplier=4.00000005960464477539e-01
cascade_activation_functions_count=10
cascade_activation_functions=3 5 7 8 10 11 14 15 16 17 
cascade_activation_steepnesses_count=4
cascade_activation_steepnesses=2.50000000000000000000e-01 5.00000000000000000000e-01 7.50000000000000000000e-01 1.00000000000000000000e+00 
layer_sizes=53 17 17 5 
scale_included=0
neurons (num_inputs, activation_function, activation_steepness)=(0, 0, 0.00000000000000000000e+00) (0, 0, 0.00000000000000000000e+00) (0, 0, 0.00000000000000000000e+00) (0, 0, 0.00000000000000000000e+00) (0, 0, 0.00000000000000000000e+00) (0, 0, 0.00000000000000000000e+00) (0, 0, 0.00000000000000000000e+00) (0, 0, 0.00000000000000000000e+00) (0, 0, 0.00000000000000000000e+00) (0, 0, 0.00000000000000000000e+00) (0, 0, 0.00000000000000000000e+00) (0, 0, 0.00000000000000000000e+00) (0, 0, 0.00000000000000000000e+00) (0, 0, 0.00000000000000000000e+00) (0, 0, 0.00000000000000000000e+00) (0, 0, 0.00000000000000000000e+00) (0, 0, 0.00000000000000000000e+00) (0, 0, 0.00000000000000000000e+00) (0, 0, 0.00000000000000000000e+00) (0, 0, 0.00000000000000000000e+00) (0, 0, 0.00000000000000000000e+00) (0, 0, 0.00000000000000000000e+00) (0, 0, 0.00000000000000000000e+00) (0, 0, 0.00000000000000000000e+00) (0, 0, 0.00000000000000000000e+00) (0, 0, 0.00000000000000000000e+00) (0, 0, 0.00000000000000000000e+00) (0, 0, 0.00000000000000000000e+00) (0, 0, 0.00000000000000000000e+00) (0, 0, 0.00000000000000000000e+00) (0, 0, 0.00000000000000000000e+00) (0, 0, 0.00000000000000000000e+00) (0, 0, 0.00000000000000000000e+00) (0, 0, 0.00000000000000000000e+00) (0, 0, 0.00000000000000000000e+00) (0, 0, 0.00000000000000000000e+00) (0, 0, 0.00000000000000000000e+00) (0, 0, 0.00000000000000000000e+00) (0, 0, 0.00000000000000000000e+00) (0, 0, 0.00000000000000000000e+00) (0, 0, 0.00000000000000000000e+00) (0, 0, 0.00000000000000000000e+00) (0, 0, 0.00000000000000000000e+00) (0, 0, 0.00000000000000000000e+00) (0, 0, 0.00000000000000000000e+00) (0, 0, 0.00000000000000000000e+00) (0, 0, 0.00000000000000000000e+00) (0, 0, 0.00000000000000000000e+00) (0, 0, 0.00000000000000000000e+00) (0, 0, 0.00000000000000000000e+00) (0, 0, 0.00000000000000000000e+00) (0, 0, 0.00000000000000000000e+00) (0, 0, 0.00000000000000000000e+00) (53, 3, 5.00000000000000000000e-01) (53, 3, 5.00000000000000000000e-01) (53, 3, 5.00000000000000000000e-01) (53, 3, 5.00000000000000000000e-01) (53, 3, 5.00000000000000000000e-01) (53, 3, 5.00000000000000000000e-01) (53, 3, 5.00000000000000000000e-01) (53, 3, 5.00000000000000000000e-01) (53, 3, 5.00000000000000000000e-01) (53, 3, 5.00000000000000000000e-01) (53, 3, 5.00000000000000000000e-01) (53, 3, 5.00000000000000000000e-01) (53, 3, 5.00000000000000000000e-01) (53, 3, 5.00000000000000000000e-01) (53, 3, 5.00000000000000000000e-01) (53, 3, 5.00000000000000000000e-01) (0, 3, 0.00000000000000000000e+00) (17, 3, 5.00000000000000000000e-01) (17, 3, 5.00000000000000000000e-01) (17, 3, 5.00000000000000000000e-01) (17, 3, 5.00000000000000000000e-01) (17, 3, 5.00000000000000000000e-01) (17, 3, 5.00000000000000000000e-01) (17, 3, 5.00000000000000000000e-01) (17, 3, 5.00000000000000000000e-01) (17, 3, 5.00000000000000000000e-01) (17, 3, 5.00000000000000000000e-01) (17, 3, 5.00000000000000000000e-01) (17, 3, 5.00000000000000000000e-01) (17, 3, 5.00000000000000000000e-01) (17, 3, 5.00000000000000000000e-01) (17, 3, 5.00000000000000000000e-01) (17, 3, 5.00000000000000000000e-01) (0, 3, 0.00000000000000000000e+00) (17, 3, 5.00000000000000000000e-01) (17, 3, 5.00000000000000000000e-01) (17, 3, 5.00000000000000000000e-01) (17, 3, 5.00000000000000000000e-01) (0, 3, 0.00000000000000000000e+00) 
connections (connected_to_neuron, weight)=(0, 1.18024238586425781250e+02) (1, -4.83283805847167968750e+01) (2, -8.44684764742851257324e-02) (3, -4.18689441680908203125e+00) (4, 7.81285285949707031250e+00) (5, -3.66146254539489746094e+00) (6, -7.89306521415710449219e-01) (7, -1.18157180786132812500e+02) (8, -3.26439917087554931641e-01) (9, 1.18144218444824218750e+02) (10, -9.93522930145263671875e+00) (11, -6.85393333435058593750e-01) (12, -3.66642385721206665039e-01) (13, -1.41208350658416748047e-01) (14, -1.01647460460662841797e+00) (15, -1.79771733283996582031e+00) (16, -2.77803540229797363281e-01) (17, -1.18012603759765625000e+02) (18, -7.88375616073608398438e+00) (19, 1.18140235900878906250e+02) (20, -5.84869728088378906250e+01) (21, 1.17999420166015625000e+02) (22, 1.18075912475585937500e+02) (23, 3.25655531883239746094e+00) (24, 5.55999469757080078125e+00) (25, -1.04560524225234985352e-01) (26, 1.18037910461425781250e+02) (27, 1.67112064361572265625e+00) (28, 1.17991432189941406250e+02) (29, -4.95760202407836914062e-01) (30, 1.00003254413604736328e+00) (31, 1.54773131012916564941e-01) (32, 1.63298773765563964844e+00) (33, 4.51673954725265502930e-01) (34, -4.05617475509643554688e+00) (35, 1.18091796875000000000e+02) (36, 1.18025833129882812500e+02) (37, -3.02755773067474365234e-01) (38, -1.51875579357147216797e+00) (39, 1.18013877868652343750e+02) (40, 1.18072303771972656250e+02) (41, 1.18071067810058593750e+02) (42, -1.52625799179077148438e+00) (43, 9.91812229156494140625e+00) (44, 7.61274933815002441406e-01) (45, 1.86837363243103027344e+00) (46, 4.12124443054199218750e+00) (47, 9.23972511291503906250e+00) (48, 5.06852340698242187500e+01) (49, 1.18143638610839843750e+02) (50, -9.11225914955139160156e-01) (51, 2.55247890949249267578e-01) (52, -7.11877644062042236328e-01) (0, 1.18001121520996093750e+02) (1, -4.40415620803833007812e+00) (2, -1.95830404758453369141e-01) (3, 1.14843487739562988281e+00) (4, 9.81136381626129150391e-01) (5, -9.78370487689971923828e-01) (6, 8.24683427810668945312e-01) (7, -1.18084892272949218750e+02) (8, -2.30769515037536621094e-02) (9, 1.18185760498046875000e+02) (10, 4.95783001184463500977e-01) (11, -5.70002079010009765625e-01) (12, 1.40634208917617797852e-01) (13, 9.12639737129211425781e-01) (14, 5.44870948791503906250e+00) (15, -2.43363690376281738281e+00) (16, -4.18132185935974121094e-01) (17, -1.18122352600097656250e+02) (18, -1.90895521640777587891e+00) (19, 1.18149421691894531250e+02) (20, -4.06282091140747070312e+00) (21, 1.18152404785156250000e+02) (22, 1.18161720275878906250e+02) (23, -5.57635605335235595703e-01) (24, 1.85234084725379943848e-01) (25, -3.58092021942138671875e+00) (26, 1.18052154541015625000e+02) (27, 5.13461589813232421875e-01) (28, 1.18060157775878906250e+02) (29, 1.10940909385681152344e+00) (30, -1.81838059425354003906e+00) (31, 2.98504650592803955078e-01) (32, 8.89377966523170471191e-02) (33, 4.59326922893524169922e-01) (34, -1.49705171585083007812e+00) (35, 1.18079231262207031250e+02) (36, 1.18071426391601562500e+02) (37, 2.40805149078369140625e-01) (38, -9.28283631801605224609e-01) (39, 1.18132957458496093750e+02) (40, 4.33225244283676147461e-01) (41, 3.58233600854873657227e-01) (42, 1.40108063817024230957e-01) (43, 3.28833866119384765625e+00) (44, 4.22393941879272460938e+00) (45, 3.14002966880798339844e+00) (46, 1.50089395046234130859e+00) (47, 4.30506992340087890625e+00) (48, 1.57566830515861511230e-01) (49, 2.97187298536300659180e-01) (50, 1.94980680942535400391e-01) (51, 5.21564602851867675781e-01) (52, -6.53163120150566101074e-02) (0, 1.18179512023925781250e+02) (1, -1.93593144416809082031e+00) (2, 1.81308746337890625000e-01) (3, -4.05354690551757812500e+00) (4, 3.00250196456909179688e+00) (5, -3.51749944686889648438e+00) (6, -3.40110003948211669922e-01) (7, -1.18104278564453125000e+02) (8, -1.12629160284996032715e-01) (9, 1.18082870483398437500e+02) (10, -2.87875294685363769531e+00) (11, -1.71846377849578857422e+00) (12, 7.15291261672973632812e-01) (13, 1.08801126480102539062e-01) (14, -2.17496657371520996094e+00) (15, -5.53793430328369140625e-01) (16, -5.91406822204589843750e-01) (17, -1.18184173583984375000e+02) (18, -1.30233097076416015625e+01) (19, 1.18133056640625000000e+02) (20, -5.83863449096679687500e+01) (21, 1.18153915405273437500e+02) (22, 1.18111328125000000000e+02) (23, 8.05113554000854492188e-01) (24, 3.25113964080810546875e+00) (25, -1.01459372043609619141e+00) (26, 1.18181068420410156250e+02) (27, 1.26038575172424316406e+00) (28, 1.18185752868652343750e+02) (29, -1.26966738700866699219e+00) (30, 5.93692660331726074219e-01) (31, 3.87053340673446655273e-01) (32, 8.13517189025878906250e+00) (33, -4.67926412820816040039e-02) (34, -2.20613002777099609375e+00) (35, 1.18045272827148437500e+02) (36, 1.18183212280273437500e+02) (37, 1.66588246822357177734e-01) (38, -9.18533563613891601562e-01) (39, 1.18020507812500000000e+02) (40, 2.44096541404724121094e+00) (41, 2.57575988769531250000e+00) (42, -2.41553008556365966797e-01) (43, 2.44762325286865234375e+00) (44, 2.22425532341003417969e+00) (45, 6.55698299407958984375e-01) (46, 3.49098420143127441406e+00) (47, 1.72614848613739013672e+00) (48, 2.48175525665283203125e+00) (49, 2.43696451187133789062e+00) (50, 2.69390970468521118164e-01) (51, 4.41013872623443603516e-01) (52, 1.26368261408060789108e-03) (0, 1.18048263549804687500e+02) (1, 8.80407452583312988281e-01) (2, 4.40272045135498046875e+00) (3, -4.54569387435913085938e+00) (4, 3.25205922126770019531e-01) (5, 5.42373120784759521484e-01) (6, 2.52906608581542968750e+00) (7, -4.88237686157226562500e+01) (8, 6.17203378677368164062e+00) (9, 1.18014198303222656250e+02) (10, -9.34833288192749023438e-01) (11, -8.72498631477355957031e-01) (12, 2.39203691482543945312e+00) (13, -2.92301118373870849609e-01) (14, 2.61210727691650390625e+00) (15, 6.08987140655517578125e+00) (16, 2.78240054845809936523e-01) (17, -4.88756675720214843750e+01) (18, 3.19058835506439208984e-01) (19, 1.18155563354492187500e+02) (20, -7.44870722293853759766e-01) (21, 1.18074287414550781250e+02) (22, 1.18037429809570312500e+02) (23, 4.79118156433105468750e+00) (24, 5.47022968530654907227e-02) (25, -3.42360943555831909180e-01) (26, 1.18074302673339843750e+02) (27, 8.32804799079895019531e-01) (28, 1.18166488647460937500e+02) (29, 6.77212834358215332031e-01) (30, 3.76317691802978515625e+00) (31, -1.08900219202041625977e-01) (32, -4.18186616897583007812e+00) (33, 1.26498043537139892578e+00) (34, -7.69212603569030761719e-01) (35, 1.18015815734863281250e+02) (36, 1.18154235839843750000e+02) (37, 3.99211794137954711914e-01) (38, -1.84143632650375366211e-01) (39, 1.18006530761718750000e+02) (40, -1.64054179191589355469e+00) (41, -2.48255014419555664062e+00) (42, 1.67478680610656738281e+00) (43, -4.88033008575439453125e+00) (44, 1.03501987457275390625e+00) (45, 6.20675373077392578125e+00) (46, 3.06534171104431152344e-01) (47, 1.20554578304290771484e+00) (48, -4.40143316984176635742e-01) (49, -1.67840480804443359375e+00) (50, 3.04211115837097167969e+00) (51, 1.12998986244201660156e+00) (52, -8.85007977485656738281e-01) (0, 1.18087020874023437500e+02) (1, -1.67605996131896972656e+00) (2, 3.04091483354568481445e-01) (3, -3.51065945625305175781e+00) (4, 2.37816715240478515625e+01) (5, -1.48342204093933105469e+00) (6, -7.55345582962036132812e-01) (7, -4.72227897644042968750e+01) (8, -6.83627128601074218750e-01) (9, 1.18144783020019531250e+02) (10, -1.02873191833496093750e+01) (11, -9.07133936882019042969e-01) (12, 1.14511862397193908691e-01) (13, -2.46935740113258361816e-01) (14, -9.19435501098632812500e-01) (15, -7.43345737457275390625e-01) (16, -9.30553793907165527344e-01) (17, -4.72071647644042968750e+01) (18, -1.03719434738159179688e+01) (19, 1.18053726196289062500e+02) (20, -5.84653892517089843750e+01) (21, 1.18172615051269531250e+02) (22, 1.18134658813476562500e+02) (23, 1.69191026687622070312e+00) (24, 5.97014904022216796875e+00) (25, -1.03781640529632568359e+00) (26, 1.18067192077636718750e+02) (27, 2.32765138149261474609e-01) (28, 1.18066535949707031250e+02) (29, -1.61122417449951171875e+00) (30, 1.77726335823535919189e-02) (31, -2.22064360976219177246e-01) (32, 1.35349273681640625000e+00) (33, 1.10062055289745330811e-01) (34, -3.98283052444458007812e+00) (35, 1.18136543273925781250e+02) (36, 1.18007202148437500000e+02) (37, -8.14283549785614013672e-01) (38, -1.79893636703491210938e+00) (39, 1.17997215270996093750e+02) (40, 4.86765518188476562500e+01) (41, 3.97463989257812500000e+01) (42, -9.41563010215759277344e-01) (43, 3.40767025947570800781e+00) (44, 1.26765239238739013672e+00) (45, 2.47696578502655029297e-01) (46, 1.82379090785980224609e+00) (47, 1.43729650974273681641e+00) (48, 4.85219192504882812500e+01) (49, 4.85512466430664062500e+01) (50, -3.39205056428909301758e-01) (51, 8.24738740921020507812e-02) (52, -2.67200857400894165039e-01) (0, 1.18149055480957031250e+02) (1, 4.05601654052734375000e+01) (2, 1.69095849990844726562e+00) (3, 9.28522527217864990234e-01) (4, -2.19163864850997924805e-01) (5, -7.09356591105461120605e-02) (6, -4.01241779327392578125e-01) (7, 1.98693370819091796875e+01) (8, -1.26950180530548095703e+00) (9, 1.18033050537109375000e+02) (10, -7.52663016319274902344e-01) (11, -4.69263345003128051758e-01) (12, 2.31204390525817871094e-01) (13, -2.49594306945800781250e+00) (14, 1.61307707428932189941e-01) (15, -3.83379846811294555664e-01) (16, 9.03151556849479675293e-02) (17, 1.99976959228515625000e+01) (18, 3.02583098411560058594e-01) (19, 1.18111747741699218750e+02) (20, 3.49079936742782592773e-01) (21, 1.18003814697265625000e+02) (22, 1.18015792846679687500e+02) (23, 5.39309835433959960938e+00) (24, -2.91679501533508300781e-01) (25, -4.74528223276138305664e-01) (26, 1.18097160339355468750e+02) (27, 2.40233254432678222656e+00) (28, 1.18179122924804687500e+02) (29, 3.39666914939880371094e+00) (30, 2.45329117774963378906e+00) (31, 7.74317324161529541016e-01) (32, 1.44085064530372619629e-02) (33, 6.55144453048706054688e-01) (34, 2.09412527084350585938e+00) (35, 1.18118911743164062500e+02) (36, 1.18004142761230468750e+02) (37, 9.00222659111022949219e-02) (38, -1.20183520019054412842e-01) (39, 1.18152420043945312500e+02) (40, -8.32224130630493164062e-01) (41, -1.63355660438537597656e+00) (42, 1.95510342717170715332e-01) (43, -4.71041947603225708008e-02) (44, 4.07475441694259643555e-01) (45, 2.49079394340515136719e+00) (46, -1.13542759418487548828e+00) (47, 1.35495197772979736328e+00) (48, -5.43152213096618652344e-01) (49, -8.83889675140380859375e-01) (50, 1.63720858097076416016e+00) (51, 6.42977952957153320312e-01) (52, -1.41985952854156494141e-01) (0, 1.18003227233886718750e+02) (1, -3.57896041870117187500e+00) (2, 2.31146156787872314453e-01) (3, -1.18332958221435546875e+00) (4, 2.04593086242675781250e+00) (5, -1.36628389358520507812e-01) (6, 1.07725787162780761719e+00) (7, -1.74855995178222656250e+01) (8, 4.12103563547134399414e-01) (9, 1.18122222900390625000e+02) (10, -4.75173234939575195312e+00) (11, -6.29799842834472656250e-01) (12, 2.55905961990356445312e+00) (13, 5.49838185310363769531e-01) (14, 1.34035837650299072266e+00) (15, -1.16602495312690734863e-01) (16, 3.00969660282135009766e-01) (17, -1.75353584289550781250e+01) (18, -4.41912442445755004883e-01) (19, 1.18156837463378906250e+02) (20, -4.40110254287719726562e+00) (21, 1.18141510009765625000e+02) (22, 1.18173667907714843750e+02) (23, 9.16204214096069335938e-01) (24, 1.02669990062713623047e+00) (25, 4.67839300632476806641e-01) (26, 1.18120506286621093750e+02) (27, 3.69129204750061035156e+00) (28, 1.18025039672851562500e+02) (29, 4.60848838090896606445e-01) (30, 2.53573107719421386719e+00) (31, 8.08315128087997436523e-02) (32, 3.22729617357254028320e-01) (33, 4.82916504144668579102e-01) (34, -1.32205629348754882812e+01) (35, 1.18175140380859375000e+02) (36, 1.18050201416015625000e+02) (37, -4.48225915431976318359e-01) (38, -5.88106155395507812500e+00) (39, 1.18026466369628906250e+02) (40, -5.69277703762054443359e-02) (41, -2.76392906904220581055e-01) (42, -6.74268305301666259766e-02) (43, 6.95255160331726074219e-01) (44, 7.38408625125885009766e-01) (45, 6.19127941131591796875e+00) (46, 2.52156525850296020508e-01) (47, 1.01295156478881835938e+01) (48, -7.83366322517395019531e-01) (49, -1.60139054059982299805e-01) (50, -1.51320815086364746094e-01) (51, 1.27974712848663330078e+00) (52, -1.75477534532546997070e-01) (0, 1.18052696228027343750e+02) (1, -3.45230102539062500000e+00) (2, 9.15418386459350585938e-01) (3, -3.30106306076049804688e+00) (4, 1.10405945777893066406e+00) (5, -6.25993311405181884766e-03) (6, 5.72052192687988281250e+00) (7, -1.18039398193359375000e+02) (8, 2.10442123413085937500e+01) (9, 1.17990570068359375000e+02) (10, -4.90571117401123046875e+00) (11, 2.78735786676406860352e-01) (12, 3.15098476409912109375e+00) (13, 2.09228038787841796875e+01) (14, 9.03452014923095703125e+00) (15, 2.56127023696899414062e+00) (16, 9.80167865753173828125e-01) (17, -1.18164009094238281250e+02) (18, -1.71496987342834472656e+00) (19, 1.18005119323730468750e+02) (20, -7.25133955478668212891e-01) (21, 1.18053245544433593750e+02) (22, 1.17992980957031250000e+02) (23, 5.40926074981689453125e+00) (24, -7.68839359283447265625e-01) (25, -1.39558267593383789062e+00) (26, 1.18160072326660156250e+02) (27, -1.87922596931457519531e+00) (28, 1.18182464599609375000e+02) (29, 1.94852843880653381348e-01) (30, 2.05152511596679687500e+00) (31, -7.47451841831207275391e-01) (32, -9.36596775054931640625e+00) (33, 2.55323839187622070312e+00) (34, 6.12531995773315429688e+00) (35, 1.18166885375976562500e+02) (36, 1.18156776428222656250e+02) (37, 1.05081331729888916016e+00) (38, -7.47381567955017089844e-01) (39, 1.18086128234863281250e+02) (40, -1.04627752304077148438e+00) (41, -1.74453735351562500000e+00) (42, -6.64744853973388671875e-01) (43, -5.48009872436523437500e-01) (44, 9.45105850696563720703e-01) (45, 4.42400932312011718750e+00) (46, 3.49196434020996093750e+00) (47, 1.96518385410308837891e+00) (48, -3.59767770767211914062e+00) (49, -1.09937143325805664062e+00) (50, 3.06957197189331054688e+00) (51, 1.62767100334167480469e+00) (52, -1.56631946563720703125e-01) (0, 1.18094490051269531250e+02) (1, -2.04565572738647460938e+00) (2, 3.16583544015884399414e-01) (3, -2.30091571807861328125e-01) (4, 7.23010301589965820312e-03) (5, -6.92102909088134765625e-02) (6, 5.14520931243896484375e+00) (7, -1.18045120239257812500e+02) (8, 9.67761802673339843750e+00) (9, 1.18062507629394531250e+02) (10, 7.06680119037628173828e-01) (11, -6.08509242534637451172e-01) (12, 2.13424801826477050781e+00) (13, 9.83264803886413574219e-01) (14, 3.90697884559631347656e+00) (15, 5.83160400390625000000e-01) (16, 9.40559029579162597656e-01) (17, -1.18087265014648437500e+02) (18, -2.65379810333251953125e+00) (19, 1.18082237243652343750e+02) (20, -6.45435690879821777344e-01) (21, 1.18054000854492187500e+02) (22, 1.18038734436035156250e+02) (23, 1.15019941329956054688e+00) (24, -4.72058117389678955078e-01) (25, -6.29621791839599609375e+00) (26, 1.18151496887207031250e+02) (27, -1.73929715156555175781e+00) (28, 1.18024879455566406250e+02) (29, 1.30231463909149169922e+00) (30, 6.55483186244964599609e-01) (31, 3.35300505161285400391e-01) (32, -1.88104510307312011719e-01) (33, 8.12923729419708251953e-01) (34, -8.17961096763610839844e-01) (35, 1.18172256469726562500e+02) (36, 1.18186378479003906250e+02) (37, 3.72311830520629882812e-01) (38, -5.92578276991844177246e-02) (39, 1.17996154785156250000e+02) (40, 4.10789787769317626953e-01) (41, 2.96034306287765502930e-01) (42, 1.06782209873199462891e+00) (43, 2.36313796043395996094e+00) (44, 1.55523550510406494141e+00) (45, 2.99795794486999511719e+00) (46, 5.84643959999084472656e-01) (47, 5.59798812866210937500e+00) (48, 1.70486703515052795410e-01) (49, 2.56392955780029296875e-01) (50, 3.27904891967773437500e+00) (51, 4.80886429548263549805e-01) (52, -2.21135482192039489746e-01) (0, 1.18062538146972656250e+02) (1, 2.37376973032951354980e-01) (2, 3.18635165691375732422e-01) (3, -7.00352907180786132812e-01) (4, 1.15820693969726562500e+00) (5, -2.15856528282165527344e+00) (6, -1.27713751792907714844e+00) (7, -4.88881492614746093750e+01) (8, -3.57020825147628784180e-01) (9, 1.18177116394042968750e+02) (10, 6.60792291164398193359e-01) (11, -4.62992763519287109375e+00) (12, 5.69348394870758056641e-01) (13, -6.76711380481719970703e-01) (14, -4.88805198669433593750e+00) (15, -2.60914802551269531250e+00) (16, -4.60762643814086914062e+00) (17, -4.89345779418945312500e+01) (18, -1.01418409347534179688e+01) (19, 1.18177963256835937500e+02) (20, -4.88920745849609375000e+01) (21, 1.18076103210449218750e+02) (22, 1.18162353515625000000e+02) (23, 8.66904854774475097656e-01) (24, 1.65659689903259277344e+00) (25, -4.00617390871047973633e-01) (26, 1.18101875305175781250e+02) (27, 7.61876344680786132812e-01) (28, 1.18115982055664062500e+02) (29, 1.47644117474555969238e-01) (30, 5.15001833438873291016e-01) (31, 3.76936614513397216797e-01) (32, 6.48119544982910156250e+00) (33, -4.22549813985824584961e-01) (34, -5.16198158264160156250e+00) (35, 1.18135841369628906250e+02) (36, 1.18000007629394531250e+02) (37, 8.84066596627235412598e-02) (38, -1.04455947875976562500e+00) (39, 1.18035240173339843750e+02) (40, 1.15300166606903076172e+00) (41, 1.15391445159912109375e+00) (42, 6.63713753223419189453e-01) (43, 1.70503962039947509766e+00) (44, 2.73349928855895996094e+00) (45, 4.36049997806549072266e-01) (46, -3.81770563125610351562e+00) (47, 2.22750186920166015625e+00) (48, 1.74700284004211425781e+00) (49, 1.50981116294860839844e+00) (50, 6.61610484123229980469e-01) (51, 5.98476529121398925781e-01) (52, -5.22561907768249511719e-01) (0, 1.18056449890136718750e+02) (1, -6.97936654090881347656e-01) (2, 2.74759717285633087158e-03) (3, -3.94550094604492187500e+01) (4, -1.74379386901855468750e+01) (5, -1.97773408889770507812e+00) (6, -5.68585276603698730469e-01) (7, -9.59128379821777343750e+00) (8, -6.34962677955627441406e-01) (9, 1.18090095520019531250e+02) (10, 5.94883382320404052734e-01) (11, -3.72367811203002929688e+00) (12, 1.67067480087280273438e+00) (13, -1.42108249664306640625e+00) (14, -9.14600312709808349609e-01) (15, 9.38543826341629028320e-02) (16, -2.31938648223876953125e+00) (17, -6.76661205291748046875e+00) (18, -3.41365146636962890625e+00) (19, 1.18032333374023437500e+02) (20, -1.37135908007621765137e-01) (21, 1.18004539489746093750e+02) (22, 1.18113456726074218750e+02) (23, 4.43236321210861206055e-01) (24, -8.31449604034423828125e+00) (25, -5.19159197807312011719e-01) (26, 1.18164665222167968750e+02) (27, -1.56426072120666503906e+00) (28, 1.18111930847167968750e+02) (29, -1.56691753864288330078e+00) (30, -2.72304081916809082031e+00) (31, -1.13444492220878601074e-01) (32, 3.90558481216430664062e+00) (33, -9.92628574371337890625e+00) (34, -5.83158135414123535156e-01) (35, 1.18185340881347656250e+02) (36, 1.18118278503417968750e+02) (37, -9.10613894462585449219e-01) (38, -9.22487258911132812500e-01) (39, 1.18162261962890625000e+02) (40, 7.38733959197998046875e+00) (41, 3.97605667114257812500e+01) (42, 3.41458463668823242188e+00) (43, 6.88689756393432617188e+00) (44, 5.30653715133666992188e-01) (45, -3.49654221534729003906e+00) (46, 1.11152458190917968750e+00) (47, 2.83608019351959228516e-01) (48, 4.85413169860839843750e+01) (49, 7.28812599182128906250e+00) (50, 6.33802771568298339844e-01) (51, -1.12338817119598388672e+00) (52, 2.91812956333160400391e-01) (0, 1.18093360900878906250e+02) (1, -1.19909667968750000000e+00) (2, -4.17857319116592407227e-01) (3, -3.14216941595077514648e-01) (4, -8.22738230228424072266e-01) (5, -1.01820695400238037109e+00) (6, 6.37487983703613281250e+00) (7, -1.18165046691894531250e+02) (8, 1.23764824867248535156e+00) (9, 1.18038475036621093750e+02) (10, 1.57259806990623474121e-01) (11, -2.16299676895141601562e+00) (12, 1.20735958218574523926e-01) (13, 1.19938659667968750000e+00) (14, 8.59432160854339599609e-01) (15, 4.16022628545761108398e-01) (16, 2.13316708803176879883e-01) (17, -1.18068763732910156250e+02) (18, -1.62421345710754394531e+00) (19, 1.18076477050781250000e+02) (20, -1.13250560760498046875e+01) (21, 1.18110755920410156250e+02) (22, 1.18153228759765625000e+02) (23, -1.03080940246582031250e+00) (24, -1.32398521900177001953e+00) (25, -1.39520442485809326172e+00) (26, 1.18136383056640625000e+02) (27, -2.16176241636276245117e-01) (28, 1.18068954467773437500e+02) (29, 2.39199418574571609497e-02) (30, -1.33467584848403930664e-01) (31, 6.52639150619506835938e-01) (32, 6.19641780853271484375e-01) (33, 2.44172358512878417969e+00) (34, -7.29045391082763671875e-01) (35, 1.18044174194335937500e+02) (36, 1.18040100097656250000e+02) (37, 3.26817840337753295898e-01) (38, -1.74017727375030517578e-01) (39, 1.18014739990234375000e+02) (40, 5.76230823993682861328e-01) (41, 3.47879201173782348633e-01) (42, -8.53270739316940307617e-02) (43, 1.35282933712005615234e+00) (44, 6.02825307846069335938e+00) (45, 4.42693352699279785156e-01) (46, 1.06605272293090820312e+01) (47, -7.11338639259338378906e-01) (48, 2.95842289924621582031e-01) (49, 9.53269898891448974609e-01) (50, 5.37805199623107910156e-01) (51, 1.19428443908691406250e+00) (52, -1.18230901658535003662e-01) (0, 1.18012657165527343750e+02) (1, -8.11521339416503906250e+00) (2, -2.05821418762207031250e+00) (3, -1.95977902412414550781e+00) (4, 9.09975707530975341797e-01) (5, -1.94940730929374694824e-01) (6, 6.48611221313476562500e+01) (7, -1.18090103149414062500e+02) (8, 1.18007202148437500000e+02) (9, 1.18179931640625000000e+02) (10, 1.10228085517883300781e+00) (11, 1.15026161074638366699e-01) (12, 4.36449885368347167969e-01) (13, 9.30158710479736328125e+00) (14, 4.26750802993774414062e+00) (15, 4.11922216415405273438e+00) (16, 2.55439996719360351562e-01) (17, -1.18138519287109375000e+02) (18, -1.02549612522125244141e+00) (19, 1.18049385070800781250e+02) (20, -1.11911267042160034180e-01) (21, 1.18151512145996093750e+02) (22, 1.18022918701171875000e+02) (23, -1.11929464340209960938e+00) (24, 3.23264598846435546875e-01) (25, -1.46965169906616210938e+00) (26, 1.18174331665039062500e+02) (27, -9.78599429130554199219e-01) (28, 1.18053558349609375000e+02) (29, 8.79840970039367675781e-01) (30, 1.32744073867797851562e-01) (31, -7.48680904507637023926e-02) (32, -1.84830331802368164062e+00) (33, 3.43733930587768554688e+00) (34, -1.00435173511505126953e+00) (35, 1.18118850708007812500e+02) (36, 1.18082077026367187500e+02) (37, 7.01129883527755737305e-02) (38, -3.41527074575424194336e-01) (39, 1.18101013183593750000e+02) (40, -7.65140295028686523438e-01) (41, -1.37206220626831054688e+00) (42, 8.20058345794677734375e-01) (43, 2.44733572006225585938e+00) (44, 2.12359333038330078125e+00) (45, 1.10923182964324951172e+00) (46, 1.37621939182281494141e+00) (47, 2.16464495658874511719e+00) (48, -3.07878971099853515625e+00) (49, -1.03598499298095703125e+00) (50, 8.57886552810668945312e-01) (51, 2.61262506246566772461e-01) (52, -4.29255366325378417969e-01) (0, 1.17998619079589843750e+02) (1, -3.08114480972290039062e+00) (2, -5.43121457099914550781e-01) (3, -1.02503328323364257812e+01) (4, 7.76021003723144531250e+00) (5, -1.29709339141845703125e+00) (6, -5.54616808891296386719e-01) (7, -1.18150283813476562500e+02) (8, -3.45183968544006347656e-01) (9, 1.18159484863281250000e+02) (10, -2.51143053174018859863e-02) (11, 1.07291281223297119141e-01) (12, 2.23570317029953002930e-02) (13, -1.52843803167343139648e-01) (14, -2.98561239242553710938e+00) (15, -6.14088952541351318359e-01) (16, -2.02656126022338867188e+00) (17, -1.18016365051269531250e+02) (18, -8.52208709716796875000e+00) (19, 1.18065803527832031250e+02) (20, -4.15584716796875000000e+01) (21, 1.18132186889648437500e+02) (22, 1.18147048950195312500e+02) (23, 1.74859690666198730469e+00) (24, 3.27111315727233886719e+00) (25, 1.43133461475372314453e-01) (26, 1.18108924865722656250e+02) (27, 4.26630824804306030273e-01) (28, 1.18037330627441406250e+02) (29, -1.63900685310363769531e+00) (30, 3.90551686286926269531e-02) (31, -3.29074025154113769531e-01) (32, 9.68171787261962890625e+00) (33, -6.13540053367614746094e-01) (34, -3.07941818237304687500e+00) (35, 1.17999839782714843750e+02) (36, 1.17998115539550781250e+02) (37, -6.67023241519927978516e-01) (38, -5.44502139091491699219e-01) (39, 1.18167411804199218750e+02) (40, 2.09129753112792968750e+01) (41, 4.87701530456542968750e+01) (42, -5.50593972206115722656e-01) (43, 6.56831216812133789062e+00) (44, 2.24892735481262207031e+00) (45, -4.50395643711090087891e-02) (46, 6.99763965606689453125e+00) (47, 9.28458034992218017578e-01) (48, 4.89049377441406250000e+01) (49, 2.09253063201904296875e+01) (50, 5.04488885402679443359e-01) (51, -2.15196895599365234375e+00) (52, -6.92935958504676818848e-02) (0, 1.18137573242187500000e+02) (1, -6.01463735103607177734e-01) (2, -6.22107945382595062256e-02) (3, -3.96044387817382812500e+01) (4, -5.90042400360107421875e+00) (5, -1.57475697994232177734e+00) (6, -2.42079472541809082031e+00) (7, -1.19469261169433593750e+00) (8, -2.05230522155761718750e+00) (9, 1.18119438171386718750e+02) (10, 7.17807710170745849609e-01) (11, -3.75067853927612304688e+00) (12, 1.23649454116821289062e+00) (13, -2.22374939918518066406e+00) (14, -1.06603538990020751953e+00) (15, -1.26260137557983398438e+00) (16, -2.34206366539001464844e+00) (17, 2.83143103122711181641e-01) (18, -2.85111308097839355469e-01) (19, 1.18072868347167968750e+02) (20, -1.11953020095825195312e+00) (21, 1.17995231628417968750e+02) (22, 1.18035339355468750000e+02) (23, 6.38958334922790527344e-01) (24, -1.71680583953857421875e+01) (25, 1.42838001251220703125e+00) (26, 1.18011245727539062500e+02) (27, -1.01685357093811035156e+00) (28, 1.18138839721679687500e+02) (29, -1.49010503292083740234e+00) (30, -2.64452815055847167969e+00) (31, -6.38133525848388671875e-01) (32, 3.82974767684936523438e+00) (33, -9.76914310455322265625e+00) (34, -6.24556422233581542969e-01) (35, 1.18153587341308593750e+02) (36, 1.18125473022460937500e+02) (37, -1.49395084381103515625e+00) (38, -6.87450766563415527344e-01) (39, 1.18058639526367187500e+02) (40, 7.59199810028076171875e+00) (41, 3.30796203613281250000e+01) (42, 1.98388302326202392578e+00) (43, 1.18034372329711914062e+01) (44, 7.15013384819030761719e-01) (45, -2.74393749237060546875e+00) (46, 7.49892950057983398438e-01) (47, 2.28874638676643371582e-01) (48, 4.87298851013183593750e+01) (49, 7.65530967712402343750e+00) (50, 7.11121678352355957031e-01) (51, -1.45675063133239746094e+00) (52, 3.96041274070739746094e-01) (0, 1.17991516113281250000e+02) (1, 2.36008238792419433594e+00) (2, 1.46199369430541992188e+00) (3, -9.73498702049255371094e-01) (4, 5.52424073219299316406e-01) (5, -1.38246178627014160156e-01) (6, 1.49784111976623535156e+00) (7, -4.88440856933593750000e+01) (8, -1.44633412361145019531e-01) (9, 1.18002044677734375000e+02) (10, -1.09968519210815429688e+00) (11, -3.71021538972854614258e-01) (12, 3.99270844459533691406e+00) (13, -4.74527686834335327148e-01) (14, 3.38433670997619628906e+00) (15, -7.02204644680023193359e-01) (16, -1.78134039044380187988e-01) (17, -4.88608016967773437500e+01) (18, -3.52010637521743774414e-01) (19, 1.18056457519531250000e+02) (20, -3.25682306289672851562e+00) (21, 1.18176765441894531250e+02) (22, 1.18084136962890625000e+02) (23, 4.20136690139770507812e+00) (24, -1.83756634593009948730e-01) (25, -6.51362478733062744141e-01) (26, 1.18023147583007812500e+02) (27, 2.07594013214111328125e+00) (28, 1.18111885070800781250e+02) (29, 1.93565368652343750000e+00) (30, 3.82811927795410156250e+00) (31, -3.80953848361968994141e-01) (32, -3.13072252273559570312e+00) (33, 1.00309181213378906250e+00) (34, -1.46783185005187988281e+00) (35, 1.18074096679687500000e+02) (36, 1.18175155639648437500e+02) (37, 2.31843203306198120117e-01) (38, -3.87114554643630981445e-01) (39, 1.18122238159179687500e+02) (40, -8.12943220138549804688e-01) (41, -7.56670236587524414062e-01) (42, 1.54057204723358154297e-01) (43, -2.05152773857116699219e+00) (44, 9.45820391178131103516e-01) (45, 6.33368396759033203125e+00) (46, 1.14680469036102294922e-01) (47, 9.21612071990966796875e+00) (48, -4.16266649961471557617e-01) (49, -6.89739942550659179688e-01) (50, 2.89216876029968261719e+00) (51, 7.81198501586914062500e-01) (52, -5.38041949272155761719e-01) (53, 2.59740501642227172852e-01) (54, 4.78180974721908569336e-01) (55, 1.78597509860992431641e-01) (56, -1.57207086682319641113e-01) (57, 3.29537540674209594727e-01) (58, 8.06791782379150390625e-02) (59, 8.32359886169433593750e+00) (60, 1.20224034786224365234e+00) (61, 5.30481338500976562500e-01) (62, -1.49685931205749511719e+00) (63, -9.61182475090026855469e-01) (64, 4.08396840095520019531e-01) (65, 1.01866781711578369141e+00) (66, 2.57196813821792602539e-01) (67, -5.51789999008178710938e-01) (68, 2.29273870587348937988e-01) (69, 1.32118225097656250000e-01) (53, 2.71067829132080078125e+01) (54, 3.79558473825454711914e-01) (55, 1.43739688396453857422e+00) (56, 2.92460054159164428711e-01) (57, 1.69025802612304687500e+01) (58, -8.67350935935974121094e-01) (59, 1.74483108520507812500e+00) (60, -4.86270673573017120361e-02) (61, -4.21140074729919433594e-01) (62, -9.37415212392807006836e-02) (63, -2.15133953094482421875e+00) (64, 1.08513817191123962402e-01) (65, -4.81321513652801513672e-01) (66, 5.79361629486083984375e+00) (67, -2.16631269454956054688e+00) (68, 2.89074659347534179688e-01) (69, -4.04579967260360717773e-01) (53, -9.88951921463012695312e-01) (54, -1.33261322975158691406e+00) (55, -2.29268026351928710938e+00) (56, -5.25214612483978271484e-01) (57, -1.26144921779632568359e+00) (58, 2.15184831619262695312e+00) (59, -5.56494760513305664062e+00) (60, 8.55615139007568359375e-02) (61, -1.62063375115394592285e-01) (62, -2.58915424346923828125e+00) (63, -3.24953526258468627930e-01) (64, -5.21788597106933593750e-01) (65, 8.11221003532409667969e-01) (66, -5.96290946006774902344e-01) (67, -6.57503843307495117188e-01) (68, -1.44707635045051574707e-01) (69, 2.17208671569824218750e+00) (53, 2.38775300979614257812e+00) (54, 2.28552192449569702148e-01) (55, 1.36942553520202636719e+00) (56, 6.78215205669403076172e-01) (57, 1.40073788166046142578e+00) (58, 1.87248349189758300781e-01) (59, 2.68981075286865234375e+00) (60, -7.13734388351440429688e-01) (61, -3.54271978139877319336e-01) (62, 1.43364214897155761719e+00) (63, 1.77666878700256347656e+00) (64, -1.32922306656837463379e-01) (65, -8.77339482307434082031e-01) (66, 1.94370496273040771484e+00) (67, 2.03280401229858398438e+00) (68, 3.24945449829101562500e-01) (69, -5.45107841491699218750e-01) (53, 2.27888965606689453125e+00) (54, 5.69936573505401611328e-01) (55, 1.99242007732391357422e+00) (56, -1.20808780193328857422e+00) (57, 3.08178091049194335938e+00) (58, -4.19920969009399414062e+00) (59, 3.24615240097045898438e-01) (60, -8.90093803405761718750e-01) (61, 2.30500116944313049316e-01) (62, 5.92605948448181152344e-01) (63, 2.37104678153991699219e+00) (64, 6.43448173999786376953e-01) (65, 3.40848267078399658203e-02) (66, 3.22809243202209472656e+00) (67, 2.44598197937011718750e+00) (68, -1.11480414867401123047e+00) (69, -2.10185194015502929688e+00) (53, 1.00078716874122619629e-01) (54, -9.68222975730895996094e-01) (55, -1.08914449810981750488e-01) (56, -5.65853975713253021240e-02) (57, 1.10301062464714050293e-01) (58, -1.34626813232898712158e-02) (59, -1.77593195438385009766e+00) (60, -4.60071802139282226562e-01) (61, -7.12539017200469970703e-01) (62, 2.66359388828277587891e-01) (63, 3.78216671943664550781e+00) (64, -4.43813413381576538086e-01) (65, -3.02150636911392211914e-01) (66, 5.57777166366577148438e-01) (67, 3.77864670753479003906e+00) (68, -4.77799363434314727783e-02) (69, 6.08039498329162597656e-02) (53, 3.35280954837799072266e-01) (54, 6.14356040954589843750e-01) (55, 6.59140229225158691406e-01) (56, 1.43885803222656250000e+00) (57, 4.03870671987533569336e-01) (58, 3.15912783145904541016e-01) (59, 2.28384256362915039062e+00) (60, 3.13378155231475830078e-01) (61, 1.09215363860130310059e-01) (62, 1.09273743629455566406e+00) (63, -1.20091092586517333984e+00) (64, 2.31357991695404052734e-01) (65, 1.08348861336708068848e-01) (66, 3.18132698535919189453e-01) (67, -1.23882865905761718750e+00) (68, 6.20852649211883544922e-01) (69, 2.02944770455360412598e-01) (53, 4.91406828165054321289e-01) (54, -9.25446414947509765625e+00) (55, -4.65479701757431030273e-01) (56, 2.17991876602172851562e+00) (57, 1.36199086904525756836e-01) (58, 2.33191800117492675781e+00) (59, -8.93108654022216796875e+00) (60, -6.22345149517059326172e-01) (61, -3.11347293853759765625e+00) (62, 3.96217495203018188477e-01) (63, 8.82008552551269531250e+00) (64, -8.10665309429168701172e-01) (65, -2.64177513122558593750e+00) (66, 6.04935646057128906250e-01) (67, 3.34848976135253906250e+00) (68, 1.50763356685638427734e+00) (69, 9.09025192260742187500e-01) (53, 4.85778033733367919922e-01) (54, 4.27647054195404052734e-01) (55, 3.79861414432525634766e-01) (56, -2.21178579330444335938e+00) (57, 8.60515773296356201172e-01) (58, -2.51080846786499023438e+00) (59, 3.36073637008666992188e-01) (60, 6.18417784571647644043e-02) (61, 4.41379904747009277344e-01) (62, -1.74699008464813232422e-01) (63, 3.44154405593872070312e+00) (64, 5.12920558452606201172e-01) (65, 6.12921535968780517578e-01) (66, 2.15070414543151855469e+00) (67, 3.40915203094482421875e+00) (68, -2.42780709266662597656e+00) (69, -1.30378201603889465332e-01) (53, -1.37339040637016296387e-01) (54, -3.78564047813415527344e+00) (55, -1.56216955184936523438e+00) (56, -1.67103977203369140625e+01) (57, 4.69274193048477172852e-01) (58, -1.73106074333190917969e-01) (59, 2.15404272079467773438e+00) (60, -2.39652194976806640625e+01) (61, -1.75286636352539062500e+01) (62, -1.47628903388977050781e+00) (63, 7.39177465438842773438e-01) (64, -3.23929333686828613281e+00) (65, -2.39424114227294921875e+01) (66, -1.49644445627927780151e-02) (67, 1.43403005599975585938e+00) (68, -9.24818897247314453125e+00) (69, -7.21978724002838134766e-01) (53, 7.54087567329406738281e-01) (54, -1.29615187644958496094e+00) (55, -4.44995015859603881836e-02) (56, 2.63076215982437133789e-01) (57, 8.46974372863769531250e-01) (58, 4.29952001571655273438e+00) (59, -8.93581271171569824219e-01) (60, -2.76051950454711914062e+00) (61, -5.01183176040649414062e+00) (62, 7.61860489845275878906e-01) (63, 2.96783447265625000000e-01) (64, -8.43832254409790039062e-01) (65, -6.27616405487060546875e-01) (66, -4.48113568127155303955e-02) (67, 9.95887398719787597656e-01) (68, 1.33206808567047119141e+00) (69, 2.73789620399475097656e+00) (53, 1.37176975607872009277e-01) (54, 2.00947475433349609375e+00) (55, 5.55556774139404296875e-01) (56, 1.43025398254394531250e+00) (57, 1.52039304375648498535e-01) (58, 6.55074954032897949219e-01) (59, 7.87073278427124023438e+00) (60, 2.18072146177291870117e-01) (61, 2.35184252262115478516e-01) (62, 2.03789758682250976562e+00) (63, -1.07404613494873046875e+00) (64, 9.62584853172302246094e-01) (65, 2.29073703289031982422e-01) (66, 1.88629403710365295410e-01) (67, -1.14403736591339111328e+00) (68, 9.74345564842224121094e-01) (69, 4.58609700202941894531e-01) (53, -2.70608186721801757812e-01) (54, -1.11323332786560058594e+00) (55, -1.73610520362854003906e+00) (56, -1.67406063079833984375e+01) (57, 6.00334927439689636230e-02) (58, 3.02819275856018066406e+00) (59, 2.15221834182739257812e+00) (60, -2.38422412872314453125e+01) (61, -1.73914070129394531250e+01) (62, -6.59723520278930664062e-01) (63, 1.65012940764427185059e-01) (64, -1.36797976493835449219e+00) (65, -2.40156574249267578125e+01) (66, 2.80465465039014816284e-03) (67, 7.18029379844665527344e-01) (68, -1.92447209358215332031e+00) (69, 2.64755487442016601562e+00) (53, 9.62158516049385070801e-02) (54, -3.90555357933044433594e+00) (55, -3.80909293889999389648e-01) (56, -1.66739215850830078125e+01) (57, 3.38914334774017333984e-01) (58, -7.54421278834342956543e-02) (59, 2.11852121353149414062e+00) (60, -2.39519557952880859375e+01) (61, -1.75775985717773437500e+01) (62, -1.42321392893791198730e-01) (63, 3.48683118820190429688e+00) (64, -2.90292084217071533203e-01) (65, -2.38663234710693359375e+01) (66, 2.13068917393684387207e-01) (67, 3.53799962997436523438e+00) (68, -1.75161056518554687500e+01) (69, 6.99207961559295654297e-01) (53, 4.42713975906372070312e+00) (54, 1.00930881500244140625e+01) (55, 6.09531784057617187500e+00) (56, 2.91051363945007324219e+00) (57, 2.78525495529174804688e+00) (58, 2.44161903858184814453e-01) (59, 2.05504779815673828125e+01) (60, 4.18313026428222656250e+00) (61, 6.98239326477050781250e+00) (62, 3.65684652328491210938e+00) (63, -5.04220104217529296875e+00) (64, 1.78597187995910644531e+00) (65, 3.03972673416137695312e+00) (66, 1.28485250473022460938e+00) (67, -5.05673885345458984375e+00) (68, 1.33923351764678955078e+00) (69, 1.83670386672019958496e-01) (53, -1.10922741889953613281e+00) (54, -4.53461742401123046875e+00) (55, -3.03181380033493041992e-01) (56, 1.25059318542480468750e+00) (57, -8.54520440101623535156e-01) (58, 2.60654354095458984375e+00) (59, -7.63873243331909179688e+00) (60, -4.90016043186187744141e-01) (61, -1.73978340625762939453e+00) (62, -3.17280173301696777344e-01) (63, 4.56939727067947387695e-01) (64, -1.99897855520248413086e-01) (65, -5.99394261837005615234e-01) (66, -1.03197467327117919922e+00) (67, 2.75362759828567504883e-01) (68, 2.34307718276977539062e+00) (69, 8.10965001583099365234e-01) (70, -1.41447210311889648438e+00) (71, -4.79105949401855468750e-01) (72, 7.22693130373954772949e-02) (73, 9.67856645584106445312e-02) (74, -6.62231445312500000000e-01) (75, 5.23436069488525390625e-01) (76, -4.95401173830032348633e-01) (77, 1.61318612098693847656e+00) (78, -3.86632657051086425781e+00) (79, 8.88625240325927734375e+00) (80, 2.88396334648132324219e+00) (81, -3.79371196031570434570e-01) (82, 8.84138870239257812500e+00) (83, 7.37278842926025390625e+00) (84, -1.28931391239166259766e+00) (85, 1.74573791027069091797e+00) (86, -3.28742116689682006836e-01) (70, -2.79694292694330215454e-02) (71, -4.09665346145629882812e-01) (72, 3.36764264106750488281e+00) (73, -5.92194497585296630859e-01) (74, -7.03841209411621093750e-01) (75, -1.73709407448768615723e-01) (76, -1.70878514647483825684e-01) (77, -1.05152165889739990234e+00) (78, -6.66721761226654052734e-02) (79, -2.03424015045166015625e+01) (80, -3.59005546569824218750e+00) (81, -1.12022608518600463867e-01) (82, -2.03699645996093750000e+01) (83, -2.03370513916015625000e+01) (84, -6.65890127420425415039e-02) (85, 5.22159993648529052734e-01) (86, 1.61783024668693542480e-01) (70, 7.83954560756683349609e-02) (71, 1.01713550090789794922e+00) (72, -2.30982398986816406250e+00) (73, 9.47240471839904785156e-01) (74, -4.04312415048480033875e-03) (75, -9.06151676177978515625e+00) (76, 4.54917311668395996094e-01) (77, -4.11661672592163085938e+00) (78, -3.37748080492019653320e-01) (79, -2.07529602050781250000e+01) (80, -2.03010737895965576172e-02) (81, 4.41878557205200195312e-01) (82, -2.07908267974853515625e+01) (83, -2.08934402465820312500e+01) (84, 5.75880348682403564453e-01) (85, -4.05609798431396484375e+00) (86, 3.96716952323913574219e-01) (70, -5.31839013099670410156e-01) (71, 1.28948062658309936523e-01) (72, -3.16711378097534179688e+00) (73, 1.63839370012283325195e-01) (74, 2.50169014930725097656e+00) (75, 1.12899100780487060547e+00) (76, -5.82580447196960449219e-01) (77, 1.39208745956420898438e+00) (78, 3.24877500534057617188e+00) (79, -3.60861897468566894531e+00) (80, -7.64300897717475891113e-02) (81, -5.84896445274353027344e-01) (82, -3.66176533699035644531e+00) (83, -3.58689427375793457031e+00) (84, -5.49203991889953613281e-01) (85, -1.29096245765686035156e+00) (86, -1.42892122268676757812e+00) 
