FANN_FLO_2.1
num_layers=3
learning_rate=0.800000
connection_rate=1.000000
network_type=0
learning_momentum=0.000000
training_algorithm=1
train_error_function=1
train_stop_function=0
cascade_output_change_fraction=0.010000
quickprop_decay=-0.000100
quickprop_mu=1.750000
rprop_increase_factor=1.200000
rprop_decrease_factor=0.500000
rprop_delta_min=0.000000
rprop_delta_max=50.000000
rprop_delta_zero=0.100000
cascade_output_stagnation_epochs=12
cascade_candidate_change_fraction=0.010000
cascade_candidate_stagnation_epochs=12
cascade_max_out_epochs=150
cascade_min_out_epochs=50
cascade_max_cand_epochs=150
cascade_min_cand_epochs=50
cascade_num_candidate_groups=2
bit_fail_limit=3.49999994039535522461e-01
cascade_candidate_limit=1.00000000000000000000e+03
cascade_weight_multiplier=4.00000005960464477539e-01
cascade_activation_functions_count=10
cascade_activation_functions=3 5 7 8 10 11 14 15 16 17 
cascade_activation_steepnesses_count=4
cascade_activation_steepnesses=2.50000000000000000000e-01 5.00000000000000000000e-01 7.50000000000000000000e-01 1.00000000000000000000e+00 
layer_sizes=61 7 5 
scale_included=0
neurons (num_inputs, activation_function, activation_steepness)=(0, 0, 0.00000000000000000000e+00) (0, 0, 0.00000000000000000000e+00) (0, 0, 0.00000000000000000000e+00) (0, 0, 0.00000000000000000000e+00) (0, 0, 0.00000000000000000000e+00) (0, 0, 0.00000000000000000000e+00) (0, 0, 0.00000000000000000000e+00) (0, 0, 0.00000000000000000000e+00) (0, 0, 0.00000000000000000000e+00) (0, 0, 0.00000000000000000000e+00) (0, 0, 0.00000000000000000000e+00) (0, 0, 0.00000000000000000000e+00) (0, 0, 0.00000000000000000000e+00) (0, 0, 0.00000000000000000000e+00) (0, 0, 0.00000000000000000000e+00) (0, 0, 0.00000000000000000000e+00) (0, 0, 0.00000000000000000000e+00) (0, 0, 0.00000000000000000000e+00) (0, 0, 0.00000000000000000000e+00) (0, 0, 0.00000000000000000000e+00) (0, 0, 0.00000000000000000000e+00) (0, 0, 0.00000000000000000000e+00) (0, 0, 0.00000000000000000000e+00) (0, 0, 0.00000000000000000000e+00) (0, 0, 0.00000000000000000000e+00) (0, 0, 0.00000000000000000000e+00) (0, 0, 0.00000000000000000000e+00) (0, 0, 0.00000000000000000000e+00) (0, 0, 0.00000000000000000000e+00) (0, 0, 0.00000000000000000000e+00) (0, 0, 0.00000000000000000000e+00) (0, 0, 0.00000000000000000000e+00) (0, 0, 0.00000000000000000000e+00) (0, 0, 0.00000000000000000000e+00) (0, 0, 0.00000000000000000000e+00) (0, 0, 0.00000000000000000000e+00) (0, 0, 0.00000000000000000000e+00) (0, 0, 0.00000000000000000000e+00) (0, 0, 0.00000000000000000000e+00) (0, 0, 0.00000000000000000000e+00) (0, 0, 0.00000000000000000000e+00) (0, 0, 0.00000000000000000000e+00) (0, 0, 0.00000000000000000000e+00) (0, 0, 0.00000000000000000000e+00) (0, 0, 0.00000000000000000000e+00) (0, 0, 0.00000000000000000000e+00) (0, 0, 0.00000000000000000000e+00) (0, 0, 0.00000000000000000000e+00) (0, 0, 0.00000000000000000000e+00) (0, 0, 0.00000000000000000000e+00) (0, 0, 0.00000000000000000000e+00) (0, 0, 0.00000000000000000000e+00) (0, 0, 0.00000000000000000000e+00) (0, 0, 0.00000000000000000000e+00) (0, 0, 0.00000000000000000000e+00) (0, 0, 0.00000000000000000000e+00) (0, 0, 0.00000000000000000000e+00) (0, 0, 0.00000000000000000000e+00) (0, 0, 0.00000000000000000000e+00) (0, 0, 0.00000000000000000000e+00) (0, 0, 0.00000000000000000000e+00) (61, 3, 5.00000000000000000000e-01) (61, 3, 5.00000000000000000000e-01) (61, 3, 5.00000000000000000000e-01) (61, 3, 5.00000000000000000000e-01) (61, 3, 5.00000000000000000000e-01) (61, 3, 5.00000000000000000000e-01) (0, 3, 0.00000000000000000000e+00) (7, 3, 5.00000000000000000000e-01) (7, 3, 5.00000000000000000000e-01) (7, 3, 5.00000000000000000000e-01) (7, 3, 5.00000000000000000000e-01) (0, 3, 0.00000000000000000000e+00) 
connections (connected_to_neuron, weight)=(0, -3.87392491102218627930e-01) (1, 3.79609584808349609375e+00) (2, -3.32829236984252929688e-01) (3, 4.23098468780517578125e+00) (4, 6.96897149085998535156e-01) (5, -9.85674798488616943359e-01) (6, -6.55558228492736816406e-01) (7, 4.31504189968109130859e-01) (8, -1.36700940132141113281e+00) (9, 9.22797441482543945312e-01) (10, -7.75522947311401367188e-01) (11, 1.57848870754241943359e+00) (12, 3.57019305229187011719e+00) (13, 1.25463366508483886719e+00) (14, 9.64648783206939697266e-01) (15, 6.36995375156402587891e-01) (16, 6.18130350112915039062e+00) (17, -4.25036735832691192627e-02) (18, 2.55551910400390625000e+00) (19, 7.81870901584625244141e-01) (20, -1.23343420028686523438e+00) (21, 2.93333441019058227539e-01) (22, 4.27268409729003906250e+00) (23, -1.45488631725311279297e+00) (24, 5.14667463302612304688e+00) (25, 1.95078194141387939453e+00) (26, -3.53069972991943359375e+00) (27, -3.36849056184291839600e-02) (28, -2.45656681060791015625e+00) (29, -8.08022078126668930054e-03) (30, -1.23156154155731201172e+00) (31, -2.23572418093681335449e-01) (32, -2.42726564407348632812e+00) (33, -2.74640059471130371094e+00) (34, -1.80855846405029296875e+00) (35, 1.58355629444122314453e+00) (36, -1.20214140415191650391e+00) (37, -4.38204431533813476562e+00) (38, 3.93127465248107910156e+00) (39, -7.05181694030761718750e+00) (40, -2.01462006568908691406e+00) (41, -1.04529833793640136719e+00) (42, -1.60025441646575927734e+00) (43, 3.69251394271850585938e+00) (44, 1.40998375415802001953e+00) (45, 1.12914681434631347656e-01) (46, 3.40309071540832519531e+00) (47, -6.20546579360961914062e+00) (48, 2.50694108009338378906e+00) (49, -3.37091326713562011719e+00) (50, 2.61479997634887695312e+00) (51, 1.60182988643646240234e+00) (52, 2.06579542160034179688e+00) (53, -2.06434392929077148438e+00) (54, 2.18196535110473632812e+00) (55, 7.58430719375610351562e-01) (56, 7.76252225041389465332e-02) (57, -3.79497468471527099609e-01) (58, -5.15327596664428710938e+00) (59, -2.63336372375488281250e+00) (60, 1.27680683135986328125e+00) (0, 1.85042345523834228516e+00) (1, 4.22690820693969726562e+00) (2, 3.16038322448730468750e+00) (3, 1.13251113891601562500e+00) (4, 1.75159919261932373047e+00) (5, -7.45056420564651489258e-02) (6, -1.03148984909057617188e+00) (7, 4.97599792480468750000e+00) (8, 2.88058924674987792969e+00) (9, 5.17506027221679687500e+00) (10, -4.51830983161926269531e-01) (11, -4.61248111724853515625e+00) (12, -2.36721110343933105469e+00) (13, -2.61265254020690917969e+00) (14, -3.90425157546997070312e+00) (15, 6.11816406250000000000e-01) (16, -2.82497310638427734375e+00) (17, -7.03880488872528076172e-01) (18, 1.07429206371307373047e-01) (19, -1.93668878078460693359e+00) (20, -1.85986208915710449219e+00) (21, -1.79016113281250000000e+00) (22, -6.63790941238403320312e+00) (23, 1.77648198604583740234e+00) (24, -3.12648034095764160156e+00) (25, -6.39450073242187500000e-01) (26, 1.78256988525390625000e+00) (27, -2.09014582633972167969e+00) (28, 2.87349772453308105469e+00) (29, 2.17332363128662109375e+00) (30, -1.12619102001190185547e+00) (31, 2.55834126472473144531e+00) (32, -3.51522135734558105469e+00) (33, -2.02322793006896972656e+00) (34, 2.13467526435852050781e+00) (35, 2.66483211517333984375e+00) (36, 1.31094694137573242188e+00) (37, -3.39171886444091796875e+00) (38, 2.07467555999755859375e+00) (39, -3.08411383628845214844e+00) (40, 8.84232744574546813965e-02) (41, -5.29063344001770019531e-01) (42, 8.85835468769073486328e-01) (43, 2.78455662727355957031e+00) (44, -2.26354733109474182129e-01) (45, -5.85711479187011718750e-01) (46, 2.62106895446777343750e+00) (47, 8.32770049571990966797e-01) (48, -6.22037589550018310547e-01) (49, 5.04994678497314453125e+00) (50, -9.21340703964233398438e-01) (51, -3.57559466361999511719e+00) (52, 1.56693875789642333984e+00) (53, 1.00558507442474365234e+00) (54, 2.87512707710266113281e+00) (55, 3.93359065055847167969e-01) (56, 3.76593135297298431396e-02) (57, 4.79363870620727539062e+00) (58, -1.72717332839965820312e+00) (59, -1.76474142074584960938e+00) (60, 2.20289969444274902344e+00) (0, 4.54034537076950073242e-01) (1, 2.45413988828659057617e-01) (2, -1.40772545337677001953e+00) (3, 5.59523642063140869141e-01) (4, -3.60505723953247070312e+00) (5, -9.56079602241516113281e-01) (6, 9.96454298496246337891e-01) (7, 2.41401410102844238281e+00) (8, 5.89281320571899414062e+00) (9, 4.31353521347045898438e+00) (10, 1.66528296470642089844e+00) (11, -5.74704771861433982849e-03) (12, 3.26364183425903320312e+00) (13, -7.04391860961914062500e+00) (14, 4.02960851788520812988e-02) (15, 5.87913274765014648438e-01) (16, -3.17271494865417480469e+00) (17, -1.11010238528251647949e-01) (18, 1.58206343650817871094e+00) (19, 1.80942511558532714844e+00) (20, -3.12678885459899902344e+00) (21, -1.93213868141174316406e+00) (22, -1.14543938636779785156e+00) (23, -1.16449105739593505859e+00) (24, 3.48334312438964843750e-01) (25, -1.66838407516479492188e+00) (26, 1.42208838462829589844e+00) (27, 3.36636352539062500000e+00) (28, 3.86844420433044433594e+00) (29, 7.70880997180938720703e-01) (30, 3.49037456512451171875e+00) (31, -3.70796537399291992188e+00) (32, -6.54633760452270507812e+00) (33, 9.58150327205657958984e-01) (34, -1.61771965026855468750e+00) (35, 3.32022643089294433594e+00) (36, 2.72337222099304199219e+00) (37, 5.83976602554321289062e+00) (38, 1.44764328002929687500e+00) (39, -2.83053159713745117188e-01) (40, 1.02489995956420898438e+00) (41, -9.55460071563720703125e-01) (42, -2.17760848999023437500e+00) (43, -1.14710879325866699219e+00) (44, -1.27131867408752441406e+00) (45, -5.13545036315917968750e-01) (46, -3.76361370086669921875e+00) (47, -1.27985084056854248047e+00) (48, -7.61521720886230468750e+00) (49, -1.72316718101501464844e+00) (50, 1.33886599540710449219e+00) (51, -2.77976560592651367188e+00) (52, -4.44710493087768554688e+00) (53, 5.93386220932006835938e+00) (54, -6.78859806060791015625e+00) (55, -1.84401857852935791016e+00) (56, 2.16599678993225097656e+00) (57, 2.68142437934875488281e+00) (58, 7.59648978710174560547e-01) (59, -1.87618720531463623047e+00) (60, 3.67204737663269042969e+00) (0, -2.69636106491088867188e+00) (1, 3.18821716308593750000e+00) (2, -2.39628362655639648438e+00) (3, 2.76493263244628906250e+00) (4, -2.08626151084899902344e+00) (5, 3.27552986145019531250e+00) (6, 4.31924015283584594727e-01) (7, -3.59585905075073242188e+00) (8, -4.46117687225341796875e+00) (9, -4.06352949142456054688e+00) (10, -3.30262899398803710938e-01) (11, 5.54121494293212890625e+00) (12, 8.49293470382690429688e-01) (13, -1.68390440940856933594e+00) (14, 1.95126891136169433594e+00) (15, -4.37359333038330078125e-01) (16, -4.97328490018844604492e-01) (17, -1.97241038084030151367e-01) (18, 8.80325794219970703125e+00) (19, -5.36081612110137939453e-01) (20, 2.42713999748229980469e+00) (21, -1.69608509540557861328e+00) (22, 1.04205236434936523438e+01) (23, 8.22540879249572753906e-01) (24, 4.30658149719238281250e+00) (25, 3.07920861244201660156e+00) (26, -1.34419429302215576172e+00) (27, -2.79584884643554687500e+00) (28, -7.59989559650421142578e-01) (29, -6.73850870132446289062e+00) (30, 2.06568494439125061035e-01) (31, -3.88906431198120117188e+00) (32, -2.79039239883422851562e+00) (33, 1.79087781906127929688e+00) (34, 5.95999896526336669922e-01) (35, 7.21899271011352539062e-01) (36, 1.04845324531197547913e-02) (37, 1.45520949363708496094e+00) (38, -5.13896405696868896484e-01) (39, -3.45694637298583984375e+00) (40, -1.35298907756805419922e+00) (41, -5.49966096878051757812e-01) (42, 3.28734207153320312500e+00) (43, 9.48461145162582397461e-02) (44, 3.29461312294006347656e+00) (45, -6.19284987449645996094e-01) (46, 1.23623490333557128906e-01) (47, -2.05295205116271972656e+00) (48, -4.05407953262329101562e+00) (49, -5.92542111873626708984e-01) (50, -3.89311742782592773438e+00) (51, 1.68645715713500976562e+00) (52, -2.34721398353576660156e+00) (53, -2.64402717351913452148e-01) (54, -4.27260828018188476562e+00) (55, -3.94166558980941772461e-01) (56, 2.36503314971923828125e+00) (57, -1.39075362682342529297e+00) (58, 5.21281623840332031250e+00) (59, 8.49201560020446777344e-01) (60, -4.88652884960174560547e-01) (0, -8.44090044498443603516e-01) (1, -1.52759337425231933594e+00) (2, -9.35256838798522949219e-01) (3, -5.01534938812255859375e+00) (4, -5.22940039634704589844e-01) (5, -2.44192433357238769531e+00) (6, 1.75868248939514160156e+00) (7, -7.28901684284210205078e-01) (8, 5.83420336246490478516e-01) (9, -6.96625649929046630859e-01) (10, -8.72132420539855957031e-01) (11, 7.55606830120086669922e-01) (12, 9.04816329479217529297e-01) (13, 7.72925615310668945312e-01) (14, 5.27241826057434082031e-01) (15, 1.64418537169694900513e-02) (16, 5.50968525931239128113e-03) (17, 1.60707816481590270996e-01) (18, -1.10646709799766540527e-01) (19, -1.72906947135925292969e+00) (20, -3.35553193092346191406e+00) (21, 1.12779617309570312500e+00) (22, -3.71721714735031127930e-01) (23, -1.34400355815887451172e+00) (24, 2.46545481681823730469e+00) (25, 2.34397515654563903809e-01) (26, 3.15711170434951782227e-01) (27, -1.18240249156951904297e+00) (28, 2.25277447700500488281e+00) (29, 1.97850799560546875000e+00) (30, 1.73566386103630065918e-01) (31, -2.75786697864532470703e-01) (32, -1.25217333436012268066e-01) (33, 6.95388436317443847656e-01) (34, 1.58221733570098876953e+00) (35, 1.35883510112762451172e+00) (36, -5.85619151592254638672e-01) (37, -4.01539355516433715820e-01) (38, 3.33950901031494140625e+00) (39, -1.10276103019714355469e+00) (40, -7.14816689491271972656e-01) (41, 1.02411115169525146484e+00) (42, -2.42625191807746887207e-01) (43, 1.02435255050659179688e+00) (44, 5.46566665172576904297e-01) (45, 3.14528942108154296875e-01) (46, -1.10625326633453369141e+00) (47, 2.39520400762557983398e-01) (48, -8.97951006889343261719e-01) (49, 9.08306911587715148926e-02) (50, 2.90796756744384765625e+00) (51, 1.12124085426330566406e+00) (52, 2.57555246353149414062e+00) (53, 1.75233674049377441406e+00) (54, 2.55010199546813964844e+00) (55, -1.07481881976127624512e-01) (56, -1.34396529197692871094e+00) (57, 4.59287643432617187500e+00) (58, -7.31000363826751708984e-01) (59, -3.35492551326751708984e-01) (60, 6.51337027549743652344e-01) (0, 2.94534526765346527100e-02) (1, 2.96127051115036010742e-01) (2, 2.10810065269470214844e-01) (3, 9.10894334316253662109e-01) (4, -2.18521976470947265625e+00) (5, -4.33167695999145507812e+00) (6, 1.02875925600528717041e-01) (7, -5.34233570098876953125e+00) (8, 7.57525253295898437500e+00) (9, -4.05940914154052734375e+00) (10, -1.92512202262878417969e+00) (11, 3.02163839340209960938e-01) (12, -7.98779129981994628906e-01) (13, 3.04694366455078125000e+00) (14, 2.25342726707458496094e+00) (15, -6.88302516937255859375e-01) (16, 1.75523948669433593750e+00) (17, 3.00766348838806152344e+00) (18, -4.05713272094726562500e+00) (19, -8.86466801166534423828e-01) (20, 3.12860399484634399414e-01) (21, 1.77864325046539306641e+00) (22, -5.26838827133178710938e+00) (23, 1.00208975374698638916e-01) (24, -3.17309236526489257812e+00) (25, -6.58122777938842773438e-01) (26, -3.64334559440612792969e+00) (27, -6.44685685634613037109e-01) (28, 1.56554162502288818359e-01) (29, 4.29415607452392578125e+00) (30, 5.18967583775520324707e-02) (31, 1.57080113887786865234e+00) (32, 1.81187784671783447266e+00) (33, 2.59436941146850585938e+00) (34, 2.06473231315612792969e+00) (35, 3.72853070497512817383e-01) (36, 1.10568511486053466797e+00) (37, -2.23467516899108886719e+00) (38, -6.05532169342041015625e-01) (39, 5.52919149398803710938e+00) (40, -3.92175525426864624023e-01) (41, 7.51357734203338623047e-01) (42, 2.49365282058715820312e+00) (43, -3.12641620635986328125e+00) (44, -1.04916065931320190430e-01) (45, -4.89155113697052001953e-01) (46, 3.02992820739746093750e-01) (47, 2.35620450973510742188e+00) (48, 4.50034046173095703125e+00) (49, 2.36389589309692382812e+00) (50, 1.07312142848968505859e+00) (51, 6.79593309760093688965e-02) (52, 4.64864206314086914062e+00) (53, -5.54212951660156250000e+00) (54, 4.56480932235717773438e+00) (55, 2.66404449939727783203e-01) (56, -4.70459127426147460938e+00) (57, -7.93397188186645507812e-01) (58, -4.36041498184204101562e+00) (59, -3.24386405944824218750e+00) (60, -2.12176918983459472656e+00) (61, 2.45168161392211914062e+00) (62, 9.28974723815917968750e+00) (63, 5.80048656463623046875e+00) (64, -8.67072391510009765625e+00) (65, -9.16604614257812500000e+00) (66, -7.52746582031250000000e+00) (67, -2.27251076698303222656e+00) (61, 9.32272529602050781250e+00) (62, -9.44307899475097656250e+00) (63, -3.52712082862854003906e+00) (64, 1.00572156906127929688e+01) (65, 9.67845153808593750000e+00) (66, -9.10634899139404296875e+00) (67, -1.22831802368164062500e+01) (61, -1.11166944503784179688e+01) (62, -9.46328544616699218750e+00) (63, 1.20595731735229492188e+01) (64, -5.31690835952758789062e+00) (65, 5.32276816666126251221e-02) (66, 8.23323440551757812500e+00) (67, -3.45281910896301269531e+00) (61, 8.59806346893310546875e+00) (62, 9.24211502075195312500e+00) (63, -1.20871105194091796875e+01) (64, -1.13953132629394531250e+01) (65, -3.13741469383239746094e+00) (66, 6.49519538879394531250e+00) (67, -7.15168428421020507812e+00) 
