FANN_FLO_2.1
num_layers=4
learning_rate=0.700000
connection_rate=1.000000
network_type=0
learning_momentum=0.000000
training_algorithm=2
train_error_function=1
train_stop_function=0
cascade_output_change_fraction=0.010000
quickprop_decay=-0.000100
quickprop_mu=1.750000
rprop_increase_factor=1.200000
rprop_decrease_factor=0.500000
rprop_delta_min=0.000000
rprop_delta_max=50.000000
rprop_delta_zero=0.100000
cascade_output_stagnation_epochs=12
cascade_candidate_change_fraction=0.010000
cascade_candidate_stagnation_epochs=12
cascade_max_out_epochs=150
cascade_min_out_epochs=50
cascade_max_cand_epochs=150
cascade_min_cand_epochs=50
cascade_num_candidate_groups=2
bit_fail_limit=3.49999994039535522461e-01
cascade_candidate_limit=1.00000000000000000000e+03
cascade_weight_multiplier=4.00000005960464477539e-01
cascade_activation_functions_count=10
cascade_activation_functions=3 5 7 8 10 11 14 15 16 17 
cascade_activation_steepnesses_count=4
cascade_activation_steepnesses=2.50000000000000000000e-01 5.00000000000000000000e-01 7.50000000000000000000e-01 1.00000000000000000000e+00 
layer_sizes=53 17 17 5 
scale_included=0
neurons (num_inputs, activation_function, activation_steepness)=(0, 0, 0.00000000000000000000e+00) (0, 0, 0.00000000000000000000e+00) (0, 0, 0.00000000000000000000e+00) (0, 0, 0.00000000000000000000e+00) (0, 0, 0.00000000000000000000e+00) (0, 0, 0.00000000000000000000e+00) (0, 0, 0.00000000000000000000e+00) (0, 0, 0.00000000000000000000e+00) (0, 0, 0.00000000000000000000e+00) (0, 0, 0.00000000000000000000e+00) (0, 0, 0.00000000000000000000e+00) (0, 0, 0.00000000000000000000e+00) (0, 0, 0.00000000000000000000e+00) (0, 0, 0.00000000000000000000e+00) (0, 0, 0.00000000000000000000e+00) (0, 0, 0.00000000000000000000e+00) (0, 0, 0.00000000000000000000e+00) (0, 0, 0.00000000000000000000e+00) (0, 0, 0.00000000000000000000e+00) (0, 0, 0.00000000000000000000e+00) (0, 0, 0.00000000000000000000e+00) (0, 0, 0.00000000000000000000e+00) (0, 0, 0.00000000000000000000e+00) (0, 0, 0.00000000000000000000e+00) (0, 0, 0.00000000000000000000e+00) (0, 0, 0.00000000000000000000e+00) (0, 0, 0.00000000000000000000e+00) (0, 0, 0.00000000000000000000e+00) (0, 0, 0.00000000000000000000e+00) (0, 0, 0.00000000000000000000e+00) (0, 0, 0.00000000000000000000e+00) (0, 0, 0.00000000000000000000e+00) (0, 0, 0.00000000000000000000e+00) (0, 0, 0.00000000000000000000e+00) (0, 0, 0.00000000000000000000e+00) (0, 0, 0.00000000000000000000e+00) (0, 0, 0.00000000000000000000e+00) (0, 0, 0.00000000000000000000e+00) (0, 0, 0.00000000000000000000e+00) (0, 0, 0.00000000000000000000e+00) (0, 0, 0.00000000000000000000e+00) (0, 0, 0.00000000000000000000e+00) (0, 0, 0.00000000000000000000e+00) (0, 0, 0.00000000000000000000e+00) (0, 0, 0.00000000000000000000e+00) (0, 0, 0.00000000000000000000e+00) (0, 0, 0.00000000000000000000e+00) (0, 0, 0.00000000000000000000e+00) (0, 0, 0.00000000000000000000e+00) (0, 0, 0.00000000000000000000e+00) (0, 0, 0.00000000000000000000e+00) (0, 0, 0.00000000000000000000e+00) (0, 0, 0.00000000000000000000e+00) (53, 3, 5.00000000000000000000e-01) (53, 3, 5.00000000000000000000e-01) (53, 3, 5.00000000000000000000e-01) (53, 3, 5.00000000000000000000e-01) (53, 3, 5.00000000000000000000e-01) (53, 3, 5.00000000000000000000e-01) (53, 3, 5.00000000000000000000e-01) (53, 3, 5.00000000000000000000e-01) (53, 3, 5.00000000000000000000e-01) (53, 3, 5.00000000000000000000e-01) (53, 3, 5.00000000000000000000e-01) (53, 3, 5.00000000000000000000e-01) (53, 3, 5.00000000000000000000e-01) (53, 3, 5.00000000000000000000e-01) (53, 3, 5.00000000000000000000e-01) (53, 3, 5.00000000000000000000e-01) (0, 3, 0.00000000000000000000e+00) (17, 3, 5.00000000000000000000e-01) (17, 3, 5.00000000000000000000e-01) (17, 3, 5.00000000000000000000e-01) (17, 3, 5.00000000000000000000e-01) (17, 3, 5.00000000000000000000e-01) (17, 3, 5.00000000000000000000e-01) (17, 3, 5.00000000000000000000e-01) (17, 3, 5.00000000000000000000e-01) (17, 3, 5.00000000000000000000e-01) (17, 3, 5.00000000000000000000e-01) (17, 3, 5.00000000000000000000e-01) (17, 3, 5.00000000000000000000e-01) (17, 3, 5.00000000000000000000e-01) (17, 3, 5.00000000000000000000e-01) (17, 3, 5.00000000000000000000e-01) (17, 3, 5.00000000000000000000e-01) (0, 3, 0.00000000000000000000e+00) (17, 3, 5.00000000000000000000e-01) (17, 3, 5.00000000000000000000e-01) (17, 3, 5.00000000000000000000e-01) (17, 3, 5.00000000000000000000e-01) (0, 3, 0.00000000000000000000e+00) 
connections (connected_to_neuron, weight)=(0, 8.18915176391601562500e+01) (1, 8.64832550287246704102e-02) (2, 1.43200069665908813477e-01) (3, 4.73857283592224121094e-01) (4, 1.88916730880737304688e+00) (5, 3.31309497356414794922e-01) (6, -1.67231731414794921875e+01) (7, -9.53508853912353515625e-01) (8, -1.89513511657714843750e+01) (9, 8.17456512451171875000e+01) (10, 2.59078949689865112305e-01) (11, 6.18691682815551757812e-01) (12, -1.50082021951675415039e-01) (13, -1.03324069976806640625e+01) (14, 5.47040939331054687500e+00) (15, -1.13291492462158203125e+01) (16, -9.49234127998352050781e-01) (17, -4.22520494461059570312e+00) (18, 2.96144753694534301758e-01) (19, 8.17722320556640625000e+01) (20, -1.57385616302490234375e+01) (21, 8.18484725952148437500e+01) (22, 8.18199157714843750000e+01) (23, 1.18924081325531005859e+00) (24, 5.97806036472320556641e-01) (25, 3.02935391664505004883e-01) (26, 8.18823547363281250000e+01) (27, 6.14106464385986328125e+00) (28, 8.17615356445312500000e+01) (29, 2.29158729314804077148e-01) (30, 6.14111518859863281250e+00) (31, -6.66888132691383361816e-02) (32, 2.88589566946029663086e-01) (33, 2.89215469360351562500e+00) (34, -7.12362575531005859375e+00) (35, 8.18738632202148437500e+01) (36, 8.19080047607421875000e+01) (37, -1.50488317012786865234e-01) (38, -2.58059668540954589844e+00) (39, 8.17428512573242187500e+01) (40, 7.81074315309524536133e-02) (41, 2.21557691693305969238e-01) (42, -6.09030246734619140625e-01) (43, 3.02170085906982421875e+00) (44, 3.39084178209304809570e-01) (45, 6.04632759094238281250e+00) (46, 3.94148254394531250000e+00) (47, 8.29447746276855468750e+00) (48, -2.22781956195831298828e-01) (49, 1.75215139985084533691e-01) (50, -5.01775443553924560547e-01) (51, -1.20492303371429443359e+00) (52, 2.10864156484603881836e-01) (0, 8.19004135131835937500e+01) (1, -5.80381536483764648438e+00) (2, -1.01414930820465087891e+00) (3, -1.16933088302612304688e+01) (4, -2.47619533538818359375e+00) (5, -2.54756402969360351562e+00) (6, 5.41294956207275390625e+00) (7, -3.41000366210937500000e+00) (8, 3.75773286819458007812e+00) (9, 8.18591537475585937500e+01) (10, 2.52812266349792480469e-01) (11, -2.45440196990966796875e+00) (12, 2.65516579151153564453e-01) (13, 3.78723430633544921875e+00) (14, -4.81775951385498046875e+00) (15, 1.47249774932861328125e+01) (16, 3.75605344772338867188e+00) (17, -3.37112312316894531250e+01) (18, -8.37581443786621093750e+00) (19, 8.18012847900390625000e+01) (20, -5.30358123779296875000e+00) (21, 8.18443679809570312500e+01) (22, 8.18282012939453125000e+01) (23, 1.69200456142425537109e+00) (24, -2.18109226226806640625e+00) (25, -2.12775707244873046875e+00) (26, 8.17643356323242187500e+01) (27, -1.74966633319854736328e-01) (28, 8.17393646240234375000e+01) (29, -2.07579874992370605469e+00) (30, -2.65325927734375000000e+00) (31, -3.34501676261425018311e-02) (32, 3.84398794174194335938e+00) (33, 3.16084474325180053711e-01) (34, 5.27009665966033935547e-01) (35, 8.18482818603515625000e+01) (36, 8.17739562988281250000e+01) (37, -5.21174073219299316406e-01) (38, -4.35918450355529785156e-01) (39, 8.18765945434570312500e+01) (40, 2.06481399536132812500e+01) (41, 2.19191246032714843750e+01) (42, 4.60574403405189514160e-02) (43, 1.18595695495605468750e+01) (44, 5.38674771785736083984e-01) (45, 1.39331305027008056641e+00) (46, 6.34705162048339843750e+00) (47, 1.71595644950866699219e+00) (48, 2.35524978637695312500e+01) (49, 2.06829528808593750000e+01) (50, 1.35320037603378295898e-01) (51, -1.17083883285522460938e+00) (52, 5.09601049125194549561e-02) (0, 8.18189620971679687500e+01) (1, 3.81281465291976928711e-01) (2, 3.50297659635543823242e-01) (3, -1.68378025293350219727e-01) (4, -5.44979989528656005859e-01) (5, 1.24251151084899902344e+00) (6, -8.52934074401855468750e+00) (7, 1.07068243026733398438e+01) (8, -8.50270652770996093750e+00) (9, 8.17673797607421875000e+01) (10, 8.39842200279235839844e-01) (11, -2.21973109245300292969e+00) (12, -1.24472424387931823730e-01) (13, -6.31924533843994140625e+00) (14, -3.09984159469604492188e+00) (15, -5.95252227783203125000e+00) (16, -5.80790996551513671875e+00) (17, 7.86020851135253906250e+00) (18, -4.51637315750122070312e+00) (19, 8.18197860717773437500e+01) (20, -6.25846862792968750000e+00) (21, 8.17564392089843750000e+01) (22, 8.18307113647460937500e+01) (23, 7.60627329349517822266e-01) (24, -2.10205602645874023438e+00) (25, -2.29451370239257812500e+00) (26, 8.18478393554687500000e+01) (27, 1.76882952451705932617e-01) (28, 8.17333450317382812500e+01) (29, 3.37826907634735107422e-01) (30, 1.74958333373069763184e-02) (31, -6.49142265319824218750e-02) (32, 1.47096881866455078125e+01) (33, 1.94804680347442626953e+00) (34, -1.51061189174652099609e+00) (35, 8.18984222412109375000e+01) (36, 8.17871551513671875000e+01) (37, -1.96241468191146850586e-01) (38, -3.09691935777664184570e-01) (39, 8.18637847900390625000e+01) (40, 1.14296710491180419922e+00) (41, 1.29734861850738525391e+00) (42, 1.11303806304931640625e+00) (43, 3.94621467590332031250e+00) (44, 8.23205411434173583984e-01) (45, 1.40465348958969116211e-01) (46, 1.17187070846557617188e+00) (47, 2.64219105243682861328e-01) (48, 3.94286274909973144531e-01) (49, 1.30628025531768798828e+00) (50, 3.89344394207000732422e-01) (51, -2.30506747961044311523e-01) (52, -6.51900470256805419922e-02) (0, 8.18571014404296875000e+01) (1, 7.46716678142547607422e-01) (2, 9.67956483364105224609e-01) (3, 2.23007917404174804688e+00) (4, 3.77032804489135742188e+00) (5, 5.91415286064147949219e-01) (6, -3.52247581481933593750e+01) (7, 2.42912197113037109375e+00) (8, -3.53420486450195312500e+01) (9, 8.17957458496093750000e+01) (10, -2.08820551633834838867e-01) (11, 5.22885441780090332031e-01) (12, -2.16730976104736328125e+00) (13, -3.53605880737304687500e+01) (14, -3.92153854370117187500e+01) (15, -3.53861808776855468750e+01) (16, -2.71219635009765625000e+01) (17, 5.49683094024658203125e+00) (18, 1.18223810195922851562e+00) (19, 8.17375869750976562500e+01) (20, 1.63291692733764648438e+00) (21, 8.17271804809570312500e+01) (22, 8.18479843139648437500e+01) (23, 1.15116071701049804688e+00) (24, 3.26012611389160156250e-01) (25, 4.68425273895263671875e-01) (26, 8.17762374877929687500e+01) (27, -6.48704624176025390625e+00) (28, 8.18033828735351562500e+01) (29, -1.56884396076202392578e+00) (30, -5.80892992019653320312e+00) (31, 6.69034957885742187500e-01) (32, 1.97796964645385742188e+00) (33, -2.08147454261779785156e+00) (34, 2.20738261938095092773e-01) (35, 8.17919235229492187500e+01) (36, 8.18565063476562500000e+01) (37, 1.77936591207981109619e-02) (38, 4.60324108600616455078e-01) (39, 8.19050521850585937500e+01) (40, 1.25452220439910888672e+00) (41, 2.53693580627441406250e+00) (42, -5.03004729747772216797e-01) (43, 2.57458901405334472656e+00) (44, -3.75873804092407226562e-01) (45, -5.88693332672119140625e+00) (46, -2.31551456451416015625e+00) (47, -1.87523737549781799316e-02) (48, 2.68171739578247070312e+00) (49, 1.31275928020477294922e+00) (50, -4.22282107174396514893e-02) (51, -1.05569467544555664062e+01) (52, 9.09010916948318481445e-02) (0, 8.17543869018554687500e+01) (1, -5.83717060089111328125e+00) (2, -3.51919621229171752930e-01) (3, -8.18358154296875000000e+01) (4, -1.09154529571533203125e+01) (5, -5.40509462356567382812e-01) (6, 5.62012386322021484375e+00) (7, -5.36375656127929687500e+01) (8, 5.49131488800048828125e+00) (9, 8.19056625366210937500e+01) (10, 5.60074388980865478516e-01) (11, 2.15846347808837890625e+00) (12, 6.63021206855773925781e-01) (13, 5.50757217407226562500e+00) (14, 2.90209388732910156250e+00) (15, 5.54283332824707031250e+00) (16, 2.25568413734436035156e+00) (17, -8.18103561401367187500e+01) (18, 1.57442617416381835938e+00) (19, 8.17952651977539062500e+01) (20, 1.05275082588195800781e+00) (21, 8.18461074829101562500e+01) (22, 8.18611907958984375000e+01) (23, 3.44759166240692138672e-01) (24, -4.60355138778686523438e+00) (25, -1.33959388732910156250e+01) (26, 8.17723541259765625000e+01) (27, 8.00548911094665527344e-01) (28, 8.18588180541992187500e+01) (29, -4.79820758104324340820e-01) (30, 8.73341202735900878906e-01) (31, -1.81344356387853622437e-02) (32, -3.29695844650268554688e+00) (33, 1.52973377704620361328e+00) (34, -1.42012989521026611328e+00) (35, 8.17454833984375000000e+01) (36, 8.18948364257812500000e+01) (37, -4.46388125419616699219e-01) (38, -2.72670269012451171875e-01) (39, 8.17335968017578125000e+01) (40, 2.86018872261047363281e+00) (41, 1.12773828506469726562e+01) (42, -1.59214884042739868164e-01) (43, 5.12102508544921875000e+00) (44, 7.22733139991760253906e-01) (45, 7.74790525436401367188e-01) (46, 1.24185907840728759766e+00) (47, 1.13686275482177734375e+00) (48, 1.64819984436035156250e+01) (49, 1.13394861221313476562e+01) (50, -5.65140917897224426270e-02) (51, -3.28202962875366210938e-01) (52, 1.38091936707496643066e-01) (0, 8.19139175415039062500e+01) (1, -6.42057538032531738281e-01) (2, -2.13859125971794128418e-01) (3, -1.00828475952148437500e+01) (4, -8.00828754901885986328e-01) (5, -1.67628812789916992188e+00) (6, 5.61050319671630859375e+00) (7, -1.87460308074951171875e+01) (8, 5.59043550491333007812e+00) (9, 8.18487548828125000000e+01) (10, 5.88452339172363281250e-01) (11, 1.37013185024261474609e+00) (12, 1.04410791397094726562e+00) (13, 5.51339817047119140625e+00) (14, 1.32284891605377197266e+00) (15, 5.45644950866699218750e+00) (16, 5.61579799652099609375e+00) (17, -7.91193199157714843750e+00) (18, 2.36889505386352539062e+00) (19, 8.17735290527343750000e+01) (20, 4.70519542694091796875e-01) (21, 8.18917694091796875000e+01) (22, 8.19164352416992187500e+01) (23, 3.33692848682403564453e-01) (24, -2.35125994682312011719e+00) (25, -2.46593922376632690430e-01) (26, 8.19113922119140625000e+01) (27, -5.70132064819335937500e+00) (28, 8.17490158081054687500e+01) (29, -2.04446411132812500000e+00) (30, -9.97639477252960205078e-01) (31, -3.76594513654708862305e-01) (32, -3.21093469858169555664e-01) (33, -1.00358695983886718750e+01) (34, -1.41648519039154052734e+00) (35, 8.18548660278320312500e+01) (36, 8.18361968994140625000e+01) (37, 2.35211104154586791992e-01) (38, 1.95784837007522583008e-01) (39, 8.17740707397460937500e+01) (40, 1.13134565353393554688e+01) (41, 1.13854360580444335938e+01) (42, -1.32829606533050537109e-01) (43, 7.69742298126220703125e+00) (44, 1.14710330963134765625e-01) (45, -3.53642797470092773438e+00) (46, -3.88736724853515625000e-01) (47, 4.05232429504394531250e-01) (48, 1.64870605468750000000e+01) (49, 1.13083982467651367188e+01) (50, 2.91501581668853759766e-01) (51, -1.85735082626342773438e+00) (52, 3.08622509241104125977e-01) (0, 8.17875976562500000000e+01) (1, -1.99952721595764160156e-01) (2, -8.17179679870605468750e-01) (3, -4.11176633834838867188e+00) (4, -1.75197052955627441406e+00) (5, -2.39815473556518554688e+00) (6, -4.88399505615234375000e+00) (7, -3.55332469940185546875e+00) (8, -1.49461328983306884766e+00) (9, 8.18062438964843750000e+01) (10, 7.83683955669403076172e-01) (11, -3.69714081287384033203e-01) (12, -3.21456670761108398438e-01) (13, -1.86186760663986206055e-01) (14, -4.51500320434570312500e+00) (15, 2.40184164047241210938e+00) (16, 1.23873162269592285156e+00) (17, -1.85077400207519531250e+01) (18, -2.98473691940307617188e+00) (19, 8.17994842529296875000e+01) (20, -6.34610748291015625000e+00) (21, 8.18727874755859375000e+01) (22, 8.18562698364257812500e+01) (23, 1.66750699281692504883e-01) (24, -2.29890063405036926270e-01) (25, -1.35583475232124328613e-01) (26, 8.18502960205078125000e+01) (27, 1.30644276738166809082e-01) (28, 8.17474517822265625000e+01) (29, -8.65393161773681640625e-01) (30, -1.20600581169128417969e+00) (31, 1.74462646245956420898e-01) (32, 1.95668256282806396484e+00) (33, -1.74774110317230224609e+00) (34, -6.92702084779739379883e-02) (35, 8.18959808349609375000e+01) (36, 8.17736816406250000000e+01) (37, 4.43283431231975555420e-02) (38, -6.87389016151428222656e-01) (39, 8.18936080932617187500e+01) (40, 1.45438070297241210938e+01) (41, 1.46578741073608398438e+01) (42, 7.99875140190124511719e-01) (43, 8.14178085327148437500e+00) (44, 7.00412452220916748047e-01) (45, -5.90456306934356689453e-01) (46, 7.22710704803466796875e+00) (47, 8.05075109004974365234e-01) (48, 1.44806699752807617188e+01) (49, 1.46335287094116210938e+01) (50, 6.13946378231048583984e-01) (51, -5.14317178726196289062e+00) (52, 2.16381996870040893555e-01) (0, 8.17304229736328125000e+01) (1, -5.88303375244140625000e+00) (2, -4.97823730111122131348e-02) (3, -5.45613384246826171875e+00) (4, -9.78384792804718017578e-01) (5, -2.14178538322448730469e+00) (6, 5.47142028808593750000e+00) (7, -2.21250457763671875000e+01) (8, 3.67897796630859375000e+00) (9, 8.17996292114257812500e+01) (10, -2.79477691650390625000e+00) (11, -2.11837744712829589844e+00) (12, -4.09148633480072021484e-01) (13, 3.83933877944946289062e+00) (14, -3.31237554550170898438e-01) (15, 1.47227630615234375000e+01) (16, 5.15297317504882812500e+00) (17, -3.38819236755371093750e+01) (18, -2.79785728454589843750e+00) (19, 8.19020996093750000000e+01) (20, -3.74775505065917968750e+00) (21, 8.18053665161132812500e+01) (22, 8.18180313110351562500e+01) (23, -3.67362886667251586914e-01) (24, -2.38389945030212402344e+00) (25, -3.19581747055053710938e+00) (26, 8.17804183959960937500e+01) (27, 5.74310064315795898438e-01) (28, 8.18892593383789062500e+01) (29, -7.70834088325500488281e-01) (30, 1.19361340999603271484e-01) (31, -9.69766855239868164062e-01) (32, -7.40978860855102539062e+00) (33, 3.98238867521286010742e-01) (34, -1.39025211334228515625e+01) (35, 8.17674255371093750000e+01) (36, 8.17522811889648437500e+01) (37, -9.09993290901184082031e-01) (38, -9.63428497314453125000e+00) (39, 8.17761611938476562500e+01) (40, 9.12052059173583984375e+00) (41, 1.12705030441284179688e+01) (42, -7.76499152183532714844e-01) (43, 4.03759431838989257812e+00) (44, 3.63457411527633666992e-01) (45, 7.86873102188110351562e-01) (46, 6.21017885208129882812e+00) (47, 3.27268749475479125977e-01) (48, 1.65563735961914062500e+01) (49, 9.20928096771240234375e+00) (50, 8.56565609574317932129e-02) (51, -2.69535362720489501953e-01) (52, 8.97426530718803405762e-02) (0, 8.18497238159179687500e+01) (1, -5.96764945983886718750e+00) (2, -2.30496454238891601562e+00) (3, -2.24830474853515625000e+01) (4, -7.27422142028808593750e+00) (5, -2.48538208007812500000e+00) (6, 1.42153370380401611328e+00) (7, -2.20529823303222656250e+01) (8, 1.28318655490875244141e+00) (9, 8.18841857910156250000e+01) (10, -2.84409904479980468750e+00) (11, -6.15252614021301269531e-01) (12, -1.06231331825256347656e+00) (13, 1.09996008872985839844e+00) (14, -1.09233725070953369141e+00) (15, 2.89532756805419921875e+00) (16, 3.23991012573242187500e+00) (17, -3.38976936340332031250e+01) (18, -2.80276226997375488281e+00) (19, 8.18219604492187500000e+01) (20, -1.34806835651397705078e+00) (21, 8.17533798217773437500e+01) (22, 8.18872146606445312500e+01) (23, -4.05313253402709960938e-01) (24, -5.58890044689178466797e-01) (25, -8.74329686164855957031e-01) (26, 8.18032302856445312500e+01) (27, 1.82737827301025390625e+00) (28, 8.17708892822265625000e+01) (29, -8.39765644073486328125e+00) (30, -6.27481651306152343750e+00) (31, -1.61117992401123046875e+01) (32, -1.74974322319030761719e+00) (33, 3.07079404592514038086e-01) (34, -5.42220163345336914062e+00) (35, 8.18537673950195312500e+01) (36, 8.17587509155273437500e+01) (37, -3.92917919158935546875e+00) (38, -9.67588138580322265625e+00) (39, 8.18073043823242187500e+01) (40, 2.33910655975341796875e+01) (41, 3.37505912780761718750e+01) (42, -1.54091238975524902344e-01) (43, 7.73850250244140625000e+00) (44, 9.55559790134429931641e-01) (45, 2.90547227859497070312e+00) (46, 8.26648056507110595703e-01) (47, 1.82209885120391845703e+00) (48, 3.37810859680175781250e+01) (49, 2.33354396820068359375e+01) (50, 5.25413990020751953125e-01) (51, -9.68522834777832031250e+00) (52, 8.34305167198181152344e-01) (0, 8.18854598999023437500e+01) (1, -2.83856487274169921875e+00) (2, -3.95312380790710449219e+00) (3, -6.22816848754882812500e+01) (4, -2.75327205657958984375e+01) (5, -2.23985862731933593750e+00) (6, 7.30835819244384765625e+00) (7, -5.36745986938476562500e+01) (8, 2.32632017135620117188e+00) (9, 8.17265701293945312500e+01) (10, 5.36237835884094238281e-01) (11, -1.57129764556884765625e+00) (12, 1.04895353317260742188e+00) (13, 1.55670964717864990234e+00) (14, -1.88717043399810791016e+00) (15, 9.45020294189453125000e+00) (16, 6.72643470764160156250e+00) (17, -8.17263641357421875000e+01) (18, -8.28682613372802734375e+00) (19, 8.17851638793945312500e+01) (20, -7.39807701110839843750e+00) (21, 8.18928604125976562500e+01) (22, 8.18652954101562500000e+01) (23, 4.54278647899627685547e-01) (24, -1.35599350929260253906e+00) (25, -1.60448980331420898438e+00) (26, 8.18445358276367187500e+01) (27, 4.75874710083007812500e+00) (28, 8.17622146606445312500e+01) (29, -2.28808903694152832031e+00) (30, -6.33273220062255859375e+00) (31, -4.38318341970443725586e-01) (32, 1.26049447059631347656e+00) (33, -4.09137248992919921875e+00) (34, -7.27419376373291015625e-01) (35, 8.19006729125976562500e+01) (36, 8.18173904418945312500e+01) (37, -4.13707345724105834961e-01) (38, -4.04241770505905151367e-01) (39, 8.18101882934570312500e+01) (40, 3.38379325866699218750e+01) (41, 3.40139427185058593750e+01) (42, 7.21688032150268554688e-01) (43, 1.19366149902343750000e+01) (44, 9.46677863597869873047e-01) (45, 2.82170820236206054688e+00) (46, 1.27381601333618164062e+01) (47, 1.04705095291137695312e+00) (48, 3.38923835754394531250e+01) (49, 3.39480476379394531250e+01) (50, 9.30394053459167480469e-01) (51, -3.37412858009338378906e+00) (52, 9.39261198043823242188e-01) (0, 8.17522659301757812500e+01) (1, -2.12028026580810546875e+00) (2, -6.22563920915126800537e-02) (3, 3.63474130630493164062e-01) (4, 9.38167035579681396484e-01) (5, 1.96369349956512451172e-01) (6, -1.67672538757324218750e+01) (7, -4.19842863082885742188e+00) (8, -1.88846721649169921875e+01) (9, 8.18365478515625000000e+01) (10, 2.22150132060050964355e-01) (11, 7.72438645362854003906e-01) (12, -2.44733810424804687500e+00) (13, -5.46134662628173828125e+00) (14, 3.82338851690292358398e-01) (15, -5.09978008270263671875e+00) (16, -1.25334537029266357422e+00) (17, -1.39075145721435546875e+01) (18, -4.46398973464965820312e+00) (19, 8.17274169921875000000e+01) (20, -7.93746089935302734375e+00) (21, 8.18609466552734375000e+01) (22, 8.18207855224609375000e+01) (23, 3.25157672166824340820e-01) (24, 5.84702014923095703125e-01) (25, -1.06069278717041015625e+00) (26, 8.19175796508789062500e+01) (27, 1.41770517826080322266e+00) (28, 8.17319641113281250000e+01) (29, -1.11069226264953613281e+00) (30, 1.34564077854156494141e+00) (31, 3.94683897495269775391e-01) (32, 1.77775037288665771484e+00) (33, 5.16331195831298828125e+00) (34, -2.65749597549438476562e+00) (35, 8.17751312255859375000e+01) (36, 8.18687973022460937500e+01) (37, 1.17109365761280059814e-01) (38, -9.26101207733154296875e-01) (39, 8.17703323364257812500e+01) (40, 8.20240497589111328125e-01) (41, 8.46963882446289062500e-01) (42, -3.84052783250808715820e-01) (43, 5.57562446594238281250e+00) (44, 5.36586403846740722656e-01) (45, 1.40937912464141845703e+00) (46, 1.34234523773193359375e+00) (47, 3.30731058120727539062e+00) (48, -8.57225656509399414062e-02) (49, 7.48387932777404785156e-01) (50, 4.52228128910064697266e-01) (51, 2.39036351442337036133e-01) (52, 3.34016144275665283203e-01) (0, 8.17957382202148437500e+01) (1, -5.25481939315795898438e-01) (2, 4.48317497968673706055e-01) (3, -6.99997901916503906250e+00) (4, -3.23023945093154907227e-01) (5, 7.06618070602416992188e-01) (6, 3.22686290740966796875e+00) (7, -5.36322784423828125000e+01) (8, 3.38082456588745117188e+00) (9, 8.17673416137695312500e+01) (10, -3.42370241880416870117e-01) (11, 1.19271707534790039062e+00) (12, 5.89279413223266601562e-01) (13, 2.57868003845214843750e+00) (14, 1.24131882190704345703e+00) (15, 1.22959442138671875000e+01) (16, 3.53087663650512695312e+00) (17, -8.18789215087890625000e+01) (18, 1.15008711814880371094e+00) (19, 8.18697738647460937500e+01) (20, -3.32942628860473632812e+00) (21, 8.18698883056640625000e+01) (22, 8.18259735107421875000e+01) (23, 4.03522759675979614258e-01) (24, -1.30234992504119873047e+00) (25, -1.53077065944671630859e+00) (26, 8.19210510253906250000e+01) (27, 1.50883758068084716797e+00) (28, 8.17708740234375000000e+01) (29, 5.77255904674530029297e-01) (30, 8.38939666748046875000e-01) (31, -3.40362757444381713867e-01) (32, -5.24577535688877105713e-02) (33, 2.22719240188598632812e+00) (34, -8.51056480407714843750e+00) (35, 8.18575439453125000000e+01) (36, 8.18197784423828125000e+01) (37, -7.77613043785095214844e-01) (38, -2.67195510864257812500e+00) (39, 8.17792434692382812500e+01) (40, 6.42529296875000000000e+00) (41, 2.94603395462036132812e+00) (42, -2.45861053466796875000e-01) (43, 7.44093227386474609375e+00) (44, 3.66628229618072509766e-01) (45, 1.31250035762786865234e+00) (46, 2.42238330841064453125e+00) (47, 4.06331539154052734375e+00) (48, 2.64052343368530273438e+00) (49, 6.27341079711914062500e+00) (50, 1.34778514504432678223e-01) (51, 8.00644606351852416992e-02) (52, -4.12493757903575897217e-02) (0, 8.17971572875976562500e+01) (1, -1.00225257873535156250e+00) (2, 4.03297841548919677734e-01) (3, -1.36795803904533386230e-01) (4, 9.37745153903961181641e-01) (5, -2.23844587802886962891e-01) (6, -1.12099113464355468750e+01) (7, -1.60271990299224853516e+00) (8, -8.11194038391113281250e+00) (9, 8.18409805297851562500e+01) (10, 3.99002104997634887695e-01) (11, -3.61616897583007812500e+00) (12, -7.63234317302703857422e-01) (13, -5.70106410980224609375e+00) (14, 3.17308950424194335938e+00) (15, -9.07703042030334472656e-01) (16, -1.07616066932678222656e+00) (17, -5.58854389190673828125e+00) (18, -2.02193412780761718750e+01) (19, 8.17888259887695312500e+01) (20, -1.14663505554199218750e+01) (21, 8.17742614746093750000e+01) (22, 8.18282852172851562500e+01) (23, 5.67747831344604492188e-01) (24, 4.06259119510650634766e-01) (25, -1.62872803211212158203e+00) (26, 8.18866729736328125000e+01) (27, 1.26779234409332275391e+00) (28, 8.18232727050781250000e+01) (29, -6.49020671844482421875e-01) (30, 6.15477919578552246094e-01) (31, 4.19241219758987426758e-01) (32, 2.69190639257431030273e-01) (33, 8.82192373275756835938e-01) (34, -1.02843799591064453125e+01) (35, 8.18211364746093750000e+01) (36, 8.19145889282226562500e+01) (37, 3.64277034997940063477e-01) (38, -2.20005798339843750000e+00) (39, 8.18763656616210937500e+01) (40, 7.23185658454895019531e-01) (41, 8.81546616554260253906e-01) (42, -1.74411845207214355469e+00) (43, 3.02899932861328125000e+00) (44, 4.28335875272750854492e-01) (45, 1.26397860050201416016e+00) (46, 4.88077670335769653320e-01) (47, 2.79226875305175781250e+00) (48, 4.74363565444946289062e-02) (49, 8.46944928169250488281e-01) (50, 3.49310189485549926758e-01) (51, -2.52746455371379852295e-02) (52, 1.93522796034812927246e-01) (0, 8.17989425659179687500e+01) (1, -3.44739608764648437500e+01) (2, -4.12297904491424560547e-01) (3, -8.19161605834960937500e+01) (4, -6.23820724487304687500e+01) (5, -8.76483917236328125000e-01) (6, 4.97999858856201171875e+00) (7, -8.17357940673828125000e+01) (8, 1.81868445873260498047e+00) (9, 8.18051376342773437500e+01) (10, 1.35483038425445556641e+00) (11, -5.81631004810333251953e-01) (12, -1.81512266397476196289e-01) (13, 1.22344422340393066406e+00) (14, -2.30965130031108856201e-02) (15, 4.51715993881225585938e+00) (16, 6.11707687377929687500e-01) (17, -8.19166412353515625000e+01) (18, -1.42298400402069091797e+00) (19, 8.18982696533203125000e+01) (20, -1.64218997955322265625e+00) (21, 8.17645568847656250000e+01) (22, 8.17393112182617187500e+01) (23, 1.08929467201232910156e+00) (24, -1.16486728191375732422e+00) (25, -1.32748756408691406250e+01) (26, 8.18842391967773437500e+01) (27, 4.67420768737792968750e+00) (28, 8.18142013549804687500e+01) (29, -9.07929420471191406250e+00) (30, -6.32230091094970703125e+00) (31, 7.96433925628662109375e-01) (32, -7.78527164459228515625e+00) (33, 2.49112695455551147461e-01) (34, -9.39510345458984375000e-01) (35, 8.17748413085937500000e+01) (36, 8.18853912353515625000e+01) (37, -9.25500631332397460938e-01) (38, -1.10672938823699951172e+00) (39, 8.17584381103515625000e+01) (40, 9.53549289703369140625e+00) (41, 1.37017898559570312500e+01) (42, 8.32172393798828125000e+00) (43, 7.86644554138183593750e+00) (44, 1.03903317451477050781e+00) (45, 2.89544534683227539062e+00) (46, 1.16410183906555175781e+00) (47, 9.91268873214721679688e-01) (48, 1.55125732421875000000e+01) (49, 1.12946491241455078125e+01) (50, 3.76760870218276977539e-01) (51, 2.92067199945449829102e-01) (52, 4.11576956510543823242e-01) (0, 8.18116378784179687500e+01) (1, -5.95847892761230468750e+00) (2, -6.88519835472106933594e-01) (3, -4.02980194091796875000e+01) (4, -6.47684288024902343750e+00) (5, -1.55915725231170654297e+00) (6, 5.55475044250488281250e+00) (7, -5.35431900024414062500e+01) (8, 1.82572948932647705078e+00) (9, 8.17929382324218750000e+01) (10, 4.17592465877532958984e-01) (11, -2.03591436147689819336e-01) (12, 1.58522918820381164551e-01) (13, 1.56123244762420654297e+00) (14, 3.22401374578475952148e-01) (15, 4.51665115356445312500e+00) (16, 1.27393734455108642578e+00) (17, -8.18192749023437500000e+01) (18, -1.52076780796051025391e+00) (19, 8.17897872924804687500e+01) (20, 5.06097221374511718750e+00) (21, 8.17847290039062500000e+01) (22, 8.19079742431640625000e+01) (23, 9.48980003595352172852e-02) (24, -6.18906974792480468750e+00) (25, -7.67795372009277343750e+00) (26, 8.18217468261718750000e+01) (27, -9.37123656272888183594e-01) (28, 8.18767471313476562500e+01) (29, -2.62975931167602539062e+00) (30, -2.30302047729492187500e+00) (31, 1.13248087465763092041e-01) (32, -2.76572656631469726562e+00) (33, 9.03620481491088867188e-01) (34, -3.54180276393890380859e-01) (35, 8.18621978759765625000e+01) (36, 8.18646011352539062500e+01) (37, -5.00491619110107421875e-01) (38, -7.69188106060028076172e-01) (39, 8.17446899414062500000e+01) (40, 1.16602125167846679688e+01) (41, 1.16936445236206054688e+01) (42, -1.11368060111999511719e-01) (43, 1.22331695556640625000e+01) (44, 5.18568992614746093750e-01) (45, -7.95656740665435791016e-01) (46, 2.09698247909545898438e+00) (47, 1.05440294742584228516e+00) (48, 1.69746627807617187500e+01) (49, 1.17233953475952148438e+01) (50, 3.64273518323898315430e-01) (51, -1.62380421161651611328e+00) (52, 1.60288006067276000977e-01) (0, 8.18727569580078125000e+01) (1, -1.26162290573120117188e-01) (2, 7.80999124050140380859e-01) (3, 5.43018460273742675781e-01) (4, 2.50055193901062011719e+00) (5, 1.18750698864459991455e-01) (6, -8.17356567382812500000e+01) (7, 1.51081395149230957031e+00) (8, -8.18508529663085937500e+01) (9, 8.17527313232421875000e+01) (10, -2.13805019855499267578e-01) (11, 7.18988552689552307129e-02) (12, 4.92749124765396118164e-01) (13, -1.02070999145507812500e+01) (14, 2.03948330879211425781e+00) (15, -2.73255538940429687500e+01) (16, 3.07999700307846069336e-01) (17, -7.83584499359130859375e+00) (18, -2.56980717182159423828e-01) (19, 8.18703460693359375000e+01) (20, -1.20908861160278320312e+01) (21, 8.18614578247070312500e+01) (22, 8.17295989990234375000e+01) (23, 1.17481756210327148438e+00) (24, 5.14996886253356933594e-01) (25, -6.08538269996643066406e-01) (26, 8.18922271728515625000e+01) (27, 6.02668857574462890625e+00) (28, 8.17917785644531250000e+01) (29, 4.00041520595550537109e-01) (30, 6.17892074584960937500e+00) (31, 2.08286985754966735840e-01) (32, -2.66170740127563476562e+00) (33, 1.72409689426422119141e+00) (34, -2.83393907546997070312e+00) (35, 8.17699356079101562500e+01) (36, 8.17539062500000000000e+01) (37, -4.06466096639633178711e-01) (38, -3.66993451118469238281e+00) (39, 8.18254470825195312500e+01) (40, -3.42116951942443847656e-02) (41, 1.34693562984466552734e-01) (42, -1.81018030643463134766e+00) (43, 1.58293259143829345703e+00) (44, 9.15109455585479736328e-01) (45, 6.02211189270019531250e+00) (46, 1.59251320362091064453e+00) (47, 1.44362001419067382812e+01) (48, 7.70287215709686279297e-02) (49, 1.03269398212432861328e-01) (50, 3.58235538005828857422e-02) (51, 4.62842315435409545898e-01) (52, 1.46601974964141845703e-01) (53, -7.57748484611511230469e-02) (54, -1.84919357299804687500e+00) (55, -1.51210963726043701172e-01) (56, -2.38227701187133789062e+00) (57, 1.66220217943191528320e-01) (58, 3.61530900001525878906e-01) (59, -1.61633539199829101562e+00) (60, -1.73134887218475341797e+00) (61, -1.42445535659790039062e+01) (62, -4.02202367782592773438e+00) (63, -6.43067881464958190918e-02) (64, -5.99592886865139007568e-02) (65, -2.85769581794738769531e-01) (66, -1.97610926628112792969e+00) (67, -5.50313651561737060547e-01) (68, -1.45976111292839050293e-01) (69, 3.96206712722778320312e+00) (53, 2.35618874430656433105e-01) (54, 2.62469863891601562500e+00) (55, -1.72479951381683349609e+00) (56, 2.62766033411026000977e-01) (57, -2.45885908603668212891e-01) (58, -7.31242671608924865723e-02) (59, 8.09502184391021728516e-01) (60, 1.73559176921844482422e+00) (61, 7.64323520660400390625e+00) (62, 5.11557340621948242188e+00) (63, -5.77437169849872589111e-02) (64, -1.13483175635337829590e-01) (65, 2.04655855894088745117e-01) (66, 6.28790915012359619141e-01) (67, 1.82319045066833496094e-01) (68, 1.78965941071510314941e-01) (69, -1.08043634891510009766e+00) (53, 8.43438386917114257812e-01) (54, -1.91080367565155029297e+00) (55, 3.52935135364532470703e-01) (56, 1.14587867259979248047e+00) (57, -2.72660446166992187500e+00) (58, -8.75504970550537109375e-01) (59, -5.51187419891357421875e+00) (60, -3.79250431060791015625e+00) (61, -1.40620794296264648438e+01) (62, -1.70474731922149658203e+00) (63, 4.27505046129226684570e-01) (64, -4.21058088541030883789e-01) (65, 2.21913456916809082031e-02) (66, -1.69293260574340820312e+00) (67, -2.65386676788330078125e+00) (68, -5.27553893625736236572e-02) (69, 4.24366950988769531250e+00) (53, -1.34814783930778503418e-01) (54, 4.59078192710876464844e-01) (55, -2.15350598096847534180e-01) (56, 2.16621816158294677734e-01) (57, 8.32373857498168945312e-01) (58, 4.47217494249343872070e-01) (59, 1.26369106769561767578e+00) (60, 1.47556531429290771484e+00) (61, 2.58948087692260742188e+00) (62, 7.52356529235839843750e-01) (63, 1.01384602487087249756e-01) (64, 7.58922815322875976562e-01) (65, 6.24091744422912597656e-01) (66, 1.52248442173004150391e-01) (67, 9.26749467849731445312e-01) (68, 2.92536616325378417969e-01) (69, -5.02889864146709442139e-02) (53, -2.43094027042388916016e-01) (54, -2.20989799499511718750e+00) (55, -3.03851328790187835693e-02) (56, 4.80130910873413085938e+00) (57, -7.75370359420776367188e-01) (58, 6.57267421483993530273e-02) (59, -1.86387741565704345703e+00) (60, -1.14424371719360351562e+00) (61, -8.37004333734512329102e-02) (62, -2.21432685852050781250e+00) (63, -1.05565762519836425781e+00) (64, -3.99427223205566406250e+00) (65, -3.50386905670166015625e+00) (66, -1.22692620754241943359e+00) (67, -1.72371017932891845703e+00) (68, -1.03293454647064208984e+00) (69, 9.97458100318908691406e-01) (53, -1.35707306861877441406e+00) (54, -1.65823328495025634766e+00) (55, 1.33713290095329284668e-01) (56, 4.20279741287231445312e+00) (57, -1.97674608230590820312e+00) (58, -6.11591279506683349609e-01) (59, -6.65586090087890625000e+00) (60, -1.85857808589935302734e+00) (61, -2.35791754722595214844e+00) (62, -1.63026773929595947266e+00) (63, -9.58246231079101562500e-01) (64, -1.61530792713165283203e+00) (65, -2.49724102020263671875e+00) (66, -1.73312914371490478516e+00) (67, -3.61700534820556640625e-01) (68, -6.33014202117919921875e-01) (69, 7.19174861907958984375e-01) (53, 3.25710296630859375000e+00) (54, 8.21740254759788513184e-02) (55, 4.55991744995117187500e-01) (56, 2.55556344985961914062e+00) (57, -3.91970586776733398438e+00) (58, -9.03706789016723632812e-01) (59, 6.00637340545654296875e+00) (60, 2.68552243709564208984e-01) (61, 1.20896741747856140137e-01) (62, 8.69702994823455810547e-02) (63, 1.67163372039794921875e+00) (64, -1.68434932827949523926e-01) (65, 9.70326542854309082031e-01) (66, -1.29179656505584716797e+00) (67, -1.11492836475372314453e+00) (68, 2.87334060668945312500e+00) (69, -4.78741973638534545898e-01) (53, 2.84949064254760742188e-01) (54, 8.45102787017822265625e-01) (55, -4.98402804136276245117e-01) (56, 2.31227986514568328857e-02) (57, 1.58780887722969055176e-01) (58, -2.33046799898147583008e-01) (59, 1.79212045669555664062e+00) (60, 5.41952228546142578125e+00) (61, 5.04882431030273437500e+00) (62, 1.16935741901397705078e+00) (63, 3.59353303909301757812e-01) (64, 2.51185506582260131836e-01) (65, 1.20640456676483154297e+00) (66, 7.41558313369750976562e-01) (67, 1.76264345645904541016e-01) (68, 3.81578981876373291016e-01) (69, 1.01014293730258941650e-01) (53, -1.50513067841529846191e-01) (54, 1.07954227924346923828e+00) (55, -8.97099018096923828125e-01) (56, -2.18004465103149414062e+00) (57, 8.05655956268310546875e-01) (58, 1.35574415326118469238e-01) (59, 1.24463295936584472656e+00) (60, 1.57567489147186279297e+00) (61, 1.41464166641235351562e+01) (62, 1.17289867401123046875e+01) (63, -5.40963374078273773193e-02) (64, 4.48801010847091674805e-01) (65, 3.01547944545745849609e-01) (66, 1.63638865947723388672e+00) (67, 4.57235455513000488281e-01) (68, -1.29083264619112014771e-03) (69, 6.72601535916328430176e-03) (53, 3.30546110868453979492e-01) (54, 1.20222663879394531250e+00) (55, -4.15907740592956542969e-01) (56, 6.82534337043762207031e-01) (57, -4.21451359987258911133e-01) (58, -1.23658370971679687500e+00) (59, 1.80900359153747558594e+00) (60, 5.43211936950683593750e+00) (61, 5.05248260498046875000e+00) (62, 1.81242907047271728516e+00) (63, 3.21460098028182983398e-01) (64, 9.65439751744270324707e-02) (65, 4.45626258850097656250e-01) (66, 5.31547129154205322266e-01) (67, -7.74021506309509277344e-01) (68, 5.08155584335327148438e-01) (69, -2.13271304965019226074e-01) (53, 1.77753710746765136719e+00) (54, 1.90792292356491088867e-01) (55, -4.80517625808715820312e-01) (56, -5.73298025131225585938e+00) (57, 2.61627101898193359375e+00) (58, 1.72557115554809570312e-01) (59, 1.25735461711883544922e+00) (60, 3.68548482656478881836e-01) (61, 1.25388786196708679199e-01) (62, 2.69997656345367431641e-01) (63, 1.02991735935211181641e+00) (64, 5.28502750396728515625e+00) (65, 8.11262249946594238281e-01) (66, 3.15321803092956542969e-01) (67, 3.24503958225250244141e-01) (68, 1.31179916858673095703e+00) (69, -7.28511363267898559570e-02) (53, 3.30028963088989257812e+00) (54, -1.94069254398345947266e+00) (55, 8.70561599731445312500e-01) (56, 4.60134059190750122070e-01) (57, -1.33964276313781738281e+00) (58, -1.23237621784210205078e+00) (59, -6.24319791793823242188e-01) (60, -2.42821264266967773438e+00) (61, -1.40827207565307617188e+01) (62, -1.12061882019042968750e+01) (63, 2.60671854019165039062e+00) (64, -5.12893870472908020020e-02) (65, 4.21361595392227172852e-01) (66, -4.40610349178314208984e-01) (67, -1.30896711349487304688e+00) (68, 2.50560855865478515625e+00) (69, 7.06418156623840332031e-01) (53, 2.94430911540985107422e-01) (54, 5.22901010513305664062e+00) (55, 2.01869085431098937988e-01) (56, 7.64747619628906250000e+00) (57, -4.00611352920532226562e+00) (58, -1.54227709770202636719e+00) (59, 1.52579033374786376953e+00) (60, 1.25254869461059570312e+00) (61, 7.69771862030029296875e+00) (62, 6.08329057693481445312e+00) (63, -3.63420248031616210938e-01) (64, -2.40864658355712890625e+00) (65, 2.43307217955589294434e-01) (66, 6.35373473167419433594e-01) (67, 5.39127625524997711182e-02) (68, -1.47048509120941162109e+00) (69, -8.95072579383850097656e-01) (53, -9.10645723342895507812e-01) (54, -8.01941812038421630859e-01) (55, -4.93208676576614379883e-01) (56, -1.63066446781158447266e-01) (57, 4.50517863035202026367e-01) (58, 2.70323920249938964844e+00) (59, -5.21952867507934570312e-01) (60, 1.66592133045196533203e+00) (61, 1.71921980381011962891e+00) (62, -1.37255221605300903320e-01) (63, -3.11276340484619140625e+00) (64, 4.65062558650970458984e-01) (65, -3.18479895591735839844e+00) (66, -3.23454284667968750000e+00) (67, 1.63325762748718261719e+00) (68, -5.09846448898315429688e+00) (69, 3.26179432868957519531e+00) (53, 6.44794180989265441895e-02) (54, 8.57771635055541992188e-01) (55, -1.68894708156585693359e-01) (56, 1.16482353210449218750e+00) (57, 5.43317675590515136719e-01) (58, 5.56062102317810058594e-01) (59, 1.01321065425872802734e+00) (60, 2.55795335769653320312e+00) (61, 2.45716905593872070312e+00) (62, 6.51883006095886230469e-01) (63, -1.38859570026397705078e+00) (64, 4.84975636005401611328e-01) (65, -1.99736803770065307617e-01) (66, 8.02231132984161376953e-01) (67, 4.66207861900329589844e-01) (68, -7.67770767211914062500e-01) (69, 2.46735185384750366211e-01) (53, 5.17898917198181152344e-01) (54, -7.48288929462432861328e-02) (55, 1.50919798761606216431e-03) (56, 6.31035327911376953125e+00) (57, -8.37631583213806152344e-01) (58, -9.93706285953521728516e-01) (59, 4.72402304410934448242e-01) (60, 7.36528709530830383301e-02) (61, 2.56781011819839477539e-01) (62, -7.90618240833282470703e-01) (63, 2.02456772327423095703e-01) (64, -4.21046167612075805664e-02) (65, 1.72803387045860290527e-01) (66, -6.25072360038757324219e-01) (67, -6.09988331794738769531e-01) (68, 2.10758733749389648438e+00) (69, 1.14906132221221923828e-01) (70, 4.30504739284515380859e-01) (71, -5.11031985282897949219e-01) (72, 6.96127891540527343750e-01) (73, -3.14554750919342041016e-01) (74, 1.57944929599761962891e+00) (75, 1.50517046451568603516e+00) (76, -3.08547854423522949219e-01) (77, -4.94646996259689331055e-01) (78, -6.25566482543945312500e-01) (79, -3.66814196109771728516e-01) (80, -1.51164877414703369141e+00) (81, -3.15846875309944152832e-02) (82, 7.20578432083129882812e-01) (83, 6.90201282501220703125e-01) (84, -2.10683181881904602051e-01) (85, -1.32772028446197509766e-01) (86, -1.85539051890373229980e-01) (70, 2.76121258735656738281e-01) (71, -2.40800648927688598633e-01) (72, -1.27701163291931152344e-01) (73, -1.17158532142639160156e-01) (74, -6.24644458293914794922e-01) (75, -6.19398951530456542969e-01) (76, -4.62793922424316406250e+00) (77, -2.56787300109863281250e-01) (78, 2.01492756605148315430e-01) (79, -2.30296701192855834961e-01) (80, 1.74136728048324584961e-01) (81, -1.21270048618316650391e+00) (82, -4.75695490837097167969e-01) (83, 2.84779500961303710938e+00) (84, -1.23653948307037353516e-01) (85, -2.81802654266357421875e-01) (86, -1.98048144578933715820e-01) (70, 2.27462768554687500000e+00) (71, -3.67294371128082275391e-01) (72, 1.81600213050842285156e+00) (73, -1.61070361733436584473e-01) (74, -8.24078261852264404297e-01) (75, -7.48366057872772216797e-01) (76, 4.32830601930618286133e-02) (77, -1.44298568367958068848e-01) (78, -3.43217045068740844727e-01) (79, -1.23082295060157775879e-01) (80, 7.75756388902664184570e-02) (81, 7.60017037391662597656e-01) (82, -1.07187151908874511719e+00) (83, -6.41926956176757812500e+00) (84, -3.54868799448013305664e-01) (85, -3.47430557012557983398e-02) (86, -2.14815273880958557129e-01) (70, -3.69772243499755859375e+00) (71, 4.87765938043594360352e-01) (72, -1.96198809146881103516e+00) (73, 8.03499445319175720215e-02) (74, -6.03254795074462890625e-01) (75, -1.26889741420745849609e+00) (76, 2.03842148184776306152e-01) (77, 1.50699198246002197266e-01) (78, 1.67547315359115600586e-01) (79, 4.13301408290863037109e-01) (80, 1.01028539240360260010e-01) (81, -7.52880215644836425781e-01) (82, 1.76027739048004150391e+00) (83, -8.34350228309631347656e-01) (84, 9.62014347314834594727e-02) (85, 5.24662919342517852783e-02) (86, 2.25164741277694702148e-02) 
