FANN_FLO_2.1
num_layers=4
learning_rate=0.700000
connection_rate=1.000000
network_type=0
learning_momentum=0.000000
training_algorithm=2
train_error_function=1
train_stop_function=0
cascade_output_change_fraction=0.010000
quickprop_decay=-0.000100
quickprop_mu=1.750000
rprop_increase_factor=1.200000
rprop_decrease_factor=0.500000
rprop_delta_min=0.000000
rprop_delta_max=50.000000
rprop_delta_zero=0.100000
cascade_output_stagnation_epochs=12
cascade_candidate_change_fraction=0.010000
cascade_candidate_stagnation_epochs=12
cascade_max_out_epochs=150
cascade_min_out_epochs=50
cascade_max_cand_epochs=150
cascade_min_cand_epochs=50
cascade_num_candidate_groups=2
bit_fail_limit=3.49999994039535522461e-01
cascade_candidate_limit=1.00000000000000000000e+03
cascade_weight_multiplier=4.00000005960464477539e-01
cascade_activation_functions_count=10
cascade_activation_functions=3 5 7 8 10 11 14 15 16 17 
cascade_activation_steepnesses_count=4
cascade_activation_steepnesses=2.50000000000000000000e-01 5.00000000000000000000e-01 7.50000000000000000000e-01 1.00000000000000000000e+00 
layer_sizes=61 17 17 5 
scale_included=0
neurons (num_inputs, activation_function, activation_steepness)=(0, 0, 0.00000000000000000000e+00) (0, 0, 0.00000000000000000000e+00) (0, 0, 0.00000000000000000000e+00) (0, 0, 0.00000000000000000000e+00) (0, 0, 0.00000000000000000000e+00) (0, 0, 0.00000000000000000000e+00) (0, 0, 0.00000000000000000000e+00) (0, 0, 0.00000000000000000000e+00) (0, 0, 0.00000000000000000000e+00) (0, 0, 0.00000000000000000000e+00) (0, 0, 0.00000000000000000000e+00) (0, 0, 0.00000000000000000000e+00) (0, 0, 0.00000000000000000000e+00) (0, 0, 0.00000000000000000000e+00) (0, 0, 0.00000000000000000000e+00) (0, 0, 0.00000000000000000000e+00) (0, 0, 0.00000000000000000000e+00) (0, 0, 0.00000000000000000000e+00) (0, 0, 0.00000000000000000000e+00) (0, 0, 0.00000000000000000000e+00) (0, 0, 0.00000000000000000000e+00) (0, 0, 0.00000000000000000000e+00) (0, 0, 0.00000000000000000000e+00) (0, 0, 0.00000000000000000000e+00) (0, 0, 0.00000000000000000000e+00) (0, 0, 0.00000000000000000000e+00) (0, 0, 0.00000000000000000000e+00) (0, 0, 0.00000000000000000000e+00) (0, 0, 0.00000000000000000000e+00) (0, 0, 0.00000000000000000000e+00) (0, 0, 0.00000000000000000000e+00) (0, 0, 0.00000000000000000000e+00) (0, 0, 0.00000000000000000000e+00) (0, 0, 0.00000000000000000000e+00) (0, 0, 0.00000000000000000000e+00) (0, 0, 0.00000000000000000000e+00) (0, 0, 0.00000000000000000000e+00) (0, 0, 0.00000000000000000000e+00) (0, 0, 0.00000000000000000000e+00) (0, 0, 0.00000000000000000000e+00) (0, 0, 0.00000000000000000000e+00) (0, 0, 0.00000000000000000000e+00) (0, 0, 0.00000000000000000000e+00) (0, 0, 0.00000000000000000000e+00) (0, 0, 0.00000000000000000000e+00) (0, 0, 0.00000000000000000000e+00) (0, 0, 0.00000000000000000000e+00) (0, 0, 0.00000000000000000000e+00) (0, 0, 0.00000000000000000000e+00) (0, 0, 0.00000000000000000000e+00) (0, 0, 0.00000000000000000000e+00) (0, 0, 0.00000000000000000000e+00) (0, 0, 0.00000000000000000000e+00) (0, 0, 0.00000000000000000000e+00) (0, 0, 0.00000000000000000000e+00) (0, 0, 0.00000000000000000000e+00) (0, 0, 0.00000000000000000000e+00) (0, 0, 0.00000000000000000000e+00) (0, 0, 0.00000000000000000000e+00) (0, 0, 0.00000000000000000000e+00) (0, 0, 0.00000000000000000000e+00) (61, 3, 5.00000000000000000000e-01) (61, 3, 5.00000000000000000000e-01) (61, 3, 5.00000000000000000000e-01) (61, 3, 5.00000000000000000000e-01) (61, 3, 5.00000000000000000000e-01) (61, 3, 5.00000000000000000000e-01) (61, 3, 5.00000000000000000000e-01) (61, 3, 5.00000000000000000000e-01) (61, 3, 5.00000000000000000000e-01) (61, 3, 5.00000000000000000000e-01) (61, 3, 5.00000000000000000000e-01) (61, 3, 5.00000000000000000000e-01) (61, 3, 5.00000000000000000000e-01) (61, 3, 5.00000000000000000000e-01) (61, 3, 5.00000000000000000000e-01) (61, 3, 5.00000000000000000000e-01) (0, 3, 0.00000000000000000000e+00) (17, 3, 5.00000000000000000000e-01) (17, 3, 5.00000000000000000000e-01) (17, 3, 5.00000000000000000000e-01) (17, 3, 5.00000000000000000000e-01) (17, 3, 5.00000000000000000000e-01) (17, 3, 5.00000000000000000000e-01) (17, 3, 5.00000000000000000000e-01) (17, 3, 5.00000000000000000000e-01) (17, 3, 5.00000000000000000000e-01) (17, 3, 5.00000000000000000000e-01) (17, 3, 5.00000000000000000000e-01) (17, 3, 5.00000000000000000000e-01) (17, 3, 5.00000000000000000000e-01) (17, 3, 5.00000000000000000000e-01) (17, 3, 5.00000000000000000000e-01) (17, 3, 5.00000000000000000000e-01) (0, 3, 0.00000000000000000000e+00) (17, 3, 5.00000000000000000000e-01) (17, 3, 5.00000000000000000000e-01) (17, 3, 5.00000000000000000000e-01) (17, 3, 5.00000000000000000000e-01) (0, 3, 0.00000000000000000000e+00) 
connections (connected_to_neuron, weight)=(0, -2.16226997375488281250e+01) (1, -2.09792666137218475342e-02) (2, 7.11943879723548889160e-02) (3, -2.69684100151062011719e+00) (4, 7.87585198879241943359e-01) (5, -7.30211138725280761719e-01) (6, -1.17740808054804801941e-02) (7, -2.11907997727394104004e-01) (8, 1.05602846145629882812e+01) (9, -5.74111878871917724609e-01) (10, -4.47466087341308593750e+00) (11, 1.63117535412311553955e-02) (12, 3.05599480867385864258e-01) (13, 1.43320107460021972656e+00) (14, -4.74477243423461914062e+00) (15, -8.55710887908935546875e+00) (16, 6.71088075637817382812e+00) (17, -6.08823699951171875000e+01) (18, -8.23814582824707031250e+00) (19, -1.09397726058959960938e+01) (20, -2.17626616358757019043e-01) (21, -1.27212047576904296875e-01) (22, -8.48079860210418701172e-01) (23, 1.90322256088256835938e+00) (24, -6.39439642429351806641e-01) (25, -9.12799835205078125000e+00) (26, -5.71953821182250976562e+00) (27, 8.02440464496612548828e-01) (28, 1.59708237648010253906e+00) (29, 7.45688378810882568359e-01) (30, 1.50000000000000000000e+03) (31, 4.36796665191650390625e+00) (32, -1.24553276062011718750e+02) (33, -7.32254648208618164062e+00) (34, 3.25201654434204101562e+00) (35, -8.78559291362762451172e-01) (36, 7.23983287811279296875e-01) (37, 8.24708271026611328125e+00) (38, -8.09915542602539062500e-01) (39, 9.81040179729461669922e-01) (40, 1.50000000000000000000e+03) (41, 1.50000000000000000000e+03) (42, 3.92491102218627929688e-01) (43, -5.68040513992309570312e+00) (44, -7.93732941150665283203e-01) (45, 1.50000000000000000000e+03) (46, -3.98461212158203125000e+02) (47, 1.36238174438476562500e+02) (48, 3.57148075103759765625e+00) (49, 2.46644663810729980469e+00) (50, 6.45757257938385009766e-01) (51, 6.24666035175323486328e-01) (52, 3.87763557434082031250e+01) (53, 7.39580392837524414062e+00) (54, 1.23696708679199218750e+00) (55, -1.14373216629028320312e+01) (56, 9.96941983699798583984e-01) (57, 1.01799622178077697754e-01) (58, -2.58613920211791992188e+00) (59, 7.33368396759033203125e-01) (60, -6.41587972640991210938e-01) (0, 5.46566057205200195312e+00) (1, 3.15623790025711059570e-01) (2, -2.07588911056518554688e+00) (3, -1.23474884033203125000e+00) (4, 4.18544006347656250000e+00) (5, -5.34185230731964111328e-01) (6, 1.80126965045928955078e+00) (7, 4.09385299682617187500e+00) (8, -9.46719795465469360352e-02) (9, 6.40230834484100341797e-01) (10, 1.52356773614883422852e-01) (11, -3.44034582376480102539e-01) (12, -3.34879541397094726562e+00) (13, -9.30636823177337646484e-01) (14, -1.88960447907447814941e-01) (15, -8.51439575195312500000e+02) (16, 4.26086044311523437500e+01) (17, 5.99467802047729492188e+00) (18, -1.18514184951782226562e+01) (19, -2.79277890920639038086e-01) (20, -7.86171197891235351562e-01) (21, -1.65400040149688720703e+00) (22, -2.08661270141601562500e+01) (23, -9.64555084705352783203e-01) (24, -1.23546445369720458984e+00) (25, -6.03699523925781250000e+02) (26, 1.52332335710525512695e-01) (27, -6.51212558150291442871e-02) (28, 7.38185048103332519531e-01) (29, 3.57275986671447753906e+00) (30, -1.37845430374145507812e+01) (31, -9.56892204284667968750e+00) (32, -1.05624408721923828125e+01) (33, -4.54160660505294799805e-01) (34, -2.22728824615478515625e+00) (35, 4.83927160501480102539e-01) (36, 5.65653562545776367188e-01) (37, 5.84539270401000976562e+00) (38, 7.28423535823822021484e-01) (39, 6.56492650508880615234e-01) (40, 6.87156438827514648438e-01) (41, 2.27518863677978515625e+01) (42, 1.59781396389007568359e-01) (43, 2.22034096717834472656e-01) (44, -1.03730993270874023438e+01) (45, 1.50000000000000000000e+03) (46, 2.26643800735473632812e+00) (47, 4.11376068115234375000e+02) (48, 6.13708853721618652344e-01) (49, -3.49948883056640625000e+00) (50, 3.70429873466491699219e-01) (51, 3.19790780544281005859e-01) (52, -2.18912577629089355469e+00) (53, -5.45069074630737304688e+00) (54, 2.57917433977127075195e-01) (55, -8.40127563476562500000e+01) (56, -3.89668554067611694336e-01) (57, 8.75886321067810058594e-01) (58, -1.19949869811534881592e-01) (59, 7.00968837738037109375e+00) (60, 2.33900755643844604492e-01) (0, 3.91169548034667968750e+00) (1, -6.31550884246826171875e+00) (2, -2.77437114715576171875e+01) (3, -3.50770530700683593750e+01) (4, 2.97111248970031738281e+00) (5, -2.05643630027770996094e+00) (6, -5.95840334892272949219e-01) (7, 8.78379344940185546875e+00) (8, 3.06172907352447509766e-01) (9, -8.86105120182037353516e-01) (10, 5.66576433181762695312e+00) (11, -7.39880263805389404297e-01) (12, -3.02400755882263183594e+00) (13, -1.08517041015625000000e+03) (14, 1.27352261543273925781e+00) (15, -3.23619041442871093750e+01) (16, -8.24386692047119140625e+00) (17, 8.16102147102355957031e-01) (18, -8.94819572567939758301e-02) (19, -6.81300401687622070312e+00) (20, -8.25001955032348632812e-01) (21, -3.59093761444091796875e+00) (22, -5.18211269378662109375e+00) (23, -4.31316280364990234375e+00) (24, -3.39264011383056640625e+00) (25, -1.46329593658447265625e+01) (26, -2.71573567390441894531e+00) (27, 6.41007781028747558594e-01) (28, 2.49900794029235839844e+00) (29, 1.65349590778350830078e+00) (30, 1.50000000000000000000e+03) (31, 4.29359102249145507812e+00) (32, -3.57470750808715820312e-01) (33, 4.45694494247436523438e+00) (34, 1.04847419261932373047e+00) (35, -1.26007401943206787109e+00) (36, 1.59173321723937988281e+00) (37, 3.62383335828781127930e-01) (38, -5.20557069778442382812e+00) (39, 1.15302646160125732422e+00) (40, 1.50000000000000000000e+03) (41, 1.50000000000000000000e+03) (42, 7.86977171897888183594e-01) (43, -3.17549157142639160156e+00) (44, -5.17950868606567382812e+00) (45, 1.50000000000000000000e+03) (46, -6.95831604003906250000e+01) (47, 4.81287765502929687500e+00) (48, -7.36227233886718750000e+02) (49, -2.23513770103454589844e+00) (50, -1.92074745893478393555e-01) (51, 4.94743064045906066895e-02) (52, -8.73745250701904296875e+00) (53, -3.39167714118957519531e+00) (54, 1.51677584648132324219e+00) (55, -1.28911094665527343750e+01) (56, 1.56210732460021972656e+00) (57, 2.28408858180046081543e-01) (58, 3.72499203681945800781e+00) (59, 1.96758770942687988281e+00) (60, -1.73009708523750305176e-01) (0, 1.50000000000000000000e+03) (1, 2.65073776245117187500e-01) (2, 3.27981114387512207031e-01) (3, -2.66632556915283203125e+00) (4, 3.47765612602233886719e+00) (5, 8.66890192031860351562e-01) (6, 3.23988229036331176758e-01) (7, 1.81396427154541015625e+01) (8, -1.12292134761810302734e+00) (9, 3.67001622915267944336e-01) (10, 6.40625572204589843750e+00) (11, -1.50615406036376953125e+00) (12, -1.90650239586830139160e-01) (13, -8.13175320625305175781e-01) (14, 1.11223649978637695312e+00) (15, -4.01971673965454101562e+00) (16, 1.65853047370910644531e+00) (17, 2.10628676414489746094e+00) (18, -2.77471542358398437500e+00) (19, -6.15244805812835693359e-01) (20, -4.93674606084823608398e-01) (21, -1.67992210388183593750e+00) (22, -6.69456720352172851562e+00) (23, 1.37445330619812011719e-01) (24, -2.49779653549194335938e+00) (25, -1.27474117279052734375e+01) (26, -4.90149641036987304688e+00) (27, -1.48938071727752685547e+00) (28, -2.35330343246459960938e+00) (29, 1.64983642101287841797e+00) (30, -2.58903336524963378906e+00) (31, -8.80508327484130859375e+00) (32, -3.01795029640197753906e+00) (33, 1.53954410552978515625e+00) (34, 3.28356981277465820312e+00) (35, 2.53170013427734375000e+00) (36, -2.67600417137145996094e-02) (37, -3.13268661499023437500e+00) (38, 1.50406479835510253906e+00) (39, 3.94236557185649871826e-02) (40, 8.88389015197753906250e+00) (41, 2.21340122222900390625e+01) (42, -3.84941846132278442383e-01) (43, -6.97089731693267822266e-01) (44, 2.79440259933471679688e+00) (45, 1.50000000000000000000e+03) (46, 2.77526712417602539062e+00) (47, -3.73568153381347656250e+00) (48, -1.12718701362609863281e+00) (49, 3.33486676216125488281e-01) (50, 8.62562000751495361328e-01) (51, 2.41292774677276611328e-01) (52, 1.58272695541381835938e+00) (53, 1.69939976185560226440e-02) (54, -7.27761313319206237793e-02) (55, 7.21360874176025390625e+00) (56, -2.19827339053153991699e-01) (57, 5.69334149360656738281e-01) (58, -1.97626739740371704102e-01) (59, -1.18686258792877197266e+00) (60, -1.14810816943645477295e-01) (0, 1.23723522949218750000e+03) (1, 8.63273680210113525391e-01) (2, 6.17126403808593750000e+02) (3, 2.34473919868469238281e+00) (4, 2.12611079216003417969e+00) (5, 5.29599413275718688965e-02) (6, 1.28612458705902099609e+00) (7, 3.78613710403442382812e+00) (8, 3.85881155729293823242e-01) (9, 4.35722321271896362305e-01) (10, 2.92879509925842285156e+00) (11, -1.84112489223480224609e-01) (12, -2.32925486564636230469e+00) (13, -2.08980794996023178101e-02) (14, -6.09825670719146728516e-01) (15, -4.07186828613281250000e+02) (16, -5.32249987125396728516e-01) (17, -5.17452619969844818115e-02) (18, -5.14815032482147216797e-01) (19, -1.84522378444671630859e+00) (20, -8.53816449642181396484e-01) (21, -9.42585170269012451172e-01) (22, -9.73682594299316406250e+00) (23, 5.43564796447753906250e-01) (24, -8.85474562644958496094e-01) (25, -2.77586242675781250000e+02) (26, -1.49767088890075683594e+00) (27, -2.60031133890151977539e-01) (28, 6.26753330230712890625e-01) (29, 8.06494998931884765625e+00) (30, -4.37088298797607421875e+00) (31, 2.88041351318359375000e+02) (32, 1.83416783809661865234e-01) (33, -3.92607855796813964844e+00) (34, -1.02413594722747802734e+00) (35, -2.19511061906814575195e-01) (36, 5.34366846084594726562e-01) (37, -1.26689091324806213379e-01) (38, 3.40028822422027587891e-01) (39, 6.63082540035247802734e-01) (40, -2.05871415138244628906e+00) (41, -1.60722366333007812500e+02) (42, 2.43503764271736145020e-01) (43, 6.94702342152595520020e-02) (44, -2.44774818420410156250e+00) (45, 1.50000000000000000000e+03) (46, 2.08222413063049316406e+00) (47, 2.86167192459106445312e+00) (48, 1.31214642524719238281e+00) (49, -1.35063812136650085449e-01) (50, 6.15535080432891845703e-01) (51, 2.83027023077011108398e-01) (52, 4.94087171554565429688e+00) (53, 6.33884131908416748047e-01) (54, 3.17974299192428588867e-01) (55, 1.49575000000000000000e+03) (56, -6.41895234584808349609e-01) (57, 8.61887276172637939453e-01) (58, -2.77023124694824218750e+00) (59, -1.48149937391281127930e-01) (60, -1.06318280100822448730e-01) (0, 6.57494783401489257812e-01) (1, 8.53992998600006103516e-01) (2, 7.20677042007446289062e+00) (3, -1.03269958496093750000e+00) (4, 2.37069106101989746094e+00) (5, -5.67183613777160644531e-01) (6, -6.36545538902282714844e-01) (7, -3.34297871589660644531e+00) (8, -1.10289672851562500000e+02) (9, -2.81511157751083374023e-01) (10, -1.13280928134918212891e+00) (11, 2.55361866950988769531e+00) (12, -1.79670166969299316406e+00) (13, 1.94507110118865966797e+00) (14, 2.61810362339019775391e-01) (15, -6.58891235351562500000e+02) (16, -1.14259481430053710938e+01) (17, -2.02509975433349609375e+00) (18, -1.76937980651855468750e+01) (19, -3.81249094009399414062e+00) (20, -2.08460152149200439453e-01) (21, -3.76596510410308837891e-01) (22, -3.15916786193847656250e+01) (23, -5.40511035919189453125e+00) (24, -6.98902070522308349609e-01) (25, -1.13810095214843750000e+03) (26, -6.22126638889312744141e-01) (27, 3.95745217800140380859e-01) (28, 1.04649913311004638672e+00) (29, 1.70532441139221191406e+00) (30, -6.38391723632812500000e+02) (31, 9.70762252807617187500e+01) (32, 9.07849025726318359375e+00) (33, -2.58254289627075195312e+00) (34, 2.79697918891906738281e+00) (35, -5.61630916595458984375e+00) (36, 3.25370490550994873047e-01) (37, 7.39198160171508789062e+00) (38, 5.81149196624755859375e+00) (39, 4.23622906208038330078e-01) (40, -2.09611297607421875000e+02) (41, -4.59227478027343750000e+02) (42, -2.11899590492248535156e+00) (43, 2.05993008613586425781e+00) (44, 1.38321113586425781250e+00) (45, 1.50000000000000000000e+03) (46, 9.78430652618408203125e+00) (47, 8.31649684906005859375e+00) (48, 1.75310063362121582031e+00) (49, 7.34951496124267578125e-01) (50, 4.14730548858642578125e-01) (51, 7.89953410625457763672e-01) (52, 1.56288280487060546875e+01) (53, 1.50110733509063720703e+00) (54, 3.06341648101806640625e-01) (55, 1.97938171386718750000e+02) (56, 6.52030754089355468750e+00) (57, 4.79539483785629272461e-01) (58, -1.64301133155822753906e+00) (59, -3.59692597389221191406e+00) (60, -2.21686795353889465332e-01) (0, -5.62922954559326171875e+00) (1, -9.94008779525756835938e-01) (2, -2.74354314804077148438e+00) (3, -6.40423893928527832031e-01) (4, -3.72073739767074584961e-01) (5, -1.76587629318237304688e+00) (6, -1.24706722795963287354e-01) (7, -7.23140382766723632812e+00) (8, -4.01186132431030273438e+00) (9, -7.96478688716888427734e-01) (10, -1.15203619003295898438e+01) (11, -4.19358789920806884766e-01) (12, 1.41712069511413574219e+00) (13, -2.61302304267883300781e+00) (14, -4.02323198318481445312e+00) (15, -8.47745800018310546875e+00) (16, 1.58075628280639648438e+01) (17, 3.57774996757507324219e+00) (18, 1.72071361541748046875e+00) (19, -5.08326225280761718750e+01) (20, -3.61408561468124389648e-01) (21, -9.97706234455108642578e-01) (22, -4.12018489837646484375e+00) (23, 3.25330710411071777344e+00) (24, -1.16721975803375244141e+00) (25, -1.32156705856323242188e+01) (26, -9.82308864593505859375e-01) (27, 1.31364679336547851562e+00) (28, -4.00848001241683959961e-01) (29, 1.08599686622619628906e+00) (30, 1.50000000000000000000e+03) (31, 7.16840820312500000000e+01) (32, 3.72586345672607421875e+00) (33, -8.61706161499023437500e+01) (34, 2.20501494407653808594e+00) (35, 6.13868415355682373047e-01) (36, 5.60817718505859375000e-01) (37, -4.45887184143066406250e+00) (38, 6.92237496376037597656e-01) (39, 9.98725652694702148438e-01) (40, 1.50000000000000000000e+03) (41, 1.50000000000000000000e+03) (42, -4.01132202148437500000e+00) (43, -2.45528936386108398438e+00) (44, -6.25016498565673828125e+00) (45, 1.50000000000000000000e+03) (46, -3.97549896240234375000e+02) (47, 6.70501770019531250000e+02) (48, 3.33979082107543945312e+00) (49, -3.16311764717102050781e+00) (50, 1.84169614315032958984e+00) (51, 7.33815073966979980469e-01) (52, 7.70169448852539062500e+00) (53, -5.66938161849975585938e+00) (54, 1.01620185375213623047e+00) (55, -7.24749374389648437500e+01) (56, 5.59141337871551513672e-01) (57, 5.89249897003173828125e+00) (58, 3.20705199241638183594e+00) (59, 4.40289974212646484375e+00) (60, -7.91294097900390625000e-01) (0, -3.29967290163040161133e-01) (1, -9.41961956024169921875e+00) (2, -1.29473361968994140625e+01) (3, -4.06634616851806640625e+00) (4, 2.47591018676757812500e+00) (5, -1.05634605884552001953e+00) (6, -2.67747163772583007812e-01) (7, -1.26293249130249023438e+01) (8, -4.70372833251953125000e+02) (9, -2.37737488746643066406e+00) (10, 4.86654806137084960938e+00) (11, -1.52950477600097656250e+00) (12, -5.14137697219848632812e+00) (13, 1.01615399122238159180e-01) (14, 1.05602890253067016602e-01) (15, -4.03473329544067382812e+00) (16, -1.53099179267883300781e+00) (17, -3.77265572547912597656e-01) (18, -3.74334901571273803711e-01) (19, -1.53711776733398437500e+01) (20, -8.08355391025543212891e-01) (21, -4.19648265838623046875e+00) (22, -1.66818695068359375000e+01) (23, -3.28439235687255859375e+00) (24, -1.35433864593505859375e+00) (25, -5.22620201110839843750e+00) (26, 1.24516613781452178955e-01) (27, 7.36255526542663574219e-01) (28, 1.17347288131713867188e+00) (29, 2.45127224922180175781e+00) (30, 8.48111572265625000000e+02) (31, -6.36821317672729492188e+00) (32, 1.78927630186080932617e-01) (33, -1.15885995328426361084e-01) (34, -7.73350954055786132812e-01) (35, 3.72997283935546875000e-01) (36, 8.32485318183898925781e-01) (37, 8.15243434906005859375e+00) (38, 2.41519927978515625000e+00) (39, 8.34802329540252685547e-01) (40, 9.81760742187500000000e+02) (41, 1.33146899414062500000e+03) (42, 7.52737939357757568359e-01) (43, -2.18847084045410156250e+00) (44, -3.64054471254348754883e-01) (45, 1.50000000000000000000e+03) (46, 1.47165241241455078125e+01) (47, -3.14497222900390625000e+02) (48, -3.35752367973327636719e+00) (49, 1.79005169868469238281e+00) (50, 6.86424374580383300781e-01) (51, 1.18942499160766601562e+00) (52, 1.95799767971038818359e+00) (53, 5.33305764198303222656e-01) (54, 7.62656211853027343750e-01) (55, -4.49249649047851562500e+00) (56, -3.70417284965515136719e+00) (57, 2.81360483169555664062e+00) (58, 3.97017449140548706055e-01) (59, 2.47721970081329345703e-01) (60, 2.24362075328826904297e-01) (0, 6.44270849227905273438e+00) (1, -2.91787564754486083984e-01) (2, -3.30133914947509765625e+00) (3, 7.20138788223266601562e-01) (4, 3.02477002143859863281e+00) (5, 1.60053133964538574219e+00) (6, -5.19626677036285400391e-01) (7, -2.50902748107910156250e+00) (8, -3.77755951881408691406e+00) (9, -4.79973256587982177734e-01) (10, -4.10143566131591796875e+00) (11, 5.72892576456069946289e-02) (12, -6.58837032318115234375e+00) (13, 1.68215584754943847656e+00) (14, -2.47915178537368774414e-01) (15, 1.50000000000000000000e+03) (16, 5.35399496555328369141e-01) (17, 4.15616226196289062500e+00) (18, -2.46265482902526855469e+00) (19, 4.59276628494262695312e+00) (20, 3.32890480756759643555e-01) (21, 4.31434839963912963867e-01) (22, 1.28706848621368408203e+00) (23, 1.33142805099487304688e+00) (24, 4.33067291975021362305e-01) (25, 1.50000000000000000000e+03) (26, -3.63122177124023437500e+00) (27, -4.26879119873046875000e+00) (28, -3.89090561866760253906e+00) (29, 5.37330925464630126953e-01) (30, -8.57455368041992187500e+01) (31, 1.82972335815429687500e+01) (32, 7.54069268703460693359e-01) (33, 3.90723848342895507812e+00) (34, 2.64286851882934570312e+00) (35, 5.72206497192382812500e-01) (36, 1.63903534412384033203e-01) (37, 1.07634181976318359375e+01) (38, 3.14013743400573730469e+00) (39, 5.04544854164123535156e-01) (40, 3.39599180221557617188e+00) (41, 8.93943405151367187500e+01) (42, 5.46777069568634033203e-01) (43, 2.57935225963592529297e-01) (44, -2.94654488563537597656e+00) (45, 1.50000000000000000000e+03) (46, 8.20213470458984375000e+01) (47, 2.72904109954833984375e+00) (48, 3.63275080919265747070e-01) (49, 4.38335943222045898438e+00) (50, 2.00994029641151428223e-01) (51, 4.82397764921188354492e-01) (52, -1.80553942918777465820e-01) (53, -1.05834200978279113770e-01) (54, 1.22535429894924163818e-01) (55, 2.93781399726867675781e-01) (56, 1.17333471775054931641e+00) (57, 1.87977865338325500488e-01) (58, -4.70672070980072021484e-01) (59, -1.23445904254913330078e+00) (60, -8.41834962368011474609e-01) (0, 1.19348785400390625000e+02) (1, -2.00258159637451171875e+00) (2, 1.39080004882812500000e+03) (3, 1.15438020229339599609e+00) (4, 1.26600825786590576172e+00) (5, -1.74336493015289306641e-01) (6, -2.73611433804035186768e-02) (7, 1.65380251407623291016e+00) (8, 2.46894526481628417969e+00) (9, 4.16939586400985717773e-01) (10, 1.14613246917724609375e+00) (11, -1.61344200372695922852e-01) (12, -2.85146450996398925781e+00) (13, 3.92770981788635253906e+00) (14, -3.46551895141601562500e-01) (15, 1.75967061519622802734e+00) (16, 8.49543809890747070312e-01) (17, -2.46572446823120117188e+00) (18, 1.17033863067626953125e+00) (19, -1.58007359504699707031e+00) (20, -6.17982983589172363281e-01) (21, -1.83403027057647705078e+00) (22, -6.60747098922729492188e+00) (23, -1.16763031482696533203e+00) (24, -9.27458643913269042969e-01) (25, 3.15278911590576171875e+00) (26, -2.00388312339782714844e+00) (27, -3.36046010255813598633e-01) (28, 1.63774347305297851562e+00) (29, -3.45063023269176483154e-02) (30, -1.50000000000000000000e+03) (31, 1.41041240692138671875e+01) (32, 1.36409068107604980469e+00) (33, -3.11867976188659667969e+00) (34, -4.24035453796386718750e+00) (35, 6.02462030947208404541e-02) (36, 2.21706479787826538086e-01) (37, -6.28023338317871093750e+00) (38, 8.79162788391113281250e-01) (39, -3.59649747610092163086e-01) (40, -1.50000000000000000000e+03) (41, -1.50000000000000000000e+03) (42, 1.69002860784530639648e-01) (43, 1.81250900030136108398e-01) (44, 6.21182128906250000000e+02) (45, 1.50000000000000000000e+03) (46, 5.05010528564453125000e+02) (47, 3.20425629615783691406e+00) (48, 3.51435112953186035156e+00) (49, 3.33536171913146972656e+00) (50, 1.50513482093811035156e+00) (51, 4.33056354522705078125e-01) (52, 5.76889467239379882812e+00) (53, -3.79022264480590820312e+00) (54, 8.96731078624725341797e-01) (55, 1.50000000000000000000e+03) (56, -1.13673269748687744141e+00) (57, 1.03179395198822021484e+00) (58, 8.82872819900512695312e-01) (59, -4.78817779541015625000e+02) (60, 2.99459367990493774414e-01) (0, -1.50000000000000000000e+03) (1, -4.67745494842529296875e+00) (2, 1.31273269653320312500e+00) (3, -7.65963172912597656250e+00) (4, 2.14108258485794067383e-01) (5, -2.34066081047058105469e+00) (6, -4.81307125091552734375e+00) (7, -2.00063190460205078125e+01) (8, -3.13082790374755859375e+01) (9, -2.95997333526611328125e+00) (10, -2.78920459747314453125e+00) (11, 2.94835686683654785156e-01) (12, -2.16945791244506835938e+00) (13, 5.96363258361816406250e+00) (14, 3.65736317634582519531e+00) (15, 1.50000000000000000000e+03) (16, 4.77688550949096679688e+00) (17, 8.54267692565917968750e+00) (18, 8.99889755249023437500e+00) (19, -2.25751304626464843750e+00) (20, -2.47468352317810058594e-01) (21, 6.86548709869384765625e-01) (22, 4.66304540634155273438e+00) (23, 1.34946060180664062500e+00) (24, 8.31305861473083496094e-01) (25, 1.50000000000000000000e+03) (26, 1.07358348369598388672e+00) (27, 3.87814521789550781250e+00) (28, -1.94409668445587158203e+00) (29, 2.80563861131668090820e-01) (30, -1.31619665527343750000e+03) (31, 3.70557899475097656250e+01) (32, 4.48753595352172851562e+00) (33, 1.56092190742492675781e+00) (34, 3.25420913696289062500e+01) (35, -1.20041227340698242188e+00) (36, 6.95675849914550781250e-01) (37, -4.56487178802490234375e+00) (38, -3.77209126949310302734e-01) (39, -1.40770900249481201172e+00) (40, -7.80451736450195312500e+01) (41, -1.48200000000000000000e+03) (42, 4.56301897764205932617e-01) (43, -6.58023297786712646484e-01) (44, 8.46565246582031250000e-01) (45, 1.50000000000000000000e+03) (46, 1.41410314941406250000e+03) (47, 1.02064170837402343750e+01) (48, 3.89205431938171386719e+00) (49, 8.32848072052001953125e+00) (50, 2.66777783632278442383e-01) (51, 8.66939246654510498047e-01) (52, -3.06833326816558837891e-01) (53, 8.90264809131622314453e-01) (54, 2.48138517141342163086e-01) (55, 7.37210937500000000000e+02) (56, -1.79017770290374755859e+00) (57, -1.14704146981239318848e-01) (58, -3.28191131353378295898e-01) (59, -1.37046825885772705078e+00) (60, 4.61054235696792602539e-01) (0, 7.72238552570343017578e-01) (1, -5.71087837219238281250e+00) (2, 1.30624990463256835938e+01) (3, -6.57504796981811523438e+00) (4, 3.06431722640991210938e+00) (5, -2.17116212844848632812e+00) (6, -2.78473949432373046875e+00) (7, 4.83270853757858276367e-01) (8, 8.08009433746337890625e+00) (9, -1.26647663116455078125e+00) (10, -9.18403530120849609375e+00) (11, -2.57181906700134277344e+00) (12, -8.49465191364288330078e-01) (13, -2.77943420410156250000e+00) (14, 3.35651278495788574219e-01) (15, -1.50000000000000000000e+03) (16, -2.90091848373413085938e+00) (17, -1.37500834465026855469e+00) (18, -4.52243900299072265625e+00) (19, -1.83615386962890625000e+02) (20, 6.91434264183044433594e-01) (21, -1.68858215212821960449e-01) (22, -1.59116039276123046875e+01) (23, 4.43504667282104492188e+00) (24, -6.19751513004302978516e-01) (25, -1.50000000000000000000e+03) (26, -6.25039672851562500000e+00) (27, -1.34514367580413818359e+00) (28, 2.92883459478616714478e-02) (29, 1.48307073116302490234e+00) (30, -1.42610464096069335938e+01) (31, 1.50000000000000000000e+03) (32, -8.37561666965484619141e-01) (33, -1.54752731323242187500e-02) (34, 7.95184135437011718750e+00) (35, 1.66504248976707458496e-01) (36, 1.32191812992095947266e+00) (37, 2.60674762725830078125e+00) (38, 3.72641950845718383789e-01) (39, 1.52689909934997558594e+00) (40, -5.59985256195068359375e+00) (41, -6.71721191406250000000e+02) (42, 8.88748347759246826172e-01) (43, -1.61223541945219039917e-02) (44, -1.05974495410919189453e+00) (45, 1.50000000000000000000e+03) (46, -4.81303834915161132812e+00) (47, 7.31337051391601562500e+01) (48, 4.99258011579513549805e-01) (49, 3.70046806335449218750e+00) (50, -1.29079103469848632812e+00) (51, 6.17425858974456787109e-01) (52, 2.62356519699096679688e+00) (53, 3.12941145896911621094e+00) (54, 5.65746355056762695312e+00) (55, 1.50000000000000000000e+03) (56, 3.97359871864318847656e+00) (57, 1.39702939987182617188e+00) (58, -5.60777091979980468750e+00) (59, -3.23540592193603515625e+00) (60, -3.84753018617630004883e-01) (0, -2.22530364990234375000e+00) (1, 4.33415263891220092773e-01) (2, -7.82098889350891113281e-01) (3, -1.71291697025299072266e+00) (4, 2.51203012466430664062e+00) (5, -2.90926408767700195312e+00) (6, -4.41950201988220214844e-01) (7, -5.20730495452880859375e+00) (8, 1.31312503814697265625e+01) (9, -1.00416290760040283203e+00) (10, -5.08402585983276367188e+00) (11, -1.00375282764434814453e+00) (12, -1.65173995494842529297e+00) (13, 3.40466070175170898438e+00) (14, -1.55882701277732849121e-01) (15, -8.80995655059814453125e+00) (16, -2.25301098823547363281e+00) (17, 1.11900135874748229980e-01) (18, -2.72399663925170898438e+00) (19, -8.14691257476806640625e+00) (20, -6.67574182152748107910e-02) (21, 8.58191177248954772949e-02) (22, -2.29569077491760253906e+00) (23, 8.65249708294868469238e-02) (24, -1.09365379810333251953e+00) (25, -1.13568668365478515625e+01) (26, -2.81271219253540039062e+00) (27, 7.85281956195831298828e-01) (28, -1.79683971405029296875e+00) (29, 1.26097023487091064453e+00) (30, 1.24759167480468750000e+03) (31, -6.35570764541625976562e-01) (32, -5.74308276176452636719e-01) (33, 1.30545415878295898438e+01) (34, -1.03918313980102539062e+01) (35, -4.37030270695686340332e-02) (36, 4.53108638525009155273e-01) (37, -6.94818139076232910156e-01) (38, 7.68849730491638183594e-01) (39, 1.21903145313262939453e+00) (40, 1.86905896663665771484e+00) (41, -1.04212524414062500000e+02) (42, 7.13916659355163574219e-01) (43, 2.62102389335632324219e+00) (44, -7.68861949443817138672e-01) (45, 1.50000000000000000000e+03) (46, -7.17993688583374023438e+00) (47, 4.59009826660156250000e+02) (48, 1.93303465843200683594e+00) (49, -2.41726636886596679688e-01) (50, 1.15637564659118652344e+00) (51, 6.23384952545166015625e-01) (52, 5.19340419769287109375e+00) (53, 6.15963414311408996582e-02) (54, 1.00262629985809326172e+00) (55, -2.27289218902587890625e+01) (56, 2.36671403050422668457e-01) (57, 1.09762239456176757812e+00) (58, -4.66736793518066406250e+00) (59, 1.87896740436553955078e+00) (60, -8.96700322628021240234e-01) (0, 5.41925354003906250000e+01) (1, 3.76318991184234619141e-01) (2, 7.99540222167968750000e+02) (3, 8.22630703449249267578e-01) (4, -1.06696747243404388428e-01) (5, 8.49226638674736022949e-02) (6, 2.95730292797088623047e-01) (7, 4.39489746093750000000e+00) (8, -2.51394450664520263672e-01) (9, 2.91543394327163696289e-01) (10, 2.03640413284301757812e+00) (11, -1.48226118087768554688e+00) (12, -9.20530438423156738281e-01) (13, 1.14270949363708496094e+00) (14, -9.82548892498016357422e-01) (15, -1.89991134643554687500e+02) (16, -2.48024535179138183594e+00) (17, -2.54371261596679687500e+01) (18, -2.87223601341247558594e+00) (19, -2.40461587905883789062e+00) (20, -9.90156412124633789062e-01) (21, -1.38346636295318603516e+00) (22, 3.32748374938964843750e+01) (23, 7.76710286736488342285e-02) (24, -1.08624935150146484375e+00) (25, -2.72962554931640625000e+02) (26, -1.52116036415100097656e+00) (27, -5.81764161586761474609e-01) (28, -1.52284657955169677734e+00) (29, -1.19096727371215820312e+01) (30, -5.39315452575683593750e+01) (31, 1.17183570861816406250e+01) (32, 2.28743052482604980469e+00) (33, -5.48307609558105468750e+00) (34, -7.65282452106475830078e-01) (35, 1.89882576465606689453e-01) (36, 6.15103423595428466797e-01) (37, -8.76056385040283203125e+00) (38, 6.51396870613098144531e-01) (39, 4.39487546682357788086e-01) (40, -8.08031921386718750000e+01) (41, -6.46789794921875000000e+02) (42, 2.72533416748046875000e-01) (43, 8.05184915661811828613e-02) (44, 4.72405672073364257812e+00) (45, 1.50000000000000000000e+03) (46, 9.86678791046142578125e+00) (47, 4.62300109863281250000e+00) (48, 5.70646166801452636719e-01) (49, 1.23085379600524902344e+00) (50, 3.72510462999343872070e-01) (51, 9.31415408849716186523e-02) (52, 8.25859069824218750000e+00) (53, 3.80904245376586914062e+00) (54, 3.53349894285202026367e-01) (55, 1.50000000000000000000e+03) (56, 1.61097288131713867188e-01) (57, 1.04503381252288818359e+00) (58, -2.39343523979187011719e+00) (59, -3.02884745597839355469e+00) (60, 2.17703327536582946777e-01) (0, 1.01636433601379394531e+00) (1, -2.48429512977600097656e+00) (2, -5.10095710754394531250e+01) (3, -1.18047177791595458984e+00) (4, 1.37582436203956604004e-01) (5, -6.28657817840576171875e-01) (6, -1.60612270236015319824e-01) (7, -1.48667737841606140137e-01) (8, -2.11343240737915039062e+00) (9, -1.19961388409137725830e-01) (10, -1.28346185684204101562e+01) (11, -6.57750546932220458984e-01) (12, -4.15752857923507690430e-01) (13, -3.81173348426818847656e+00) (14, 3.41865688562393188477e-01) (15, -1.50000000000000000000e+03) (16, -2.31997132301330566406e+00) (17, -3.77453660964965820312e+00) (18, -4.37709951400756835938e+00) (19, 6.20604515075683593750e+00) (20, -2.52162236720323562622e-02) (21, -4.12739157676696777344e-01) (22, -1.09029903411865234375e+01) (23, 1.46827864646911621094e+00) (24, -1.34753033518791198730e-01) (25, -1.50000000000000000000e+03) (26, -9.26167011260986328125e-01) (27, 2.02152803540229797363e-01) (28, -1.38364887237548828125e+00) (29, 7.16063928604125976562e+00) (30, 2.85530029296875000000e+02) (31, 1.44400966167449951172e+00) (32, 2.84020090103149414062e+00) (33, 1.23808689117431640625e+01) (34, 5.60378360748291015625e+00) (35, -1.77226912975311279297e+00) (36, 7.08086609840393066406e-01) (37, 2.52322530746459960938e+00) (38, 5.02675294876098632812e+00) (39, 8.79259169101715087891e-01) (40, 6.64089632034301757812e+00) (41, 5.92130422592163085938e+00) (42, 5.44380724430084228516e-01) (43, 1.70187735557556152344e+00) (44, -6.01069355010986328125e+00) (45, 1.50000000000000000000e+03) (46, -1.77648925781250000000e+01) (47, 2.32862210273742675781e+00) (48, 6.15767812728881835938e+00) (49, 5.05489969253540039062e+00) (50, 2.59573268890380859375e+00) (51, -2.49172329902648925781e+00) (52, 5.42085504531860351562e+00) (53, -4.98911333084106445312e+00) (54, 5.35985410213470458984e-01) (55, 3.53513366699218750000e+02) (56, 1.02966175079345703125e+01) (57, 8.49510908126831054688e-01) (58, -6.47841405868530273438e+00) (59, -6.72521829605102539062e-01) (60, 3.81646007299423217773e-02) (0, -9.29743289947509765625e+00) (1, -1.23950242996215820312e-02) (2, -3.05374622344970703125e+00) (3, -8.48985862731933593750e+00) (4, 1.68749660253524780273e-01) (5, -8.88279557228088378906e-01) (6, -9.77803349494934082031e-01) (7, -1.20412719249725341797e+00) (8, 9.99770069122314453125e+00) (9, -1.82835423946380615234e+00) (10, -3.09499725699424743652e-02) (11, -4.41042959690093994141e-01) (12, -3.22015500068664550781e+00) (13, 3.56854295730590820312e+00) (14, 9.48768615722656250000e-01) (15, -8.50885295867919921875e+00) (16, 4.42657083272933959961e-01) (17, -1.54832839965820312500e+00) (18, -1.22846257686614990234e+00) (19, -4.06861038208007812500e+01) (20, 1.04087615013122558594e+00) (21, -6.12948894500732421875e-01) (22, -8.09450244903564453125e+00) (23, 3.31195175647735595703e-01) (24, -1.51673388481140136719e+00) (25, -1.13773498535156250000e+01) (26, -5.38363599777221679688e+00) (27, 7.56615340709686279297e-01) (28, 7.50502765178680419922e-01) (29, 2.96382427215576171875e-01) (30, 1.19080004882812500000e+03) (31, 5.68764381408691406250e+01) (32, 1.30775480270385742188e+01) (33, 7.92800664901733398438e+00) (34, -3.74360990524291992188e+00) (35, 3.72829586267471313477e-01) (36, 1.50097560882568359375e+00) (37, 3.24966001510620117188e+00) (38, 3.32762241363525390625e+00) (39, 1.49911010265350341797e+00) (40, 1.71270721435546875000e+02) (41, 1.11780004882812500000e+03) (42, 7.25844800472259521484e-01) (43, -6.66919350624084472656e-02) (44, -1.05903358459472656250e+01) (45, 1.50000000000000000000e+03) (46, 1.68417334556579589844e-01) (47, 4.35274200439453125000e+02) (48, 6.88912057876586914062e+00) (49, 3.70870995521545410156e+00) (50, 8.31022262573242187500e+00) (51, -9.09649372100830078125e-01) (52, 1.32583293914794921875e+01) (53, -5.11653661727905273438e+00) (54, 1.60522699356079101562e+00) (55, -1.99628238677978515625e+01) (56, -3.93103174865245819092e-02) (57, 9.16928768157958984375e+00) (58, -3.03649973869323730469e+00) (59, -1.54940438270568847656e+00) (60, -5.89191317558288574219e-01) (61, -3.31041544675827026367e-01) (62, -1.36320032179355621338e-02) (63, -2.42661684751510620117e-01) (64, 9.07796204090118408203e-01) (65, -6.97672367095947265625e-02) (66, -1.18837831541895866394e-02) (67, -5.87619006633758544922e-01) (68, -1.10559356212615966797e+00) (69, -7.21104741096496582031e-02) (70, 2.34769210219383239746e-01) (71, -2.96814233064651489258e-01) (72, -1.65594428777694702148e-01) (73, -2.53195255994796752930e-01) (74, 3.01730304956436157227e-01) (75, 8.42294935137033462524e-03) (76, -2.40417614579200744629e-01) (77, 4.16156314313411712646e-02) (61, -1.13244676589965820312e+00) (62, 1.63631451129913330078e+00) (63, -2.36825227737426757812e+00) (64, 4.22618246078491210938e+00) (65, 8.34805965423583984375e-02) (66, -1.51176369190216064453e+00) (67, -8.45707952976226806641e-01) (68, -2.62217974662780761719e+00) (69, -2.26193442940711975098e-01) (70, 5.11335015296936035156e-01) (71, -4.51168060302734375000e+00) (72, -3.52024674415588378906e-01) (73, -1.15954840183258056641e+00) (74, 6.97913825511932373047e-01) (75, -1.62525087594985961914e-01) (76, -7.33460545539855957031e-01) (77, -2.01773308217525482178e-02) (61, -1.18026733398437500000e+00) (62, 2.07462936639785766602e-01) (63, -2.12388205528259277344e+00) (64, 1.85955035686492919922e+00) (65, 7.63317823410034179688e-01) (66, -4.82470214366912841797e-01) (67, -1.04219698905944824219e+00) (68, -3.77042031288146972656e+00) (69, -1.09623469412326812744e-01) (70, 4.84470456838607788086e-01) (71, -6.66993558406829833984e-01) (72, -5.92129081487655639648e-02) (73, -7.02064335346221923828e-01) (74, 7.81582295894622802734e-01) (75, 8.15060660243034362793e-02) (76, -5.84988415241241455078e-01) (77, 7.68387854099273681641e-01) (61, -2.52348959445953369141e-01) (62, -1.16777494549751281738e-01) (63, -9.88047778606414794922e-01) (64, 4.34822320938110351562e-01) (65, -2.60844588279724121094e-01) (66, -2.30528783798217773438e+00) (67, -2.49544292688369750977e-01) (68, -7.04381763935089111328e-01) (69, 1.49385869503021240234e+00) (70, -2.95104384422302246094e-01) (71, 4.30391520261764526367e-01) (72, -1.06218147277832031250e+00) (73, -5.51969349384307861328e-01) (74, -1.81320691108703613281e+00) (75, -7.17221736907958984375e-01) (76, -2.60050117969512939453e-01) (77, 5.63742876052856445312e-01) (61, -7.21333101391792297363e-02) (62, -5.14910638332366943359e-01) (63, 6.86019062995910644531e-01) (64, -1.31523251533508300781e+00) (65, -1.21168410778045654297e+00) (66, -2.93957173824310302734e-01) (67, -8.54289457201957702637e-02) (68, -1.65964889526367187500e+00) (69, 3.10662722587585449219e+00) (70, -1.04412329196929931641e+00) (71, 1.84584808349609375000e+00) (72, -1.97868436574935913086e-01) (73, -4.62367758154869079590e-02) (74, -8.94781708717346191406e-01) (75, -3.27341580390930175781e+00) (76, 5.74316307902336120605e-02) (77, -5.82365356385707855225e-02) (61, 8.10224294662475585938e-01) (62, -6.55542373657226562500e-01) (63, 2.20191955566406250000e+00) (64, -1.44090509414672851562e+00) (65, -1.32932043075561523438e+00) (66, -7.20118284225463867188e-01) (67, 9.45781946182250976562e-01) (68, 3.53229403495788574219e-01) (69, 3.35491180419921875000e-01) (70, -1.60949301719665527344e+00) (71, -7.46366858482360839844e-01) (72, -4.80003766715526580811e-02) (73, 3.65343451499938964844e-01) (74, -5.78749477863311767578e-01) (75, -1.89637467265129089355e-01) (76, 2.44483605027198791504e-01) (77, 3.69503259658813476562e-01) (61, -8.09784293174743652344e-01) (62, 8.09158325195312500000e-01) (63, 1.25772199630737304688e+01) (64, 6.60733566284179687500e+01) (65, 1.98747825622558593750e+00) (66, 1.36781179904937744141e+00) (67, -3.74269580841064453125e+00) (68, 9.90120601654052734375e+00) (69, 3.82116198539733886719e+00) (70, -5.54277539253234863281e-01) (71, 1.54121518135070800781e-01) (72, 1.03003752231597900391e+00) (73, 5.43059945106506347656e-01) (74, 7.07671546936035156250e+00) (75, 4.02402257919311523438e+00) (76, -1.16547584533691406250e+00) (77, -4.45221424102783203125e-01) (61, -3.79764497280120849609e-01) (62, -9.12866741418838500977e-02) (63, -1.02880215644836425781e+00) (64, -6.05702623724937438965e-02) (65, -1.00810873508453369141e+00) (66, -8.65730404853820800781e-01) (67, -9.15002107620239257812e-01) (68, -2.20973157882690429688e+00) (69, 2.06480479240417480469e+00) (70, -1.33122041821479797363e-01) (71, 9.66221272945404052734e-01) (72, -6.31505310535430908203e-01) (73, -4.72565561532974243164e-01) (74, -7.61000931262969970703e-01) (75, -1.65762507915496826172e+00) (76, -3.99106681346893310547e-01) (77, 4.82255607843399047852e-01) (61, 1.08563058078289031982e-01) (62, 6.91083192825317382812e-01) (63, 3.97257256507873535156e+00) (64, 1.55335354804992675781e+00) (65, 1.68515777587890625000e+00) (66, 2.53817379474639892578e-01) (67, 9.89719480276107788086e-02) (68, 4.22045373916625976562e+00) (69, -2.53967738151550292969e+00) (70, 7.74479210376739501953e-01) (71, -5.29815077781677246094e-01) (72, 9.68513563275337219238e-02) (73, 6.33288621902465820312e-02) (74, 1.36242663860321044922e+00) (75, 1.84600853919982910156e+00) (76, -4.74923849105834960938e-02) (77, -5.84306232631206512451e-02) (61, 2.13996946811676025391e-01) (62, 1.37913659214973449707e-01) (63, 2.96004638671875000000e+01) (64, 2.69007277488708496094e+00) (65, 1.31740462779998779297e+00) (66, 1.03446984291076660156e+00) (67, -6.02718651294708251953e-01) (68, 5.28766095638275146484e-01) (69, -3.46184879541397094727e-01) (70, -3.09732317924499511719e-01) (71, -1.13540971279144287109e+00) (72, 5.77632904052734375000e-01) (73, 4.52885031700134277344e-01) (74, 2.41302585601806640625e+00) (75, 4.38048601150512695312e-01) (76, -4.03782546520233154297e-01) (77, -4.31306600570678710938e-01) (61, 1.24733626842498779297e+00) (62, 1.51919543743133544922e-01) (63, 5.75283765792846679688e+00) (64, -2.13212370872497558594e+00) (65, -4.73565578460693359375e-01) (66, -1.54470607638359069824e-01) (67, 9.00352537631988525391e-01) (68, 2.00475007295608520508e-01) (69, 7.45024502277374267578e-01) (70, -6.45041513442993164062e+00) (71, -9.49287712574005126953e-01) (72, 1.95977613329887390137e-01) (73, 1.58708453178405761719e-01) (74, -2.18184280395507812500e+00) (75, 6.70502632856369018555e-02) (76, 2.69375443458557128906e-01) (77, 6.52798771858215332031e-01) (61, 7.65844732522964477539e-02) (62, -1.98824062943458557129e-01) (63, -1.89512729644775390625e-01) (64, -1.28613799810409545898e-01) (65, -1.45267832279205322266e+00) (66, -5.07899641990661621094e-01) (67, 9.47545588016510009766e-01) (68, -1.31563022732734680176e-01) (69, 2.92288446426391601562e+00) (70, -4.58993792533874511719e-01) (71, 8.57927128672599792480e-02) (72, -1.68712273240089416504e-01) (73, -2.54703819751739501953e-01) (74, -5.26788282394409179688e+00) (75, -5.67353546619415283203e-01) (76, -1.10010907053947448730e-01) (77, -1.72742336988449096680e-01) (61, 5.44042289257049560547e-01) (62, -4.89022016525268554688e+00) (63, 2.89126396179199218750e-01) (64, -3.70090842247009277344e+00) (65, -1.34221673011779785156e-01) (66, 1.27978873252868652344e+00) (67, 6.20568871498107910156e-01) (68, 3.13592505455017089844e+00) (69, 2.21760010719299316406e+00) (70, -1.30760878324508666992e-01) (71, 1.33187942504882812500e+01) (72, 1.59258389472961425781e+00) (73, 6.56137466430664062500e-01) (74, -1.12541660666465759277e-01) (75, -3.31131458282470703125e-01) (76, 3.58492583036422729492e-01) (77, 1.31271436810493469238e-01) (61, 1.79646939039230346680e-01) (62, -2.05576276779174804688e+00) (63, 3.45771503448486328125e+00) (64, 2.01726764440536499023e-01) (65, 4.92829680442810058594e-01) (66, 1.01477539539337158203e+00) (67, 2.71179884672164916992e-01) (68, 1.61772179603576660156e+00) (69, -1.61271840333938598633e-01) (70, 1.81869760155677795410e-01) (71, 2.39404961466789245605e-01) (72, 2.77120709419250488281e-01) (73, 4.68178212642669677734e-01) (74, 6.31249189376831054688e-01) (75, 5.05848944187164306641e-01) (76, 1.08938604593276977539e-01) (77, -3.21723669767379760742e-01) (61, 4.56965148448944091797e-01) (62, 9.75533664226531982422e-01) (63, 4.30806398391723632812e+00) (64, 2.03342461585998535156e+00) (65, 1.12833809852600097656e+00) (66, 5.44440090656280517578e-01) (67, 2.76993960142135620117e-01) (68, 1.63142013549804687500e+00) (69, -2.17306303977966308594e+00) (70, 1.55913501977920532227e-01) (71, -2.09734153747558593750e+00) (72, 5.70155441761016845703e-01) (73, 3.28741908073425292969e-01) (74, 1.84384155273437500000e+00) (75, 5.38028538227081298828e-01) (76, 2.77489721775054931641e-01) (77, 1.35799841955304145813e-02) (61, -1.09205618500709533691e-01) (62, -3.35041075944900512695e-01) (63, -4.72376108169555664062e+00) (64, -1.02659368515014648438e+00) (65, -2.27745747566223144531e+00) (66, -4.47908401489257812500e-01) (67, -1.19318142533302307129e-02) (68, -4.53924357891082763672e-01) (69, 1.36927032470703125000e+00) (70, -3.85470896959304809570e-01) (71, 1.62287437915802001953e+00) (72, -1.24517893791198730469e+00) (73, 1.36520951986312866211e-01) (74, -1.05505943298339843750e+00) (75, -2.07309246063232421875e+00) (76, 1.00370630621910095215e-01) (77, 2.17636525630950927734e-01) (78, 1.02388870716094970703e+00) (79, 4.18399524688720703125e+00) (80, 8.00101280212402343750e+00) (81, 1.66781857609748840332e-01) (82, -1.04774188995361328125e+01) (83, -1.72884011268615722656e+00) (84, -8.33600759506225585938e-02) (85, 1.23090460896492004395e-01) (86, 1.77607819437980651855e-01) (87, -4.87518198788166046143e-02) (88, -8.36368560791015625000e-01) (89, -3.92707884311676025391e-02) (90, -5.16357040405273437500e+00) (91, -1.45643913745880126953e+00) (92, -1.70179493725299835205e-02) (93, -4.98794031143188476562e+00) (94, -1.65196940302848815918e-01) (78, 1.39495670795440673828e-01) (79, -2.48063516616821289062e+00) (80, 7.18264728784561157227e-02) (81, 2.20273160934448242188e+00) (82, 4.02663421630859375000e+00) (83, 3.25029194355010986328e-01) (84, -5.67359626293182373047e-01) (85, 4.22012853622436523438e+00) (86, -3.03471875190734863281e+00) (87, -5.86939513683319091797e-01) (88, 2.87839949131011962891e-01) (89, 4.21884000301361083984e-01) (90, -1.19498036801815032959e-01) (91, -7.88782656192779541016e-01) (92, -3.23472952842712402344e+00) (93, 1.15095567703247070312e+01) (94, -2.63607710599899291992e-01) (78, -5.03931522369384765625e-01) (79, 1.38517701625823974609e+00) (80, -8.22877120971679687500e+00) (81, 3.12001419067382812500e+00) (82, -2.50856697559356689453e-01) (83, 6.48241138458251953125e+00) (84, -2.54739105701446533203e-01) (85, -1.64287376403808593750e+01) (86, -1.94535627961158752441e-01) (87, -2.49168023467063903809e-01) (88, 5.05942106246948242188e+00) (89, -8.84428545832633972168e-02) (90, -1.16225790977478027344e+00) (91, -6.93447947502136230469e-01) (92, -1.82596623897552490234e-01) (93, 8.30018967390060424805e-02) (94, -1.15907892584800720215e-01) (78, 5.24860715866088867188e+00) (79, -1.28005332946777343750e+01) (80, 3.94999176263809204102e-01) (81, -1.17798795700073242188e+01) (82, 1.23971176147460937500e+00) (83, -2.00160670280456542969e+00) (84, 1.98463931679725646973e-01) (85, -2.79352688789367675781e+00) (86, 4.45025593042373657227e-01) (87, 1.72218978404998779297e-01) (88, -7.29480314254760742188e+00) (89, -1.10636579990386962891e+00) (90, 1.84282255172729492188e+00) (91, 5.24264335632324218750e-01) (92, 2.68197000026702880859e-01) (93, -6.53338861465454101562e+00) (94, -6.08511306345462799072e-02) 
