FANN_FLO_2.1
num_layers=3
learning_rate=0.800000
connection_rate=1.000000
network_type=0
learning_momentum=0.000000
training_algorithm=0
train_error_function=1
train_stop_function=0
cascade_output_change_fraction=0.010000
quickprop_decay=-0.000100
quickprop_mu=1.750000
rprop_increase_factor=1.200000
rprop_decrease_factor=0.500000
rprop_delta_min=0.000000
rprop_delta_max=50.000000
rprop_delta_zero=0.100000
cascade_output_stagnation_epochs=12
cascade_candidate_change_fraction=0.010000
cascade_candidate_stagnation_epochs=12
cascade_max_out_epochs=150
cascade_min_out_epochs=50
cascade_max_cand_epochs=150
cascade_min_cand_epochs=50
cascade_num_candidate_groups=2
bit_fail_limit=3.49999994039535522461e-01
cascade_candidate_limit=1.00000000000000000000e+03
cascade_weight_multiplier=4.00000005960464477539e-01
cascade_activation_functions_count=10
cascade_activation_functions=3 5 7 8 10 11 14 15 16 17 
cascade_activation_steepnesses_count=4
cascade_activation_steepnesses=2.50000000000000000000e-01 5.00000000000000000000e-01 7.50000000000000000000e-01 1.00000000000000000000e+00 
layer_sizes=61 7 5 
scale_included=0
neurons (num_inputs, activation_function, activation_steepness)=(0, 0, 0.00000000000000000000e+00) (0, 0, 0.00000000000000000000e+00) (0, 0, 0.00000000000000000000e+00) (0, 0, 0.00000000000000000000e+00) (0, 0, 0.00000000000000000000e+00) (0, 0, 0.00000000000000000000e+00) (0, 0, 0.00000000000000000000e+00) (0, 0, 0.00000000000000000000e+00) (0, 0, 0.00000000000000000000e+00) (0, 0, 0.00000000000000000000e+00) (0, 0, 0.00000000000000000000e+00) (0, 0, 0.00000000000000000000e+00) (0, 0, 0.00000000000000000000e+00) (0, 0, 0.00000000000000000000e+00) (0, 0, 0.00000000000000000000e+00) (0, 0, 0.00000000000000000000e+00) (0, 0, 0.00000000000000000000e+00) (0, 0, 0.00000000000000000000e+00) (0, 0, 0.00000000000000000000e+00) (0, 0, 0.00000000000000000000e+00) (0, 0, 0.00000000000000000000e+00) (0, 0, 0.00000000000000000000e+00) (0, 0, 0.00000000000000000000e+00) (0, 0, 0.00000000000000000000e+00) (0, 0, 0.00000000000000000000e+00) (0, 0, 0.00000000000000000000e+00) (0, 0, 0.00000000000000000000e+00) (0, 0, 0.00000000000000000000e+00) (0, 0, 0.00000000000000000000e+00) (0, 0, 0.00000000000000000000e+00) (0, 0, 0.00000000000000000000e+00) (0, 0, 0.00000000000000000000e+00) (0, 0, 0.00000000000000000000e+00) (0, 0, 0.00000000000000000000e+00) (0, 0, 0.00000000000000000000e+00) (0, 0, 0.00000000000000000000e+00) (0, 0, 0.00000000000000000000e+00) (0, 0, 0.00000000000000000000e+00) (0, 0, 0.00000000000000000000e+00) (0, 0, 0.00000000000000000000e+00) (0, 0, 0.00000000000000000000e+00) (0, 0, 0.00000000000000000000e+00) (0, 0, 0.00000000000000000000e+00) (0, 0, 0.00000000000000000000e+00) (0, 0, 0.00000000000000000000e+00) (0, 0, 0.00000000000000000000e+00) (0, 0, 0.00000000000000000000e+00) (0, 0, 0.00000000000000000000e+00) (0, 0, 0.00000000000000000000e+00) (0, 0, 0.00000000000000000000e+00) (0, 0, 0.00000000000000000000e+00) (0, 0, 0.00000000000000000000e+00) (0, 0, 0.00000000000000000000e+00) (0, 0, 0.00000000000000000000e+00) (0, 0, 0.00000000000000000000e+00) (0, 0, 0.00000000000000000000e+00) (0, 0, 0.00000000000000000000e+00) (0, 0, 0.00000000000000000000e+00) (0, 0, 0.00000000000000000000e+00) (0, 0, 0.00000000000000000000e+00) (0, 0, 0.00000000000000000000e+00) (61, 3, 5.00000000000000000000e-01) (61, 3, 5.00000000000000000000e-01) (61, 3, 5.00000000000000000000e-01) (61, 3, 5.00000000000000000000e-01) (61, 3, 5.00000000000000000000e-01) (61, 3, 5.00000000000000000000e-01) (0, 3, 0.00000000000000000000e+00) (7, 3, 5.00000000000000000000e-01) (7, 3, 5.00000000000000000000e-01) (7, 3, 5.00000000000000000000e-01) (7, 3, 5.00000000000000000000e-01) (0, 3, 0.00000000000000000000e+00) 
connections (connected_to_neuron, weight)=(0, 1.98630714416503906250e+01) (1, -6.75801575183868408203e-01) (2, -1.23014125823974609375e+01) (3, 4.29428596496582031250e+01) (4, 1.66849727630615234375e+01) (5, -3.08585119247436523438e+00) (6, 4.78910732269287109375e+00) (7, 3.45416603088378906250e+01) (8, -3.26251220703125000000e+01) (9, -4.49982595443725585938e+00) (10, 1.52005853652954101562e+01) (11, -1.77566242218017578125e+01) (12, 1.17902584075927734375e+01) (13, -3.00203247070312500000e+01) (14, -8.76910495758056640625e+00) (15, -5.41883563995361328125e+00) (16, -2.71194368600845336914e-01) (17, -1.95026512145996093750e+01) (18, 1.49454259872436523438e+00) (19, -2.94267406463623046875e+01) (20, -4.78815746307373046875e+00) (21, 6.47017765045166015625e+00) (22, -1.42342958450317382812e+01) (23, -9.57039451599121093750e+00) (24, 5.92720842361450195312e+00) (25, -3.00690631866455078125e+01) (26, -1.43466882705688476562e+01) (27, 1.37410259246826171875e+00) (28, -1.06235437393188476562e+01) (29, 1.14805078506469726562e+01) (30, -2.75458488464355468750e+01) (31, 1.31303024291992187500e+00) (32, 4.49351692199707031250e+00) (33, -1.84291858673095703125e+01) (34, -7.35919809341430664062e+00) (35, -7.31597709655761718750e+00) (36, 9.47127819061279296875e+00) (37, -4.27467536926269531250e+01) (38, -2.06168994903564453125e+01) (39, 3.26479768753051757812e+00) (40, -3.32728528976440429688e+00) (41, 4.84584503173828125000e+01) (42, -5.54187297821044921875e-01) (43, -2.36321220397949218750e+01) (44, 4.73370313644409179688e+00) (45, -1.36449813842773437500e+01) (46, 3.06907215118408203125e+01) (47, 5.63325881958007812500e+00) (48, -1.92404117584228515625e+01) (49, 2.80874271392822265625e+01) (50, -9.41729545593261718750e+00) (51, 8.15755367279052734375e+00) (52, -8.37870311737060546875e+00) (53, 4.18752784729003906250e+01) (54, 3.53863258361816406250e+01) (55, 3.94633889198303222656e-01) (56, -1.53212471008300781250e+01) (57, -1.60799636840820312500e+01) (58, 6.53827428817749023438e+00) (59, 2.71389275789260864258e-01) (60, 6.09451961517333984375e+00) (0, 1.31431846618652343750e+01) (1, -7.67643070220947265625e+00) (2, 3.57371330261230468750e+01) (3, 1.75385780334472656250e+01) (4, -4.57045269012451171875e+00) (5, 7.28193378448486328125e+00) (6, 1.76228380203247070312e+00) (7, 2.02465496063232421875e+01) (8, -6.00326042175292968750e+01) (9, -2.82686519622802734375e+01) (10, -4.31146430969238281250e+00) (11, -8.77274692058563232422e-01) (12, -1.14339008331298828125e+01) (13, 1.41401243209838867188e+00) (14, 1.29643144607543945312e+01) (15, 1.77047097682952880859e+00) (16, 5.57766973972320556641e-01) (17, -9.89642143249511718750e+00) (18, -1.18462190628051757812e+01) (19, 1.66022548675537109375e+01) (20, 1.45846509933471679688e+01) (21, 3.11837158203125000000e+01) (22, 1.78275260925292968750e+01) (23, 7.53924369812011718750e+00) (24, 1.60043716430664062500e-01) (25, -1.60814075469970703125e+01) (26, -1.41989984512329101562e+01) (27, -1.04291353225708007812e+01) (28, -2.91141052246093750000e+01) (29, -6.00862503051757812500e-03) (30, -5.33773517608642578125e+00) (31, -9.87459278106689453125e+00) (32, -1.99967021942138671875e+01) (33, -5.97362279891967773438e+00) (34, 2.08141994476318359375e+01) (35, -4.18645954132080078125e+00) (36, 1.63867816925048828125e+01) (37, -7.78689908981323242188e+00) (38, 1.69211196899414062500e+01) (39, 8.30532741546630859375e+00) (40, -1.72628231048583984375e+01) (41, -1.38422489166259765625e+00) (42, 4.37553405761718750000e+00) (43, -9.99794864654541015625e+00) (44, -3.04784727096557617188e+00) (45, -9.58735466003417968750e+00) (46, -1.62904472351074218750e+01) (47, -1.14697799682617187500e+01) (48, 7.68470096588134765625e+00) (49, -2.27828960418701171875e+01) (50, 1.18615703582763671875e+01) (51, -7.34426212310791015625e+00) (52, 7.84221744537353515625e+00) (53, 1.45395011901855468750e+01) (54, 1.73226318359375000000e+01) (55, -3.53464007377624511719e+00) (56, -1.73143539428710937500e+01) (57, -1.38147830963134765625e+01) (58, -1.14823637008666992188e+01) (59, 2.93717594146728515625e+01) (60, 2.95410633087158203125e+01) (0, -2.88574142456054687500e+01) (1, -1.07696628570556640625e+01) (2, -1.66186161041259765625e+01) (3, -7.84742546081542968750e+00) (4, 1.81972618103027343750e+01) (5, 2.15552978515625000000e+01) (6, 1.21565113067626953125e+01) (7, 1.98773784637451171875e+01) (8, 2.52403945922851562500e+01) (9, -1.26698932647705078125e+01) (10, -2.27632884979248046875e+01) (11, -1.30393848419189453125e+01) (12, 2.03249473571777343750e+01) (13, -1.37284183502197265625e+01) (14, 3.02485485076904296875e+01) (15, 1.24265489578247070312e+01) (16, 1.08877220153808593750e+01) (17, 1.49374237060546875000e+01) (18, -2.60749187469482421875e+01) (19, -2.73576927185058593750e+01) (20, 2.91222786903381347656e+00) (21, 1.21967935562133789062e+01) (22, -1.03656272888183593750e+01) (23, 3.48098297119140625000e+01) (24, -4.30320854187011718750e+01) (25, -5.83924412727355957031e-01) (26, 1.56422686576843261719e+00) (27, 1.72797813415527343750e+01) (28, 2.66811637878417968750e+01) (29, -1.19675035476684570312e+01) (30, 8.73232650756835937500e+00) (31, 1.20486903190612792969e+00) (32, 7.94475984573364257812e+00) (33, 2.10779571533203125000e+01) (34, -1.72326698303222656250e+01) (35, 1.50867004394531250000e+01) (36, -1.10008907318115234375e+01) (37, -4.83669185638427734375e+00) (38, -3.63657913208007812500e+01) (39, 9.19845485687255859375e+00) (40, 5.64136409759521484375e+00) (41, 1.17879543304443359375e+01) (42, 1.18845901489257812500e+01) (43, -1.90959777832031250000e+01) (44, 5.17556667327880859375e+00) (45, -5.96581792831420898438e+00) (46, 2.18545436859130859375e+01) (47, -9.10483551025390625000e+00) (48, 1.75296211242675781250e+00) (49, 2.14620552062988281250e+01) (50, 2.89327239990234375000e+00) (51, -1.65394270420074462891e+00) (52, -3.25137939453125000000e+01) (53, 9.37202167510986328125e+00) (54, 1.39875984191894531250e+01) (55, 2.95293378829956054688e+00) (56, -4.90527915954589843750e+00) (57, -1.11744165420532226562e+01) (58, -9.62914276123046875000e+00) (59, -3.03796596527099609375e+01) (60, 9.59512138366699218750e+00) (0, 8.18050575256347656250e+00) (1, 6.77393531799316406250e+00) (2, -3.47504925727844238281e+00) (3, 6.32479333877563476562e+00) (4, 1.78203659057617187500e+01) (5, 7.19986534118652343750e+00) (6, 2.56736736297607421875e+01) (7, 3.73329687118530273438e+00) (8, -3.97085428237915039062e+00) (9, -1.14471683502197265625e+01) (10, 2.22154006958007812500e+01) (11, -2.65867385864257812500e+01) (12, -7.52898693084716796875e+00) (13, -8.51941108703613281250e+00) (14, -1.56505279541015625000e+01) (15, 3.02281665802001953125e+00) (16, -1.30437078475952148438e+01) (17, 1.22209806442260742188e+01) (18, 2.75285720825195312500e+01) (19, -8.91983604431152343750e+00) (20, -7.82160902023315429688e+00) (21, 9.20156717300415039062e-01) (22, 2.10049080848693847656e+00) (23, -6.01592302322387695312e+00) (24, -7.83334064483642578125e+00) (25, 2.42897796630859375000e+01) (26, -5.34598970413208007812e+00) (27, -9.44890403747558593750e+00) (28, -2.41046028137207031250e+01) (29, 3.66584777832031250000e+01) (30, -3.02357196807861328125e+01) (31, -4.91751098632812500000e+00) (32, -2.85923709869384765625e+01) (33, 3.43108510971069335938e+00) (34, -2.11609382629394531250e+01) (35, -1.88590564727783203125e+01) (36, 2.00171642303466796875e+01) (37, -1.29635534286499023438e+01) (38, 1.59880409240722656250e+01) (39, 1.98546075820922851562e+00) (40, 6.93624877929687500000e+00) (41, 4.34666967391967773438e+00) (42, -4.55405426025390625000e+00) (43, 1.22150325775146484375e+01) (44, 3.97470130920410156250e+01) (45, 9.42008686065673828125e+00) (46, 5.73829269409179687500e+00) (47, -4.57924156188964843750e+01) (48, 1.27537560462951660156e+00) (49, 1.40186080932617187500e+01) (50, -1.28649654388427734375e+01) (51, 4.61841106414794921875e-01) (52, -1.66362380981445312500e+01) (53, 1.14936935901641845703e+00) (54, 1.24741363525390625000e+00) (55, -3.31151103973388671875e+00) (56, -1.36289873123168945312e+01) (57, 1.26730403900146484375e+01) (58, -8.12856674194335937500e+00) (59, -6.21509122848510742188e+00) (60, 1.42268333435058593750e+01) (0, -5.23457956314086914062e+00) (1, 2.63439953327178955078e-01) (2, 4.72452354431152343750e+00) (3, -3.82760047912597656250e+01) (4, 3.62880935668945312500e+01) (5, -2.91158123016357421875e+01) (6, -1.64321060180664062500e+01) (7, 1.78213214874267578125e+01) (8, 3.28950738906860351562e+00) (9, -5.31166553497314453125e+00) (10, -1.45178565979003906250e+01) (11, 1.05104417800903320312e+01) (12, 1.98830394744873046875e+01) (13, 8.20717930793762207031e-01) (14, -2.38499450683593750000e+00) (15, 1.21015655994415283203e+00) (16, -1.29685668945312500000e+01) (17, 3.02190351486206054688e+00) (18, -5.42495441436767578125e+00) (19, -1.59646682739257812500e+01) (20, -4.38164949417114257812e+00) (21, 1.96022629737854003906e+00) (22, -2.71333198547363281250e+01) (23, -4.91565055847167968750e+01) (24, 3.62902603149414062500e+01) (25, 2.42162685394287109375e+01) (26, 5.23419523239135742188e+00) (27, -1.25126857757568359375e+01) (28, -2.04295272827148437500e+01) (29, -3.12018241882324218750e+01) (30, 5.32392644882202148438e+00) (31, 3.20837173461914062500e+01) (32, -1.11225471496582031250e+01) (33, -5.28747081756591796875e+00) (34, 3.83322405815124511719e+00) (35, -1.00676336288452148438e+01) (36, 8.74047565460205078125e+00) (37, -2.32287254333496093750e+01) (38, -6.59362745285034179688e+00) (39, 5.39062070846557617188e+00) (40, -9.05774116516113281250e+00) (41, 3.49702548980712890625e+00) (42, 8.86235475540161132812e-01) (43, -1.62294788360595703125e+01) (44, -1.78065121173858642578e+00) (45, 1.75763835906982421875e+01) (46, 1.14171371459960937500e+01) (47, 4.32775688171386718750e+00) (48, 6.74746847152709960938e+00) (49, -8.64545154571533203125e+00) (50, 7.43775725364685058594e-01) (51, 2.61113891601562500000e+01) (52, -9.04745960235595703125e+00) (53, 2.62429180145263671875e+01) (54, -1.83311653137207031250e+01) (55, 1.48138446807861328125e+01) (56, 7.44835281372070312500e+00) (57, 9.95642852783203125000e+00) (58, 3.20207047462463378906e+00) (59, -1.20536212921142578125e+01) (60, 1.17836418151855468750e+01) (0, 3.57901573181152343750e+00) (1, 1.50092506408691406250e+01) (2, 2.38476037979125976562e+00) (3, -6.56365203857421875000e+00) (4, -1.68297595977783203125e+01) (5, -5.88456344604492187500e+00) (6, 6.24399852752685546875e+00) (7, 2.70415353775024414062e+00) (8, 2.20518136024475097656e+00) (9, 1.24975585937500000000e+00) (10, -6.09263944625854492188e+00) (11, 1.26775722503662109375e+01) (12, -1.85342044830322265625e+01) (13, 1.41103541851043701172e+00) (14, -1.71514167785644531250e+01) (15, -9.76929187774658203125e+00) (16, -3.58858323097229003906e+00) (17, 1.44293224811553955078e+00) (18, -8.95951652526855468750e+00) (19, 6.13602876663208007812e+00) (20, 6.53747940063476562500e+00) (21, 1.54885368347167968750e+01) (22, -1.25516071319580078125e+01) (23, 3.84889006614685058594e+00) (24, 2.60105848312377929688e+00) (25, 1.27628335952758789062e+01) (26, 1.96377258300781250000e+01) (27, -3.40432548522949218750e+00) (28, 1.48500432968139648438e+01) (29, -3.45894966125488281250e+01) (30, -1.61378879547119140625e+01) (31, 2.23971009254455566406e-01) (32, 1.61931953430175781250e+01) (33, 2.61510810852050781250e+01) (34, 1.37402458190917968750e+01) (35, -1.74031620025634765625e+01) (36, 2.42794647216796875000e+01) (37, -7.10508584976196289062e+00) (38, 1.42479314804077148438e+01) (39, -1.94462451934814453125e+01) (40, 1.96781291961669921875e+01) (41, 2.85288023948669433594e+00) (42, 1.35936069488525390625e+01) (43, 9.84577655792236328125e+00) (44, -2.15835094451904296875e+01) (45, 2.49887351989746093750e+01) (46, 6.61670589447021484375e+00) (47, 3.01040802001953125000e+01) (48, 1.48240337371826171875e+01) (49, -2.42212047576904296875e+01) (50, 1.64566278457641601562e+00) (51, -1.93245563507080078125e+01) (52, 2.57525215148925781250e+01) (53, -3.69886436462402343750e+01) (54, 1.97427101135253906250e+01) (55, 2.84148859977722167969e+00) (56, 1.19414367675781250000e+01) (57, -1.29061591625213623047e+00) (58, 5.07668972015380859375e+00) (59, 5.87166023254394531250e+00) (60, 1.82497653961181640625e+01) (61, 1.75142955780029296875e+01) (62, 9.45153427124023437500e+00) (63, -1.19597797393798828125e+01) (64, -1.00495986938476562500e+01) (65, -5.13441371917724609375e+00) (66, 1.61936511993408203125e+01) (67, -2.12362861633300781250e+01) (61, -1.62870998382568359375e+01) (62, 2.40265121459960937500e+01) (63, -1.38030910491943359375e+01) (64, -1.68714761734008789062e+00) (65, 1.81717014312744140625e+01) (66, -2.87913475036621093750e+01) (67, -1.77466640472412109375e+01) (61, -8.51991653442382812500e+00) (62, 7.89415407180786132812e+00) (63, 9.64147949218750000000e+00) (64, -4.67352600097656250000e+01) (65, 5.31954622268676757812e+00) (66, -9.75200271606445312500e+00) (67, -4.88887548446655273438e+00) (61, -7.12662649154663085938e+00) (62, -1.32741813659667968750e+01) (63, -1.33664693832397460938e+01) (64, -2.76140308380126953125e+01) (65, -1.87547264099121093750e+01) (66, 1.53766469955444335938e+01) (67, 3.15287055969238281250e+01) 
