FANN_FLO_2.1
num_layers=3
learning_rate=0.800000
connection_rate=1.000000
network_type=0
learning_momentum=0.000000
training_algorithm=0
train_error_function=1
train_stop_function=0
cascade_output_change_fraction=0.010000
quickprop_decay=-0.000100
quickprop_mu=1.750000
rprop_increase_factor=1.200000
rprop_decrease_factor=0.500000
rprop_delta_min=0.000000
rprop_delta_max=50.000000
rprop_delta_zero=0.100000
cascade_output_stagnation_epochs=12
cascade_candidate_change_fraction=0.010000
cascade_candidate_stagnation_epochs=12
cascade_max_out_epochs=150
cascade_min_out_epochs=50
cascade_max_cand_epochs=150
cascade_min_cand_epochs=50
cascade_num_candidate_groups=2
bit_fail_limit=3.49999994039535522461e-01
cascade_candidate_limit=1.00000000000000000000e+03
cascade_weight_multiplier=4.00000005960464477539e-01
cascade_activation_functions_count=10
cascade_activation_functions=3 5 7 8 10 11 14 15 16 17 
cascade_activation_steepnesses_count=4
cascade_activation_steepnesses=2.50000000000000000000e-01 5.00000000000000000000e-01 7.50000000000000000000e-01 1.00000000000000000000e+00 
layer_sizes=61 7 5 
scale_included=0
neurons (num_inputs, activation_function, activation_steepness)=(0, 0, 0.00000000000000000000e+00) (0, 0, 0.00000000000000000000e+00) (0, 0, 0.00000000000000000000e+00) (0, 0, 0.00000000000000000000e+00) (0, 0, 0.00000000000000000000e+00) (0, 0, 0.00000000000000000000e+00) (0, 0, 0.00000000000000000000e+00) (0, 0, 0.00000000000000000000e+00) (0, 0, 0.00000000000000000000e+00) (0, 0, 0.00000000000000000000e+00) (0, 0, 0.00000000000000000000e+00) (0, 0, 0.00000000000000000000e+00) (0, 0, 0.00000000000000000000e+00) (0, 0, 0.00000000000000000000e+00) (0, 0, 0.00000000000000000000e+00) (0, 0, 0.00000000000000000000e+00) (0, 0, 0.00000000000000000000e+00) (0, 0, 0.00000000000000000000e+00) (0, 0, 0.00000000000000000000e+00) (0, 0, 0.00000000000000000000e+00) (0, 0, 0.00000000000000000000e+00) (0, 0, 0.00000000000000000000e+00) (0, 0, 0.00000000000000000000e+00) (0, 0, 0.00000000000000000000e+00) (0, 0, 0.00000000000000000000e+00) (0, 0, 0.00000000000000000000e+00) (0, 0, 0.00000000000000000000e+00) (0, 0, 0.00000000000000000000e+00) (0, 0, 0.00000000000000000000e+00) (0, 0, 0.00000000000000000000e+00) (0, 0, 0.00000000000000000000e+00) (0, 0, 0.00000000000000000000e+00) (0, 0, 0.00000000000000000000e+00) (0, 0, 0.00000000000000000000e+00) (0, 0, 0.00000000000000000000e+00) (0, 0, 0.00000000000000000000e+00) (0, 0, 0.00000000000000000000e+00) (0, 0, 0.00000000000000000000e+00) (0, 0, 0.00000000000000000000e+00) (0, 0, 0.00000000000000000000e+00) (0, 0, 0.00000000000000000000e+00) (0, 0, 0.00000000000000000000e+00) (0, 0, 0.00000000000000000000e+00) (0, 0, 0.00000000000000000000e+00) (0, 0, 0.00000000000000000000e+00) (0, 0, 0.00000000000000000000e+00) (0, 0, 0.00000000000000000000e+00) (0, 0, 0.00000000000000000000e+00) (0, 0, 0.00000000000000000000e+00) (0, 0, 0.00000000000000000000e+00) (0, 0, 0.00000000000000000000e+00) (0, 0, 0.00000000000000000000e+00) (0, 0, 0.00000000000000000000e+00) (0, 0, 0.00000000000000000000e+00) (0, 0, 0.00000000000000000000e+00) (0, 0, 0.00000000000000000000e+00) (0, 0, 0.00000000000000000000e+00) (0, 0, 0.00000000000000000000e+00) (0, 0, 0.00000000000000000000e+00) (0, 0, 0.00000000000000000000e+00) (0, 0, 0.00000000000000000000e+00) (61, 3, 5.00000000000000000000e-01) (61, 3, 5.00000000000000000000e-01) (61, 3, 5.00000000000000000000e-01) (61, 3, 5.00000000000000000000e-01) (61, 3, 5.00000000000000000000e-01) (61, 3, 5.00000000000000000000e-01) (0, 3, 0.00000000000000000000e+00) (7, 3, 5.00000000000000000000e-01) (7, 3, 5.00000000000000000000e-01) (7, 3, 5.00000000000000000000e-01) (7, 3, 5.00000000000000000000e-01) (0, 3, 0.00000000000000000000e+00) 
connections (connected_to_neuron, weight)=(0, 1.70219326019287109375e+01) (1, -9.08663082122802734375e+00) (2, -9.37408733367919921875e+00) (3, 3.81406440734863281250e+01) (4, 1.30686664581298828125e+01) (5, 1.59608173370361328125e+00) (6, 1.52424230575561523438e+01) (7, 3.45353317260742187500e+01) (8, -2.74778995513916015625e+01) (9, -1.10496253967285156250e+01) (10, 8.45922470092773437500e+00) (11, -6.29522323608398437500e-01) (12, -2.12327742576599121094e+00) (13, -3.62317924499511718750e+01) (14, -7.20492410659790039062e+00) (15, 1.94602906703948974609e-01) (16, -1.56191082000732421875e+01) (17, -1.70060291290283203125e+01) (18, 9.23802566528320312500e+00) (19, -1.76497230529785156250e+01) (20, 6.09893798828125000000e-01) (21, 5.42114067077636718750e+00) (22, -8.72916793823242187500e+00) (23, 2.86524438858032226562e+00) (24, -5.21897840499877929688e+00) (25, -1.74071521759033203125e+01) (26, -1.56055440902709960938e+01) (27, -7.99583625793457031250e+00) (28, -2.54228925704956054688e+00) (29, 5.95157909393310546875e+00) (30, -2.13250160217285156250e+01) (31, 3.26378107070922851562e+00) (32, -2.97012281417846679688e+00) (33, -2.10875415802001953125e+01) (34, -1.20543658733367919922e+00) (35, -6.87716722488403320312e-01) (36, 2.68673076629638671875e+01) (37, -4.07427406311035156250e+01) (38, -1.86676940917968750000e+01) (39, -9.97241687774658203125e+00) (40, -3.67361950874328613281e+00) (41, 3.09963378906250000000e+01) (42, 1.59445214271545410156e+00) (43, -2.43068103790283203125e+01) (44, -1.66040217876434326172e+00) (45, -1.69020442962646484375e+01) (46, 2.04912834167480468750e+01) (47, 4.29590415954589843750e+00) (48, -2.51683979034423828125e+01) (49, 1.93729133605957031250e+01) (50, -1.77596454620361328125e+01) (51, 1.38223886489868164062e+01) (52, -1.50481677055358886719e+00) (53, 2.74654750823974609375e+01) (54, 3.54780921936035156250e+01) (55, -4.08885419368743896484e-01) (56, -7.18129968643188476562e+00) (57, -9.01354217529296875000e+00) (58, 9.89771270751953125000e+00) (59, -9.90481376647949218750e+00) (60, 1.06951725482940673828e+00) (0, 1.24891414642333984375e+01) (1, -5.97497558593750000000e+00) (2, 3.46803359985351562500e+01) (3, 1.15023403167724609375e+01) (4, -3.92547821998596191406e+00) (5, 2.87715077400207519531e+00) (6, 3.59055101871490478516e-02) (7, 6.74635124206542968750e+00) (8, -5.02548027038574218750e+01) (9, -3.23111343383789062500e+01) (10, -8.12710762023925781250e+00) (11, -4.24971818923950195312e+00) (12, -1.07067453861236572266e+00) (13, 3.07764005661010742188e+00) (14, 1.00895757675170898438e+01) (15, -1.76132240295410156250e+01) (16, -6.72630834579467773438e+00) (17, -1.72077217102050781250e+01) (18, -7.39078521728515625000e+00) (19, 9.94680690765380859375e+00) (20, 1.74571514129638671875e+01) (21, 1.18429861068725585938e+01) (22, 2.51209983825683593750e+01) (23, 7.56220483779907226562e+00) (24, 6.24363327026367187500e+00) (25, -5.64023196697235107422e-01) (26, -1.83598899841308593750e+01) (27, -7.97672867774963378906e-01) (28, -3.06674938201904296875e+01) (29, -1.45902557373046875000e+01) (30, 8.63066101074218750000e+00) (31, -6.59635877609252929688e+00) (32, -2.34602985382080078125e+01) (33, -4.27624082565307617188e+00) (34, 1.22170314788818359375e+01) (35, -3.62001991271972656250e+00) (36, 1.08143596649169921875e+01) (37, -1.42136583328247070312e+01) (38, 1.41720361709594726562e+01) (39, 7.27968025207519531250e+00) (40, -7.73391866683959960938e+00) (41, -1.14925801753997802734e+00) (42, -2.72457790374755859375e+00) (43, -7.85871410369873046875e+00) (44, -5.47039222717285156250e+00) (45, -2.22491817474365234375e+01) (46, -4.60317134857177734375e+00) (47, -8.66142463684082031250e+00) (48, -2.14365315437316894531e+00) (49, -1.49973526000976562500e+01) (50, 2.40001907348632812500e+01) (51, -2.25427579879760742188e+00) (52, -2.44217920303344726562e+00) (53, -1.35915374755859375000e+00) (54, 2.35738487243652343750e+01) (55, 5.29452133178710937500e+00) (56, -1.56127090454101562500e+01) (57, -1.29993314743041992188e+01) (58, 1.03066182136535644531e+00) (59, 8.53498554229736328125e+00) (60, 3.03402729034423828125e+01) (0, -1.01892719268798828125e+01) (1, -7.28450918197631835938e+00) (2, -1.45321550369262695312e+01) (3, -9.59209346771240234375e+00) (4, 1.82802658081054687500e+01) (5, 3.87468814849853515625e+00) (6, 8.78416538238525390625e+00) (7, 5.00129652023315429688e+00) (8, 2.27996463775634765625e+01) (9, 6.76923274993896484375e+00) (10, -1.91157588958740234375e+01) (11, -9.24723148345947265625e+00) (12, 4.83550500869750976562e+00) (13, -1.01132707595825195312e+01) (14, 3.47870788574218750000e+01) (15, 2.34356536865234375000e+01) (16, 1.24871969223022460938e+01) (17, 2.12268981933593750000e+01) (18, -2.94246978759765625000e+01) (19, -1.41652460098266601562e+01) (20, 8.85287761688232421875e+00) (21, 1.69247207641601562500e+01) (22, 2.35880017280578613281e-01) (23, 4.48844108581542968750e+01) (24, -3.12961730957031250000e+01) (25, 6.56776332855224609375e+00) (26, -1.12971508502960205078e+00) (27, 1.14134807586669921875e+01) (28, 1.36411390304565429688e+01) (29, -6.25618314743041992188e+00) (30, 7.48865318298339843750e+00) (31, -1.04774093627929687500e+01) (32, 1.28771266937255859375e+01) (33, 1.35211257934570312500e+01) (34, -3.06011199951171875000e+00) (35, 1.43042554855346679688e+01) (36, -1.99572734832763671875e+01) (37, -1.54066324234008789062e+00) (38, -1.98162059783935546875e+01) (39, 1.23584709167480468750e+01) (40, -3.34912085533142089844e+00) (41, 2.79341468811035156250e+01) (42, 1.63827018737792968750e+01) (43, -1.81388969421386718750e+01) (44, 1.11739578247070312500e+01) (45, 2.77426958084106445312e+00) (46, 2.37998828887939453125e+01) (47, 2.60301280021667480469e+00) (48, -6.01302862167358398438e+00) (49, 2.19047088623046875000e+01) (50, 1.19333100318908691406e+00) (51, 6.28081679344177246094e-01) (52, -2.76611137390136718750e+01) (53, 8.78946876525878906250e+00) (54, -5.82332611083984375000e+00) (55, -1.28020057678222656250e+01) (56, -7.77191448211669921875e+00) (57, -5.99453783035278320312e+00) (58, 1.09274702072143554688e+01) (59, -1.00754747390747070312e+01) (60, -6.32652664184570312500e+00) (0, -4.83281993865966796875e+00) (1, -1.95944774150848388672e+00) (2, -1.60668163299560546875e+01) (3, 1.01592445373535156250e+01) (4, 1.25972452163696289062e+01) (5, 4.64308214187622070312e+00) (6, 2.26244773864746093750e+01) (7, 1.16815841197967529297e+00) (8, -9.13898468017578125000e+00) (9, -5.84438800811767578125e+00) (10, 1.07109298706054687500e+01) (11, -5.76275730133056640625e+00) (12, -4.08011245727539062500e+00) (13, -9.21581935882568359375e+00) (14, -1.62046337127685546875e+01) (15, 6.30001926422119140625e+00) (16, -6.47096347808837890625e+00) (17, 8.61360263824462890625e+00) (18, 1.83342647552490234375e+01) (19, -1.14923849105834960938e+01) (20, -6.83038330078125000000e+00) (21, -7.09364175796508789062e-01) (22, -5.92513656616210937500e+00) (23, -1.56788530349731445312e+01) (24, -1.10161256790161132812e+01) (25, 1.89578132629394531250e+01) (26, -2.07144050598144531250e+01) (27, -7.74730539321899414062e+00) (28, -1.93626728057861328125e+01) (29, 1.66998577117919921875e+01) (30, -2.23600292205810546875e+01) (31, -5.59257841110229492188e+00) (32, -2.95305213928222656250e+01) (33, -9.31071090698242187500e+00) (34, -2.39116516113281250000e+01) (35, -1.75819892883300781250e+01) (36, 1.58825969696044921875e+01) (37, -1.90433673858642578125e+01) (38, 1.43554925918579101562e+01) (39, 1.10464391708374023438e+01) (40, -2.66663527488708496094e+00) (41, -1.05963869094848632812e+01) (42, -7.42355251312255859375e+00) (43, -1.03105907440185546875e+01) (44, 2.64773349761962890625e+01) (45, -1.51752507686614990234e+00) (46, -2.08421015739440917969e+00) (47, -5.31002464294433593750e+01) (48, -7.62238073348999023438e+00) (49, 1.32896623611450195312e+01) (50, -1.26119823455810546875e+01) (51, -1.40073108673095703125e+00) (52, 5.22318029403686523438e+00) (53, 2.49087393283843994141e-01) (54, -8.42398452758789062500e+00) (55, -7.35367870330810546875e+00) (56, -1.30444431304931640625e+01) (57, 1.07669687271118164062e+01) (58, -1.31497297286987304688e+01) (59, -2.89835166931152343750e+00) (60, 1.88917560577392578125e+01) (0, 3.41483068466186523438e+00) (1, -7.48913049697875976562e-01) (2, -2.32791948318481445312e+00) (3, -2.24770336151123046875e+01) (4, 3.68800239562988281250e+01) (5, -1.85067005157470703125e+01) (6, -1.75564060211181640625e+01) (7, 2.03561897277832031250e+01) (8, -1.77780294418334960938e+00) (9, -3.80854296684265136719e+00) (10, -8.45726966857910156250e+00) (11, 2.11455478668212890625e+01) (12, 1.55744857788085937500e+01) (13, 4.57570791244506835938e+00) (14, 1.49437379837036132812e+00) (15, 1.63787376880645751953e+00) (16, -1.51178665161132812500e+01) (17, 8.81239223480224609375e+00) (18, -2.15420579910278320312e+00) (19, -1.33547468185424804688e+01) (20, -1.07601146697998046875e+01) (21, -1.08373856544494628906e+00) (22, -2.57217693328857421875e+01) (23, -3.59774322509765625000e+01) (24, 3.67089614868164062500e+01) (25, 1.76749801635742187500e+01) (26, 1.56393623352050781250e+01) (27, -8.61955070495605468750e+00) (28, -2.80958137512207031250e+01) (29, -3.84310379028320312500e+01) (30, -3.72957324981689453125e+00) (31, 1.82873401641845703125e+01) (32, -2.17244338989257812500e+01) (33, 2.16964507102966308594e+00) (34, 8.99597549438476562500e+00) (35, -6.86855363845825195312e+00) (36, 1.05398998260498046875e+01) (37, -1.97021312713623046875e+01) (38, 5.68798923492431640625e+00) (39, -3.23673391342163085938e+00) (40, -3.77010297775268554688e+00) (41, -4.64302122592926025391e-01) (42, -1.86691474914550781250e+00) (43, -1.61461486816406250000e+01) (44, -4.87694406509399414062e+00) (45, 1.88801956176757812500e+01) (46, 1.03795404434204101562e+01) (47, 1.02461309432983398438e+01) (48, -7.74612283706665039062e+00) (49, -8.71660709381103515625e-01) (50, 5.65954875946044921875e+00) (51, 1.43858547210693359375e+01) (52, -1.14344921112060546875e+01) (53, 2.41165809631347656250e+01) (54, -9.70639991760253906250e+00) (55, 1.50678691864013671875e+01) (56, 1.84392714500427246094e+00) (57, -1.91774338483810424805e-01) (58, 8.67596507072448730469e-01) (59, 1.53592574596405029297e+00) (60, 9.92182731628417968750e+00) (0, -5.76514196395874023438e+00) (1, 7.11545085906982421875e+00) (2, 7.61060476303100585938e+00) (3, 4.02776193618774414062e+00) (4, -1.98390293121337890625e+01) (5, -8.15419578552246093750e+00) (6, 8.93832397460937500000e+00) (7, -7.81345367431640625000e+00) (8, -6.94588279724121093750e+00) (9, 1.50577425956726074219e-01) (10, -1.01710534095764160156e+00) (11, 3.09008288383483886719e+00) (12, -1.89571647644042968750e+01) (13, -7.48503208160400390625e+00) (14, -1.18935356140136718750e+01) (15, 2.36786127090454101562e+00) (16, 8.78289794921875000000e+00) (17, -1.07917559146881103516e+00) (18, -6.02511692047119140625e+00) (19, -2.16827839612960815430e-01) (20, 1.28359441757202148438e+01) (21, 9.08685302734375000000e+00) (22, -1.52087306976318359375e+00) (23, 5.31602382659912109375e+00) (24, -7.19477939605712890625e+00) (25, 1.25385351181030273438e+01) (26, 2.47742538452148437500e+01) (27, 2.45103287696838378906e+00) (28, 1.26685590744018554688e+01) (29, -3.03494300842285156250e+01) (30, -2.73814582824707031250e+01) (31, -1.45369672775268554688e+00) (32, 1.14650173187255859375e+01) (33, 1.99049968719482421875e+01) (34, 2.01420135498046875000e+01) (35, -2.53540611267089843750e+00) (36, 2.02007217407226562500e+01) (37, -1.52695646286010742188e+01) (38, 1.95819358825683593750e+01) (39, -1.64630258083343505859e+00) (40, 2.26021003723144531250e+00) (41, -4.03905391693115234375e-01) (42, 5.64275836944580078125e+00) (43, 1.01996593475341796875e+01) (44, -2.02970237731933593750e+01) (45, 2.57614288330078125000e+01) (46, 6.96358919143676757812e+00) (47, 2.75246257781982421875e+01) (48, 7.14339780807495117188e+00) (49, -2.19021492004394531250e+01) (50, 7.04411506652832031250e+00) (51, -2.23590431213378906250e+01) (52, 3.55949096679687500000e+01) (53, -3.74695510864257812500e+01) (54, 1.29362545013427734375e+01) (55, 3.97866201400756835938e+00) (56, 8.21131324768066406250e+00) (57, -7.81235027313232421875e+00) (58, 6.75556993484497070312e+00) (59, 2.73088741302490234375e+00) (60, 8.15232086181640625000e+00) (61, 2.87521514892578125000e+01) (62, 1.33572273254394531250e+01) (63, -2.90391616821289062500e+01) (64, -2.25917911529541015625e+00) (65, -5.49163627624511718750e+00) (66, 1.16184949874877929688e+01) (67, -1.61315727233886718750e+01) (61, -2.05711269378662109375e+01) (62, 2.13891811370849609375e+01) (63, -1.16248607635498046875e+01) (64, 1.04979934692382812500e+01) (65, 2.46154346466064453125e+01) (66, -2.45178833007812500000e+01) (67, -3.53982124328613281250e+01) (61, -5.16618108749389648438e+00) (62, -4.64892816543579101562e+00) (63, 6.32932996749877929688e+00) (64, -3.51514053344726562500e+01) (65, 1.36515855789184570312e+00) (66, -9.80888175964355468750e+00) (67, 5.68083047866821289062e+00) (61, -1.47554807662963867188e+01) (62, -1.20685987472534179688e+01) (63, -1.38337650299072265625e+01) (64, -3.51339983940124511719e+00) (65, -1.25757274627685546875e+01) (66, 1.12763175964355468750e+01) (67, 3.11179370880126953125e+01) 
