FANN_FLO_2.1
num_layers=3
learning_rate=0.800000
connection_rate=1.000000
network_type=0
learning_momentum=0.000000
training_algorithm=0
train_error_function=1
train_stop_function=0
cascade_output_change_fraction=0.010000
quickprop_decay=-0.000100
quickprop_mu=1.750000
rprop_increase_factor=1.200000
rprop_decrease_factor=0.500000
rprop_delta_min=0.000000
rprop_delta_max=50.000000
rprop_delta_zero=0.100000
cascade_output_stagnation_epochs=12
cascade_candidate_change_fraction=0.010000
cascade_candidate_stagnation_epochs=12
cascade_max_out_epochs=150
cascade_min_out_epochs=50
cascade_max_cand_epochs=150
cascade_min_cand_epochs=50
cascade_num_candidate_groups=2
bit_fail_limit=3.49999994039535522461e-01
cascade_candidate_limit=1.00000000000000000000e+03
cascade_weight_multiplier=4.00000005960464477539e-01
cascade_activation_functions_count=10
cascade_activation_functions=3 5 7 8 10 11 14 15 16 17 
cascade_activation_steepnesses_count=4
cascade_activation_steepnesses=2.50000000000000000000e-01 5.00000000000000000000e-01 7.50000000000000000000e-01 1.00000000000000000000e+00 
layer_sizes=61 7 5 
scale_included=0
neurons (num_inputs, activation_function, activation_steepness)=(0, 0, 0.00000000000000000000e+00) (0, 0, 0.00000000000000000000e+00) (0, 0, 0.00000000000000000000e+00) (0, 0, 0.00000000000000000000e+00) (0, 0, 0.00000000000000000000e+00) (0, 0, 0.00000000000000000000e+00) (0, 0, 0.00000000000000000000e+00) (0, 0, 0.00000000000000000000e+00) (0, 0, 0.00000000000000000000e+00) (0, 0, 0.00000000000000000000e+00) (0, 0, 0.00000000000000000000e+00) (0, 0, 0.00000000000000000000e+00) (0, 0, 0.00000000000000000000e+00) (0, 0, 0.00000000000000000000e+00) (0, 0, 0.00000000000000000000e+00) (0, 0, 0.00000000000000000000e+00) (0, 0, 0.00000000000000000000e+00) (0, 0, 0.00000000000000000000e+00) (0, 0, 0.00000000000000000000e+00) (0, 0, 0.00000000000000000000e+00) (0, 0, 0.00000000000000000000e+00) (0, 0, 0.00000000000000000000e+00) (0, 0, 0.00000000000000000000e+00) (0, 0, 0.00000000000000000000e+00) (0, 0, 0.00000000000000000000e+00) (0, 0, 0.00000000000000000000e+00) (0, 0, 0.00000000000000000000e+00) (0, 0, 0.00000000000000000000e+00) (0, 0, 0.00000000000000000000e+00) (0, 0, 0.00000000000000000000e+00) (0, 0, 0.00000000000000000000e+00) (0, 0, 0.00000000000000000000e+00) (0, 0, 0.00000000000000000000e+00) (0, 0, 0.00000000000000000000e+00) (0, 0, 0.00000000000000000000e+00) (0, 0, 0.00000000000000000000e+00) (0, 0, 0.00000000000000000000e+00) (0, 0, 0.00000000000000000000e+00) (0, 0, 0.00000000000000000000e+00) (0, 0, 0.00000000000000000000e+00) (0, 0, 0.00000000000000000000e+00) (0, 0, 0.00000000000000000000e+00) (0, 0, 0.00000000000000000000e+00) (0, 0, 0.00000000000000000000e+00) (0, 0, 0.00000000000000000000e+00) (0, 0, 0.00000000000000000000e+00) (0, 0, 0.00000000000000000000e+00) (0, 0, 0.00000000000000000000e+00) (0, 0, 0.00000000000000000000e+00) (0, 0, 0.00000000000000000000e+00) (0, 0, 0.00000000000000000000e+00) (0, 0, 0.00000000000000000000e+00) (0, 0, 0.00000000000000000000e+00) (0, 0, 0.00000000000000000000e+00) (0, 0, 0.00000000000000000000e+00) (0, 0, 0.00000000000000000000e+00) (0, 0, 0.00000000000000000000e+00) (0, 0, 0.00000000000000000000e+00) (0, 0, 0.00000000000000000000e+00) (0, 0, 0.00000000000000000000e+00) (0, 0, 0.00000000000000000000e+00) (61, 3, 5.00000000000000000000e-01) (61, 3, 5.00000000000000000000e-01) (61, 3, 5.00000000000000000000e-01) (61, 3, 5.00000000000000000000e-01) (61, 3, 5.00000000000000000000e-01) (61, 3, 5.00000000000000000000e-01) (0, 3, 0.00000000000000000000e+00) (7, 3, 5.00000000000000000000e-01) (7, 3, 5.00000000000000000000e-01) (7, 3, 5.00000000000000000000e-01) (7, 3, 5.00000000000000000000e-01) (0, 3, 0.00000000000000000000e+00) 
connections (connected_to_neuron, weight)=(0, -1.80605163574218750000e+01) (1, 3.73572425842285156250e+01) (2, 2.10572719573974609375e+01) (3, 2.38254680633544921875e+01) (4, -1.34495077133178710938e+01) (5, 1.55709590911865234375e+01) (6, -1.13238067626953125000e+01) (7, 4.99967117309570312500e+01) (8, -2.41048574447631835938e+00) (9, 2.79457530975341796875e+01) (10, -9.04398560523986816406e-01) (11, -4.18319511413574218750e+01) (12, -5.33021450042724609375e+00) (13, -4.06724691390991210938e+00) (14, -6.39408493041992187500e+00) (15, 1.33584702014923095703e+00) (16, -3.22120487689971923828e-01) (17, -3.31023063659667968750e+01) (18, -2.59301605224609375000e+01) (19, 2.37239265441894531250e+01) (20, 8.32087230682373046875e+00) (21, 5.29362964630126953125e+00) (22, 4.27230453491210937500e+00) (23, 2.17744827270507812500e+01) (24, -1.06095576286315917969e+00) (25, 3.56388015747070312500e+01) (26, 4.72947061061859130859e-02) (27, -7.58660793304443359375e+00) (28, 1.27446527481079101562e+01) (29, -7.19725131988525390625e+00) (30, -9.81777429580688476562e-01) (31, -1.76643352508544921875e+01) (32, 3.44838409423828125000e+01) (33, -3.49769477844238281250e+01) (34, -2.14073610305786132812e+00) (35, 1.79377136230468750000e+01) (36, 1.91500720977783203125e+01) (37, -3.98402214050292968750e+01) (38, -3.07232952117919921875e+00) (39, -7.17194461822509765625e+00) (40, 3.21049857139587402344e+00) (41, 4.55731239318847656250e+01) (42, 4.16564788818359375000e+01) (43, -7.50795602798461914062e+00) (44, 4.63325843811035156250e+01) (45, -3.27971076965332031250e+00) (46, -1.61654853820800781250e+01) (47, 2.99021720886230468750e-01) (48, 9.29671859741210937500e+00) (49, -9.86353302001953125000e+00) (50, -1.26479902267456054688e+01) (51, 3.74762229919433593750e+01) (52, 1.80441169738769531250e+01) (53, 7.54422903060913085938e+00) (54, -2.42498397827148437500e+01) (55, -1.02625131607055664062e+01) (56, 6.92882061004638671875e-01) (57, -7.69381046295166015625e+00) (58, -8.48015499114990234375e+00) (59, 1.53668193817138671875e+01) (60, 9.73904991149902343750e+00) (0, 1.24203815460205078125e+01) (1, -1.64789981842041015625e+01) (2, 2.27862396240234375000e+01) (3, -4.69502401351928710938e+00) (4, -2.52497329711914062500e+01) (5, -2.42011241912841796875e+01) (6, 1.25057196617126464844e+00) (7, 1.13913202285766601562e+01) (8, -2.05529708862304687500e+01) (9, 2.74920482635498046875e+01) (10, -3.23023986816406250000e+01) (11, -3.05599365234375000000e+01) (12, -2.01205120086669921875e+01) (13, -6.31319618225097656250e+00) (14, 7.88490009307861328125e+00) (15, -8.82253456115722656250e+00) (16, 5.61285352706909179688e+00) (17, -2.98059978485107421875e+01) (18, -1.10415973663330078125e+01) (19, -1.97436690330505371094e+00) (20, 2.96293296813964843750e+01) (21, 1.82457900047302246094e+00) (22, 5.53583240509033203125e+00) (23, 3.62007064819335937500e+01) (24, 7.83906173706054687500e+00) (25, 1.22743549346923828125e+01) (26, -6.21359777450561523438e+00) (27, 6.73326950073242187500e+01) (28, 1.08127069473266601562e+00) (29, 1.39462528228759765625e+01) (30, 2.41498622894287109375e+01) (31, -2.13851337432861328125e+01) (32, 1.15159015655517578125e+01) (33, 3.22387428283691406250e+01) (34, -1.83150730133056640625e+01) (35, -2.23861370086669921875e+01) (36, -2.62852668762207031250e+01) (37, 6.07150220870971679688e+00) (38, -2.41378021240234375000e+00) (39, 2.49138336181640625000e+01) (40, 1.85548896789550781250e+01) (41, -6.33661031723022460938e+00) (42, -8.98073768615722656250e+00) (43, -2.05102157592773437500e+01) (44, 5.37658035755157470703e-01) (45, -6.75016021728515625000e+00) (46, -2.62408695220947265625e+01) (47, -2.28453540802001953125e+01) (48, 4.70423030853271484375e+00) (49, 2.17966270446777343750e+00) (50, -1.03128643035888671875e+01) (51, 9.90609741210937500000e+00) (52, -4.11380996704101562500e+01) (53, 2.73371171951293945312e+00) (54, -1.00088000297546386719e+00) (55, 1.62990798950195312500e+01) (56, -1.47675971984863281250e+01) (57, -1.33509073257446289062e+01) (58, 3.07799701690673828125e+01) (59, 3.03504490852355957031e+00) (60, -1.70562953948974609375e+01) (0, -4.15298700332641601562e-01) (1, 2.34100303649902343750e+01) (2, 2.29497470855712890625e+01) (3, 1.46901979446411132812e+01) (4, 1.88138923645019531250e+01) (5, -4.58167523145675659180e-01) (6, 2.32428722381591796875e+01) (7, 1.36131343841552734375e+01) (8, -5.64714813232421875000e+01) (9, 1.79229774475097656250e+01) (10, 5.93179359436035156250e+01) (11, -3.32959327697753906250e+01) (12, 3.75165009498596191406e+00) (13, -1.47864980697631835938e+01) (14, -1.87560768127441406250e+01) (15, -2.27413177490234375000e+01) (16, -1.30935440063476562500e+01) (17, -1.59987220764160156250e+01) (18, -3.31008110046386718750e+01) (19, -6.99361133575439453125e+00) (20, 3.68308454751968383789e-01) (21, -1.22191295623779296875e+01) (22, -2.31880645751953125000e+01) (23, 5.69551239013671875000e+01) (24, -1.05423831939697265625e+01) (25, 2.49576339721679687500e+01) (26, 1.87074775695800781250e+01) (27, -8.18006896972656250000e+00) (28, 2.80227699279785156250e+01) (29, -1.38645229339599609375e+01) (30, -1.44315481185913085938e+01) (31, 6.69263982772827148438e+00) (32, 5.99703836441040039062e+00) (33, -4.47590446472167968750e+00) (34, -2.63665008544921875000e+01) (35, 4.39740896224975585938e+00) (36, 5.30868959426879882812e+00) (37, 2.02238750457763671875e+01) (38, -4.36907081604003906250e+01) (39, 1.76540851593017578125e+01) (40, -2.67412352561950683594e+00) (41, 1.68766422271728515625e+01) (42, 8.67789363861083984375e+00) (43, -2.76140651702880859375e+01) (44, -3.25749540328979492188e+00) (45, 2.86601314544677734375e+01) (46, -1.72367210388183593750e+01) (47, 9.66862583160400390625e+00) (48, 9.59158134460449218750e+00) (49, -5.85133314132690429688e-01) (50, -1.89969654083251953125e+01) (51, 1.11143646240234375000e+01) (52, 7.10936450958251953125e+00) (53, 1.80530014038085937500e+01) (54, 9.90095901489257812500e+00) (55, -1.06931743621826171875e+01) (56, 5.61699295043945312500e+00) (57, 1.02470073699951171875e+01) (58, -9.42976570129394531250e+00) (59, -2.19630002975463867188e+00) (60, -6.18416404724121093750e+00) (0, 9.52566719055175781250e+00) (1, -1.53987388610839843750e+01) (2, -2.14115695953369140625e+01) (3, -2.08303737640380859375e+01) (4, -1.44606027603149414062e+01) (5, 1.44860153198242187500e+01) (6, 5.81213111877441406250e+01) (7, 2.40493984222412109375e+01) (8, 2.36906280517578125000e+01) (9, 2.09023284912109375000e+01) (10, -1.04721345901489257812e+01) (11, 1.01205425262451171875e+01) (12, -6.61499309539794921875e+00) (13, -2.21051483154296875000e+01) (14, -1.08829765319824218750e+01) (15, -3.13018989562988281250e+01) (16, 2.13742065429687500000e+01) (17, -8.23341655731201171875e+00) (18, 3.53888664245605468750e+01) (19, 4.54179878234863281250e+01) (20, 8.34362220764160156250e+00) (21, -1.48262109756469726562e+01) (22, 1.26090345382690429688e+01) (23, 2.92306365966796875000e+01) (24, -2.45033454895019531250e+00) (25, 1.00809288024902343750e+01) (26, 1.96390800476074218750e+01) (27, 9.41488265991210937500e+00) (28, -4.26042518615722656250e+01) (29, -4.59739379882812500000e+01) (30, 1.90787715911865234375e+01) (31, 2.54688186645507812500e+01) (32, 8.44118690490722656250e+00) (33, -4.47557115554809570312e+00) (34, -1.03077864646911621094e+00) (35, 1.27207393646240234375e+01) (36, 1.14899797439575195312e+01) (37, 2.34739532470703125000e+01) (38, 2.60029792785644531250e+01) (39, 9.63689208030700683594e-01) (40, -1.86901493072509765625e+01) (41, -1.07188301086425781250e+01) (42, -2.06776008605957031250e+01) (43, 3.32389717102050781250e+01) (44, -5.21309518814086914062e+00) (45, 6.86516666412353515625e+00) (46, -5.89072751998901367188e+00) (47, -1.17987413406372070312e+01) (48, -3.80473251342773437500e+01) (49, 1.59764108657836914062e+01) (50, -1.12343950271606445312e+01) (51, 7.50989437103271484375e+00) (52, -5.10287857055664062500e+00) (53, -3.84800863265991210938e+00) (54, -5.92311019897460937500e+01) (55, 2.33163280487060546875e+01) (56, 3.01203193664550781250e+01) (57, -3.67484588623046875000e+01) (58, 1.86008338928222656250e+01) (59, -2.26286768913269042969e+00) (60, 3.11777877807617187500e+01) (0, 1.93187389373779296875e+01) (1, 1.72704429626464843750e+01) (2, 2.40512580871582031250e+01) (3, -2.29645175933837890625e+01) (4, -2.29815807342529296875e+01) (5, -1.77811203002929687500e+01) (6, -3.69067497253417968750e+01) (7, -3.17272434234619140625e+01) (8, 1.90832443237304687500e+01) (9, 8.41435909271240234375e+00) (10, -3.07479476928710937500e+00) (11, 2.27319183349609375000e+01) (12, -2.92633295059204101562e+00) (13, 3.34250411987304687500e+01) (14, 1.31777391433715820312e+01) (15, 1.33521881103515625000e+01) (16, 3.46533536911010742188e+00) (17, -3.57546005249023437500e+01) (18, -6.82056331634521484375e+00) (19, -3.00463638305664062500e+01) (20, -8.25245285034179687500e+00) (21, -8.83243846893310546875e+00) (22, 4.12469062805175781250e+01) (23, -5.37378387451171875000e+01) (24, 9.11909866333007812500e+00) (25, -5.22473430633544921875e+00) (26, -2.65525951385498046875e+01) (27, 1.81310253143310546875e+01) (28, -2.17123928070068359375e+01) (29, -4.83653373718261718750e+01) (30, 4.60109233856201171875e+00) (31, 3.38794250488281250000e+01) (32, -2.75767564773559570312e-01) (33, -1.59278142452239990234e+00) (34, -1.16168127059936523438e+01) (35, 5.26904201507568359375e+00) (36, -3.68514108657836914062e+00) (37, 1.45107021331787109375e+01) (38, 1.31527638435363769531e+00) (39, 3.71085014343261718750e+01) (40, 2.34081983566284179688e+00) (41, -1.30691442489624023438e+01) (42, 3.41246490478515625000e+01) (43, -4.51436462402343750000e+01) (44, -1.36230301856994628906e+00) (45, 2.44537754058837890625e+01) (46, -8.18194293975830078125e+00) (47, 1.88890933990478515625e+01) (48, -6.57347059249877929688e+00) (49, -1.39023399353027343750e+00) (50, 8.13889503479003906250e+00) (51, 1.61407470703125000000e+01) (52, -1.61914844512939453125e+01) (53, 2.75711441040039062500e+01) (54, -4.59817581176757812500e+01) (55, -1.65356330871582031250e+01) (56, 4.97214508056640625000e+01) (57, -2.37048015594482421875e+01) (58, 2.22734222412109375000e+01) (59, -9.49886512756347656250e+00) (60, -9.50839996337890625000e+00) (0, -4.31655349731445312500e+01) (1, -2.13646907806396484375e+01) (2, -3.24338793754577636719e-01) (3, -5.23075675964355468750e+00) (4, 1.83188819885253906250e+01) (5, -1.39873476028442382812e+01) (6, 1.09131555557250976562e+01) (7, -4.93123321533203125000e+01) (8, 3.86029777526855468750e+01) (9, -1.24724197387695312500e+01) (10, 1.20857894420623779297e+00) (11, -3.36021041870117187500e+00) (12, -1.54217958450317382812e+01) (13, 1.93943443298339843750e+01) (14, -1.09240961074829101562e+00) (15, 4.07101974487304687500e+01) (16, -2.38899936676025390625e+01) (17, -1.74328289031982421875e+01) (18, -1.90368614196777343750e+01) (19, 3.28699874877929687500e+01) (20, -1.37232017517089843750e+01) (21, 1.64634532928466796875e+01) (22, -7.53917932510375976562e+00) (23, 2.76130466461181640625e+01) (24, -2.04131889343261718750e+01) (25, -1.45420322418212890625e+01) (26, -3.35486488342285156250e+01) (27, -2.44613647460937500000e+01) (28, -1.97556304931640625000e+01) (29, -8.33093833923339843750e+00) (30, 8.75432682037353515625e+00) (31, -2.12035923004150390625e+01) (32, -2.31062088012695312500e+01) (33, -2.43889369964599609375e+01) (34, -2.13152675628662109375e+01) (35, -7.29167175292968750000e+00) (36, -8.59214305877685546875e+00) (37, -6.00639343261718750000e+00) (38, 2.27888088226318359375e+01) (39, 1.08286638259887695312e+01) (40, 2.67126703262329101562e+00) (41, 2.35561513900756835938e+00) (42, 6.19673204421997070312e+00) (43, 1.12574124336242675781e+00) (44, 7.84768199920654296875e+00) (45, 2.28396835327148437500e+01) (46, 6.55304050445556640625e+00) (47, -2.97384796142578125000e+01) (48, 1.42807216644287109375e+01) (49, 1.21392116546630859375e+01) (50, 9.68615293502807617188e-01) (51, -2.43572769165039062500e+01) (52, 3.88753166198730468750e+01) (53, -3.03569755554199218750e+01) (54, 1.60675582885742187500e+01) (55, -6.81824326515197753906e-01) (56, -3.21285858154296875000e+01) (57, 4.70292758941650390625e+00) (58, -1.34760656356811523438e+01) (59, 9.76970434188842773438e-01) (60, 6.91705989837646484375e+00) (61, 1.56215357780456542969e+00) (62, 1.56355009078979492188e+01) (63, 9.93324947357177734375e+00) (64, -6.13770580291748046875e+00) (65, -2.38786048889160156250e+01) (66, -4.24696617126464843750e+01) (67, -1.87710514068603515625e+01) (61, 4.18651294708251953125e+00) (62, 5.33200645446777343750e+00) (63, -4.49432525634765625000e+01) (64, 1.92205448150634765625e+01) (65, 2.24657135009765625000e+01) (66, -2.29328670501708984375e+01) (67, -4.96602630615234375000e+00) (61, -3.82491874694824218750e+01) (62, 4.06968917846679687500e+01) (63, -1.79039180278778076172e-01) (64, 8.40282058715820312500e+00) (65, -8.16621208190917968750e+00) (66, -2.37751865386962890625e+00) (67, -1.71076221466064453125e+01) (61, -2.54713592529296875000e+01) (62, -1.62443053722381591797e+00) (63, -2.10077133178710937500e+01) (64, 1.88710765838623046875e+01) (65, -2.59498519897460937500e+01) (66, 3.88215942382812500000e+01) (67, -9.08903408050537109375e+00) 
