FANN_FLO_2.1
num_layers=3
learning_rate=0.800000
connection_rate=1.000000
network_type=0
learning_momentum=0.000000
training_algorithm=0
train_error_function=1
train_stop_function=0
cascade_output_change_fraction=0.010000
quickprop_decay=-0.000100
quickprop_mu=1.750000
rprop_increase_factor=1.200000
rprop_decrease_factor=0.500000
rprop_delta_min=0.000000
rprop_delta_max=50.000000
rprop_delta_zero=0.100000
cascade_output_stagnation_epochs=12
cascade_candidate_change_fraction=0.010000
cascade_candidate_stagnation_epochs=12
cascade_max_out_epochs=150
cascade_min_out_epochs=50
cascade_max_cand_epochs=150
cascade_min_cand_epochs=50
cascade_num_candidate_groups=2
bit_fail_limit=3.49999994039535522461e-01
cascade_candidate_limit=1.00000000000000000000e+03
cascade_weight_multiplier=4.00000005960464477539e-01
cascade_activation_functions_count=10
cascade_activation_functions=3 5 7 8 10 11 14 15 16 17 
cascade_activation_steepnesses_count=4
cascade_activation_steepnesses=2.50000000000000000000e-01 5.00000000000000000000e-01 7.50000000000000000000e-01 1.00000000000000000000e+00 
layer_sizes=61 7 5 
scale_included=0
neurons (num_inputs, activation_function, activation_steepness)=(0, 0, 0.00000000000000000000e+00) (0, 0, 0.00000000000000000000e+00) (0, 0, 0.00000000000000000000e+00) (0, 0, 0.00000000000000000000e+00) (0, 0, 0.00000000000000000000e+00) (0, 0, 0.00000000000000000000e+00) (0, 0, 0.00000000000000000000e+00) (0, 0, 0.00000000000000000000e+00) (0, 0, 0.00000000000000000000e+00) (0, 0, 0.00000000000000000000e+00) (0, 0, 0.00000000000000000000e+00) (0, 0, 0.00000000000000000000e+00) (0, 0, 0.00000000000000000000e+00) (0, 0, 0.00000000000000000000e+00) (0, 0, 0.00000000000000000000e+00) (0, 0, 0.00000000000000000000e+00) (0, 0, 0.00000000000000000000e+00) (0, 0, 0.00000000000000000000e+00) (0, 0, 0.00000000000000000000e+00) (0, 0, 0.00000000000000000000e+00) (0, 0, 0.00000000000000000000e+00) (0, 0, 0.00000000000000000000e+00) (0, 0, 0.00000000000000000000e+00) (0, 0, 0.00000000000000000000e+00) (0, 0, 0.00000000000000000000e+00) (0, 0, 0.00000000000000000000e+00) (0, 0, 0.00000000000000000000e+00) (0, 0, 0.00000000000000000000e+00) (0, 0, 0.00000000000000000000e+00) (0, 0, 0.00000000000000000000e+00) (0, 0, 0.00000000000000000000e+00) (0, 0, 0.00000000000000000000e+00) (0, 0, 0.00000000000000000000e+00) (0, 0, 0.00000000000000000000e+00) (0, 0, 0.00000000000000000000e+00) (0, 0, 0.00000000000000000000e+00) (0, 0, 0.00000000000000000000e+00) (0, 0, 0.00000000000000000000e+00) (0, 0, 0.00000000000000000000e+00) (0, 0, 0.00000000000000000000e+00) (0, 0, 0.00000000000000000000e+00) (0, 0, 0.00000000000000000000e+00) (0, 0, 0.00000000000000000000e+00) (0, 0, 0.00000000000000000000e+00) (0, 0, 0.00000000000000000000e+00) (0, 0, 0.00000000000000000000e+00) (0, 0, 0.00000000000000000000e+00) (0, 0, 0.00000000000000000000e+00) (0, 0, 0.00000000000000000000e+00) (0, 0, 0.00000000000000000000e+00) (0, 0, 0.00000000000000000000e+00) (0, 0, 0.00000000000000000000e+00) (0, 0, 0.00000000000000000000e+00) (0, 0, 0.00000000000000000000e+00) (0, 0, 0.00000000000000000000e+00) (0, 0, 0.00000000000000000000e+00) (0, 0, 0.00000000000000000000e+00) (0, 0, 0.00000000000000000000e+00) (0, 0, 0.00000000000000000000e+00) (0, 0, 0.00000000000000000000e+00) (0, 0, 0.00000000000000000000e+00) (61, 3, 5.00000000000000000000e-01) (61, 3, 5.00000000000000000000e-01) (61, 3, 5.00000000000000000000e-01) (61, 3, 5.00000000000000000000e-01) (61, 3, 5.00000000000000000000e-01) (61, 3, 5.00000000000000000000e-01) (0, 3, 0.00000000000000000000e+00) (7, 3, 5.00000000000000000000e-01) (7, 3, 5.00000000000000000000e-01) (7, 3, 5.00000000000000000000e-01) (7, 3, 5.00000000000000000000e-01) (0, 3, 0.00000000000000000000e+00) 
connections (connected_to_neuron, weight)=(0, -6.30098581314086914062e+00) (1, 3.10647792816162109375e+01) (2, 1.88774662017822265625e+01) (3, 3.25652351379394531250e+01) (4, -1.98739166259765625000e+01) (5, -6.42752349376678466797e-01) (6, -3.95960855484008789062e+00) (7, 4.62839164733886718750e+01) (8, 4.31745529174804687500e+00) (9, 1.80790977478027343750e+01) (10, 6.70246601104736328125e-01) (11, -3.61986007690429687500e+01) (12, -1.13955564498901367188e+01) (13, 6.51938724517822265625e+00) (14, 1.55115566253662109375e+01) (15, 7.91896200180053710938e+00) (16, -1.23015823364257812500e+01) (17, -3.29982070922851562500e+01) (18, -1.72038745880126953125e+01) (19, 2.12787799835205078125e+01) (20, 1.34868679046630859375e+01) (21, -6.22458410263061523438e+00) (22, 1.28375606536865234375e+01) (23, 1.74809589385986328125e+01) (24, -2.03983879089355468750e+00) (25, 2.65060558319091796875e+01) (26, -1.87052021026611328125e+01) (27, -2.25284500122070312500e+01) (28, 9.73822116851806640625e+00) (29, -1.92274684906005859375e+01) (30, -1.07192444801330566406e+00) (31, -1.60280570983886718750e+01) (32, 1.84062671661376953125e+01) (33, -2.64473972320556640625e+01) (34, 3.23573708534240722656e+00) (35, -1.23092746734619140625e+00) (36, 1.39433279037475585938e+01) (37, -2.67106533050537109375e+01) (38, -6.51008319854736328125e+00) (39, 1.61356139183044433594e+00) (40, -3.16793775558471679688e+00) (41, 4.61804885864257812500e+01) (42, 2.49690723419189453125e+01) (43, -1.22574281692504882812e+00) (44, 4.93406219482421875000e+01) (45, -2.88569641113281250000e+00) (46, -6.62933301925659179688e+00) (47, 7.94490814208984375000e+00) (48, 6.58044195175170898438e+00) (49, -7.86145401000976562500e+00) (50, -1.52575111389160156250e+01) (51, 1.92390747070312500000e+01) (52, 1.84393997192382812500e+01) (53, 1.23295135498046875000e+01) (54, -2.24244441986083984375e+01) (55, -2.20398502349853515625e+01) (56, -2.30654263496398925781e+00) (57, -2.39269065856933593750e+01) (58, -1.53731136322021484375e+01) (59, 7.04599142074584960938e+00) (60, 5.35425186157226562500e+00) (0, 1.26524524688720703125e+01) (1, -2.68593940734863281250e+01) (2, -7.02277946472167968750e+00) (3, -3.37815475463867187500e+00) (4, -2.52859172821044921875e+01) (5, -1.67859287261962890625e+01) (6, -8.82941818237304687500e+00) (7, -5.43149292469024658203e-01) (8, -2.95324935913085937500e+01) (9, -5.67193031311035156250e-02) (10, -2.00195446014404296875e+01) (11, -2.18618774414062500000e+01) (12, 8.03761768341064453125e+00) (13, 3.13525772094726562500e+00) (14, -2.50690889358520507812e+00) (15, 2.04675292968750000000e+00) (16, -1.89131450653076171875e+01) (17, -2.18132247924804687500e+01) (18, 5.44248390197753906250e+00) (19, -2.02773284912109375000e+00) (20, 6.43903732299804687500e+00) (21, -4.05194473266601562500e+00) (22, 1.26213960647583007812e+01) (23, 2.69014644622802734375e+01) (24, 1.59198675155639648438e+01) (25, 6.18816852569580078125e+00) (26, -7.49376010894775390625e+00) (27, 4.91274757385253906250e+01) (28, 8.27887916564941406250e+00) (29, 1.75623054504394531250e+01) (30, 8.00702095031738281250e+00) (31, -2.55983924865722656250e+01) (32, -1.00157296657562255859e+00) (33, 1.83984546661376953125e+01) (34, -1.01250886917114257812e+01) (35, 1.13279275894165039062e+01) (36, -2.24843406677246093750e+01) (37, 5.82436752319335937500e+00) (38, -1.46899929046630859375e+01) (39, 2.27022418975830078125e+01) (40, 2.55834560394287109375e+01) (41, 2.04373874664306640625e+01) (42, 8.13464283943176269531e-01) (43, -1.37872934341430664062e+01) (44, -4.15850543975830078125e+00) (45, -4.68215274810791015625e+00) (46, -1.98812408447265625000e+01) (47, -2.54796981811523437500e+01) (48, -2.64761409759521484375e+01) (49, -7.08221530914306640625e+00) (50, 1.17572736740112304688e+00) (51, -4.10425949096679687500e+00) (52, -3.29720153808593750000e+01) (53, 1.15529785156250000000e+01) (54, -1.17725868225097656250e+01) (55, -7.63400697708129882812e+00) (56, 2.62326216697692871094e+00) (57, -1.24899940490722656250e+01) (58, 3.13396415710449218750e+01) (59, 1.18123741149902343750e+01) (60, 1.18723201751708984375e+01) (0, -6.97885799407958984375e+00) (1, 2.24787540435791015625e+01) (2, -2.22850942611694335938e+00) (3, -3.06968069076538085938e+00) (4, 2.41966247558593750000e+01) (5, -6.79824924468994140625e+00) (6, 1.46818714141845703125e+01) (7, 2.43701934814453125000e+01) (8, -3.86262130737304687500e+01) (9, 2.82211971282958984375e+01) (10, 4.75807647705078125000e+01) (11, -2.40507926940917968750e+01) (12, -3.33100342750549316406e+00) (13, 4.35869598388671875000e+00) (14, -2.26733150482177734375e+01) (15, 1.61720037460327148438e-01) (16, -1.99247493743896484375e+01) (17, -4.42444038391113281250e+00) (18, -2.52122116088867187500e+01) (19, -2.46049766540527343750e+01) (20, -1.39262237548828125000e+01) (21, -1.16088695526123046875e+01) (22, -2.39767131805419921875e+01) (23, 5.30880241394042968750e+01) (24, -1.63452186584472656250e+01) (25, 2.70044727325439453125e+01) (26, 1.09768857955932617188e+01) (27, 6.61917924880981445312e+00) (28, 3.10941267013549804688e+00) (29, -1.93530731201171875000e+01) (30, -1.45305900573730468750e+01) (31, 3.01031112670898437500e+00) (32, -5.61521053314208984375e-01) (33, 1.77367820739746093750e+01) (34, -1.01136093139648437500e+01) (35, 4.52875661849975585938e+00) (36, -8.08055686950683593750e+00) (37, 1.26103458404541015625e+01) (38, -2.96854801177978515625e+01) (39, 1.87461757659912109375e+01) (40, 1.34192800521850585938e+01) (41, 2.44659080505371093750e+01) (42, -6.55241966247558593750e+00) (43, -1.79462776184082031250e+01) (44, -6.41429185867309570312e-01) (45, 3.05377922058105468750e+01) (46, -1.68814659118652343750e-02) (47, 9.26054191589355468750e+00) (48, -8.35714626312255859375e+00) (49, -1.51767530441284179688e+01) (50, 2.90649533271789550781e+00) (51, 2.37662482261657714844e+00) (52, 3.18126392364501953125e+00) (53, 2.00263290405273437500e+01) (54, -5.73035001754760742188e-01) (55, -1.40303764343261718750e+01) (56, -4.45226573944091796875e+00) (57, -1.55050337314605712891e+00) (58, 3.60345172882080078125e+00) (59, -6.67574119567871093750e+00) (60, -3.54390799999237060547e-01) (0, 6.68502664566040039062e+00) (1, -2.08881225585937500000e+01) (2, -1.55219573974609375000e+01) (3, -1.55188970565795898438e+01) (4, -2.51284027099609375000e+01) (5, 3.42097187042236328125e+00) (6, 2.65593051910400390625e+01) (7, 1.40291156768798828125e+01) (8, 2.69321861267089843750e+01) (9, 1.04403371810913085938e+01) (10, 1.20531959533691406250e+01) (11, 2.45859699249267578125e+01) (12, -1.07471246719360351562e+01) (13, -1.23530559539794921875e+01) (14, -2.50608425140380859375e+01) (15, -4.76773910522460937500e+01) (16, -7.74280190467834472656e-01) (17, -9.16402578353881835938e-01) (18, 3.41340026855468750000e+01) (19, 1.43744335174560546875e+01) (20, -1.17334337234497070312e+01) (21, -1.76212692260742187500e+01) (22, 2.80284690856933593750e+01) (23, 3.36963729858398437500e+01) (24, -7.13663959503173828125e+00) (25, 2.75949020385742187500e+01) (26, 1.07459049224853515625e+01) (27, 4.86317920684814453125e+00) (28, -2.62488250732421875000e+01) (29, -3.15281772613525390625e+01) (30, -2.23529887199401855469e+00) (31, 1.34480857849121093750e+01) (32, 9.73581886291503906250e+00) (33, 1.96085476875305175781e+00) (34, 3.68297338485717773438e+00) (35, -1.37547504901885986328e+00) (36, 1.34403038024902343750e+01) (37, -1.19360580444335937500e+01) (38, 3.18118572235107421875e+00) (39, -2.70279693603515625000e+00) (40, -1.72607460021972656250e+01) (41, -1.49730901718139648438e+01) (42, -4.56937551498413085938e+00) (43, 2.10081882476806640625e+01) (44, 1.34452533721923828125e+01) (45, 1.27937431335449218750e+01) (46, 1.06612453460693359375e+01) (47, -1.36091737747192382812e+01) (48, -4.41316070556640625000e+01) (49, 1.52942161560058593750e+01) (50, 1.98826301097869873047e+00) (51, 6.73904037475585937500e+00) (52, 7.85263252258300781250e+00) (53, -1.30010375976562500000e+01) (54, -4.45331077575683593750e+01) (55, 2.11334609985351562500e+01) (56, 1.50014200210571289062e+01) (57, -2.50749435424804687500e+01) (58, 7.85668373107910156250e+00) (59, -1.31696748733520507812e+01) (60, 1.90829944610595703125e+01) (0, 3.81566357612609863281e+00) (1, 2.46978015899658203125e+01) (2, 1.30897331237792968750e+01) (3, -3.72084388732910156250e+01) (4, -2.32697181701660156250e+01) (5, -1.71312236785888671875e+01) (6, -3.85744743347167968750e+01) (7, -2.48108139038085937500e+01) (8, 9.71686935424804687500e+00) (9, 9.49375152587890625000e+00) (10, 1.18110027313232421875e+01) (11, 2.06638965606689453125e+01) (12, 3.18282508850097656250e+00) (13, 1.63766021728515625000e+01) (14, 1.10846548080444335938e+01) (15, 1.45543231964111328125e+01) (16, -5.66327476501464843750e+00) (17, -4.93489341735839843750e+01) (18, -1.35885536670684814453e+00) (19, -2.62423820495605468750e+01) (20, -1.64863204956054687500e+00) (21, -9.59244441986083984375e+00) (22, 3.38771057128906250000e+01) (23, -4.03951072692871093750e+01) (24, 1.63305301666259765625e+01) (25, -9.40389728546142578125e+00) (26, -2.61357631683349609375e+01) (27, 1.01550722122192382812e+01) (28, -3.56760673522949218750e+01) (29, -3.45189132690429687500e+01) (30, -6.99283075332641601562e+00) (31, 2.63385677337646484375e+01) (32, -3.93403387069702148438e+00) (33, 1.47333610057830810547e+00) (34, -8.93736076354980468750e+00) (35, 7.69117355346679687500e-01) (36, -5.53804111480712890625e+00) (37, 1.77508087158203125000e+01) (38, -5.84815979003906250000e+00) (39, 4.15065040588378906250e+01) (40, 1.32527065277099609375e+01) (41, -2.28810310363769531250e+01) (42, 1.93271465301513671875e+01) (43, -4.80612564086914062500e+01) (44, 5.69250822067260742188e+00) (45, 2.71340808868408203125e+01) (46, 9.67472672462463378906e-01) (47, 3.48870801925659179688e+00) (48, -1.01137857437133789062e+01) (49, 5.18732452392578125000e+00) (50, 2.55311222076416015625e+01) (51, 9.99908924102783203125e+00) (52, -2.51600227355957031250e+01) (53, 6.68933010101318359375e+00) (54, -3.86296768188476562500e+01) (55, -1.36850080490112304688e+01) (56, 5.08125572204589843750e+01) (57, -1.59972190856933593750e+01) (58, 2.60675277709960937500e+01) (59, -1.19485187530517578125e+01) (60, -1.31614465713500976562e+01) (0, -4.13151702880859375000e+01) (1, -1.73521480560302734375e+01) (2, 1.97939395904541015625e+01) (3, -1.90489730834960937500e+01) (4, 1.20895814895629882812e+01) (5, -1.62014312744140625000e+01) (6, 8.41005706787109375000e+00) (7, -3.29894180297851562500e+01) (8, 3.22211074829101562500e+01) (9, -1.49434165954589843750e+01) (10, -6.20655679702758789062e+00) (11, 3.96679282188415527344e+00) (12, 4.58574390411376953125e+00) (13, -6.49931812286376953125e+00) (14, -3.25213980674743652344e+00) (15, 3.70269889831542968750e+01) (16, -3.14353904724121093750e+01) (17, -1.75307655334472656250e+01) (18, -3.05610227584838867188e+00) (19, 3.41921348571777343750e+01) (20, -2.21168022155761718750e+01) (21, 6.36152267456054687500e+00) (22, -1.18437223434448242188e+01) (23, 1.15319786071777343750e+01) (24, -1.64202346801757812500e+01) (25, -1.03500699996948242188e+01) (26, -1.91446819305419921875e+01) (27, -3.43173103332519531250e+01) (28, -1.70898189544677734375e+01) (29, 2.63534355163574218750e+00) (30, 1.04324359893798828125e+01) (31, -1.88432579040527343750e+01) (32, -3.08205528259277343750e+01) (33, -4.20518398284912109375e+00) (34, -7.31058549880981445312e+00) (35, 5.03688573837280273438e-01) (36, -2.44112358093261718750e+01) (37, -1.82481613159179687500e+01) (38, 2.54067249298095703125e+01) (39, 2.24348087310791015625e+01) (40, -2.22401142120361328125e+01) (41, 1.79904627799987792969e+00) (42, 3.07615518569946289062e+00) (43, 1.17960433959960937500e+01) (44, -3.77268481254577636719e+00) (45, 9.01167583465576171875e+00) (46, 1.82170867919921875000e-01) (47, -2.84542160034179687500e+01) (48, 2.00164051055908203125e+01) (49, -3.82546019554138183594e+00) (50, -3.35305452346801757812e+00) (51, -1.10173110961914062500e+01) (52, 3.44861183166503906250e+01) (53, -1.66692695617675781250e+01) (54, 7.83385694026947021484e-01) (55, 1.27848358154296875000e+01) (56, -1.75526466369628906250e+01) (57, 5.09874773025512695312e+00) (58, -1.05408544540405273438e+01) (59, 2.19385004043579101562e+00) (60, -2.77504968643188476562e+00) (61, 5.43875265121459960938e+00) (62, 1.38681955337524414062e+01) (63, 1.17003612518310546875e+01) (64, -7.45908451080322265625e+00) (65, -1.38585853576660156250e+01) (66, -3.76157951354980468750e+01) (67, -1.39261341094970703125e+01) (61, -1.43859818577766418457e-01) (62, 2.80540370941162109375e+01) (63, -4.17482490539550781250e+01) (64, 1.73691463470458984375e+01) (65, 1.04090700149536132812e+01) (66, -1.33353691101074218750e+01) (67, -7.61916112899780273438e+00) (61, -3.48865966796875000000e+01) (62, 2.21983394622802734375e+01) (63, 2.86510014533996582031e+00) (64, -4.71958637237548828125e-01) (65, 2.13918638229370117188e+00) (66, -3.60978507995605468750e+00) (67, -1.17665624618530273438e+00) (61, -1.96403903961181640625e+01) (62, -2.48511219024658203125e+00) (63, -1.11690177917480468750e+01) (64, 1.33995342254638671875e+01) (65, -8.32083320617675781250e+00) (66, 2.95713844299316406250e+01) (67, -4.02876758575439453125e+00) 
