FANN_FLO_2.1
num_layers=3
learning_rate=0.800000
connection_rate=1.000000
network_type=0
learning_momentum=0.000000
training_algorithm=0
train_error_function=1
train_stop_function=0
cascade_output_change_fraction=0.010000
quickprop_decay=-0.000100
quickprop_mu=1.750000
rprop_increase_factor=1.200000
rprop_decrease_factor=0.500000
rprop_delta_min=0.000000
rprop_delta_max=50.000000
rprop_delta_zero=0.100000
cascade_output_stagnation_epochs=12
cascade_candidate_change_fraction=0.010000
cascade_candidate_stagnation_epochs=12
cascade_max_out_epochs=150
cascade_min_out_epochs=50
cascade_max_cand_epochs=150
cascade_min_cand_epochs=50
cascade_num_candidate_groups=2
bit_fail_limit=3.49999994039535522461e-01
cascade_candidate_limit=1.00000000000000000000e+03
cascade_weight_multiplier=4.00000005960464477539e-01
cascade_activation_functions_count=10
cascade_activation_functions=3 5 7 8 10 11 14 15 16 17 
cascade_activation_steepnesses_count=4
cascade_activation_steepnesses=2.50000000000000000000e-01 5.00000000000000000000e-01 7.50000000000000000000e-01 1.00000000000000000000e+00 
layer_sizes=61 7 5 
scale_included=0
neurons (num_inputs, activation_function, activation_steepness)=(0, 0, 0.00000000000000000000e+00) (0, 0, 0.00000000000000000000e+00) (0, 0, 0.00000000000000000000e+00) (0, 0, 0.00000000000000000000e+00) (0, 0, 0.00000000000000000000e+00) (0, 0, 0.00000000000000000000e+00) (0, 0, 0.00000000000000000000e+00) (0, 0, 0.00000000000000000000e+00) (0, 0, 0.00000000000000000000e+00) (0, 0, 0.00000000000000000000e+00) (0, 0, 0.00000000000000000000e+00) (0, 0, 0.00000000000000000000e+00) (0, 0, 0.00000000000000000000e+00) (0, 0, 0.00000000000000000000e+00) (0, 0, 0.00000000000000000000e+00) (0, 0, 0.00000000000000000000e+00) (0, 0, 0.00000000000000000000e+00) (0, 0, 0.00000000000000000000e+00) (0, 0, 0.00000000000000000000e+00) (0, 0, 0.00000000000000000000e+00) (0, 0, 0.00000000000000000000e+00) (0, 0, 0.00000000000000000000e+00) (0, 0, 0.00000000000000000000e+00) (0, 0, 0.00000000000000000000e+00) (0, 0, 0.00000000000000000000e+00) (0, 0, 0.00000000000000000000e+00) (0, 0, 0.00000000000000000000e+00) (0, 0, 0.00000000000000000000e+00) (0, 0, 0.00000000000000000000e+00) (0, 0, 0.00000000000000000000e+00) (0, 0, 0.00000000000000000000e+00) (0, 0, 0.00000000000000000000e+00) (0, 0, 0.00000000000000000000e+00) (0, 0, 0.00000000000000000000e+00) (0, 0, 0.00000000000000000000e+00) (0, 0, 0.00000000000000000000e+00) (0, 0, 0.00000000000000000000e+00) (0, 0, 0.00000000000000000000e+00) (0, 0, 0.00000000000000000000e+00) (0, 0, 0.00000000000000000000e+00) (0, 0, 0.00000000000000000000e+00) (0, 0, 0.00000000000000000000e+00) (0, 0, 0.00000000000000000000e+00) (0, 0, 0.00000000000000000000e+00) (0, 0, 0.00000000000000000000e+00) (0, 0, 0.00000000000000000000e+00) (0, 0, 0.00000000000000000000e+00) (0, 0, 0.00000000000000000000e+00) (0, 0, 0.00000000000000000000e+00) (0, 0, 0.00000000000000000000e+00) (0, 0, 0.00000000000000000000e+00) (0, 0, 0.00000000000000000000e+00) (0, 0, 0.00000000000000000000e+00) (0, 0, 0.00000000000000000000e+00) (0, 0, 0.00000000000000000000e+00) (0, 0, 0.00000000000000000000e+00) (0, 0, 0.00000000000000000000e+00) (0, 0, 0.00000000000000000000e+00) (0, 0, 0.00000000000000000000e+00) (0, 0, 0.00000000000000000000e+00) (0, 0, 0.00000000000000000000e+00) (61, 3, 5.00000000000000000000e-01) (61, 3, 5.00000000000000000000e-01) (61, 3, 5.00000000000000000000e-01) (61, 3, 5.00000000000000000000e-01) (61, 3, 5.00000000000000000000e-01) (61, 3, 5.00000000000000000000e-01) (0, 3, 0.00000000000000000000e+00) (7, 3, 5.00000000000000000000e-01) (7, 3, 5.00000000000000000000e-01) (7, 3, 5.00000000000000000000e-01) (7, 3, 5.00000000000000000000e-01) (0, 3, 0.00000000000000000000e+00) 
connections (connected_to_neuron, weight)=(0, -1.90391845703125000000e+01) (1, 4.42895545959472656250e+01) (2, 1.89107456207275390625e+01) (3, 2.82399787902832031250e+01) (4, -1.34491386413574218750e+01) (5, 1.93203086853027343750e+01) (6, -1.46785411834716796875e+01) (7, 4.84082412719726562500e+01) (8, 4.62475395202636718750e+00) (9, 2.45725345611572265625e+01) (10, 8.96432757377624511719e-01) (11, -3.84232482910156250000e+01) (12, -9.01190280914306640625e+00) (13, -5.44676494598388671875e+00) (14, -6.27831649780273437500e+00) (15, -4.44284498691558837891e-01) (16, -7.38639771938323974609e-01) (17, -3.50117340087890625000e+01) (18, -2.80830554962158203125e+01) (19, 2.89430446624755859375e+01) (20, 1.80542325973510742188e+00) (21, -1.65469801425933837891e+00) (22, 1.05485830307006835938e+01) (23, 2.46165885925292968750e+01) (24, -2.60292458534240722656e+00) (25, 3.51532745361328125000e+01) (26, 3.88746595382690429688e+00) (27, -1.68639297485351562500e+01) (28, 1.40313377380371093750e+01) (29, -1.28922052383422851562e+01) (30, 4.09773111343383789062e+00) (31, -1.68119850158691406250e+01) (32, 3.21473007202148437500e+01) (33, -2.69845161437988281250e+01) (34, -4.03515195846557617188e+00) (35, 1.79545459747314453125e+01) (36, 1.53384380340576171875e+01) (37, -4.05065231323242187500e+01) (38, -2.59508562088012695312e+00) (39, -4.78806543350219726562e+00) (40, 3.08358192443847656250e+00) (41, 4.50719757080078125000e+01) (42, 3.80550270080566406250e+01) (43, -7.51666545867919921875e+00) (44, 5.03877754211425781250e+01) (45, 2.23191738128662109375e-01) (46, -1.46847028732299804688e+01) (47, 4.40010452270507812500e+00) (48, 8.70416545867919921875e+00) (49, -3.94536280632019042969e+00) (50, -1.32613697052001953125e+01) (51, 3.11398658752441406250e+01) (52, 1.28328609466552734375e+01) (53, 6.35467481613159179688e+00) (54, -1.91293144226074218750e+01) (55, -1.14867916107177734375e+01) (56, 3.85857462882995605469e+00) (57, -9.67523193359375000000e+00) (58, -7.03226375579833984375e+00) (59, 1.51763391494750976562e+01) (60, 1.01078052520751953125e+01) (0, 1.24827442169189453125e+01) (1, -1.52705545425415039062e+01) (2, 2.41267261505126953125e+01) (3, -5.33130764961242675781e-01) (4, -2.38503723144531250000e+01) (5, -2.67528896331787109375e+01) (6, 5.93976879119873046875e+00) (7, 1.37445869445800781250e+01) (8, -1.77672481536865234375e+01) (9, 2.59985485076904296875e+01) (10, -2.78766040802001953125e+01) (11, -2.94283676147460937500e+01) (12, -1.83927936553955078125e+01) (13, -7.76487731933593750000e+00) (14, 8.48908805847167968750e+00) (15, -3.19087386131286621094e+00) (16, 9.56763076782226562500e+00) (17, -2.97933578491210937500e+01) (18, -5.72586011886596679688e+00) (19, 2.55197262763977050781e+00) (20, 2.68704166412353515625e+01) (21, 5.47425317764282226562e+00) (22, 1.26020383834838867188e+00) (23, 3.30721206665039062500e+01) (24, 1.19666795730590820312e+01) (25, 4.91082859039306640625e+00) (26, -4.85055494308471679688e+00) (27, 6.60949630737304687500e+01) (28, 1.08099164962768554688e+01) (29, 5.21955585479736328125e+00) (30, 2.41498622894287109375e+01) (31, -2.28960800170898437500e+01) (32, 5.80335712432861328125e+00) (33, 2.85683269500732421875e+01) (34, -2.06466865539550781250e+01) (35, -2.04245300292968750000e+01) (36, -2.54073486328125000000e+01) (37, 1.21977138519287109375e+01) (38, -4.02509689331054687500e+00) (39, 2.85947551727294921875e+01) (40, 1.72703781127929687500e+01) (41, -8.84737586975097656250e+00) (42, -9.55809116363525390625e+00) (43, -1.88782653808593750000e+01) (44, 1.53290116786956787109e+00) (45, -6.64891815185546875000e+00) (46, -3.39159622192382812500e+01) (47, -2.28464965820312500000e+01) (48, -1.33981895446777343750e+00) (49, 3.16476941108703613281e-01) (50, -7.59320449829101562500e+00) (51, 1.06911697387695312500e+01) (52, -3.20787544250488281250e+01) (53, 6.73170518875122070312e+00) (54, 5.35726690292358398438e+00) (55, 8.83572006225585937500e+00) (56, -1.53658447265625000000e+01) (57, -1.38035335540771484375e+01) (58, 3.11566696166992187500e+01) (59, -1.97062087059020996094e+00) (60, -1.22259759902954101562e+01) (0, -1.35081553459167480469e+00) (1, 2.56402912139892578125e+01) (2, 1.62438278198242187500e+01) (3, 1.12805423736572265625e+01) (4, 1.92595119476318359375e+01) (5, -2.99330854415893554688e+00) (6, 1.96997680664062500000e+01) (7, 1.38359079360961914062e+01) (8, -5.56187782287597656250e+01) (9, 1.60836467742919921875e+01) (10, 6.03878021240234375000e+01) (11, -3.11116943359375000000e+01) (12, 1.20216631889343261719e+00) (13, -1.50417118072509765625e+01) (14, -1.46574497222900390625e+01) (15, -2.12472076416015625000e+01) (16, -1.73617458343505859375e+01) (17, -1.31976671218872070312e+01) (18, -3.36352844238281250000e+01) (19, -1.02987260818481445312e+01) (20, -1.14343583583831787109e+00) (21, -1.29631338119506835938e+01) (22, -1.98632411956787109375e+01) (23, 6.26889610290527343750e+01) (24, -1.47443542480468750000e+01) (25, 2.32650890350341796875e+01) (26, 1.70920619964599609375e+01) (27, -1.03908901214599609375e+01) (28, 2.93198852539062500000e+01) (29, -1.39558267593383789062e+01) (30, -1.02217311859130859375e+01) (31, 8.94642829895019531250e+00) (32, 8.82738113403320312500e+00) (33, -5.69161748886108398438e+00) (34, -2.59405994415283203125e+01) (35, 3.33514261245727539062e+00) (36, 1.20688033103942871094e+00) (37, 1.84930057525634765625e+01) (38, -4.14983901977539062500e+01) (39, 1.82696075439453125000e+01) (40, 4.16404247283935546875e-01) (41, 1.98534069061279296875e+01) (42, 1.69229054450988769531e+00) (43, -1.86146945953369140625e+01) (44, -2.66278386116027832031e-01) (45, 2.49795722961425781250e+01) (46, -1.41070718765258789062e+01) (47, 7.66870260238647460938e+00) (48, 9.07715797424316406250e+00) (49, -9.52575445175170898438e-01) (50, -1.40260353088378906250e+01) (51, 1.20716943740844726562e+01) (52, 1.03556785583496093750e+01) (53, 1.51485681533813476562e+01) (54, 1.06861162185668945312e+01) (55, -6.29396104812622070312e+00) (56, 4.76774215698242187500e+00) (57, 9.27840328216552734375e+00) (58, -1.13489704132080078125e+01) (59, -1.61368668079376220703e-01) (60, -5.84837722778320312500e+00) (0, 1.13082952499389648438e+01) (1, -1.38580827713012695312e+01) (2, -1.99424438476562500000e+01) (3, -2.08303737640380859375e+01) (4, -1.34878835678100585938e+01) (5, 5.80176544189453125000e+00) (6, 5.86845932006835937500e+01) (7, 1.89379253387451171875e+01) (8, 1.49257669448852539062e+01) (9, 8.64912796020507812500e+00) (10, -9.03432846069335937500e+00) (11, 1.23795528411865234375e+01) (12, 4.25877332687377929688e-01) (13, -2.97235679626464843750e+01) (14, -2.06744670867919921875e+01) (15, -3.54634513854980468750e+01) (16, 1.84287605285644531250e+01) (17, -4.40204334259033203125e+00) (18, 3.31620063781738281250e+01) (19, 4.37229537963867187500e+01) (20, 2.87714171409606933594e+00) (21, -1.54134788513183593750e+01) (22, 1.68533668518066406250e+01) (23, 3.19503002166748046875e+01) (24, 1.94243788719177246094e+00) (25, 1.47533893585205078125e+01) (26, 1.44880294799804687500e+01) (27, 1.24099035263061523438e+01) (28, -3.60790176391601562500e+01) (29, -4.43223266601562500000e+01) (30, 1.88127841949462890625e+01) (31, 1.91207695007324218750e+01) (32, 9.01672554016113281250e+00) (33, 1.98542428016662597656e+00) (34, -3.58409345149993896484e-01) (35, 1.66721191406250000000e+01) (36, 1.18573837280273437500e+01) (37, 1.21730823516845703125e+01) (38, 1.95183067321777343750e+01) (39, -1.49838078022003173828e+00) (40, -2.70920524597167968750e+01) (41, -1.17529153823852539062e+01) (42, -2.06446723937988281250e+01) (43, 3.33430328369140625000e+01) (44, -1.32521891593933105469e+00) (45, 1.81240425109863281250e+01) (46, -2.00264549255371093750e+00) (47, -5.45893716812133789062e+00) (48, -4.46417884826660156250e+01) (49, 2.08375377655029296875e+01) (50, -1.31839485168457031250e+01) (51, 1.28088874816894531250e+01) (52, -2.53468966484069824219e+00) (53, -9.07391488552093505859e-01) (54, -5.67028732299804687500e+01) (55, 2.59356403350830078125e+01) (56, 3.75209236145019531250e+01) (57, -4.00137901306152343750e+01) (58, 2.33363685607910156250e+01) (59, -5.74234962463378906250e+00) (60, 4.41473579406738281250e+01) (0, 2.50783042907714843750e+01) (1, 1.74468593597412109375e+01) (2, 1.71085777282714843750e+01) (3, -3.44406929016113281250e+01) (4, -1.73240680694580078125e+01) (5, -1.57747726440429687500e+01) (6, -2.62395515441894531250e+01) (7, -1.70355377197265625000e+01) (8, 1.30311565399169921875e+01) (9, 1.00617713928222656250e+01) (10, 1.05312175750732421875e+01) (11, 2.90995483398437500000e+01) (12, 5.66533851623535156250e+00) (13, 3.13873271942138671875e+01) (14, 9.50614833831787109375e+00) (15, 8.80129623413085937500e+00) (16, -2.61454844474792480469e+00) (17, -4.37662658691406250000e+01) (18, -5.79627418518066406250e+00) (19, -2.05594978332519531250e+01) (20, -9.98523330688476562500e+00) (21, -1.30003681182861328125e+01) (22, 4.37011909484863281250e+01) (23, -5.06454772949218750000e+01) (24, 1.70300426483154296875e+01) (25, -6.63582038879394531250e+00) (26, -2.11061000823974609375e+01) (27, 1.52775411605834960938e+01) (28, -2.59974479675292968750e+01) (29, -4.92902183532714843750e+01) (30, 2.37860536575317382812e+00) (31, 3.19027786254882812500e+01) (32, -3.06105971336364746094e+00) (33, 5.05478000640869140625e+00) (34, -1.89567127227783203125e+01) (35, 6.26459217071533203125e+00) (36, -8.44671249389648437500e+00) (37, 1.38657865524291992188e+01) (38, -6.16147232055664062500e+00) (39, 3.95743179321289062500e+01) (40, 9.04903602600097656250e+00) (41, -9.05917835235595703125e+00) (42, 2.49313163757324218750e+01) (43, -5.35365638732910156250e+01) (44, -3.89272832870483398438e+00) (45, 1.81749496459960937500e+01) (46, -9.80125844478607177734e-01) (47, 1.96701469421386718750e+01) (48, -6.60028934478759765625e+00) (49, 3.90256667137145996094e+00) (50, 1.28121213912963867188e+01) (51, 1.38751468658447265625e+01) (52, -1.63961658477783203125e+01) (53, 3.49785499572753906250e+01) (54, -4.87752342224121093750e+01) (55, -1.93262519836425781250e+01) (56, 4.90318603515625000000e+01) (57, -3.26705474853515625000e+01) (58, 2.42009086608886718750e+01) (59, -3.99070048332214355469e+00) (60, -1.25080738067626953125e+01) (0, -4.13975486755371093750e+01) (1, -1.92070941925048828125e+01) (2, 1.88252139091491699219e+00) (3, -1.35655670166015625000e+01) (4, 1.13720293045043945312e+01) (5, -8.11816787719726562500e+00) (6, 1.08222246170043945312e+01) (7, -5.17887382507324218750e+01) (8, 3.97531166076660156250e+01) (9, -1.80578193664550781250e+01) (10, 6.62327194213867187500e+00) (11, -1.97263193130493164062e+00) (12, -1.30446090698242187500e+01) (13, 1.94314193725585937500e+01) (14, -2.97645807266235351562e+00) (15, 3.37452621459960937500e+01) (16, -3.09567966461181640625e+01) (17, -1.96678981781005859375e+01) (18, -1.72658405303955078125e+01) (19, 2.51453323364257812500e+01) (20, -1.96572360992431640625e+01) (21, 1.45949735641479492188e+01) (22, -6.50382328033447265625e+00) (23, 3.02268753051757812500e+01) (24, -2.65316238403320312500e+01) (25, -8.35026645660400390625e+00) (26, -2.69368362426757812500e+01) (27, -2.74388599395751953125e+01) (28, -2.17777233123779296875e+01) (29, -1.08670778274536132812e+01) (30, 4.39574241638183593750e+00) (31, -1.94340877532958984375e+01) (32, -2.92355499267578125000e+01) (33, -2.87870273590087890625e+01) (34, -2.43581962585449218750e+01) (35, -6.45366287231445312500e+00) (36, -4.95464515686035156250e+00) (37, -2.95029306411743164062e+00) (38, 2.35756416320800781250e+01) (39, 6.00576257705688476562e+00) (40, 5.80826640129089355469e-01) (41, -1.58740758895874023438e-01) (42, 7.16014003753662109375e+00) (43, -1.81961917877197265625e+00) (44, 5.94865560531616210938e+00) (45, 2.25598049163818359375e+01) (46, -2.43666648864746093750e-01) (47, -2.60171298980712890625e+01) (48, 1.43539886474609375000e+01) (49, 1.50007209777832031250e+01) (50, -3.49177789688110351562e+00) (51, -1.47589731216430664062e+01) (52, 3.57274627685546875000e+01) (53, -1.70581645965576171875e+01) (54, 1.19272956848144531250e+01) (55, 1.41585998535156250000e+01) (56, -3.99892196655273437500e+01) (57, 7.52972602844238281250e+00) (58, -1.69323654174804687500e+01) (59, -1.21711421012878417969e+00) (60, 4.35947561264038085938e+00) (61, 8.93688678741455078125e+00) (62, 2.11532630920410156250e+01) (63, 1.45877647399902343750e+01) (64, -9.06241512298583984375e+00) (65, -2.04672508239746093750e+01) (66, -4.50060348510742187500e+01) (-2147483581, -2.38408641815185546875e+01) (61, 2.70902824401855468750e+00) (62, 8.81844139099121093750e+00) (63, -4.77987098693847656250e+01) (64, 1.28766555786132812500e+01) (65, 2.02909259796142578125e+01) (66, -2.49078083038330078125e+01) (67, -7.99201488494873046875e-01) (61, -4.10343093872070312500e+01) (62, 3.73940277099609375000e+01) (63, 6.76173973083496093750e+00) (64, 4.54725170135498046875e+00) (65, -7.61531734466552734375e+00) (66, -1.10134649276733398438e+01) (67, -2.16726779937744140625e+01) (61, -2.89263114929199218750e+01) (62, -8.17280101776123046875e+00) (63, -2.85131683349609375000e+01) (64, 2.53357009887695312500e+01) (65, -2.98402786254882812500e+01) (66, 3.96500587463378906250e+01) (67, -5.20559215545654296875e+00) 
