FANN_FLO_2.1
num_layers=3
learning_rate=0.800000
connection_rate=1.000000
network_type=0
learning_momentum=0.000000
training_algorithm=0
train_error_function=1
train_stop_function=0
cascade_output_change_fraction=0.010000
quickprop_decay=-0.000100
quickprop_mu=1.750000
rprop_increase_factor=1.200000
rprop_decrease_factor=0.500000
rprop_delta_min=0.000000
rprop_delta_max=50.000000
rprop_delta_zero=0.100000
cascade_output_stagnation_epochs=12
cascade_candidate_change_fraction=0.010000
cascade_candidate_stagnation_epochs=12
cascade_max_out_epochs=150
cascade_min_out_epochs=50
cascade_max_cand_epochs=150
cascade_min_cand_epochs=50
cascade_num_candidate_groups=2
bit_fail_limit=3.49999994039535522461e-01
cascade_candidate_limit=1.00000000000000000000e+03
cascade_weight_multiplier=4.00000005960464477539e-01
cascade_activation_functions_count=10
cascade_activation_functions=3 5 7 8 10 11 14 15 16 17 
cascade_activation_steepnesses_count=4
cascade_activation_steepnesses=2.50000000000000000000e-01 5.00000000000000000000e-01 7.50000000000000000000e-01 1.00000000000000000000e+00 
layer_sizes=61 7 5 
scale_included=0
neurons (num_inputs, activation_function, activation_steepness)=(0, 0, 0.00000000000000000000e+00) (0, 0, 0.00000000000000000000e+00) (0, 0, 0.00000000000000000000e+00) (0, 0, 0.00000000000000000000e+00) (0, 0, 0.00000000000000000000e+00) (0, 0, 0.00000000000000000000e+00) (0, 0, 0.00000000000000000000e+00) (0, 0, 0.00000000000000000000e+00) (0, 0, 0.00000000000000000000e+00) (0, 0, 0.00000000000000000000e+00) (0, 0, 0.00000000000000000000e+00) (0, 0, 0.00000000000000000000e+00) (0, 0, 0.00000000000000000000e+00) (0, 0, 0.00000000000000000000e+00) (0, 0, 0.00000000000000000000e+00) (0, 0, 0.00000000000000000000e+00) (0, 0, 0.00000000000000000000e+00) (0, 0, 0.00000000000000000000e+00) (0, 0, 0.00000000000000000000e+00) (0, 0, 0.00000000000000000000e+00) (0, 0, 0.00000000000000000000e+00) (0, 0, 0.00000000000000000000e+00) (0, 0, 0.00000000000000000000e+00) (0, 0, 0.00000000000000000000e+00) (0, 0, 0.00000000000000000000e+00) (0, 0, 0.00000000000000000000e+00) (0, 0, 0.00000000000000000000e+00) (0, 0, 0.00000000000000000000e+00) (0, 0, 0.00000000000000000000e+00) (0, 0, 0.00000000000000000000e+00) (0, 0, 0.00000000000000000000e+00) (0, 0, 0.00000000000000000000e+00) (0, 0, 0.00000000000000000000e+00) (0, 0, 0.00000000000000000000e+00) (0, 0, 0.00000000000000000000e+00) (0, 0, 0.00000000000000000000e+00) (0, 0, 0.00000000000000000000e+00) (0, 0, 0.00000000000000000000e+00) (0, 0, 0.00000000000000000000e+00) (0, 0, 0.00000000000000000000e+00) (0, 0, 0.00000000000000000000e+00) (0, 0, 0.00000000000000000000e+00) (0, 0, 0.00000000000000000000e+00) (0, 0, 0.00000000000000000000e+00) (0, 0, 0.00000000000000000000e+00) (0, 0, 0.00000000000000000000e+00) (0, 0, 0.00000000000000000000e+00) (0, 0, 0.00000000000000000000e+00) (0, 0, 0.00000000000000000000e+00) (0, 0, 0.00000000000000000000e+00) (0, 0, 0.00000000000000000000e+00) (0, 0, 0.00000000000000000000e+00) (0, 0, 0.00000000000000000000e+00) (0, 0, 0.00000000000000000000e+00) (0, 0, 0.00000000000000000000e+00) (0, 0, 0.00000000000000000000e+00) (0, 0, 0.00000000000000000000e+00) (0, 0, 0.00000000000000000000e+00) (0, 0, 0.00000000000000000000e+00) (0, 0, 0.00000000000000000000e+00) (0, 0, 0.00000000000000000000e+00) (61, 3, 5.00000000000000000000e-01) (61, 3, 5.00000000000000000000e-01) (61, 3, 5.00000000000000000000e-01) (61, 3, 5.00000000000000000000e-01) (61, 3, 5.00000000000000000000e-01) (61, 3, 5.00000000000000000000e-01) (0, 3, 0.00000000000000000000e+00) (7, 3, 5.00000000000000000000e-01) (7, 3, 5.00000000000000000000e-01) (7, 3, 5.00000000000000000000e-01) (7, 3, 5.00000000000000000000e-01) (0, 3, 0.00000000000000000000e+00) 
connections (connected_to_neuron, weight)=(0, -6.18466019630432128906e-01) (1, 3.59274291992187500000e+00) (2, 4.49472188949584960938e+00) (3, 1.02925186157226562500e+01) (4, 1.03979415893554687500e+01) (5, -1.28950290679931640625e+01) (6, 3.17869973182678222656e+00) (7, 3.45048789978027343750e+01) (8, 1.99565296173095703125e+01) (9, 1.59171886444091796875e+01) (10, -6.18431425094604492188e+00) (11, 3.34059333801269531250e+00) (12, -3.45773053169250488281e+00) (13, 2.12465667724609375000e+01) (14, 2.03356056213378906250e+01) (15, -6.23035848140716552734e-01) (16, -7.51342868804931640625e+00) (17, 5.53853321075439453125e+00) (18, 1.29300765991210937500e+01) (19, -3.49474620819091796875e+00) (20, 2.10610313415527343750e+01) (21, 1.57951622009277343750e+01) (22, -1.35725746154785156250e+01) (23, 1.87021827697753906250e+01) (24, -6.12211322784423828125e+00) (25, -8.82139921188354492188e-01) (26, -1.54723298549652099609e+00) (27, 1.77111816406250000000e+00) (28, 2.68482732772827148438e+00) (29, 3.08992147445678710938e+00) (30, 9.41294097900390625000e+00) (31, -3.56678175926208496094e+00) (32, -9.44407367706298828125e+00) (33, -8.51839351654052734375e+00) (34, 1.27761430740356445312e+01) (35, 9.53975963592529296875e+00) (36, -1.87601745128631591797e+00) (37, 1.24173984527587890625e+01) (38, 4.31857299804687500000e+00) (39, -1.20872936248779296875e+01) (40, 1.02548971176147460938e+01) (41, 1.57970104217529296875e+01) (42, -5.81479454040527343750e+00) (43, 2.66736340522766113281e+00) (44, 2.98716259002685546875e+01) (45, 1.17817888259887695312e+01) (46, -1.31233892440795898438e+01) (47, -6.79634523391723632812e+00) (48, -1.97162170410156250000e+01) (49, 1.27988319396972656250e+01) (50, -1.93343048095703125000e+01) (51, 8.07525348663330078125e+00) (52, -9.27919292449951171875e+00) (53, 4.82983779907226562500e+00) (54, 9.02133178710937500000e+00) (55, 2.02866821289062500000e+01) (56, 7.82345199584960937500e+00) (57, -8.47850513458251953125e+00) (58, 2.94104862213134765625e+00) (59, 8.71931648254394531250e+00) (60, -1.13522415161132812500e+01) (0, -1.03140296936035156250e+01) (1, -5.81154441833496093750e+00) (2, -3.04255461692810058594e+00) (3, -8.11768531799316406250e+00) (4, 1.45694656372070312500e+01) (5, -1.58659687042236328125e+01) (6, 6.41200733184814453125e+00) (7, -8.29052507877349853516e-01) (8, 2.09923005104064941406e+00) (9, -3.98623681068420410156e+00) (10, -3.42119455337524414062e+00) (11, 1.13164005279541015625e+01) (12, 1.56944189071655273438e+01) (13, -6.19685888290405273438e+00) (14, -8.41337966918945312500e+00) (15, -1.31575202941894531250e+01) (16, -9.59985351562500000000e+00) (17, -1.40772962570190429688e+00) (18, 1.09199924468994140625e+01) (19, -5.15402460098266601562e+00) (20, -1.39543228149414062500e+01) (21, 1.33645510673522949219e+00) (22, -1.35091912746429443359e+00) (23, 1.73216176033020019531e+00) (24, 2.39921522140502929688e+00) (25, 5.59852838516235351562e+00) (26, -2.37982773780822753906e+00) (27, -8.03391551971435546875e+00) (28, 7.97600460052490234375e+00) (29, 2.91943907737731933594e+00) (30, 4.26283931732177734375e+00) (31, -5.16884136199951171875e+00) (32, 1.11661128997802734375e+01) (33, 6.02901268005371093750e+00) (34, -1.06539945602416992188e+01) (35, -1.94650287628173828125e+01) (36, 5.73880004882812500000e+00) (37, 1.18178339004516601562e+01) (38, 2.77831435203552246094e+00) (39, -8.47622680664062500000e+00) (40, -2.08862915039062500000e+01) (41, 2.35710382461547851562e-01) (42, 1.29139060974121093750e+01) (43, -4.77561378479003906250e+00) (44, 4.75532436370849609375e+00) (45, 2.15579128265380859375e+01) (46, -1.46522588729858398438e+01) (47, 9.48699283599853515625e+00) (48, -7.86480903625488281250e+00) (49, 6.98449373245239257812e+00) (50, -9.48004817962646484375e+00) (51, -8.43561458587646484375e+00) (52, 7.06282663345336914062e+00) (53, -9.60620784759521484375e+00) (54, -1.35134468078613281250e+01) (55, 7.61803865432739257812e+00) (56, 2.52250080108642578125e+01) (57, -3.97029399871826171875e-01) (58, 1.14862527847290039062e+01) (59, -1.11700592041015625000e+01) (60, -4.55547523498535156250e+00) (0, 1.59485042095184326172e+00) (1, 1.12296276092529296875e+01) (2, -1.41523771286010742188e+01) (3, 8.36682415008544921875e+00) (4, 1.54421758651733398438e+01) (5, 1.21188201904296875000e+01) (6, 1.20858883857727050781e+00) (7, 6.25647211074829101562e+00) (8, 5.07189321517944335938e+00) (9, 1.50275573730468750000e+01) (10, 1.33564147949218750000e+01) (11, -3.70040588378906250000e+01) (12, -2.40170145034790039062e+00) (13, -3.13800001144409179688e+00) (14, -1.58553256988525390625e+01) (15, -2.09412536621093750000e+01) (16, -8.00893211364746093750e+00) (17, -2.68370418548583984375e+01) (18, -1.52342691421508789062e+01) (19, -1.36239538192749023438e+01) (20, 1.99477326869964599609e+00) (21, -6.92774820327758789062e+00) (22, -6.15209865570068359375e+00) (23, 1.78973655700683593750e+01) (24, -4.37607669830322265625e+00) (25, 8.38333129882812500000e-01) (26, -1.16050481796264648438e+00) (27, 6.74473285675048828125e+00) (28, 1.35616455078125000000e+01) (29, -2.03025341033935546875e+00) (30, 2.44714736938476562500e+00) (31, 2.08998069763183593750e+01) (32, -4.21027517318725585938e+00) (33, 1.14405097961425781250e+01) (34, 9.08025741577148437500e+00) (35, -1.59663307666778564453e+00) (36, 1.78165912628173828125e+01) (37, 1.18631782531738281250e+01) (38, 6.66180849075317382812e+00) (39, 7.48733711242675781250e+00) (40, 6.92738437652587890625e+00) (41, 4.66524314880371093750e+00) (42, -5.14231824874877929688e+00) (43, -2.94415245056152343750e+01) (44, 2.75185465812683105469e+00) (45, -4.79446029663085937500e+00) (46, -1.85836219787597656250e+01) (47, -7.82679271697998046875e+00) (48, -4.87445878982543945312e+00) (49, -8.84608173370361328125e+00) (50, 9.48385620117187500000e+00) (51, -8.75363826751708984375e+00) (52, -1.24036970138549804688e+01) (53, -5.79941749572753906250e+00) (54, -2.69150085449218750000e+01) (55, 4.77577781677246093750e+00) (56, -3.48975181579589843750e+00) (57, 7.06456720829010009766e-01) (58, 6.09782791137695312500e+00) (59, 3.28560495376586914062e+00) (60, -7.97306656837463378906e-01) (0, 7.25272846221923828125e+00) (1, 3.03658890724182128906e+00) (2, -1.86139526367187500000e+01) (3, 1.43680214881896972656e+00) (4, -2.08987116813659667969e+00) (5, 9.39812469482421875000e+00) (6, 9.71498870849609375000e+00) (7, -1.98555350303649902344e-01) (8, -9.16595172882080078125e+00) (9, -7.07458877563476562500e+00) (10, 1.58768520355224609375e+01) (11, 5.75833845138549804688e+00) (12, 3.82880926132202148438e-01) (13, 6.11061859130859375000e+00) (14, -9.30013298988342285156e-01) (15, -1.63497676849365234375e+01) (16, 6.50626134872436523438e+00) (17, -1.70845985412597656250e-02) (18, -3.66318130493164062500e+00) (19, 6.34287500381469726562e+00) (20, -7.66320896148681640625e+00) (21, 1.48931493759155273438e+01) (22, 5.96700382232666015625e+00) (23, -1.34057302474975585938e+01) (24, 1.59697856903076171875e+01) (25, 1.65285434722900390625e+01) (26, -2.82694029808044433594e+00) (27, -1.55626316070556640625e+01) (28, -1.12422084808349609375e+00) (29, -2.26686096191406250000e+01) (30, 4.78695487976074218750e+00) (31, -1.25199766159057617188e+01) (32, 9.18108558654785156250e+00) (33, 9.78641688823699951172e-01) (34, 4.63325500488281250000e+00) (35, -1.07543134689331054688e+01) (36, 2.28425836563110351562e+00) (37, -6.99633479118347167969e-01) (38, -4.87756669521331787109e-01) (39, 8.13618850708007812500e+00) (40, 2.56949019432067871094e+00) (41, -3.41285800933837890625e+00) (42, -1.04328727722167968750e+01) (43, 6.90737628936767578125e+00) (44, 5.63327836990356445312e+00) (45, -8.50086688995361328125e+00) (46, -1.23001832962036132812e+01) (47, -8.01847076416015625000e+00) (48, -1.08288164138793945312e+01) (49, 2.17274475097656250000e+01) (50, -2.63464450836181640625e+00) (51, 7.33780026435852050781e-01) (52, -2.73712635040283203125e+00) (53, -2.06341457366943359375e+01) (54, 1.27108526229858398438e+00) (55, 3.61878323554992675781e+00) (56, -1.15595121383666992188e+01) (57, 1.61524848937988281250e+01) (58, 5.21501255035400390625e+00) (59, 1.51371879577636718750e+01) (60, 1.71164214611053466797e+00) (0, -1.79201757907867431641e+00) (1, 8.07467555999755859375e+00) (2, -1.42192230224609375000e+01) (3, 1.13147664070129394531e+00) (4, 2.81498122215270996094e+00) (5, 2.08917760848999023438e+00) (6, 6.37453746795654296875e+00) (7, 2.34555721282958984375e+00) (8, -4.30238962173461914062e-01) (9, -4.24192517995834350586e-01) (10, 1.87569713592529296875e+01) (11, -2.80397624969482421875e+01) (12, -5.86062288284301757812e+00) (13, -4.77850198745727539062e+00) (14, -1.21374406814575195312e+01) (15, 5.80286407470703125000e+00) (16, 1.80798912048339843750e+01) (17, -2.40820446014404296875e+01) (18, 7.91651058197021484375e+00) (19, -3.73478794097900390625e+00) (20, -5.09914016723632812500e+00) (21, -1.00693693161010742188e+01) (22, 7.94953060150146484375e+00) (23, 2.30808186531066894531e+00) (24, 2.37960929870605468750e+01) (25, -9.78808021545410156250e+00) (26, -1.90507164001464843750e+01) (27, -6.91503477096557617188e+00) (28, -2.15132503509521484375e+01) (29, -2.10811367034912109375e+01) (30, 5.27953243255615234375e+00) (31, 9.53444862365722656250e+00) (32, -8.55793666839599609375e+00) (33, -8.26449489593505859375e+00) (34, -4.30324363708496093750e+00) (35, -1.87205753326416015625e+01) (36, 7.16197681427001953125e+00) (37, -3.61533164978027343750e-01) (38, 2.53389644622802734375e+00) (39, -6.33128070831298828125e+00) (40, -4.13450622558593750000e+00) (41, -7.70342922210693359375e+00) (42, 2.13042793273925781250e+01) (43, -6.03744459152221679688e+00) (44, 8.57558822631835937500e+00) (45, -1.26504983901977539062e+01) (46, -3.01290664672851562500e+01) (47, -5.66385412216186523438e+00) (48, -2.19149494171142578125e+01) (49, -2.44437751770019531250e+01) (50, -1.55900974273681640625e+01) (51, 8.59644985198974609375e+00) (52, -1.66139183044433593750e+01) (53, 1.23111176490783691406e+00) (54, -1.34487342834472656250e+01) (55, 9.16589641571044921875e+00) (56, 1.33058319091796875000e+01) (57, 4.63871812820434570312e+00) (58, -1.36081399917602539062e+01) (59, -7.16417360305786132812e+00) (60, -3.63421559333801269531e+00) (0, 4.31697177886962890625e+00) (1, -9.82172679901123046875e+00) (2, -2.30204582214355468750e+00) (3, -3.92411065101623535156e+00) (4, 2.95301127433776855469e+00) (5, 4.31632328033447265625e+00) (6, 3.69643807411193847656e+00) (7, -1.28891601562500000000e+01) (8, 1.33988761901855468750e+01) (9, 3.45372152328491210938e+00) (10, -9.96465015411376953125e+00) (11, 1.08380489349365234375e+01) (12, -6.76112890243530273438e+00) (13, 1.80992870330810546875e+01) (14, 2.87211155891418457031e+00) (15, -8.52031135559082031250e+00) (16, 7.28882789611816406250e+00) (17, 1.48666019439697265625e+01) (18, -2.17176818847656250000e+01) (19, -5.12249088287353515625e+00) (20, 1.02408027648925781250e+01) (21, -7.40002155303955078125e+00) (22, 1.04378929138183593750e+01) (23, 1.14815683364868164062e+01) (24, -1.36705417633056640625e+01) (25, -9.93082809448242187500e+00) (26, 3.77716970443725585938e+00) (27, -1.50555324554443359375e+01) (28, 1.45607805252075195312e+01) (29, 1.61946659088134765625e+01) (30, 2.97640609741210937500e+00) (31, 2.09848766326904296875e+01) (32, 1.18385972976684570312e+01) (33, -6.19210147857666015625e+00) (34, 5.73406314849853515625e+00) (35, -1.18711814880371093750e+01) (36, -1.20613098144531250000e+00) (37, 1.65223827362060546875e+01) (38, -1.51633272171020507812e+01) (39, 3.32084465026855468750e+00) (40, 1.01662597656250000000e+01) (41, -6.70417356491088867188e+00) (42, 1.15914716720581054688e+01) (43, -1.05498228073120117188e+01) (44, -1.49752342700958251953e+00) (45, -1.87846488952636718750e+01) (46, 2.81904673576354980469e+00) (47, 3.69713258743286132812e+00) (48, -5.16516399383544921875e+00) (49, 2.33841819763183593750e+01) (50, 1.11964092254638671875e+01) (51, -1.55525150299072265625e+01) (52, -6.22798633575439453125e+00) (53, 6.50741577148437500000e-01) (54, 6.53653192520141601562e+00) (55, -5.18302965164184570312e+00) (56, 8.78906536102294921875e+00) (57, 7.63602542877197265625e+00) (58, 1.40033884048461914062e+01) (59, 2.81755471229553222656e+00) (60, -1.22027521133422851562e+01) (61, 3.44175517559051513672e-01) (62, -6.00271272659301757812e+00) (63, 7.83685255050659179688e+00) (64, 3.51152610778808593750e+00) (65, 4.22990942001342773438e+00) (66, -4.85799026489257812500e+00) (67, -1.24947242736816406250e+01) (61, -3.18265151977539062500e+00) (62, 1.87793588638305664062e+00) (63, -1.28304548263549804688e+01) (64, 1.58426008224487304688e+01) (65, 1.37645397186279296875e+01) (66, -1.98767871856689453125e+01) (67, -1.51032810211181640625e+01) (61, -6.28084564208984375000e+00) (62, -2.38194823265075683594e+00) (63, 9.35807418823242187500e+00) (64, 4.12787342071533203125e+00) (65, 8.11172127723693847656e-02) (66, 1.19999351501464843750e+01) (67, -1.37372379302978515625e+01) (61, -3.25899362564086914062e-01) (62, -2.17543029785156250000e+00) (63, -1.25528669357299804688e+01) (64, 2.51734900474548339844e+00) (65, -2.43770599365234375000e+01) (66, -4.15839719772338867188e+00) (67, 1.35997829437255859375e+01) 
