FANN_FLO_2.1
num_layers=3
learning_rate=0.800000
connection_rate=1.000000
network_type=0
learning_momentum=0.000000
training_algorithm=0
train_error_function=1
train_stop_function=0
cascade_output_change_fraction=0.010000
quickprop_decay=-0.000100
quickprop_mu=1.750000
rprop_increase_factor=1.200000
rprop_decrease_factor=0.500000
rprop_delta_min=0.000000
rprop_delta_max=50.000000
rprop_delta_zero=0.100000
cascade_output_stagnation_epochs=12
cascade_candidate_change_fraction=0.010000
cascade_candidate_stagnation_epochs=12
cascade_max_out_epochs=150
cascade_min_out_epochs=50
cascade_max_cand_epochs=150
cascade_min_cand_epochs=50
cascade_num_candidate_groups=2
bit_fail_limit=3.49999994039535522461e-01
cascade_candidate_limit=1.00000000000000000000e+03
cascade_weight_multiplier=4.00000005960464477539e-01
cascade_activation_functions_count=10
cascade_activation_functions=3 5 7 8 10 11 14 15 16 17 
cascade_activation_steepnesses_count=4
cascade_activation_steepnesses=2.50000000000000000000e-01 5.00000000000000000000e-01 7.50000000000000000000e-01 1.00000000000000000000e+00 
layer_sizes=61 7 5 
scale_included=0
neurons (num_inputs, activation_function, activation_steepness)=(0, 0, 0.00000000000000000000e+00) (0, 0, 0.00000000000000000000e+00) (0, 0, 0.00000000000000000000e+00) (0, 0, 0.00000000000000000000e+00) (0, 0, 0.00000000000000000000e+00) (0, 0, 0.00000000000000000000e+00) (0, 0, 0.00000000000000000000e+00) (0, 0, 0.00000000000000000000e+00) (0, 0, 0.00000000000000000000e+00) (0, 0, 0.00000000000000000000e+00) (0, 0, 0.00000000000000000000e+00) (0, 0, 0.00000000000000000000e+00) (0, 0, 0.00000000000000000000e+00) (0, 0, 0.00000000000000000000e+00) (0, 0, 0.00000000000000000000e+00) (0, 0, 0.00000000000000000000e+00) (0, 0, 0.00000000000000000000e+00) (0, 0, 0.00000000000000000000e+00) (0, 0, 0.00000000000000000000e+00) (0, 0, 0.00000000000000000000e+00) (0, 0, 0.00000000000000000000e+00) (0, 0, 0.00000000000000000000e+00) (0, 0, 0.00000000000000000000e+00) (0, 0, 0.00000000000000000000e+00) (0, 0, 0.00000000000000000000e+00) (0, 0, 0.00000000000000000000e+00) (0, 0, 0.00000000000000000000e+00) (0, 0, 0.00000000000000000000e+00) (0, 0, 0.00000000000000000000e+00) (0, 0, 0.00000000000000000000e+00) (0, 0, 0.00000000000000000000e+00) (0, 0, 0.00000000000000000000e+00) (0, 0, 0.00000000000000000000e+00) (0, 0, 0.00000000000000000000e+00) (0, 0, 0.00000000000000000000e+00) (0, 0, 0.00000000000000000000e+00) (0, 0, 0.00000000000000000000e+00) (0, 0, 0.00000000000000000000e+00) (0, 0, 0.00000000000000000000e+00) (0, 0, 0.00000000000000000000e+00) (0, 0, 0.00000000000000000000e+00) (0, 0, 0.00000000000000000000e+00) (0, 0, 0.00000000000000000000e+00) (0, 0, 0.00000000000000000000e+00) (0, 0, 0.00000000000000000000e+00) (0, 0, 0.00000000000000000000e+00) (0, 0, 0.00000000000000000000e+00) (0, 0, 0.00000000000000000000e+00) (0, 0, 0.00000000000000000000e+00) (0, 0, 0.00000000000000000000e+00) (0, 0, 0.00000000000000000000e+00) (0, 0, 0.00000000000000000000e+00) (0, 0, 0.00000000000000000000e+00) (0, 0, 0.00000000000000000000e+00) (0, 0, 0.00000000000000000000e+00) (0, 0, 0.00000000000000000000e+00) (0, 0, 0.00000000000000000000e+00) (0, 0, 0.00000000000000000000e+00) (0, 0, 0.00000000000000000000e+00) (0, 0, 0.00000000000000000000e+00) (0, 0, 0.00000000000000000000e+00) (61, 3, 5.00000000000000000000e-01) (61, 3, 5.00000000000000000000e-01) (61, 3, 5.00000000000000000000e-01) (61, 3, 5.00000000000000000000e-01) (61, 3, 5.00000000000000000000e-01) (61, 3, 5.00000000000000000000e-01) (0, 3, 0.00000000000000000000e+00) (7, 3, 5.00000000000000000000e-01) (7, 3, 5.00000000000000000000e-01) (7, 3, 5.00000000000000000000e-01) (7, 3, 5.00000000000000000000e-01) (0, 3, 0.00000000000000000000e+00) 
connections (connected_to_neuron, weight)=(0, 4.92290139198303222656e-01) (1, 4.75183868408203125000e+00) (2, 6.09420299530029296875e+00) (3, 1.03410511016845703125e+01) (4, 1.72520904541015625000e+01) (5, -1.72453289031982421875e+01) (6, -1.00498259067535400391e-01) (7, 4.53383483886718750000e+01) (8, 1.85770893096923828125e+01) (9, 1.60311717987060546875e+01) (10, -7.37703323364257812500e+00) (11, 7.55044400691986083984e-01) (12, 2.99089479446411132812e+00) (13, 1.47807912826538085938e+01) (14, 2.25064811706542968750e+01) (15, -1.36333093643188476562e+01) (16, -1.82370796203613281250e+01) (17, 5.35798072814941406250e-03) (18, 1.56429119110107421875e+01) (19, -4.29217910766601562500e+00) (20, 1.74993820190429687500e+01) (21, 1.39106712341308593750e+01) (22, -9.36996173858642578125e+00) (23, 1.74956169128417968750e+01) (24, -9.25560569763183593750e+00) (25, 2.86597561836242675781e+00) (26, 3.55784034729003906250e+00) (27, -4.48276138305664062500e+00) (28, 3.35517835617065429688e+00) (29, 3.03287684917449951172e-01) (30, 1.26191043853759765625e+01) (31, -9.68945693969726562500e+00) (32, -7.02097797393798828125e+00) (33, -7.39298915863037109375e+00) (34, 1.83892250061035156250e+01) (35, 1.47366790771484375000e+01) (36, -4.97838211059570312500e+00) (37, 1.38452415466308593750e+01) (38, -1.31549739837646484375e+00) (39, -1.08584051132202148438e+01) (40, 1.74120044708251953125e+01) (41, 1.25848865509033203125e+01) (42, 2.78525686264038085938e+00) (43, 6.52718448638916015625e+00) (44, 2.87888717651367187500e+01) (45, 6.69760370254516601562e+00) (46, -1.25897235870361328125e+01) (47, -1.15499429702758789062e+01) (48, -1.15437889099121093750e+01) (49, 1.38225374221801757812e+01) (50, -1.30446300506591796875e+01) (51, 5.49901294708251953125e+00) (52, -2.66783642768859863281e+00) (53, 1.26156187057495117188e+00) (54, 6.99095439910888671875e+00) (55, 1.90369930267333984375e+01) (56, 1.63546025753021240234e+00) (57, -3.51751732826232910156e+00) (58, 6.36917638778686523438e+00) (59, 3.04551219940185546875e+00) (60, -8.63562297821044921875e+00) (0, -1.30135831832885742188e+01) (1, -1.13302049636840820312e+01) (2, -1.32544982433319091797e+00) (3, -1.46508522033691406250e+01) (4, 1.05160026550292968750e+01) (5, -1.61839561462402343750e+01) (6, 1.34366912841796875000e+01) (7, -1.05426139831542968750e+01) (8, -5.10799121856689453125e+00) (9, -5.49233436584472656250e+00) (10, -1.34055786132812500000e+01) (11, 1.75490074157714843750e+01) (12, 2.28193473815917968750e+01) (13, 6.71133935451507568359e-01) (14, -1.49986419677734375000e+01) (15, -1.30435400009155273438e+01) (16, -3.64934682846069335938e+00) (17, 5.40883350372314453125e+00) (18, 9.66939640045166015625e+00) (19, -5.36575412750244140625e+00) (20, -1.21296129226684570312e+01) (21, -5.56084918975830078125e+00) (22, -6.36347961425781250000e+00) (23, 9.36181449890136718750e+00) (24, 1.72597289085388183594e-01) (25, 5.99997568130493164062e+00) (26, 1.03313004970550537109e+00) (27, -1.46742877960205078125e+01) (28, 8.80183696746826171875e+00) (29, 4.98147296905517578125e+00) (30, -3.53244209289550781250e+00) (31, 1.64334774017333984375e-01) (32, 1.29187421798706054688e+01) (33, -6.93720102310180664062e+00) (34, -8.12375831604003906250e+00) (35, -2.74719543457031250000e+01) (36, 1.98065328598022460938e+00) (37, 6.56913089752197265625e+00) (38, 3.61476659774780273438e+00) (39, -7.90759897232055664062e+00) (40, -2.47445564270019531250e+01) (41, -8.55298995971679687500e+00) (42, 1.11391420364379882812e+01) (43, -7.68823862075805664062e+00) (44, 4.60113906860351562500e+00) (45, 2.18337860107421875000e+01) (46, -1.64411449432373046875e+01) (47, 4.48112010955810546875e+00) (48, -1.01539859771728515625e+01) (49, 2.70777368545532226562e+00) (50, -2.02267789840698242188e+00) (51, -9.75874423980712890625e+00) (52, 7.89648008346557617188e+00) (53, -9.56031799316406250000e+00) (54, -1.45398130416870117188e+01) (55, 2.22376465797424316406e+00) (56, 2.45099811553955078125e+01) (57, 4.07073736190795898438e+00) (58, 7.22578907012939453125e+00) (59, -1.58052845001220703125e+01) (60, -1.06138858795166015625e+01) (0, 4.11044168472290039062e+00) (1, 1.45339908599853515625e+01) (2, -1.21707715988159179688e+01) (3, 8.43009471893310546875e-01) (4, 1.45577812194824218750e+01) (5, 6.60524368286132812500e-01) (6, -3.10751986503601074219e+00) (7, 1.55269885063171386719e+00) (8, 3.00862097740173339844e+00) (9, 1.06441879272460937500e+01) (10, 6.59261417388916015625e+00) (11, -3.89086914062500000000e+01) (12, 7.30531787872314453125e+00) (13, -3.51565694808959960938e+00) (14, -2.26914710998535156250e+01) (15, -2.03867816925048828125e+01) (16, -1.67645549774169921875e+00) (17, -2.28477115631103515625e+01) (18, -7.98731803894042968750e+00) (19, -1.31838111877441406250e+01) (20, 1.68641209602355957031e+00) (21, -6.84056901931762695312e+00) (22, 9.78337764739990234375e-01) (23, 2.79917945861816406250e+01) (24, -1.63190793991088867188e+00) (25, -3.82726979255676269531e+00) (26, 2.33607625961303710938e+00) (27, 1.13315019607543945312e+01) (28, 2.39566497802734375000e+01) (29, -2.51522231101989746094e+00) (30, 7.27368783950805664062e+00) (31, 2.59167881011962890625e+01) (32, -1.12067861557006835938e+01) (33, 9.73715400695800781250e+00) (34, 6.43706321716308593750e-01) (35, -9.44135093688964843750e+00) (36, 1.86175098419189453125e+01) (37, 1.57591333389282226562e+01) (38, -3.98739099502563476562e-01) (39, 7.02922105789184570312e+00) (40, 5.05245304107666015625e+00) (41, 1.39819812774658203125e+00) (42, -7.57078361511230468750e+00) (43, -3.09553184509277343750e+01) (44, 3.18834877014160156250e+00) (45, -8.75869750976562500000e+00) (46, -2.26184310913085937500e+01) (47, -8.27417373657226562500e-02) (48, -3.23999857902526855469e+00) (49, -1.11966638565063476562e+01) (50, 3.58743476867675781250e+00) (51, -9.69416904449462890625e+00) (52, -6.84563350677490234375e+00) (53, -3.64627838134765625000e-01) (54, -2.70333843231201171875e+01) (55, 9.51806068420410156250e-01) (56, 2.40544795989990234375e+00) (57, -3.32783794403076171875e+00) (58, 5.95336675643920898438e+00) (59, 2.85022544860839843750e+00) (60, -1.07680785655975341797e+00) (0, 7.34705734252929687500e+00) (1, -4.41933584213256835938e+00) (2, -1.99013557434082031250e+01) (3, 2.29067659378051757812e+00) (4, 3.35430455207824707031e+00) (5, 7.04301977157592773438e+00) (6, 1.17283201217651367188e+01) (7, 1.92927110195159912109e+00) (8, -1.41195974349975585938e+01) (9, 5.58634996414184570312e-01) (10, 7.97519683837890625000e+00) (11, 6.57796573638916015625e+00) (12, -3.44986367225646972656e+00) (13, -3.07699918746948242188e-01) (14, 3.19215631484985351562e+00) (15, -1.37914199829101562500e+01) (16, -2.75087881088256835938e+00) (17, 8.92126655578613281250e+00) (18, 2.19938039779663085938e-01) (19, 6.34287500381469726562e+00) (20, -4.58839225769042968750e+00) (21, 1.66779880523681640625e+01) (22, 7.52150440216064453125e+00) (23, -1.96843471527099609375e+01) (24, 1.89680328369140625000e+01) (25, 1.49282922744750976562e+01) (26, 1.75588965415954589844e+00) (27, -1.00351753234863281250e+01) (28, -5.89448213577270507812e+00) (29, -2.14004001617431640625e+01) (30, 1.05927705764770507812e+01) (31, 6.99225425720214843750e-01) (32, 9.69326591491699218750e+00) (33, 3.60716629028320312500e+00) (34, 1.91975936889648437500e+01) (35, -1.52102680206298828125e+01) (36, -3.95670938491821289062e+00) (37, -1.41547942161560058594e+00) (38, 4.10049629211425781250e+00) (39, 3.17394208908081054688e+00) (40, -2.75939655303955078125e+00) (41, -1.52916550636291503906e+00) (42, -9.90937995910644531250e+00) (43, 6.90737628936767578125e+00) (44, 9.65981864929199218750e+00) (45, 8.50825190544128417969e-01) (46, -1.07373647689819335938e+01) (47, -6.18848896026611328125e+00) (48, -3.94934606552124023438e+00) (49, 2.18713645935058593750e+01) (50, -2.91441917419433593750e+00) (51, -4.04797077178955078125e+00) (52, -5.78212022781372070312e+00) (53, -1.96325893402099609375e+01) (54, 1.11107044219970703125e+01) (55, 2.81305146217346191406e+00) (56, -8.32522583007812500000e+00) (57, 1.41303920745849609375e+01) (58, 8.66058444976806640625e+00) (59, 1.13184413909912109375e+01) (60, -3.71129727363586425781e+00) (0, 5.41691207885742187500e+00) (1, 2.03401412963867187500e+01) (2, -1.65023231506347656250e+01) (3, -2.68044281005859375000e+00) (4, 1.23860025405883789062e+00) (5, -4.80550289154052734375e-01) (6, 9.28667545318603515625e+00) (7, 5.01966953277587890625e+00) (8, 4.14005279541015625000e+00) (9, -2.94943857192993164062e+00) (10, 1.68840522766113281250e+01) (11, -2.80397624969482421875e+01) (12, -1.47863874435424804688e+01) (13, -3.34222698211669921875e+00) (14, -8.42330932617187500000e+00) (15, 1.00348577499389648438e+01) (16, 1.20828294754028320312e+01) (17, -2.03017539978027343750e+01) (18, 6.92821025848388671875e+00) (19, -4.61886692047119140625e+00) (20, -1.17545890808105468750e+01) (21, -1.52032451629638671875e+01) (22, 9.43735790252685546875e+00) (23, 4.93849563598632812500e+00) (24, 1.80712051391601562500e+01) (25, -1.32283506393432617188e+01) (26, -1.70439796447753906250e+01) (27, -3.37025308609008789062e+00) (28, -1.65446205139160156250e+01) (29, -2.58563747406005859375e+01) (30, 2.66637849807739257812e+00) (31, 6.43077850341796875000e+00) (32, -5.26481246948242187500e+00) (33, -4.63813495635986328125e+00) (34, -4.34493160247802734375e+00) (35, -1.80795383453369140625e+01) (36, 8.13883113861083984375e+00) (37, 1.50043296813964843750e+00) (38, 1.49305152893066406250e+00) (39, -5.67755365371704101562e+00) (40, -1.23838782310485839844e-01) (41, -8.70018196105957031250e+00) (42, 2.72620487213134765625e+01) (43, -4.86878633499145507812e-01) (44, 6.89294385910034179688e+00) (45, -1.69033603668212890625e+01) (46, -3.02540683746337890625e+01) (47, -6.07223224639892578125e+00) (48, -2.59825210571289062500e+01) (49, -2.61234703063964843750e+01) (50, -1.41946172714233398438e+01) (51, 7.61300277709960937500e+00) (52, -1.75133972167968750000e+01) (53, 7.35540771484375000000e+00) (54, -1.45245237350463867188e+01) (55, -3.68894314765930175781e+00) (56, 8.11276245117187500000e+00) (57, 4.55422687530517578125e+00) (58, -6.20954751968383789062e+00) (59, -4.04060840606689453125e+00) (60, -6.67622566223144531250e+00) (0, 4.78462839126586914062e+00) (1, -1.37783060073852539062e+01) (2, -2.30204582214355468750e+00) (3, -7.56064891815185546875e+00) (4, -1.26699590682983398438e+00) (5, 3.11606049537658691406e+00) (6, 6.79892778396606445312e-01) (7, -1.14171829223632812500e+01) (8, 9.42542457580566406250e+00) (9, 6.27629566192626953125e+00) (10, -9.08760356903076171875e+00) (11, 1.45151605606079101562e+01) (12, -9.55930233001708984375e+00) (13, 1.59574174880981445312e+01) (14, 2.21195006370544433594e+00) (15, -7.80996894836425781250e+00) (16, -1.53052020072937011719e+00) (17, 2.16085109710693359375e+01) (18, -1.43544330596923828125e+01) (19, -8.54313850402832031250e+00) (20, 1.22663879394531250000e+01) (21, -1.24830341339111328125e+01) (22, 9.05030727386474609375e+00) (23, 1.17840166091918945312e+01) (24, -1.45608863830566406250e+01) (25, -9.78992271423339843750e+00) (26, 2.34910774230957031250e+00) (27, -1.46471061706542968750e+01) (28, 1.02700643539428710938e+01) (29, 2.40221462249755859375e+01) (30, 1.04641723632812500000e+01) (31, 2.30301151275634765625e+01) (32, 1.48692550659179687500e+01) (33, 2.06887722015380859375e+00) (34, 2.64567470550537109375e+00) (35, -1.21807498931884765625e+01) (36, -3.13042163848876953125e-01) (37, 1.74594898223876953125e+01) (38, -1.38806848526000976562e+01) (39, 1.05730915069580078125e+00) (40, 1.53379592895507812500e+01) (41, -4.49367046356201171875e+00) (42, 7.52101945877075195312e+00) (43, -6.66185235977172851562e+00) (44, -6.88427448272705078125e-01) (45, -1.77553939819335937500e+01) (46, 7.73916578292846679688e+00) (47, 3.79671335220336914062e+00) (48, -1.01866254806518554688e+01) (49, 1.83559799194335937500e+01) (50, 9.91815757751464843750e+00) (51, -1.51342964172363281250e+01) (52, -1.11644601821899414062e+01) (53, 1.08949089050292968750e+00) (54, 7.10814189910888671875e+00) (55, -7.44269657135009765625e+00) (56, 1.75744285583496093750e+01) (57, 1.17734479904174804688e+01) (58, 1.98316402435302734375e+01) (59, -4.64792871475219726562e+00) (60, -5.20590353012084960938e+00) (61, 9.78490257263183593750e+00) (62, -3.25743961334228515625e+00) (63, 1.08335199356079101562e+01) (64, 7.14031553268432617188e+00) (65, 1.16187274456024169922e+00) (66, -7.25461101531982421875e+00) (67, -1.51850128173828125000e+01) (61, -7.54017233848571777344e-02) (62, 2.78518080711364746094e+00) (63, -1.27781467437744140625e+01) (64, 1.69314193725585937500e+01) (65, 5.85484218597412109375e+00) (66, -1.10227012634277343750e+01) (67, -7.10027599334716796875e+00) (61, -4.54756546020507812500e+00) (62, -4.16762638092041015625e+00) (63, 9.39228820800781250000e+00) (64, 4.47950792312622070312e+00) (65, 2.13159847259521484375e+00) (66, 1.05710029602050781250e+01) (67, -1.35801706314086914062e+01) (61, -3.35043811798095703125e+00) (62, 2.95924949645996093750e+00) (63, -8.44182968139648437500e+00) (64, 3.28456854820251464844e+00) (65, -2.72476005554199218750e+01) (66, -1.78434336185455322266e+00) (67, 1.09526796340942382812e+01) 
