FANN_FLO_2.1
num_layers=3
learning_rate=0.800000
connection_rate=1.000000
network_type=0
learning_momentum=0.000000
training_algorithm=0
train_error_function=1
train_stop_function=0
cascade_output_change_fraction=0.010000
quickprop_decay=-0.000100
quickprop_mu=1.750000
rprop_increase_factor=1.200000
rprop_decrease_factor=0.500000
rprop_delta_min=0.000000
rprop_delta_max=50.000000
rprop_delta_zero=0.100000
cascade_output_stagnation_epochs=12
cascade_candidate_change_fraction=0.010000
cascade_candidate_stagnation_epochs=12
cascade_max_out_epochs=150
cascade_min_out_epochs=50
cascade_max_cand_epochs=150
cascade_min_cand_epochs=50
cascade_num_candidate_groups=2
bit_fail_limit=3.49999994039535522461e-01
cascade_candidate_limit=1.00000000000000000000e+03
cascade_weight_multiplier=4.00000005960464477539e-01
cascade_activation_functions_count=10
cascade_activation_functions=3 5 7 8 10 11 14 15 16 17 
cascade_activation_steepnesses_count=4
cascade_activation_steepnesses=2.50000000000000000000e-01 5.00000000000000000000e-01 7.50000000000000000000e-01 1.00000000000000000000e+00 
layer_sizes=61 7 5 
scale_included=0
neurons (num_inputs, activation_function, activation_steepness)=(0, 0, 0.00000000000000000000e+00) (0, 0, 0.00000000000000000000e+00) (0, 0, 0.00000000000000000000e+00) (0, 0, 0.00000000000000000000e+00) (0, 0, 0.00000000000000000000e+00) (0, 0, 0.00000000000000000000e+00) (0, 0, 0.00000000000000000000e+00) (0, 0, 0.00000000000000000000e+00) (0, 0, 0.00000000000000000000e+00) (0, 0, 0.00000000000000000000e+00) (0, 0, 0.00000000000000000000e+00) (0, 0, 0.00000000000000000000e+00) (0, 0, 0.00000000000000000000e+00) (0, 0, 0.00000000000000000000e+00) (0, 0, 0.00000000000000000000e+00) (0, 0, 0.00000000000000000000e+00) (0, 0, 0.00000000000000000000e+00) (0, 0, 0.00000000000000000000e+00) (0, 0, 0.00000000000000000000e+00) (0, 0, 0.00000000000000000000e+00) (0, 0, 0.00000000000000000000e+00) (0, 0, 0.00000000000000000000e+00) (0, 0, 0.00000000000000000000e+00) (0, 0, 0.00000000000000000000e+00) (0, 0, 0.00000000000000000000e+00) (0, 0, 0.00000000000000000000e+00) (0, 0, 0.00000000000000000000e+00) (0, 0, 0.00000000000000000000e+00) (0, 0, 0.00000000000000000000e+00) (0, 0, 0.00000000000000000000e+00) (0, 0, 0.00000000000000000000e+00) (0, 0, 0.00000000000000000000e+00) (0, 0, 0.00000000000000000000e+00) (0, 0, 0.00000000000000000000e+00) (0, 0, 0.00000000000000000000e+00) (0, 0, 0.00000000000000000000e+00) (0, 0, 0.00000000000000000000e+00) (0, 0, 0.00000000000000000000e+00) (0, 0, 0.00000000000000000000e+00) (0, 0, 0.00000000000000000000e+00) (0, 0, 0.00000000000000000000e+00) (0, 0, 0.00000000000000000000e+00) (0, 0, 0.00000000000000000000e+00) (0, 0, 0.00000000000000000000e+00) (0, 0, 0.00000000000000000000e+00) (0, 0, 0.00000000000000000000e+00) (0, 0, 0.00000000000000000000e+00) (0, 0, 0.00000000000000000000e+00) (0, 0, 0.00000000000000000000e+00) (0, 0, 0.00000000000000000000e+00) (0, 0, 0.00000000000000000000e+00) (0, 0, 0.00000000000000000000e+00) (0, 0, 0.00000000000000000000e+00) (0, 0, 0.00000000000000000000e+00) (0, 0, 0.00000000000000000000e+00) (0, 0, 0.00000000000000000000e+00) (0, 0, 0.00000000000000000000e+00) (0, 0, 0.00000000000000000000e+00) (0, 0, 0.00000000000000000000e+00) (0, 0, 0.00000000000000000000e+00) (0, 0, 0.00000000000000000000e+00) (61, 3, 5.00000000000000000000e-01) (61, 3, 5.00000000000000000000e-01) (61, 3, 5.00000000000000000000e-01) (61, 3, 5.00000000000000000000e-01) (61, 3, 5.00000000000000000000e-01) (61, 3, 5.00000000000000000000e-01) (0, 3, 0.00000000000000000000e+00) (7, 3, 5.00000000000000000000e-01) (7, 3, 5.00000000000000000000e-01) (7, 3, 5.00000000000000000000e-01) (7, 3, 5.00000000000000000000e-01) (0, 3, 0.00000000000000000000e+00) 
connections (connected_to_neuron, weight)=(0, -1.62641353607177734375e+01) (1, 3.57121009826660156250e+01) (2, 1.01065778732299804688e+01) (3, 3.52705459594726562500e+01) (4, -1.65193691253662109375e+01) (5, 2.47096118927001953125e+01) (6, -2.56524848937988281250e+00) (7, 5.14057388305664062500e+01) (8, 6.56808757781982421875e+00) (9, 3.15991497039794921875e+01) (10, 3.70196294784545898438e+00) (11, -4.00284500122070312500e+01) (12, -1.13138227462768554688e+01) (13, -7.28211307525634765625e+00) (14, -1.67427742481231689453e+00) (15, -2.54234242439270019531e+00) (16, -5.20985221862792968750e+00) (17, -3.53120613098144531250e+01) (18, -2.70550174713134765625e+01) (19, 2.85614547729492187500e+01) (20, 4.67081546783447265625e+00) (21, -4.89945793151855468750e+00) (22, 1.53730201721191406250e+01) (23, 2.16581268310546875000e+01) (24, -3.85729670524597167969e+00) (25, 3.49115409851074218750e+01) (26, 1.54643213748931884766e+00) (27, -1.51623535156250000000e+01) (28, 6.52651596069335937500e+00) (29, -1.12831354141235351562e+01) (30, -2.58223509788513183594e+00) (31, -1.48575630187988281250e+01) (32, 2.63466529846191406250e+01) (33, -4.04518852233886718750e+01) (34, 9.50493693351745605469e-01) (35, 8.34589195251464843750e+00) (36, 2.52556190490722656250e+01) (37, -2.41653251647949218750e+01) (38, -5.64405059814453125000e+00) (39, -8.19142150878906250000e+00) (40, -1.57675480842590332031e+00) (41, 4.79499397277832031250e+01) (42, 2.93270740509033203125e+01) (43, -1.42892141342163085938e+01) (44, 5.25142288208007812500e+01) (45, 5.02294111251831054688e+00) (46, -3.11665773391723632812e+00) (47, 6.68727207183837890625e+00) (48, 1.47987709045410156250e+01) (49, -1.35582132339477539062e+01) (50, -1.88309249877929687500e+01) (51, 2.40911121368408203125e+01) (52, 9.67645835876464843750e+00) (53, 1.17466287612915039062e+01) (54, -2.59742469787597656250e+01) (55, -2.39519882202148437500e+00) (56, -5.81635665893554687500e+00) (57, -2.49086456298828125000e+01) (58, -1.74742279052734375000e+01) (59, 1.37680339813232421875e+01) (60, 1.00408840179443359375e+01) (0, 9.77455806732177734375e+00) (1, -2.49361553192138671875e+01) (2, 1.49040699005126953125e+01) (3, -3.00629186630249023438e+00) (4, -1.23284635543823242188e+01) (5, -2.78083381652832031250e+01) (6, 6.65517616271972656250e+00) (7, 1.23378467559814453125e+01) (8, -1.69170513153076171875e+01) (9, 1.62071495056152343750e+01) (10, -1.40976905822753906250e+01) (11, -2.23125648498535156250e+01) (12, -8.04863095283508300781e-01) (13, -4.58541202545166015625e+00) (14, 5.45458412170410156250e+00) (15, 1.28153026103973388672e+00) (16, 5.30194950103759765625e+00) (17, -2.00859622955322265625e+01) (18, 2.10520505905151367188e+00) (19, -4.41616475582122802734e-01) (20, 3.03833045959472656250e+01) (21, 6.93944931030273437500e+00) (22, 4.66797542572021484375e+00) (23, 2.63974876403808593750e+01) (24, 1.99415225982666015625e+01) (25, -2.08665132522583007812e+00) (26, -1.22174110412597656250e+01) (27, 6.28096160888671875000e+01) (28, 1.37265605926513671875e+01) (29, 2.02864627838134765625e+01) (30, 2.01061840057373046875e+01) (31, -2.59602012634277343750e+01) (32, 7.04082059860229492188e+00) (33, 2.15686359405517578125e+01) (34, -1.93549251556396484375e+01) (35, -3.34792900085449218750e+00) (36, -3.05083198547363281250e+01) (37, 1.32621955871582031250e+01) (38, -9.09470939636230468750e+00) (39, 2.47936820983886718750e+01) (40, 2.15303115844726562500e+01) (41, -2.31326246261596679688e+00) (42, -1.43237552642822265625e+01) (43, -2.35835037231445312500e+01) (44, 1.58179259300231933594e+00) (45, -1.27784147262573242188e+01) (46, -3.14649124145507812500e+01) (47, -2.65521106719970703125e+01) (48, -9.37310504913330078125e+00) (49, -5.67319679260253906250e+00) (50, 9.51079130172729492188e-01) (51, 4.76706457138061523438e+00) (52, -4.33894119262695312500e+01) (53, 6.55420351028442382812e+00) (54, -3.66415047645568847656e+00) (55, 2.70392227172851562500e+00) (56, -1.53298301696777343750e+01) (57, -1.54394874572753906250e+01) (58, 3.08684844970703125000e+01) (59, -6.64609622955322265625e+00) (60, 1.55562162399291992188e+00) (0, 3.03525400161743164062e+00) (1, 2.27338771820068359375e+01) (2, 7.69096851348876953125e+00) (3, 4.70482635498046875000e+00) (4, 2.75792922973632812500e+01) (5, -7.65255212783813476562e+00) (6, 1.60475463867187500000e+01) (7, 1.76194572448730468750e+01) (8, -6.01387634277343750000e+01) (9, 1.50407094955444335938e+01) (10, 5.51170349121093750000e+01) (11, -3.29142150878906250000e+01) (12, 5.40296459197998046875e+00) (13, 6.17452335357666015625e+00) (14, -2.06949024200439453125e+01) (15, -1.32901430130004882812e+01) (16, -1.81666240692138671875e+01) (17, -1.31542043685913085938e+01) (18, -2.71272811889648437500e+01) (19, -1.26611156463623046875e+01) (20, -1.14460048675537109375e+01) (21, -2.30442619323730468750e+01) (22, -1.21101598739624023438e+01) (23, 6.72930908203125000000e+01) (24, -8.88068675994873046875e+00) (25, 2.84683742523193359375e+01) (26, 2.70934367179870605469e+00) (27, -8.60850334167480468750e+00) (28, 2.81425781250000000000e+01) (29, -1.67608566284179687500e+01) (30, -1.29672861099243164062e+01) (31, -1.34832286834716796875e+00) (32, 1.81492652893066406250e+01) (33, 6.93914175033569335938e+00) (34, -2.83047351837158203125e+01) (35, -5.42969942092895507812e+00) (36, 5.26995229721069335938e+00) (37, 1.72165031433105468750e+01) (38, -5.06297302246093750000e+01) (39, 1.51431112289428710938e+01) (40, 5.56400680541992187500e+00) (41, 1.72632656097412109375e+01) (42, -5.89045166969299316406e-01) (43, -1.61430091857910156250e+01) (44, 3.27401280403137207031e+00) (45, 2.78976535797119140625e+01) (46, -4.76740646362304687500e+00) (47, 7.40101671218872070312e+00) (48, 1.02160453796386718750e+01) (49, -6.49492454528808593750e+00) (50, -4.67241144180297851562e+00) (51, 1.04395961761474609375e+00) (52, 3.78648877143859863281e+00) (53, 1.87261657714843750000e+01) (54, 3.15188097953796386719e+00) (55, -9.29349708557128906250e+00) (56, 4.62937211990356445312e+00) (57, 4.21214199066162109375e+00) (58, -1.36438918113708496094e+00) (59, 4.25736618041992187500e+00) (60, 3.36037015914916992188e+00) (0, 8.62390613555908203125e+00) (1, -9.73521804809570312500e+00) (2, -1.61672744750976562500e+01) (3, -2.11907043457031250000e+01) (4, -1.97486591339111328125e+01) (5, 1.06270208358764648438e+01) (6, 4.84614677429199218750e+01) (7, 1.76697559356689453125e+01) (8, 2.09653778076171875000e+01) (9, 1.10376253128051757812e+01) (10, -5.86243677139282226562e+00) (11, 1.38522758483886718750e+01) (12, -2.92121648788452148438e+00) (13, -2.59111309051513671875e+01) (14, -3.00750331878662109375e+01) (15, -4.60384941101074218750e+01) (16, 1.67325153350830078125e+01) (17, -9.78391838073730468750e+00) (18, 3.06048088073730468750e+01) (19, 2.94632034301757812500e+01) (20, -7.23673009872436523438e+00) (21, -2.03008995056152343750e+01) (22, 1.75268402099609375000e+01) (23, 3.28672294616699218750e+01) (24, -1.51799845695495605469e+00) (25, 1.21059427261352539062e+01) (26, 1.78378391265869140625e+01) (27, 3.48173093795776367188e+00) (28, -4.05618400573730468750e+01) (29, -3.77428016662597656250e+01) (30, 1.23903675079345703125e+01) (31, 1.86329555511474609375e+01) (32, 1.83212051391601562500e+01) (33, -1.47740650177001953125e+00) (34, 3.83766388893127441406e+00) (35, 1.48211698532104492188e+01) (36, 1.78182144165039062500e+01) (37, 1.31090908050537109375e+01) (38, 9.04857063293457031250e+00) (39, -1.29345536231994628906e-01) (40, -3.29859733581542968750e+01) (41, -6.46579551696777343750e+00) (42, -1.58426160812377929688e+01) (43, 2.52856216430664062500e+01) (44, -2.21422457695007324219e+00) (45, 1.34578113555908203125e+01) (46, -1.53818988800048828125e+00) (47, -1.66610479354858398438e-02) (48, -3.39069023132324218750e+01) (49, 2.26491909027099609375e+01) (50, -7.37180185317993164062e+00) (51, 6.29191207885742187500e+00) (52, -1.28508901596069335938e+01) (53, -7.88337755203247070312e+00) (54, -6.14456672668457031250e+01) (55, 2.23195972442626953125e+01) (56, 2.93708534240722656250e+01) (57, -5.12580947875976562500e+01) (58, 2.41968498229980468750e+01) (59, -6.13542318344116210938e+00) (60, 2.96149368286132812500e+01) (0, 1.95257225036621093750e+01) (1, 1.39465408325195312500e+01) (2, 1.40340976715087890625e+01) (3, -3.59575920104980468750e+01) (4, -2.89251918792724609375e+01) (5, -2.36046829223632812500e+01) (6, -2.53675785064697265625e+01) (7, -1.59409646987915039062e+01) (8, 1.17129878997802734375e+01) (9, 1.46938419342041015625e+01) (10, 5.93071889877319335938e+00) (11, 1.84854965209960937500e+01) (12, 3.13585162162780761719e+00) (13, 2.97271518707275390625e+01) (14, 1.46897783279418945312e+01) (15, 2.12332763671875000000e+01) (16, -8.58448982238769531250e+00) (17, -4.73318099975585937500e+01) (18, 1.86445999145507812500e+00) (19, -1.37864770889282226562e+01) (20, -2.07178058624267578125e+01) (21, -7.24289846420288085938e+00) (22, 2.80040855407714843750e+01) (23, -4.94753913879394531250e+01) (24, 2.04214630126953125000e+01) (25, -7.05395650863647460938e+00) (26, -1.88157005310058593750e+01) (27, 1.20052185058593750000e+01) (28, -3.27933387756347656250e+01) (29, -4.13584899902343750000e+01) (30, -2.35650658607482910156e+00) (31, 3.09518318176269531250e+01) (32, -1.20418910980224609375e+01) (33, 7.44142341613769531250e+00) (34, -2.64708786010742187500e+01) (35, -4.25810813903808593750e+00) (36, -1.75601243972778320312e+00) (37, 2.75163726806640625000e+01) (38, 1.94863796234130859375e-01) (39, 3.61830101013183593750e+01) (40, 6.56938171386718750000e+00) (41, -1.42411422729492187500e+01) (42, 2.23947925567626953125e+01) (43, -3.79113426208496093750e+01) (44, 3.69588613510131835938e+00) (45, 1.75998287200927734375e+01) (46, -3.65378665924072265625e+00) (47, 9.63712120056152343750e+00) (48, -2.92863798141479492188e+00) (49, 5.85622692108154296875e+00) (50, 6.61178231239318847656e-01) (51, 1.21840076446533203125e+01) (52, -1.58749961853027343750e+01) (53, 1.79857482910156250000e+01) (54, -4.85287971496582031250e+01) (55, -1.47800445556640625000e+01) (56, 5.08284797668457031250e+01) (57, -2.05328788757324218750e+01) (58, 1.81754493713378906250e+01) (59, -8.61786460876464843750e+00) (60, -1.77435398101806640625e+01) (0, -3.80012474060058593750e+01) (1, -2.30906810760498046875e+01) (2, -7.08143055438995361328e-01) (3, -8.17873573303222656250e+00) (4, 9.04072570800781250000e+00) (5, -1.33312473297119140625e+01) (6, 4.64044475555419921875e+00) (7, -5.21548271179199218750e+01) (8, 4.14840965270996093750e+01) (9, -1.27062520980834960938e+01) (10, 2.68865466117858886719e+00) (11, -6.96226930618286132812e+00) (12, -9.92471456527709960938e-01) (13, 9.68526744842529296875e+00) (14, 1.06669664382934570312e-01) (15, 3.55409507751464843750e+01) (16, -2.79441547393798828125e+01) (17, -7.93049001693725585938e+00) (18, -6.43491983413696289062e-01) (19, 1.47472209930419921875e+01) (20, -1.77415447235107421875e+01) (21, 1.86084098815917968750e+01) (22, -6.04041433334350585938e+00) (23, 2.97985954284667968750e+01) (24, -2.11395893096923828125e+01) (25, -9.89188194274902343750e+00) (26, -2.37097434997558593750e+01) (27, -3.46555862426757812500e+01) (28, -1.79462757110595703125e+01) (29, -5.40357351303100585938e+00) (30, 4.26678848266601562500e+00) (31, -1.75777130126953125000e+01) (32, -2.07595520019531250000e+01) (33, -1.69654846191406250000e+01) (34, -1.67572574615478515625e+01) (35, -7.02093458175659179688e+00) (36, -1.86569480895996093750e+01) (37, 3.38956177234649658203e-01) (38, 1.95805015563964843750e+01) (39, 1.31972074508666992188e+01) (40, -5.48999881744384765625e+00) (41, 8.30505132675170898438e-01) (42, 3.17650723457336425781e+00) (43, -4.17358160018920898438e-01) (44, -5.18108010292053222656e-02) (45, 1.77023220062255859375e+01) (46, -5.49765253067016601562e+00) (47, -2.49043922424316406250e+01) (48, 9.92980384826660156250e+00) (49, 1.25524587631225585938e+01) (50, 3.36827707290649414062e+00) (51, -1.46923980712890625000e+01) (52, 4.12373390197753906250e+01) (53, -1.73207206726074218750e+01) (54, 1.42233572006225585938e+01) (55, 1.08248109817504882812e+01) (56, -2.91120204925537109375e+01) (57, -1.56460809707641601562e+00) (58, -1.30409679412841796875e+01) (59, 3.25402092933654785156e+00) (60, -1.18350028991699218750e+00) (61, 1.56582794189453125000e+01) (62, 1.24623498916625976562e+01) (63, 1.03169326782226562500e+01) (64, -1.10705213546752929688e+01) (65, -1.56761875152587890625e+01) (66, -3.75122337341308593750e+01) (67, -2.13057632446289062500e+01) (61, -2.72025680541992187500e+00) (62, 1.29896593093872070312e+01) (63, -5.09370231628417968750e+01) (64, 1.47761449813842773438e+01) (65, 1.75034694671630859375e+01) (66, -2.45973281860351562500e+01) (67, 3.01381897926330566406e+00) (61, -3.37685966491699218750e+01) (62, 2.77815780639648437500e+01) (63, 7.54160690307617187500e+00) (64, 4.03349637985229492188e+00) (65, -2.62873744964599609375e+00) (66, -1.00357437133789062500e+01) (67, -1.34333496093750000000e+01) (61, -2.79471435546875000000e+01) (62, 2.08816957473754882812e+00) (63, -1.88278942108154296875e+01) (64, 2.28746356964111328125e+01) (65, -2.60077304840087890625e+01) (66, 3.46541519165039062500e+01) (67, -7.65040302276611328125e+00) 
