FANN_FLO_2.1
num_layers=3
learning_rate=0.800000
connection_rate=1.000000
network_type=0
learning_momentum=0.000000
training_algorithm=0
train_error_function=1
train_stop_function=0
cascade_output_change_fraction=0.010000
quickprop_decay=-0.000100
quickprop_mu=1.750000
rprop_increase_factor=1.200000
rprop_decrease_factor=0.500000
rprop_delta_min=0.000000
rprop_delta_max=50.000000
rprop_delta_zero=0.100000
cascade_output_stagnation_epochs=12
cascade_candidate_change_fraction=0.010000
cascade_candidate_stagnation_epochs=12
cascade_max_out_epochs=150
cascade_min_out_epochs=50
cascade_max_cand_epochs=150
cascade_min_cand_epochs=50
cascade_num_candidate_groups=2
bit_fail_limit=3.49999994039535522461e-01
cascade_candidate_limit=1.00000000000000000000e+03
cascade_weight_multiplier=4.00000005960464477539e-01
cascade_activation_functions_count=10
cascade_activation_functions=3 5 7 8 10 11 14 15 16 17 
cascade_activation_steepnesses_count=4
cascade_activation_steepnesses=2.50000000000000000000e-01 5.00000000000000000000e-01 7.50000000000000000000e-01 1.00000000000000000000e+00 
layer_sizes=61 7 5 
scale_included=0
neurons (num_inputs, activation_function, activation_steepness)=(0, 0, 0.00000000000000000000e+00) (0, 0, 0.00000000000000000000e+00) (0, 0, 0.00000000000000000000e+00) (0, 0, 0.00000000000000000000e+00) (0, 0, 0.00000000000000000000e+00) (0, 0, 0.00000000000000000000e+00) (0, 0, 0.00000000000000000000e+00) (0, 0, 0.00000000000000000000e+00) (0, 0, 0.00000000000000000000e+00) (0, 0, 0.00000000000000000000e+00) (0, 0, 0.00000000000000000000e+00) (0, 0, 0.00000000000000000000e+00) (0, 0, 0.00000000000000000000e+00) (0, 0, 0.00000000000000000000e+00) (0, 0, 0.00000000000000000000e+00) (0, 0, 0.00000000000000000000e+00) (0, 0, 0.00000000000000000000e+00) (0, 0, 0.00000000000000000000e+00) (0, 0, 0.00000000000000000000e+00) (0, 0, 0.00000000000000000000e+00) (0, 0, 0.00000000000000000000e+00) (0, 0, 0.00000000000000000000e+00) (0, 0, 0.00000000000000000000e+00) (0, 0, 0.00000000000000000000e+00) (0, 0, 0.00000000000000000000e+00) (0, 0, 0.00000000000000000000e+00) (0, 0, 0.00000000000000000000e+00) (0, 0, 0.00000000000000000000e+00) (0, 0, 0.00000000000000000000e+00) (0, 0, 0.00000000000000000000e+00) (0, 0, 0.00000000000000000000e+00) (0, 0, 0.00000000000000000000e+00) (0, 0, 0.00000000000000000000e+00) (0, 0, 0.00000000000000000000e+00) (0, 0, 0.00000000000000000000e+00) (0, 0, 0.00000000000000000000e+00) (0, 0, 0.00000000000000000000e+00) (0, 0, 0.00000000000000000000e+00) (0, 0, 0.00000000000000000000e+00) (0, 0, 0.00000000000000000000e+00) (0, 0, 0.00000000000000000000e+00) (0, 0, 0.00000000000000000000e+00) (0, 0, 0.00000000000000000000e+00) (0, 0, 0.00000000000000000000e+00) (0, 0, 0.00000000000000000000e+00) (0, 0, 0.00000000000000000000e+00) (0, 0, 0.00000000000000000000e+00) (0, 0, 0.00000000000000000000e+00) (0, 0, 0.00000000000000000000e+00) (0, 0, 0.00000000000000000000e+00) (0, 0, 0.00000000000000000000e+00) (0, 0, 0.00000000000000000000e+00) (0, 0, 0.00000000000000000000e+00) (0, 0, 0.00000000000000000000e+00) (0, 0, 0.00000000000000000000e+00) (0, 0, 0.00000000000000000000e+00) (0, 0, 0.00000000000000000000e+00) (0, 0, 0.00000000000000000000e+00) (0, 0, 0.00000000000000000000e+00) (0, 0, 0.00000000000000000000e+00) (0, 0, 0.00000000000000000000e+00) (61, 3, 5.00000000000000000000e-01) (61, 3, 5.00000000000000000000e-01) (61, 3, 5.00000000000000000000e-01) (61, 3, 5.00000000000000000000e-01) (61, 3, 5.00000000000000000000e-01) (61, 3, 5.00000000000000000000e-01) (0, 3, 0.00000000000000000000e+00) (7, 3, 5.00000000000000000000e-01) (7, 3, 5.00000000000000000000e-01) (7, 3, 5.00000000000000000000e-01) (7, 3, 5.00000000000000000000e-01) (0, 3, 0.00000000000000000000e+00) 
connections (connected_to_neuron, weight)=(0, -1.03151426315307617188e+01) (1, 2.74472923278808593750e+01) (2, 1.69293117523193359375e+01) (3, 3.37149620056152343750e+01) (4, -2.37026767730712890625e+01) (5, -1.13502514362335205078e+00) (6, -6.00752830505371093750e+00) (7, 4.64528236389160156250e+01) (8, 5.17021894454956054688e+00) (9, 1.51777667999267578125e+01) (10, 6.50375652313232421875e+00) (11, -3.57333831787109375000e+01) (12, -1.47294783592224121094e+00) (13, -5.93798208236694335938e+00) (14, 1.58243370056152343750e+01) (15, 7.41342782974243164062e+00) (16, -2.33779692649841308594e+00) (17, -3.03104171752929687500e+01) (18, -2.02852973937988281250e+01) (19, 2.20502471923828125000e+01) (20, 1.32619905471801757812e+01) (21, -5.57363319396972656250e+00) (22, 5.17278385162353515625e+00) (23, 2.46445503234863281250e+01) (24, -5.00712585449218750000e+00) (25, 2.52917633056640625000e+01) (26, -1.46013107299804687500e+01) (27, -2.17751636505126953125e+01) (28, 1.16189031600952148438e+01) (29, -1.18485584259033203125e+01) (30, 7.32638359069824218750e-01) (31, -1.71877479553222656250e+01) (32, 2.70502281188964843750e+01) (33, -3.34543037414550781250e+01) (34, 3.82054615020751953125e+00) (35, 3.28787231445312500000e+00) (36, 1.58492088317871093750e+01) (37, -2.26492729187011718750e+01) (38, -6.40023612976074218750e+00) (39, -1.27946352958679199219e+00) (40, -4.25557851791381835938e-01) (41, 4.69555397033691406250e+01) (42, 2.42436332702636718750e+01) (43, -4.81893837451934814453e-01) (44, 5.56747512817382812500e+01) (45, -3.33337211608886718750e+00) (46, -7.95306968688964843750e+00) (47, 8.86313819885253906250e+00) (48, 8.21368122100830078125e+00) (49, -1.26260414123535156250e+01) (50, -1.50636672973632812500e+01) (51, 2.25173244476318359375e+01) (52, 1.60529670715332031250e+01) (53, 1.47767381668090820312e+01) (54, -2.36675434112548828125e+01) (55, -1.38233118057250976562e+01) (56, 2.69098901748657226562e+00) (57, -2.98244075775146484375e+01) (58, -1.20872926712036132812e+01) (59, 8.29459667205810546875e+00) (60, 6.27405881881713867188e+00) (0, 1.27796659469604492188e+01) (1, -2.30463428497314453125e+01) (2, -4.63108348846435546875e+00) (3, -3.74293541908264160156e+00) (4, -2.32754421234130859375e+01) (5, -1.48960819244384765625e+01) (6, -7.76392650604248046875e+00) (7, -3.88376665115356445312e+00) (8, -3.13252639770507812500e+01) (9, 9.89720463752746582031e-01) (10, -1.46673936843872070312e+01) (11, -2.46345539093017578125e+01) (12, 8.57593345642089843750e+00) (13, -1.54078602790832519531e+00) (14, -2.99057722091674804688e+00) (15, -3.34235978126525878906e+00) (16, -2.26805648803710937500e+01) (17, -2.49662094116210937500e+01) (18, 9.11993980407714843750e-01) (19, -3.59942746162414550781e+00) (20, 5.79566287994384765625e+00) (21, -3.60189390182495117188e+00) (22, 1.18604850769042968750e+01) (23, 2.44075660705566406250e+01) (24, 1.70912609100341796875e+01) (25, 3.69910478591918945312e+00) (26, -7.82842493057250976562e+00) (27, 4.37443923950195312500e+01) (28, 9.66882991790771484375e+00) (29, 2.26388912200927734375e+01) (30, 1.94044075012207031250e+01) (31, -3.03257160186767578125e+01) (32, -1.88803732395172119141e+00) (33, 2.35633029937744140625e+01) (34, -7.16270923614501953125e+00) (35, 9.59603881835937500000e+00) (36, -3.07687187194824218750e+01) (37, 8.15203189849853515625e+00) (38, -8.99929332733154296875e+00) (39, 1.90189075469970703125e+01) (40, 3.04241447448730468750e+01) (41, 2.37225818634033203125e+01) (42, -5.12519598007202148438e-01) (43, -1.21874122619628906250e+01) (44, -1.00808453559875488281e+00) (45, -2.35365438461303710938e+00) (46, -2.04371871948242187500e+01) (47, -2.38249797821044921875e+01) (48, -2.66056957244873046875e+01) (49, -8.50995254516601562500e+00) (50, -3.41985225677490234375e-01) (51, -6.08187675476074218750e+00) (52, -3.42344665527343750000e+01) (53, 6.64008712768554687500e+00) (54, -1.13000717163085937500e+01) (55, -6.55967187881469726562e+00) (56, 1.66076731681823730469e+00) (57, -1.28137798309326171875e+01) (58, 2.59302673339843750000e+01) (59, 1.38814868927001953125e+01) (60, 1.21343984603881835938e+01) (0, -1.03799095153808593750e+01) (1, 2.44635276794433593750e+01) (2, 2.32126927375793457031e+00) (3, -4.30108785629272460938e+00) (4, 2.33063774108886718750e+01) (5, -3.97845125198364257812e+00) (6, 1.49203720092773437500e+01) (7, 1.93173370361328125000e+01) (8, -4.13833885192871093750e+01) (9, 2.81947898864746093750e+01) (10, 4.04236488342285156250e+01) (11, -2.29517498016357421875e+01) (12, -1.00485563278198242188e+01) (13, 5.29791545867919921875e+00) (14, -2.67316150665283203125e+01) (15, 9.91322398185729980469e-01) (16, -2.39519004821777343750e+01) (17, -1.28078536987304687500e+01) (18, -2.57613334655761718750e+01) (19, -2.65189857482910156250e+01) (20, -1.27361364364624023438e+01) (21, -1.00036182403564453125e+01) (22, -2.37710227966308593750e+01) (23, 5.43133430480957031250e+01) (24, -1.68958358764648437500e+01) (25, 2.17241859436035156250e+01) (26, 1.44630126953125000000e+01) (27, 3.26112818717956542969e+00) (28, 9.32411670684814453125e+00) (29, -2.29453697204589843750e+01) (30, -1.67659988403320312500e+01) (31, 3.97732734680175781250e+00) (32, -1.13975727558135986328e+00) (33, 2.44913825988769531250e+01) (34, -1.57171955108642578125e+01) (35, 5.09045886993408203125e+00) (36, -8.73958492279052734375e+00) (37, 1.08959798812866210938e+01) (38, -3.25272674560546875000e+01) (39, 1.87106494903564453125e+01) (40, 1.02217197418212890625e+01) (41, 2.25551967620849609375e+01) (42, -3.65929031372070312500e+00) (43, -1.59276752471923828125e+01) (44, -1.93939328193664550781e+00) (45, 3.15769977569580078125e+01) (46, -2.77366924285888671875e+00) (47, 5.18915700912475585938e+00) (48, -4.23772096633911132812e+00) (49, -1.62263412475585937500e+01) (50, -2.13069891929626464844e+00) (51, 1.75758540630340576172e+00) (52, 1.90491735935211181641e-01) (53, 1.50675983428955078125e+01) (54, 9.19478774070739746094e-01) (55, -1.34621610641479492188e+01) (56, -8.03113746643066406250e+00) (57, -5.38242769241333007812e+00) (58, 5.14476251602172851562e+00) (59, -3.53715848922729492188e+00) (60, 3.59842276573181152344e+00) (0, 1.28818998336791992188e+01) (1, -1.82637023925781250000e+01) (2, -1.57059144973754882812e+01) (3, -1.85179386138916015625e+01) (4, -2.28041572570800781250e+01) (5, 1.04016292095184326172e+00) (6, 3.23324737548828125000e+01) (7, 1.18051013946533203125e+01) (8, 2.76077804565429687500e+01) (9, 8.94125556945800781250e+00) (10, 5.22381544113159179688e+00) (11, 2.15366668701171875000e+01) (12, -5.61097288131713867188e+00) (13, -1.82030715942382812500e+01) (14, -3.02857875823974609375e+01) (15, -4.89326133728027343750e+01) (16, -6.56882345676422119141e-01) (17, 1.06977176666259765625e+00) (18, 3.75949668884277343750e+01) (19, 1.17412662506103515625e+01) (20, -1.17228584289550781250e+01) (21, -1.55178527832031250000e+01) (22, 2.44283161163330078125e+01) (23, 3.47006225585937500000e+01) (24, -1.25761156082153320312e+01) (25, 2.28077735900878906250e+01) (26, 9.95083141326904296875e+00) (27, 6.72622013092041015625e+00) (28, -2.90267219543457031250e+01) (29, -2.66635627746582031250e+01) (30, -1.51114439964294433594e+00) (31, 1.35955095291137695312e+01) (32, 1.43538351058959960938e+01) (33, 1.89893507957458496094e+00) (34, 1.52673232555389404297e+00) (35, -4.78285408020019531250e+00) (36, 1.48115682601928710938e+01) (37, -6.37428283691406250000e+00) (38, -4.82398653030395507812e+00) (39, -1.67024004459381103516e+00) (40, -1.58856229782104492188e+01) (41, -1.38262319564819335938e+01) (42, -7.58220291137695312500e+00) (43, 1.93858051300048828125e+01) (44, 1.31365022659301757812e+01) (45, 1.15423927307128906250e+01) (46, 1.63019931316375732422e+00) (47, -1.62683506011962890625e+01) (48, -4.34505081176757812500e+01) (49, 1.85008106231689453125e+01) (50, -2.07947134971618652344e-01) (51, 7.26440477371215820312e+00) (52, 7.85263252258300781250e+00) (53, -1.71343097686767578125e+01) (54, -4.33298416137695312500e+01) (55, 1.98341560363769531250e+01) (56, 1.88988418579101562500e+01) (57, -2.80125904083251953125e+01) (58, 2.24930095672607421875e+00) (59, -1.53316268920898437500e+01) (60, 1.73941345214843750000e+01) (0, 2.01758861541748046875e-01) (1, 2.98595294952392578125e+01) (2, 1.06238155364990234375e+01) (3, -3.90382537841796875000e+01) (4, -2.38793888092041015625e+01) (5, -2.15177040100097656250e+01) (6, -3.88810272216796875000e+01) (7, -2.46212310791015625000e+01) (8, 1.19611568450927734375e+01) (9, 6.54561090469360351562e+00) (10, 4.38754415512084960938e+00) (11, 1.61674766540527343750e+01) (12, -4.81983089447021484375e+00) (13, 1.89062633514404296875e+01) (14, 1.37695236206054687500e+01) (15, 1.93864078521728515625e+01) (16, -5.62394571304321289062e+00) (17, -5.07596588134765625000e+01) (18, -3.80962061882019042969e+00) (19, -2.74574565887451171875e+01) (20, -3.84121584892272949219e+00) (21, -1.21925506591796875000e+01) (22, 3.18684310913085937500e+01) (23, -3.96170654296875000000e+01) (24, 9.76443004608154296875e+00) (25, -1.28409695625305175781e+00) (26, -1.05245409011840820312e+01) (27, 1.26789608001708984375e+01) (28, -3.77472419738769531250e+01) (29, -3.49667625427246093750e+01) (30, -7.00209188461303710938e+00) (31, 2.25717811584472656250e+01) (32, -9.22854614257812500000e+00) (33, -3.28393363952636718750e+00) (34, -1.22655305862426757812e+01) (35, -7.39851856231689453125e+00) (36, -3.48211765289306640625e+00) (37, 1.78585529327392578125e+01) (38, -6.69353103637695312500e+00) (39, 4.53536415100097656250e+01) (40, 1.48066911697387695312e+01) (41, -2.18282604217529296875e+01) (42, 2.56872901916503906250e+01) (43, -5.16293220520019531250e+01) (44, 8.31314182281494140625e+00) (45, 2.93116645812988281250e+01) (46, 8.57640552520751953125e+00) (47, 3.97181439399719238281e+00) (48, -7.21665239334106445312e+00) (49, -4.10692882537841796875e+00) (50, 2.92083702087402343750e+01) (51, 1.39377307891845703125e+01) (52, -2.20123500823974609375e+01) (53, 7.33442974090576171875e+00) (54, -3.96873359680175781250e+01) (55, -9.73392581939697265625e+00) (56, 4.94100227355957031250e+01) (57, -1.32478017807006835938e+01) (58, 3.39011878967285156250e+01) (59, -4.59080982208251953125e+00) (60, -1.16769924163818359375e+01) (0, -4.15480232238769531250e+01) (1, -2.13528594970703125000e+01) (2, 1.56767463684082031250e+01) (3, -1.21621494293212890625e+01) (4, 7.42195558547973632812e+00) (5, -1.42469701766967773438e+01) (6, 9.37206172943115234375e+00) (7, -3.27113990783691406250e+01) (8, 3.41625518798828125000e+01) (9, -2.04306869506835937500e+01) (10, -9.70535278320312500000e-01) (11, 8.75237941741943359375e-01) (12, -4.58260440826416015625e+00) (13, 2.68387007713317871094e+00) (14, -4.68343353271484375000e+00) (15, 3.53287315368652343750e+01) (16, -3.90395851135253906250e+01) (17, -3.01766281127929687500e+01) (18, -3.92372035980224609375e+00) (19, 1.44935531616210937500e+01) (20, -1.78385772705078125000e+01) (21, 2.08934707641601562500e+01) (22, -1.10858259201049804688e+01) (23, 8.24868488311767578125e+00) (24, -2.27215538024902343750e+01) (25, -9.01882076263427734375e+00) (26, -1.82531681060791015625e+01) (27, -3.81619987487792968750e+01) (28, -1.41822891235351562500e+01) (29, -2.47230148315429687500e+00) (30, 5.11039066314697265625e+00) (31, -1.31450901031494140625e+01) (32, -2.95944480895996093750e+01) (33, -9.57615280151367187500e+00) (34, -5.55631875991821289062e+00) (35, 1.31084609031677246094e+00) (36, -1.92838993072509765625e+01) (37, -1.09954853057861328125e+01) (38, 3.01926212310791015625e+01) (39, 1.96745014190673828125e+01) (40, -2.14127349853515625000e+01) (41, -1.80274295806884765625e+00) (42, 1.01895227432250976562e+01) (43, 9.15644454956054687500e+00) (44, -2.04770326614379882812e+00) (45, 4.95515441894531250000e+00) (46, -1.14500474929809570312e+01) (47, -2.49892539978027343750e+01) (48, 1.81662368774414062500e+01) (49, 6.13539934158325195312e+00) (50, 2.24640274047851562500e+00) (51, -1.41066150665283203125e+01) (52, 3.88614807128906250000e+01) (53, -2.16857280731201171875e+01) (54, 8.47815799713134765625e+00) (55, 2.08328132629394531250e+01) (56, -2.15163059234619140625e+01) (57, 2.65346622467041015625e+00) (58, -6.98880386352539062500e+00) (59, 1.94133234024047851562e+00) (60, -6.85931634902954101562e+00) (61, 1.09992942810058593750e+01) (62, 1.59399509429931640625e+01) (63, 3.16556024551391601562e+00) (64, -8.90017127990722656250e+00) (65, -7.53103494644165039062e+00) (66, -3.62507209777832031250e+01) (67, -2.03544921875000000000e+01) (61, -3.81603169441223144531e+00) (62, 1.96304340362548828125e+01) (63, -3.95878944396972656250e+01) (64, 1.19422512054443359375e+01) (65, 1.15299949645996093750e+01) (66, -1.55801801681518554688e+01) (67, -3.98964834213256835938e+00) (61, -3.63601303100585937500e+01) (62, 2.39320182800292968750e+01) (63, 8.65017127990722656250e+00) (64, -1.15248489379882812500e+00) (65, -4.61971950531005859375e+00) (66, -6.75576019287109375000e+00) (67, -2.89980626106262207031e+00) (61, -1.61361389160156250000e+01) (62, 1.62917733192443847656e-01) (63, -1.84018478393554687500e+01) (64, 1.70172786712646484375e+01) (65, -1.01552906036376953125e+01) (66, 2.53308258056640625000e+01) (67, -7.62877750396728515625e+00) 
