FANN_FLO_2.1
num_layers=3
learning_rate=0.800000
connection_rate=1.000000
network_type=0
learning_momentum=0.000000
training_algorithm=0
train_error_function=1
train_stop_function=0
cascade_output_change_fraction=0.010000
quickprop_decay=-0.000100
quickprop_mu=1.750000
rprop_increase_factor=1.200000
rprop_decrease_factor=0.500000
rprop_delta_min=0.000000
rprop_delta_max=50.000000
rprop_delta_zero=0.100000
cascade_output_stagnation_epochs=12
cascade_candidate_change_fraction=0.010000
cascade_candidate_stagnation_epochs=12
cascade_max_out_epochs=150
cascade_min_out_epochs=50
cascade_max_cand_epochs=150
cascade_min_cand_epochs=50
cascade_num_candidate_groups=2
bit_fail_limit=3.49999994039535522461e-01
cascade_candidate_limit=1.00000000000000000000e+03
cascade_weight_multiplier=4.00000005960464477539e-01
cascade_activation_functions_count=10
cascade_activation_functions=3 5 7 8 10 11 14 15 16 17 
cascade_activation_steepnesses_count=4
cascade_activation_steepnesses=2.50000000000000000000e-01 5.00000000000000000000e-01 7.50000000000000000000e-01 1.00000000000000000000e+00 
layer_sizes=61 7 5 
scale_included=0
neurons (num_inputs, activation_function, activation_steepness)=(0, 0, 0.00000000000000000000e+00) (0, 0, 0.00000000000000000000e+00) (0, 0, 0.00000000000000000000e+00) (0, 0, 0.00000000000000000000e+00) (0, 0, 0.00000000000000000000e+00) (0, 0, 0.00000000000000000000e+00) (0, 0, 0.00000000000000000000e+00) (0, 0, 0.00000000000000000000e+00) (0, 0, 0.00000000000000000000e+00) (0, 0, 0.00000000000000000000e+00) (0, 0, 0.00000000000000000000e+00) (0, 0, 0.00000000000000000000e+00) (0, 0, 0.00000000000000000000e+00) (0, 0, 0.00000000000000000000e+00) (0, 0, 0.00000000000000000000e+00) (0, 0, 0.00000000000000000000e+00) (0, 0, 0.00000000000000000000e+00) (0, 0, 0.00000000000000000000e+00) (0, 0, 0.00000000000000000000e+00) (0, 0, 0.00000000000000000000e+00) (0, 0, 0.00000000000000000000e+00) (0, 0, 0.00000000000000000000e+00) (0, 0, 0.00000000000000000000e+00) (0, 0, 0.00000000000000000000e+00) (0, 0, 0.00000000000000000000e+00) (0, 0, 0.00000000000000000000e+00) (0, 0, 0.00000000000000000000e+00) (0, 0, 0.00000000000000000000e+00) (0, 0, 0.00000000000000000000e+00) (0, 0, 0.00000000000000000000e+00) (0, 0, 0.00000000000000000000e+00) (0, 0, 0.00000000000000000000e+00) (0, 0, 0.00000000000000000000e+00) (0, 0, 0.00000000000000000000e+00) (0, 0, 0.00000000000000000000e+00) (0, 0, 0.00000000000000000000e+00) (0, 0, 0.00000000000000000000e+00) (0, 0, 0.00000000000000000000e+00) (0, 0, 0.00000000000000000000e+00) (0, 0, 0.00000000000000000000e+00) (0, 0, 0.00000000000000000000e+00) (0, 0, 0.00000000000000000000e+00) (0, 0, 0.00000000000000000000e+00) (0, 0, 0.00000000000000000000e+00) (0, 0, 0.00000000000000000000e+00) (0, 0, 0.00000000000000000000e+00) (0, 0, 0.00000000000000000000e+00) (0, 0, 0.00000000000000000000e+00) (0, 0, 0.00000000000000000000e+00) (0, 0, 0.00000000000000000000e+00) (0, 0, 0.00000000000000000000e+00) (0, 0, 0.00000000000000000000e+00) (0, 0, 0.00000000000000000000e+00) (0, 0, 0.00000000000000000000e+00) (0, 0, 0.00000000000000000000e+00) (0, 0, 0.00000000000000000000e+00) (0, 0, 0.00000000000000000000e+00) (0, 0, 0.00000000000000000000e+00) (0, 0, 0.00000000000000000000e+00) (0, 0, 0.00000000000000000000e+00) (0, 0, 0.00000000000000000000e+00) (61, 3, 5.00000000000000000000e-01) (61, 3, 5.00000000000000000000e-01) (61, 3, 5.00000000000000000000e-01) (61, 3, 5.00000000000000000000e-01) (61, 3, 5.00000000000000000000e-01) (61, 3, 5.00000000000000000000e-01) (0, 3, 0.00000000000000000000e+00) (7, 3, 5.00000000000000000000e-01) (7, 3, 5.00000000000000000000e-01) (7, 3, 5.00000000000000000000e-01) (7, 3, 5.00000000000000000000e-01) (0, 3, 0.00000000000000000000e+00) 
connections (connected_to_neuron, weight)=(0, 2.60030441284179687500e+01) (1, 3.16231346130371093750e+00) (2, 7.92742013931274414062e+00) (3, 4.19731292724609375000e+01) (4, 4.32317352294921875000e+00) (5, -2.01045608520507812500e+01) (6, 2.05284996032714843750e+01) (7, 1.91835079193115234375e+01) (8, -1.80991706848144531250e+01) (9, 1.18647372722625732422e+00) (10, 3.19107055664062500000e+00) (11, 1.48686265945434570312e+01) (12, -6.08160924911499023438e+00) (13, -1.84739456176757812500e+01) (14, -2.96798658370971679688e+00) (15, -7.79080533981323242188e+00) (16, -2.20243625640869140625e+01) (17, -2.75882411003112792969e+00) (18, 2.46275882720947265625e+01) (19, -1.04884376525878906250e+01) (20, 1.16312952041625976562e+01) (21, 3.37727999687194824219e+00) (22, -5.62728452682495117188e+00) (23, 5.68605852127075195312e+00) (24, -6.29383850097656250000e+00) (25, -3.21784400939941406250e+01) (26, -2.80595445632934570312e+00) (27, -2.02785396575927734375e+01) (28, 9.25466418266296386719e-01) (29, 7.58547210693359375000e+00) (30, -1.95896625518798828125e+01) (31, 2.92187571525573730469e+00) (32, -7.41512489318847656250e+00) (33, -1.68015766143798828125e+01) (34, 3.11503350734710693359e-01) (35, -1.54389476776123046875e+01) (36, 1.83127460479736328125e+01) (37, -1.52051429748535156250e+01) (38, -2.90741252899169921875e+01) (39, -1.42820901870727539062e+01) (40, -2.23367424011230468750e+01) (41, 1.57285451889038085938e+01) (42, 1.07363739013671875000e+01) (43, -1.72342834472656250000e+01) (44, 1.94539308547973632812e-01) (45, -5.21152639389038085938e+00) (46, 7.89496755599975585938e+00) (47, 6.97378349304199218750e+00) (48, -2.51719856262207031250e+00) (49, 3.70072059631347656250e+01) (50, -1.48428812026977539062e+01) (51, 1.47267093658447265625e+01) (52, -1.53527917861938476562e+01) (53, 1.98388195037841796875e+01) (54, 1.93956947326660156250e+01) (55, 4.38176918029785156250e+00) (56, -5.33856344223022460938e+00) (57, -4.49675178527832031250e+00) (58, -1.03188209533691406250e+01) (59, 3.74991536140441894531e+00) (60, -3.23249816894531250000e+00) (0, 1.22039432525634765625e+01) (1, 2.80651640892028808594e+00) (2, 2.97907543182373046875e+01) (3, 4.61245918273925781250e+00) (4, -1.06616878509521484375e+00) (5, -3.40455269813537597656e+00) (6, 5.83871316909790039062e+00) (7, -6.55663490295410156250e+00) (8, -3.30524711608886718750e+01) (9, -2.57008380889892578125e+01) (10, -1.08157873153686523438e+01) (11, 5.55167865753173828125e+00) (12, 1.01397056579589843750e+01) (13, -4.51203346252441406250e+00) (14, -4.19878578186035156250e+00) (15, -1.39989624023437500000e+01) (16, -1.50062417984008789062e+01) (17, -5.53118944168090820312e+00) (18, -1.01328449249267578125e+01) (19, -1.15144789218902587891e+00) (20, 5.93290805816650390625e+00) (21, 2.77155518531799316406e+00) (22, 2.42216281890869140625e+01) (23, 4.59327745437622070312e+00) (24, 6.49885606765747070312e+00) (25, 5.41130828857421875000e+00) (26, -2.73113560676574707031e+00) (27, -3.57163095474243164062e+00) (28, -2.46839046478271484375e+01) (29, 8.01774787902832031250e+00) (30, -7.03652501106262207031e-01) (31, 1.08810138702392578125e+01) (32, -6.06700754165649414062e+00) (33, 4.23193454742431640625e-01) (34, 8.55216598510742187500e+00) (35, -5.44058609008789062500e+00) (36, 1.66665821075439453125e+01) (37, -5.38831520080566406250e+00) (38, -2.84131503105163574219e+00) (39, 1.78434715270996093750e+01) (40, -7.64065456390380859375e+00) (41, -1.24559707641601562500e+01) (42, 5.70134639739990234375e+00) (43, -2.71093797683715820312e+00) (44, -4.98843002319335937500e+00) (45, -2.87563476562500000000e+01) (46, 8.03433299064636230469e-01) (47, -1.27720470428466796875e+01) (48, -9.47599029541015625000e+00) (49, -1.78528156280517578125e+01) (50, 2.09973144531250000000e+01) (51, -1.01082599163055419922e+00) (52, -2.05533981323242187500e+01) (53, 6.99977207183837890625e+00) (54, 9.93502140045166015625e+00) (55, 2.94913196563720703125e+00) (56, -2.19208717346191406250e+01) (57, 2.39822816848754882812e+00) (58, -8.64077377319335937500e+00) (59, 9.67119884490966796875e+00) (60, 1.17034063339233398438e+01) (0, -1.62764091491699218750e+01) (1, -8.86460781097412109375e+00) (2, 6.71964550018310546875e+00) (3, 1.90935111045837402344e+00) (4, 2.50818977355957031250e+01) (5, 2.53513545989990234375e+01) (6, 1.29329690933227539062e+01) (7, 5.61526966094970703125e+00) (8, 6.06252288818359375000e+00) (9, 4.60003566741943359375e+00) (10, -4.11820363998413085938e+00) (11, 6.04106283187866210938e+00) (12, 1.62080788612365722656e+00) (13, -1.25211677551269531250e+01) (14, 3.01841564178466796875e+01) (15, 6.05222511291503906250e+00) (16, 9.09261417388916015625e+00) (17, 1.85222740173339843750e+01) (18, -3.27348670959472656250e+01) (19, -4.69364833831787109375e+00) (20, -2.65313386917114257812e-01) (21, 2.59175281524658203125e+01) (22, -1.63435478210449218750e+01) (23, 3.60650444030761718750e+01) (24, -3.07164840698242187500e+01) (25, 1.85454788208007812500e+01) (26, 8.77899408340454101562e-01) (27, 9.99360942840576171875e+00) (28, 1.03707008361816406250e+01) (29, 4.57275271415710449219e-01) (30, -1.53115916252136230469e+00) (31, 6.60211467742919921875e+00) (32, 4.52779912948608398438e+00) (33, -3.09375333786010742188e+00) (34, 4.76716613769531250000e+00) (35, -2.94547271728515625000e+00) (36, -2.20641288757324218750e+01) (37, 6.14000129699707031250e+00) (38, -1.26722984313964843750e+01) (39, 3.08168792724609375000e+01) (40, -1.83757364749908447266e-01) (41, 1.48756685256958007812e+01) (42, 6.19730424880981445312e+00) (43, -2.09088554382324218750e+01) (44, 4.66476154327392578125e+00) (45, -2.70609903335571289062e+00) (46, 1.88389587402343750000e+01) (47, 9.39129650592803955078e-01) (48, -2.02772903442382812500e+01) (49, 1.23930492401123046875e+01) (50, -6.79593944549560546875e+00) (51, 5.29655337333679199219e-01) (52, -2.67140603065490722656e+00) (53, -9.40242385864257812500e+00) (54, -1.88145315647125244141e+00) (55, 1.22866449356079101562e+01) (56, 4.20301389694213867188e+00) (57, -9.94255542755126953125e+00) (58, 3.33154392242431640625e+00) (59, -4.26795959472656250000e+00) (60, 2.26913785934448242188e+00) (0, 3.78395318984985351562e+00) (1, 8.08593750000000000000e+00) (2, -5.68278074264526367188e+00) (3, 2.72894477844238281250e+00) (4, 2.13456649780273437500e+01) (5, 3.26026058197021484375e+00) (6, 7.18743801116943359375e+00) (7, 4.03899383544921875000e+00) (8, -2.33187723159790039062e+00) (9, 7.18823099136352539062e+00) (10, -1.08380355834960937500e+01) (11, -1.34583044052124023438e+01) (12, -2.64763259887695312500e+00) (13, 1.56958913803100585938e+01) (14, -3.18834558129310607910e-02) (15, 4.57553434371948242188e+00) (16, -8.51761102676391601562e-01) (17, 7.36757850646972656250e+00) (18, 5.05426549911499023438e+00) (19, -6.62435483932495117188e+00) (20, -7.39655399322509765625e+00) (21, 8.61586928367614746094e-01) (22, 6.63989686965942382812e+00) (23, -2.26892890930175781250e+01) (24, 3.64550542831420898438e+00) (25, 6.75888490676879882812e+00) (26, 8.43132686614990234375e+00) (27, 6.05208063125610351562e+00) (28, -1.47982873916625976562e+01) (29, 1.71269149780273437500e+01) (30, -2.27419242858886718750e+01) (31, -3.34612965583801269531e+00) (32, -1.48588914871215820312e+01) (33, -4.36553478240966796875e+00) (34, -1.75157489776611328125e+01) (35, 1.07420265674591064453e+00) (36, 3.18897902965545654297e-01) (37, -2.86519756317138671875e+01) (38, 3.20714111328125000000e+01) (39, 7.73168468475341796875e+00) (40, 4.78983879089355468750e-01) (41, -1.06396570205688476562e+01) (42, 8.80586051940917968750e+00) (43, 6.41755151748657226562e+00) (44, 1.66894969940185546875e+01) (45, 1.46764717102050781250e+01) (46, -3.58838868141174316406e+00) (47, -1.27391529083251953125e+01) (48, 6.49751377105712890625e+00) (49, 3.81065559387207031250e+01) (50, 1.48537044525146484375e+01) (51, 5.56869697570800781250e+00) (52, -8.51767539978027343750e-01) (53, 1.76340949535369873047e+00) (54, -8.83551597595214843750e+00) (55, -9.53295421600341796875e+00) (56, -1.02025127410888671875e+01) (57, -4.20633411407470703125e+00) (58, -9.06784248352050781250e+00) (59, 1.48441610336303710938e+01) (60, 1.56184988021850585938e+01) (0, 1.02960884571075439453e+00) (1, 9.05781984329223632812e-02) (2, -4.99453639984130859375e+00) (3, 5.66754150390625000000e+00) (4, 2.18861865997314453125e+01) (5, -1.19214506149291992188e+01) (6, -1.60037374496459960938e+00) (7, 7.65236663818359375000e+00) (8, 2.39101600646972656250e+00) (9, 5.66815757751464843750e+00) (10, -6.01245784759521484375e+00) (11, 3.47402954101562500000e+01) (12, 2.84716939926147460938e+00) (13, -1.98594036102294921875e+01) (14, 5.43004369735717773438e+00) (15, 1.06885423660278320312e+01) (16, 5.20267009735107421875e+00) (17, 1.61698555946350097656e+00) (18, 1.28919053077697753906e+00) (19, -4.75791931152343750000e+00) (20, -9.53952217102050781250e+00) (21, -2.07927322387695312500e+00) (22, -2.06857705116271972656e+00) (23, -1.05180168151855468750e+01) (24, 3.19470787048339843750e+01) (25, 2.06815338134765625000e+01) (26, 1.16713953018188476562e+00) (27, -2.56967525482177734375e+01) (28, -1.99554061889648437500e+01) (29, -2.22844810485839843750e+01) (30, -7.50495386123657226562e+00) (31, 1.40665016174316406250e+01) (32, -1.54252433776855468750e+01) (33, 7.71440458297729492188e+00) (34, 1.11573095321655273438e+01) (35, -1.19066123962402343750e+01) (36, 5.26585102081298828125e+00) (37, -5.75854587554931640625e+00) (38, -9.30384755134582519531e-01) (39, 8.92208671569824218750e+00) (40, -8.89414024353027343750e+00) (41, 8.53921222686767578125e+00) (42, 8.15120410919189453125e+00) (43, -4.88707876205444335938e+00) (44, 1.56514587402343750000e+01) (45, 1.72744445800781250000e+01) (46, -4.82174587249755859375e+00) (47, 1.73256587982177734375e+01) (48, -1.64988403320312500000e+01) (49, 5.35208344459533691406e-01) (50, -2.04906158447265625000e+01) (51, 1.61837124824523925781e+00) (52, -5.86904335021972656250e+00) (53, 1.12152051925659179688e+01) (54, -1.91392784118652343750e+01) (55, 1.09734058380126953125e+01) (56, -4.55852746963500976562e-01) (57, 9.50804328918457031250e+00) (58, 1.54244613647460937500e+00) (59, -1.36437091827392578125e+01) (60, 1.08777704238891601562e+01) (0, 5.04891872406005859375e+00) (1, 1.42089662551879882812e+01) (2, -1.28510131835937500000e+01) (3, 8.16701126098632812500e+00) (4, -5.99618530273437500000e+00) (5, 1.04725730419158935547e+00) (6, -9.94769668579101562500e+00) (7, -2.13667535781860351562e+00) (8, -8.18821811676025390625e+00) (9, -1.36866836547851562500e+01) (10, 1.40792007446289062500e+01) (11, 3.02980494499206542969e+00) (12, -1.33633155822753906250e+01) (13, -4.34683084487915039062e-01) (14, 4.61869859695434570312e+00) (15, 5.89853382110595703125e+00) (16, -1.36237621307373046875e+01) (17, 7.70709896087646484375e+00) (18, -2.13066883087158203125e+01) (19, -6.48323297500610351562e-01) (20, 1.04734277725219726562e+01) (21, -5.05070400238037109375e+00) (22, -5.97854518890380859375e+00) (23, 1.75537776947021484375e+01) (24, -9.52195739746093750000e+00) (25, 6.18787479400634765625e+00) (26, 2.40854015350341796875e+01) (27, 6.18060350418090820312e+00) (28, 2.00069370269775390625e+01) (29, -8.72408676147460937500e+00) (30, -2.59592857360839843750e+01) (31, 4.05515015125274658203e-01) (32, 5.08262968063354492188e+00) (33, 1.72180633544921875000e+01) (34, -5.29484558105468750000e+00) (35, 7.57003402709960937500e+00) (36, 1.67591495513916015625e+01) (37, -3.35186076164245605469e+00) (38, 1.90283489227294921875e+01) (39, 7.36575245857238769531e-01) (40, -8.45392704010009765625e+00) (41, -6.51064252853393554688e+00) (42, 2.67532610893249511719e+00) (43, 9.38353347778320312500e+00) (44, -1.26971540451049804688e+01) (45, 1.80891513824462890625e+01) (46, -6.96841621398925781250e+00) (47, 6.94941234588623046875e+00) (48, -7.37771511077880859375e+00) (49, -1.49158983230590820312e+01) (50, 7.68986701965332031250e+00) (51, -1.07567024230957031250e+01) (52, 2.17020988464355468750e+01) (53, -2.12500267028808593750e+01) (54, 2.74597787857055664062e+00) (55, 1.62255096435546875000e+01) (56, 5.57022333145141601562e+00) (57, -3.33188390731811523438e+00) (58, -2.11370849609375000000e+00) (59, 1.58125486373901367188e+01) (60, -9.90980339050292968750e+00) (61, 2.61309204101562500000e+01) (62, 3.63729447126388549805e-01) (63, 8.16216087341308593750e+00) (64, -1.68853588104248046875e+01) (65, -1.78039283752441406250e+01) (66, 1.80775547027587890625e+01) (67, -4.22750902175903320312e+00) (61, -2.30821666717529296875e+01) (62, 2.48552398681640625000e+01) (63, -1.81279335021972656250e+01) (64, 1.35959997177124023438e+01) (65, 6.65885031223297119141e-01) (66, -2.13968753814697265625e+01) (67, -2.91099643707275390625e+01) (61, -5.88120508193969726562e+00) (62, -6.53977966308593750000e+00) (63, 1.19071025848388671875e+01) (64, -2.34385795593261718750e+01) (65, -5.54931354522705078125e+00) (66, -7.20320367813110351562e+00) (67, -1.87464761734008789062e+00) (61, -1.15702753067016601562e+01) (62, -1.13402280807495117188e+01) (63, 1.17483878135681152344e+00) (64, -1.81405849456787109375e+01) (65, -6.45441961288452148438e+00) (66, -9.32216525077819824219e-01) (67, 1.30545129776000976562e+01) 
