FANN_FLO_2.1
num_layers=3
learning_rate=0.800000
connection_rate=1.000000
network_type=0
learning_momentum=0.000000
training_algorithm=0
train_error_function=1
train_stop_function=0
cascade_output_change_fraction=0.010000
quickprop_decay=-0.000100
quickprop_mu=1.750000
rprop_increase_factor=1.200000
rprop_decrease_factor=0.500000
rprop_delta_min=0.000000
rprop_delta_max=50.000000
rprop_delta_zero=0.100000
cascade_output_stagnation_epochs=12
cascade_candidate_change_fraction=0.010000
cascade_candidate_stagnation_epochs=12
cascade_max_out_epochs=150
cascade_min_out_epochs=50
cascade_max_cand_epochs=150
cascade_min_cand_epochs=50
cascade_num_candidate_groups=2
bit_fail_limit=3.49999994039535522461e-01
cascade_candidate_limit=1.00000000000000000000e+03
cascade_weight_multiplier=4.00000005960464477539e-01
cascade_activation_functions_count=10
cascade_activation_functions=3 5 7 8 10 11 14 15 16 17 
cascade_activation_steepnesses_count=4
cascade_activation_steepnesses=2.50000000000000000000e-01 5.00000000000000000000e-01 7.50000000000000000000e-01 1.00000000000000000000e+00 
layer_sizes=61 7 5 
scale_included=0
neurons (num_inputs, activation_function, activation_steepness)=(0, 0, 0.00000000000000000000e+00) (0, 0, 0.00000000000000000000e+00) (0, 0, 0.00000000000000000000e+00) (0, 0, 0.00000000000000000000e+00) (0, 0, 0.00000000000000000000e+00) (0, 0, 0.00000000000000000000e+00) (0, 0, 0.00000000000000000000e+00) (0, 0, 0.00000000000000000000e+00) (0, 0, 0.00000000000000000000e+00) (0, 0, 0.00000000000000000000e+00) (0, 0, 0.00000000000000000000e+00) (0, 0, 0.00000000000000000000e+00) (0, 0, 0.00000000000000000000e+00) (0, 0, 0.00000000000000000000e+00) (0, 0, 0.00000000000000000000e+00) (0, 0, 0.00000000000000000000e+00) (0, 0, 0.00000000000000000000e+00) (0, 0, 0.00000000000000000000e+00) (0, 0, 0.00000000000000000000e+00) (0, 0, 0.00000000000000000000e+00) (0, 0, 0.00000000000000000000e+00) (0, 0, 0.00000000000000000000e+00) (0, 0, 0.00000000000000000000e+00) (0, 0, 0.00000000000000000000e+00) (0, 0, 0.00000000000000000000e+00) (0, 0, 0.00000000000000000000e+00) (0, 0, 0.00000000000000000000e+00) (0, 0, 0.00000000000000000000e+00) (0, 0, 0.00000000000000000000e+00) (0, 0, 0.00000000000000000000e+00) (0, 0, 0.00000000000000000000e+00) (0, 0, 0.00000000000000000000e+00) (0, 0, 0.00000000000000000000e+00) (0, 0, 0.00000000000000000000e+00) (0, 0, 0.00000000000000000000e+00) (0, 0, 0.00000000000000000000e+00) (0, 0, 0.00000000000000000000e+00) (0, 0, 0.00000000000000000000e+00) (0, 0, 0.00000000000000000000e+00) (0, 0, 0.00000000000000000000e+00) (0, 0, 0.00000000000000000000e+00) (0, 0, 0.00000000000000000000e+00) (0, 0, 0.00000000000000000000e+00) (0, 0, 0.00000000000000000000e+00) (0, 0, 0.00000000000000000000e+00) (0, 0, 0.00000000000000000000e+00) (0, 0, 0.00000000000000000000e+00) (0, 0, 0.00000000000000000000e+00) (0, 0, 0.00000000000000000000e+00) (0, 0, 0.00000000000000000000e+00) (0, 0, 0.00000000000000000000e+00) (0, 0, 0.00000000000000000000e+00) (0, 0, 0.00000000000000000000e+00) (0, 0, 0.00000000000000000000e+00) (0, 0, 0.00000000000000000000e+00) (0, 0, 0.00000000000000000000e+00) (0, 0, 0.00000000000000000000e+00) (0, 0, 0.00000000000000000000e+00) (0, 0, 0.00000000000000000000e+00) (0, 0, 0.00000000000000000000e+00) (0, 0, 0.00000000000000000000e+00) (61, 3, 5.00000000000000000000e-01) (61, 3, 5.00000000000000000000e-01) (61, 3, 5.00000000000000000000e-01) (61, 3, 5.00000000000000000000e-01) (61, 3, 5.00000000000000000000e-01) (61, 3, 5.00000000000000000000e-01) (0, 3, 0.00000000000000000000e+00) (7, 3, 5.00000000000000000000e-01) (7, 3, 5.00000000000000000000e-01) (7, 3, 5.00000000000000000000e-01) (7, 3, 5.00000000000000000000e-01) (0, 3, 0.00000000000000000000e+00) 
connections (connected_to_neuron, weight)=(0, -2.48725700378417968750e+01) (1, 3.74447135925292968750e+01) (2, 2.15914325714111328125e+01) (3, 1.66961059570312500000e+01) (4, -2.80357589721679687500e+01) (5, 1.85265007019042968750e+01) (6, -3.27094459533691406250e+00) (7, 4.37252731323242187500e+01) (8, -2.52122726440429687500e+01) (9, 1.01878995895385742188e+01) (10, -7.56849193572998046875e+00) (11, -5.12996177673339843750e+01) (12, -2.67195653915405273438e+00) (13, -1.72230033874511718750e+01) (14, 6.57921361923217773438e+00) (15, -1.39463171362876892090e-01) (16, 1.18806743621826171875e+01) (17, -3.63799552917480468750e+01) (18, -2.88262882232666015625e+01) (19, 1.07788972854614257812e+01) (20, 1.88058261871337890625e+01) (21, 7.31316328048706054688e+00) (22, -2.60226798057556152344e+00) (23, 1.84473133087158203125e+01) (24, 1.54566850662231445312e+01) (25, 2.16886234283447265625e+01) (26, -7.13837718963623046875e+00) (27, -2.41808776855468750000e+01) (28, 2.45756435394287109375e+01) (29, -1.22653408050537109375e+01) (30, -7.15772151947021484375e-01) (31, -2.57756958007812500000e+01) (32, 4.62139282226562500000e+01) (33, -3.61680335998535156250e+01) (34, -1.05457630157470703125e+01) (35, 2.38283061981201171875e+01) (36, 1.72327480316162109375e+01) (37, -4.72755393981933593750e+01) (38, -1.90314292907714843750e+00) (39, 2.29275274276733398438e+00) (40, 2.18446846008300781250e+01) (41, 3.63758583068847656250e+01) (42, 3.83166999816894531250e+01) (43, -2.26183247566223144531e+00) (44, 5.12803840637207031250e+01) (45, 4.34675025939941406250e+00) (46, -1.01392040252685546875e+01) (47, 2.91565227508544921875e+00) (48, 2.07555961608886718750e+00) (49, -1.22414760589599609375e+01) (50, -1.82657871246337890625e+01) (51, 1.73697776794433593750e+01) (52, 2.60266838073730468750e+01) (53, -3.80190432071685791016e-01) (54, -1.34939365386962890625e+01) (55, -8.59911727905273437500e+00) (56, -1.07365875244140625000e+01) (57, 4.80431914329528808594e-01) (58, 1.22289657592773437500e-01) (59, 2.79030075073242187500e+01) (60, 6.04648947715759277344e-01) (0, 2.26543388366699218750e+01) (1, -1.02323045730590820312e+01) (2, 1.48930807113647460938e+01) (3, -8.93804168701171875000e+00) (4, -1.81731338500976562500e+01) (5, -2.90722637176513671875e+01) (6, -1.97772712707519531250e+01) (7, 1.40134601593017578125e+01) (8, -1.30425834655761718750e+01) (9, 2.94686870574951171875e+01) (10, -4.14341545104980468750e+01) (11, -3.29608306884765625000e+01) (12, -1.53106288909912109375e+01) (13, -6.42850303649902343750e+00) (14, -1.54860615730285644531e+00) (15, -1.67714157104492187500e+01) (16, 2.03822784423828125000e+01) (17, -3.08622570037841796875e+01) (18, -1.71959533691406250000e+01) (19, 1.61931591033935546875e+01) (20, 3.21713790893554687500e+01) (21, 2.87760114669799804688e+00) (22, 8.21150493621826171875e+00) (23, 5.34141464233398437500e+01) (24, 6.13437747955322265625e+00) (25, 9.37775325775146484375e+00) (26, 1.14690389633178710938e+01) (27, 5.57145996093750000000e+01) (28, 1.02344570159912109375e+01) (29, -6.55832195281982421875e+00) (30, 1.09110946655273437500e+01) (31, -1.55993785858154296875e+01) (32, -1.48278903961181640625e+00) (33, 3.88189697265625000000e+01) (34, 3.24467241764068603516e-01) (35, -2.50868549346923828125e+01) (36, -3.74777603149414062500e+01) (37, 1.73891525268554687500e+01) (38, -4.14891386032104492188e+00) (39, 3.32950668334960937500e+01) (40, 2.57730698585510253906e+00) (41, -2.13586940765380859375e+01) (42, 4.08803224563598632812e-01) (43, -1.84359798431396484375e+01) (44, -4.91327619552612304688e+00) (45, -1.79891471862792968750e+01) (46, -2.47877902984619140625e+01) (47, -5.05674934387207031250e+01) (48, 3.63920855522155761719e+00) (49, 8.08358383178710937500e+00) (50, 6.59207916259765625000e+00) (51, 1.41483426094055175781e+00) (52, -4.16808013916015625000e+01) (53, 1.00499763488769531250e+01) (54, -3.33988237380981445312e+00) (55, -5.50007677078247070312e+00) (56, -7.58856058120727539062e-01) (57, -3.28683280944824218750e+01) (58, 2.23556213378906250000e+01) (59, -7.16074275970458984375e+00) (60, 2.82800674438476562500e+00) (0, 1.50481138229370117188e+01) (1, 2.95306911468505859375e+01) (2, 2.24428119659423828125e+01) (3, -8.23082447052001953125e+00) (4, 3.87615623474121093750e+01) (5, -1.26589622497558593750e+01) (6, 2.82625522613525390625e+01) (7, 2.95846481323242187500e+01) (8, -7.25224914550781250000e+01) (9, 1.09951763153076171875e+01) (10, 5.40557670593261718750e+01) (11, -2.06948127746582031250e+01) (12, 1.55041151046752929688e+01) (13, -8.96992874145507812500e+00) (14, -1.93279075622558593750e+01) (15, -1.66025600433349609375e+01) (16, -2.96184749603271484375e+01) (17, -3.85396461486816406250e+01) (18, -5.19763679504394531250e+01) (19, -1.30004858970642089844e+00) (20, -1.75418722629547119141e+00) (21, -1.19249496459960937500e+01) (22, -1.77276954650878906250e+01) (23, 5.97207832336425781250e+01) (24, -2.32552013397216796875e+01) (25, 1.80968093872070312500e+01) (26, 1.99484786987304687500e+01) (27, -4.48901700973510742188e+00) (28, 2.54194412231445312500e+01) (29, -1.93094997406005859375e+01) (30, 4.62687921524047851562e+00) (31, 1.16640443801879882812e+01) (32, 1.03238725662231445312e+01) (33, 6.66870355606079101562e-01) (34, -1.75679302215576171875e+01) (35, 5.78973674774169921875e+00) (36, -2.01437740325927734375e+01) (37, 3.61024055480957031250e+01) (38, -4.08890914916992187500e+01) (39, 1.92047786712646484375e+01) (40, -2.36336956024169921875e+01) (41, 1.29632701873779296875e+01) (42, 5.39745426177978515625e+00) (43, -1.99947700500488281250e+01) (44, 1.16986751556396484375e+01) (45, 2.10834808349609375000e+01) (46, -2.89901542663574218750e+00) (47, 1.31968317031860351562e+01) (48, 9.89713191986083984375e+00) (49, 1.03416528701782226562e+01) (50, -1.30472793579101562500e+01) (51, -1.41509962081909179688e+00) (52, 7.05485343933105468750e+00) (53, 2.90565414428710937500e+01) (54, 1.71368274688720703125e+01) (55, 9.87355804443359375000e+00) (56, 2.07109355926513671875e+00) (57, 8.97088527679443359375e+00) (58, -1.20534486770629882812e+01) (59, 6.70777320861816406250e+00) (60, -7.99340248107910156250e+00) (0, 6.29049777984619140625e+00) (1, -2.69586849212646484375e+00) (2, -1.84733524322509765625e+01) (3, -2.60518054962158203125e+01) (4, -1.29287452697753906250e+01) (5, 3.86513214111328125000e+01) (6, 5.00689849853515625000e+01) (7, 3.46383666992187500000e+01) (8, 3.28859825134277343750e+01) (9, 2.17910900115966796875e+01) (10, -1.52125654220581054688e+01) (11, -1.52980308532714843750e+01) (12, -1.69857788085937500000e+01) (13, -2.16065158843994140625e+01) (14, -2.24695892333984375000e+01) (15, -1.60891151428222656250e+01) (16, 2.68378467559814453125e+01) (17, -1.29268836975097656250e+01) (18, 4.59559631347656250000e+01) (19, 4.29115257263183593750e+01) (20, 2.31126713752746582031e+00) (21, -3.40735702514648437500e+01) (22, 2.45557861328125000000e+01) (23, 3.15297927856445312500e+01) (24, 1.39710779190063476562e+01) (25, 1.88221950531005859375e+01) (26, 2.57945671081542968750e+01) (27, 2.87441802024841308594e+00) (28, -5.58925285339355468750e+01) (29, -3.90906257629394531250e+01) (30, 2.25862865447998046875e+01) (31, 2.51891574859619140625e+01) (32, 2.77439517974853515625e+01) (33, -7.71276760101318359375e+00) (34, 8.70412731170654296875e+00) (35, -1.29365324974060058594e-02) (36, 2.67281608581542968750e+01) (37, 2.93669166564941406250e+01) (38, 3.83459472656250000000e+01) (39, -2.41404571533203125000e+01) (40, -5.74478073120117187500e+01) (41, 1.48134136199951171875e+01) (42, -1.06492786407470703125e+01) (43, 2.60363121032714843750e+01) (44, -2.17903480529785156250e+01) (45, -5.36032581329345703125e+00) (46, -2.96515522003173828125e+01) (47, -1.87003517150878906250e+01) (48, -4.77020301818847656250e+01) (49, 2.28638515472412109375e+01) (50, -1.11229772567749023438e+01) (51, -2.60295629501342773438e-01) (52, -1.95290577411651611328e+00) (53, 2.09692745208740234375e+01) (54, -7.92297439575195312500e+01) (55, 3.53217926025390625000e+01) (56, 4.56916656494140625000e+01) (57, -2.24795684814453125000e+01) (58, 2.43186225891113281250e+01) (59, -1.74006233215332031250e+01) (60, 2.97686576843261718750e+01) (0, 1.61840839385986328125e+01) (1, -3.61430764198303222656e+00) (2, 1.58176288604736328125e+01) (3, -3.54739799499511718750e+01) (4, -1.58595886230468750000e+01) (5, -1.79585762023925781250e+01) (6, -1.95633201599121093750e+01) (7, -4.06361846923828125000e+01) (8, 2.58508548736572265625e+01) (9, 1.81904048919677734375e+01) (10, -1.88434934616088867188e+00) (11, 1.89393615722656250000e+01) (12, 2.14322137832641601562e+00) (13, 3.65665092468261718750e+01) (14, -7.19631195068359375000e+00) (15, 1.24808006286621093750e+01) (16, 1.58234958648681640625e+01) (17, -3.71696090698242187500e+01) (18, 8.96486854553222656250e+00) (19, -2.77231864929199218750e+01) (20, -2.63868751525878906250e+01) (21, -1.65771274566650390625e+01) (22, 5.45588531494140625000e+01) (23, -4.57748146057128906250e+01) (24, 1.20155506134033203125e+01) (25, 5.78594827651977539062e+00) (26, -1.87170619964599609375e+01) (27, 2.43707447052001953125e+01) (28, -2.96236476898193359375e+01) (29, -5.83046913146972656250e+01) (30, 1.01700601577758789062e+01) (31, 1.73571319580078125000e+01) (32, -1.30677185058593750000e+01) (33, 5.29797840118408203125e+00) (34, -9.19809818267822265625e+00) (35, -6.40963506698608398438e+00) (36, -1.13588542938232421875e+01) (37, 1.85603828430175781250e+01) (38, -9.83458614349365234375e+00) (39, 2.52757682800292968750e+01) (40, -5.60159921646118164062e-01) (41, 1.62241935729980468750e+00) (42, 2.98584022521972656250e+01) (43, -3.81298904418945312500e+01) (44, 7.75194549560546875000e+00) (45, 1.42900857925415039062e+01) (46, 6.93035173416137695312e+00) (47, 3.38086585998535156250e+01) (48, 2.28988304138183593750e+01) (49, 4.84501838684082031250e+00) (50, -1.44098052978515625000e+01) (51, 1.84250593185424804688e+00) (52, -4.40520477294921875000e+01) (53, 3.10744152069091796875e+01) (54, -3.72748489379882812500e+01) (55, -3.17554016113281250000e+01) (56, 3.56652870178222656250e+01) (57, -1.55228004455566406250e+01) (58, 3.50318603515625000000e+01) (59, -1.61549472808837890625e+00) (60, -4.33589076995849609375e+00) (0, -5.48962516784667968750e+01) (1, -4.16976318359375000000e+01) (2, -4.61402130126953125000e+00) (3, -1.23616290092468261719e+00) (4, 1.53636016845703125000e+01) (5, -1.61432209014892578125e+01) (6, 4.46390986442565917969e-01) (7, -5.02257308959960937500e+01) (8, 4.97651977539062500000e+01) (9, -2.47624149322509765625e+01) (10, 1.72933616638183593750e+01) (11, 2.54577159881591796875e+01) (12, -1.49696512222290039062e+01) (13, 1.66501293182373046875e+01) (14, -1.07656993865966796875e+01) (15, 3.82124290466308593750e+01) (16, -4.15829772949218750000e+01) (17, -3.04356060028076171875e+01) (18, -2.17127532958984375000e+01) (19, 2.72559146881103515625e+01) (20, -1.60011177062988281250e+01) (21, 1.79224891662597656250e+01) (22, 5.50048494338989257812e+00) (23, 1.61926670074462890625e+01) (24, -2.77460308074951171875e+01) (25, -1.55583181381225585938e+01) (26, -3.98892135620117187500e+01) (27, 1.82880020141601562500e+00) (28, -1.68554458618164062500e+01) (29, 1.00416511297225952148e-01) (30, -8.86537456512451171875e+00) (31, -2.23886985778808593750e+01) (32, -2.08670063018798828125e+01) (33, -3.86677513122558593750e+01) (34, -2.12051353454589843750e+01) (35, 8.48523378372192382812e-01) (36, -3.78159689903259277344e+00) (37, 2.45323538780212402344e+00) (38, 1.16576528549194335938e+01) (39, -3.95690989494323730469e+00) (40, 5.05520772933959960938e+00) (41, 1.69021186828613281250e+01) (42, 1.24093494415283203125e+01) (43, 2.40736141204833984375e+01) (44, -7.24710464477539062500e+00) (45, 4.36532897949218750000e+01) (46, 1.04092960357666015625e+01) (47, -3.40466423034667968750e+01) (48, 2.46962852478027343750e+01) (49, 2.83644523620605468750e+01) (50, 5.78161299228668212891e-01) (51, -3.15456104278564453125e+01) (52, 3.62792320251464843750e+01) (53, -4.15145034790039062500e+01) (54, 2.78178939819335937500e+01) (55, -2.04647827148437500000e+00) (56, -4.46934318542480468750e+01) (57, 4.25755119323730468750e+00) (58, -1.71739349365234375000e+01) (59, -9.30101871490478515625e-01) (60, -3.61499691009521484375e+00) (61, -2.01216435432434082031e+00) (62, 1.83873367309570312500e+01) (63, 1.04275875091552734375e+01) (64, -5.26535606384277343750e+00) (65, -2.79018611907958984375e+01) (66, -5.86644554138183593750e+01) (67, -3.59309997558593750000e+01) (61, 8.43967437744140625000e+00) (62, 6.67142391204833984375e+00) (63, -4.03207435607910156250e+01) (64, 1.01183729171752929688e+01) (65, 1.81506805419921875000e+01) (66, -3.26156425476074218750e+01) (67, -2.09235916137695312500e+01) (61, -4.27738685607910156250e+01) (62, 2.63280925750732421875e+01) (63, 1.90156531333923339844e+00) (64, 8.58989334106445312500e+00) (65, -2.06307239532470703125e+01) (66, -1.40611991882324218750e+01) (67, -1.34064912796020507812e+01) (61, -1.89054851531982421875e+01) (62, 1.05222339630126953125e+01) (63, -2.35955657958984375000e+01) (64, 8.34417629241943359375e+00) (65, -1.85551242828369140625e+01) (66, 1.80618839263916015625e+01) (67, -1.44711990356445312500e+01) 
