FANN_FLO_2.1
num_layers=3
learning_rate=0.800000
connection_rate=1.000000
network_type=0
learning_momentum=0.000000
training_algorithm=0
train_error_function=1
train_stop_function=0
cascade_output_change_fraction=0.010000
quickprop_decay=-0.000100
quickprop_mu=1.750000
rprop_increase_factor=1.200000
rprop_decrease_factor=0.500000
rprop_delta_min=0.000000
rprop_delta_max=50.000000
rprop_delta_zero=0.100000
cascade_output_stagnation_epochs=12
cascade_candidate_change_fraction=0.010000
cascade_candidate_stagnation_epochs=12
cascade_max_out_epochs=150
cascade_min_out_epochs=50
cascade_max_cand_epochs=150
cascade_min_cand_epochs=50
cascade_num_candidate_groups=2
bit_fail_limit=3.49999994039535522461e-01
cascade_candidate_limit=1.00000000000000000000e+03
cascade_weight_multiplier=4.00000005960464477539e-01
cascade_activation_functions_count=10
cascade_activation_functions=3 5 7 8 10 11 14 15 16 17 
cascade_activation_steepnesses_count=4
cascade_activation_steepnesses=2.50000000000000000000e-01 5.00000000000000000000e-01 7.50000000000000000000e-01 1.00000000000000000000e+00 
layer_sizes=61 7 5 
scale_included=0
neurons (num_inputs, activation_function, activation_steepness)=(0, 0, 0.00000000000000000000e+00) (0, 0, 0.00000000000000000000e+00) (0, 0, 0.00000000000000000000e+00) (0, 0, 0.00000000000000000000e+00) (0, 0, 0.00000000000000000000e+00) (0, 0, 0.00000000000000000000e+00) (0, 0, 0.00000000000000000000e+00) (0, 0, 0.00000000000000000000e+00) (0, 0, 0.00000000000000000000e+00) (0, 0, 0.00000000000000000000e+00) (0, 0, 0.00000000000000000000e+00) (0, 0, 0.00000000000000000000e+00) (0, 0, 0.00000000000000000000e+00) (0, 0, 0.00000000000000000000e+00) (0, 0, 0.00000000000000000000e+00) (0, 0, 0.00000000000000000000e+00) (0, 0, 0.00000000000000000000e+00) (0, 0, 0.00000000000000000000e+00) (0, 0, 0.00000000000000000000e+00) (0, 0, 0.00000000000000000000e+00) (0, 0, 0.00000000000000000000e+00) (0, 0, 0.00000000000000000000e+00) (0, 0, 0.00000000000000000000e+00) (0, 0, 0.00000000000000000000e+00) (0, 0, 0.00000000000000000000e+00) (0, 0, 0.00000000000000000000e+00) (0, 0, 0.00000000000000000000e+00) (0, 0, 0.00000000000000000000e+00) (0, 0, 0.00000000000000000000e+00) (0, 0, 0.00000000000000000000e+00) (0, 0, 0.00000000000000000000e+00) (0, 0, 0.00000000000000000000e+00) (0, 0, 0.00000000000000000000e+00) (0, 0, 0.00000000000000000000e+00) (0, 0, 0.00000000000000000000e+00) (0, 0, 0.00000000000000000000e+00) (0, 0, 0.00000000000000000000e+00) (0, 0, 0.00000000000000000000e+00) (0, 0, 0.00000000000000000000e+00) (0, 0, 0.00000000000000000000e+00) (0, 0, 0.00000000000000000000e+00) (0, 0, 0.00000000000000000000e+00) (0, 0, 0.00000000000000000000e+00) (0, 0, 0.00000000000000000000e+00) (0, 0, 0.00000000000000000000e+00) (0, 0, 0.00000000000000000000e+00) (0, 0, 0.00000000000000000000e+00) (0, 0, 0.00000000000000000000e+00) (0, 0, 0.00000000000000000000e+00) (0, 0, 0.00000000000000000000e+00) (0, 0, 0.00000000000000000000e+00) (0, 0, 0.00000000000000000000e+00) (0, 0, 0.00000000000000000000e+00) (0, 0, 0.00000000000000000000e+00) (0, 0, 0.00000000000000000000e+00) (0, 0, 0.00000000000000000000e+00) (0, 0, 0.00000000000000000000e+00) (0, 0, 0.00000000000000000000e+00) (0, 0, 0.00000000000000000000e+00) (0, 0, 0.00000000000000000000e+00) (0, 0, 0.00000000000000000000e+00) (61, 3, 5.00000000000000000000e-01) (61, 3, 5.00000000000000000000e-01) (61, 3, 5.00000000000000000000e-01) (61, 3, 5.00000000000000000000e-01) (61, 3, 5.00000000000000000000e-01) (61, 3, 5.00000000000000000000e-01) (0, 3, 0.00000000000000000000e+00) (7, 3, 5.00000000000000000000e-01) (7, 3, 5.00000000000000000000e-01) (7, 3, 5.00000000000000000000e-01) (7, 3, 5.00000000000000000000e-01) (0, 3, 0.00000000000000000000e+00) 
connections (connected_to_neuron, weight)=(0, 3.01063585281372070312e+00) (1, -2.60327110290527343750e+01) (2, -3.49928703308105468750e+01) (3, -3.37305908203125000000e+01) (4, -1.61670207977294921875e+01) (5, 1.51515884399414062500e+01) (6, -3.01434688568115234375e+01) (7, -4.69564170837402343750e+01) (8, 3.42956161499023437500e+01) (9, -1.79481983184814453125e+01) (10, 1.04439020156860351562e+00) (11, 1.96896133422851562500e+01) (12, 1.58942251205444335938e+01) (13, 2.09131336212158203125e+00) (14, 1.24279289245605468750e+01) (15, -9.12442016601562500000e+00) (16, -4.90334749221801757812e+00) (17, 1.17970972061157226562e+01) (18, -1.13523693084716796875e+01) (19, -4.53879585266113281250e+01) (20, -3.98726234436035156250e+01) (21, -4.95198011398315429688e+00) (22, 7.06720161437988281250e+00) (23, -3.52948760986328125000e+00) (24, -8.02363586425781250000e+00) (25, -2.32507228851318359375e+01) (26, 5.43343925476074218750e+00) (27, -2.27443523406982421875e+01) (28, 2.63900508880615234375e+01) (29, 1.11249933242797851562e+01) (30, 1.21313133239746093750e+01) (31, -1.95046863555908203125e+01) (32, 3.69891595840454101562e+00) (33, 4.12518167495727539062e+00) (34, 1.95226345062255859375e+01) (35, 6.42547225952148437500e+00) (36, 2.70456242561340332031e+00) (37, -3.53431463241577148438e+00) (38, -6.91181612014770507812e+00) (39, 1.36514291763305664062e+01) (40, 4.38046379089355468750e+01) (41, 1.63681197166442871094e+00) (42, 9.04745087027549743652e-02) (43, -4.77364587783813476562e+00) (44, -3.18183541297912597656e+00) (45, -1.55633464455604553223e-02) (46, 9.58075141906738281250e+00) (47, 1.33908147811889648438e+01) (48, 1.72825794219970703125e+01) (49, 3.84333515167236328125e+00) (50, -3.68499708175659179688e+00) (51, -2.31819868087768554688e+00) (52, 2.83491916656494140625e+01) (53, -1.55251998901367187500e+01) (54, 8.06412398815155029297e-01) (55, 1.31845092773437500000e+00) (56, -5.17983722686767578125e+00) (57, -2.13211870193481445312e+00) (58, 2.52393102645874023438e+00) (59, 8.49672615528106689453e-01) (60, -1.00037741661071777344e+00) (0, 5.26581525802612304688e+00) (1, -1.97951812744140625000e+01) (2, 7.27276992797851562500e+00) (3, 1.43631291389465332031e+00) (4, -8.83181667327880859375e+00) (5, -2.29112958908081054688e+00) (6, 9.57668399810791015625e+00) (7, 6.65752792358398437500e+00) (8, 2.35865020751953125000e+00) (9, -5.64302587509155273438e+00) (10, 8.98573935031890869141e-01) (11, 3.61747598648071289062e+00) (12, 1.06915369033813476562e+01) (13, 7.88540124893188476562e-01) (14, -2.80765938758850097656e+00) (15, -2.62884044647216796875e+00) (16, -6.74170637130737304688e+00) (17, 1.61496601104736328125e+01) (18, 1.07230005264282226562e+01) (19, 4.15532350540161132812e+00) (20, -5.24686527252197265625e+00) (21, -2.91496706008911132812e+00) (22, -4.84997797012329101562e+00) (23, 6.08875703811645507812e+00) (24, -9.30777072906494140625e+00) (25, 1.32469921112060546875e+01) (26, 9.86782550811767578125e+00) (27, -8.54766941070556640625e+00) (28, -4.67833423614501953125e+00) (29, -1.29894075393676757812e+01) (30, -4.09057283401489257812e+00) (31, -1.28487882614135742188e+01) (32, -1.29038352966308593750e+01) (33, -5.45356750488281250000e+00) (34, -7.52536439895629882812e+00) (35, -3.37154006958007812500e+01) (36, -8.34212207794189453125e+00) (37, -6.57686462402343750000e+01) (38, 7.39003467559814453125e+00) (39, -1.47066783905029296875e+01) (40, -2.46630229949951171875e+01) (41, 8.30549526214599609375e+00) (42, -3.23330688476562500000e+00) (43, 7.38411283493041992188e+00) (44, 2.13538265228271484375e+00) (45, 1.98775691986083984375e+01) (46, -2.64175939559936523438e+00) (47, 4.05943441390991210938e+00) (48, 1.21220922470092773438e+01) (49, 1.91508960723876953125e+01) (50, 2.29911289215087890625e+01) (51, 2.18547763824462890625e+01) (52, -3.91416811943054199219e+00) (53, 4.69434022903442382812e+00) (54, 1.47869434356689453125e+01) (55, 8.03477191925048828125e+00) (56, -3.47112870216369628906e+00) (57, -1.00181112289428710938e+01) (58, -2.42672748565673828125e+01) (59, -3.52981162071228027344e+00) (60, 8.56701278686523437500e+00) (0, -2.09591732025146484375e+01) (1, -6.95867761969566345215e-02) (2, 2.03097705841064453125e+01) (3, -1.21478879451751708984e+00) (4, 1.68261280059814453125e+01) (5, 5.38761425018310546875e+00) (6, -7.29971981048583984375e+00) (7, 3.37899589538574218750e+01) (8, -6.81828498840332031250e+00) (9, 2.88699131011962890625e+01) (10, -2.60147511959075927734e-01) (11, -3.81322784423828125000e+01) (12, -4.86846208572387695312e+00) (13, -1.05202903747558593750e+01) (14, -2.10390434265136718750e+01) (15, -2.24328136444091796875e+00) (16, -1.37016925811767578125e+01) (17, -6.34871864318847656250e+00) (18, -3.58645362854003906250e+01) (19, -3.21598167419433593750e+01) (20, -1.68859691619873046875e+01) (21, -1.31265287399291992188e+01) (22, -1.08891582489013671875e+01) (23, -7.14548921585083007812e+00) (24, -9.35350418090820312500e+00) (25, -2.26710052490234375000e+01) (26, -3.39139137268066406250e+01) (27, -6.87469577789306640625e+00) (28, 2.60034656524658203125e+01) (29, 3.10717272758483886719e+00) (30, -3.77740621566772460938e+00) (31, 1.80867445468902587891e+00) (32, 1.93532829284667968750e+01) (33, -1.97498321533203125000e-01) (34, 1.65669212341308593750e+01) (35, 6.67336511611938476562e+00) (36, 2.14322018623352050781e+00) (37, 3.45260548591613769531e+00) (38, -2.35241088867187500000e+01) (39, 2.25648651123046875000e+01) (40, 2.59738979339599609375e+01) (41, -1.67029933929443359375e+01) (42, 1.24902963638305664062e+01) (43, -1.43002967834472656250e+01) (44, -2.24276947975158691406e+00) (45, 5.44611167907714843750e+00) (46, 7.92060041427612304688e+00) (47, 6.35958194732666015625e+00) (48, -3.29591331481933593750e+01) (49, 2.73979663848876953125e+01) (50, -2.93516311645507812500e+01) (51, -2.12322741746902465820e-01) (52, -1.41067047119140625000e+01) (53, -3.27154970169067382812e+00) (54, -2.73789672851562500000e+01) (55, -1.17851281166076660156e+00) (56, 2.36298704147338867188e+00) (57, -1.25687229633331298828e+00) (58, 1.57846736907958984375e+01) (59, 2.13625741004943847656e+00) (60, 1.21984014511108398438e+01) (0, -3.20918655395507812500e+01) (1, 8.31077194213867187500e+00) (2, 2.64110736846923828125e+01) (3, 9.21786308288574218750e+00) (4, 9.12309455871582031250e+00) (5, -5.92610120773315429688e+00) (6, -9.25318145751953125000e+00) (7, 4.23382492065429687500e+01) (8, -1.54785842895507812500e+01) (9, 3.13351993560791015625e+01) (10, -1.74872112274169921875e+00) (11, -2.23662986755371093750e+01) (12, 2.61780047416687011719e+00) (13, -1.26544933319091796875e+01) (14, 2.50292229652404785156e+00) (15, -2.19690513610839843750e+01) (16, -8.82364082336425781250e+00) (17, 2.86274433135986328125e+00) (18, -2.53721542358398437500e+01) (19, 9.28485244512557983398e-02) (20, -7.03765821456909179688e+00) (21, 7.87471294403076171875e-01) (22, -2.90008425712585449219e+00) (23, 8.61581420898437500000e+00) (24, -4.34926605224609375000e+00) (25, -1.49118554592132568359e+00) (26, 5.65420210361480712891e-01) (27, 8.99697780609130859375e-01) (28, 1.80800685882568359375e+01) (29, 1.50835523605346679688e+01) (30, -1.00601968765258789062e+01) (31, -1.54919214248657226562e+01) (32, -2.62652034759521484375e+01) (33, -2.87259178161621093750e+01) (34, 4.11507892608642578125e+00) (35, -1.36013908386230468750e+01) (36, 2.43729519844055175781e+00) (37, -5.32423477172851562500e+01) (38, 1.95952224731445312500e+01) (39, -2.13689937591552734375e+01) (40, -4.15189170837402343750e+01) (41, -5.88663959503173828125e+00) (42, 6.18772125244140625000e+00) (43, 1.63730411529541015625e+01) (44, -3.52965116500854492188e+00) (45, 2.85685405731201171875e+01) (46, 2.25067067146301269531e+00) (47, 3.97277212142944335938e+00) (48, 2.45991973876953125000e+01) (49, 1.09512841701507568359e+00) (50, 1.08598423004150390625e+01) (51, -4.23366498947143554688e+00) (52, 2.88859767913818359375e+01) (53, -2.09247436523437500000e+01) (54, 2.22993278503417968750e+01) (55, 3.19971418380737304688e+00) (56, 2.76633381843566894531e+00) (57, -4.48998451232910156250e+00) (58, -2.23418331146240234375e+01) (59, 1.79385626316070556641e+00) (60, -1.51803503036499023438e+01) (0, -3.34102630615234375000e+01) (1, 2.69776477813720703125e+01) (2, 2.48971252441406250000e+01) (3, 3.71882133483886718750e+01) (4, 3.56105270385742187500e+01) (5, 4.02539396286010742188e+00) (6, -1.47983474731445312500e+01) (7, 2.82871456146240234375e+01) (8, 1.12472715377807617188e+01) (9, 8.52950286865234375000e+01) (10, -6.98762416839599609375e+00) (11, 2.96807041168212890625e+01) (12, 4.44519691467285156250e+01) (13, -2.17148609161376953125e+01) (14, -2.04026138305664062500e+02) (15, 1.52300930023193359375e+00) (16, -1.51962490081787109375e+01) (17, 6.88751745223999023438e+00) (18, 5.23071060180664062500e+01) (19, 2.49879608154296875000e+01) (20, -1.96711425781250000000e+01) (21, -2.58931598663330078125e+01) (22, 1.14051742553710937500e+01) (23, -1.32508745193481445312e+01) (24, -2.88526344299316406250e+01) (25, 4.22254514694213867188e+00) (26, -3.52611088752746582031e+00) (27, -5.71288566589355468750e+01) (28, -3.86643867492675781250e+01) (29, -1.12310791015625000000e+01) (30, -1.85534667968750000000e+01) (31, -1.70675048828125000000e+01) (32, -1.48049249649047851562e+01) (33, -9.54661941528320312500e+00) (34, -2.67461605072021484375e+01) (35, 7.63937683105468750000e+01) (36, -2.73722820281982421875e+01) (37, -4.13517494201660156250e+01) (38, -1.00859651565551757812e+01) (39, -4.21466979980468750000e+01) (40, -4.51760063171386718750e+01) (41, 5.62912635803222656250e+01) (42, -4.24435348510742187500e+01) (43, -1.43265275955200195312e+01) (44, -3.30856018066406250000e+01) (45, 1.29657964706420898438e+01) (46, -2.38193416595458984375e+01) (47, -1.39435844421386718750e+01) (48, 8.29002141952514648438e-01) (49, -4.45406293869018554688e+00) (50, -3.64686431884765625000e+01) (51, 4.57820844650268554688e+00) (52, -6.42980337142944335938e+00) (53, -4.59379911422729492188e+00) (54, -1.20539369583129882812e+01) (55, 2.14135146141052246094e+00) (56, 1.21414041519165039062e+01) (57, -6.96615371704101562500e+01) (58, 7.52567214965820312500e+01) (59, -1.63766708374023437500e+01) (60, -7.58555068969726562500e+01) (0, 6.95158720016479492188e+00) (1, 1.13206768035888671875e+01) (2, -8.89724826812744140625e+00) (3, -1.60694599151611328125e+01) (4, -1.26395912170410156250e+01) (5, -1.27890138626098632812e+01) (6, -1.83042156696319580078e+00) (7, -2.28715686798095703125e+01) (8, 2.50745353698730468750e+01) (9, 1.29526348114013671875e+01) (10, 1.16503167152404785156e+00) (11, -3.31594200134277343750e+01) (12, 1.27911996841430664062e+01) (13, 8.90349483489990234375e+00) (14, 5.32815647125244140625e+00) (15, -3.94150471687316894531e+00) (16, -1.27719888687133789062e+01) (17, -7.56862640380859375000e+00) (18, -1.14072504043579101562e+01) (19, -9.16854190826416015625e+00) (20, -2.19931676983833312988e-01) (21, 1.82224159240722656250e+01) (22, -5.75560111999511718750e+01) (23, -4.02836894989013671875e+00) (24, -4.65977287292480468750e+01) (25, -2.02706069946289062500e+01) (26, 1.93912773132324218750e+01) (27, -5.76175880432128906250e+00) (28, 2.49316883087158203125e+01) (29, 1.52641420364379882812e+01) (30, -1.12564573287963867188e+01) (31, -3.18777160644531250000e+01) (32, -2.03219580650329589844e+00) (33, 3.72102260589599609375e+00) (34, 3.93688125610351562500e+01) (35, 1.64891469478607177734e+00) (36, -9.03292083740234375000e+00) (37, 5.16308593750000000000e+00) (38, 1.39749240875244140625e+01) (39, 4.22843742370605468750e+01) (40, 2.78361644744873046875e+01) (41, -3.08512248992919921875e+01) (42, -1.46544418334960937500e+01) (43, -2.56108551025390625000e+01) (44, -3.56923370361328125000e+01) (45, -1.11905395984649658203e+00) (46, 1.87959079742431640625e+01) (47, 2.38211421966552734375e+01) (48, 1.27241907119750976562e+01) (49, -7.21532583236694335938e+00) (50, 1.47362546920776367188e+01) (51, -1.01082210540771484375e+01) (52, 3.18821506500244140625e+01) (53, -2.18788921833038330078e-01) (54, 2.82707843780517578125e+01) (55, 6.04927949607372283936e-02) (56, -1.44102420806884765625e+01) (57, 1.00095949172973632812e+01) (58, -7.12922286987304687500e+00) (59, -1.80237731933593750000e+01) (60, -2.83644466400146484375e+01) (61, -1.07407131195068359375e+01) (62, -2.69912862777709960938e+00) (63, 8.11815357208251953125e+00) (64, 5.94646644592285156250e+00) (65, 1.18370532989501953125e+01) (66, -3.75792217254638671875e+00) (67, -4.49484872817993164062e+00) (61, -3.55015850067138671875e+00) (62, -2.28179478645324707031e+00) (63, -7.85555696487426757812e+00) (64, -5.49477672576904296875e+00) (65, -9.86105823516845703125e+00) (66, -7.78744602203369140625e+00) (67, 2.91175222396850585938e+00) (61, 4.79357671737670898438e+00) (62, -1.16577425003051757812e+01) (63, 4.67771625518798828125e+00) (64, -9.16137599945068359375e+00) (65, -9.30996227264404296875e+00) (66, 9.47041130065917968750e+00) (67, -7.86680603027343750000e+00) (61, 3.95153236389160156250e+00) (62, 6.08028602600097656250e+00) (63, -9.05337619781494140625e+00) (64, 6.62442588806152343750e+00) (65, -9.71859836578369140625e+00) (66, 3.29072594642639160156e+00) (67, -1.08453159332275390625e+01) 
