FANN_FLO_2.1
num_layers=3
learning_rate=0.800000
connection_rate=1.000000
network_type=0
learning_momentum=0.000000
training_algorithm=0
train_error_function=1
train_stop_function=0
cascade_output_change_fraction=0.010000
quickprop_decay=-0.000100
quickprop_mu=1.750000
rprop_increase_factor=1.200000
rprop_decrease_factor=0.500000
rprop_delta_min=0.000000
rprop_delta_max=50.000000
rprop_delta_zero=0.100000
cascade_output_stagnation_epochs=12
cascade_candidate_change_fraction=0.010000
cascade_candidate_stagnation_epochs=12
cascade_max_out_epochs=150
cascade_min_out_epochs=50
cascade_max_cand_epochs=150
cascade_min_cand_epochs=50
cascade_num_candidate_groups=2
bit_fail_limit=3.49999994039535522461e-01
cascade_candidate_limit=1.00000000000000000000e+03
cascade_weight_multiplier=4.00000005960464477539e-01
cascade_activation_functions_count=10
cascade_activation_functions=3 5 7 8 10 11 14 15 16 17 
cascade_activation_steepnesses_count=4
cascade_activation_steepnesses=2.50000000000000000000e-01 5.00000000000000000000e-01 7.50000000000000000000e-01 1.00000000000000000000e+00 
layer_sizes=61 7 5 
scale_included=0
neurons (num_inputs, activation_function, activation_steepness)=(0, 0, 0.00000000000000000000e+00) (0, 0, 0.00000000000000000000e+00) (0, 0, 0.00000000000000000000e+00) (0, 0, 0.00000000000000000000e+00) (0, 0, 0.00000000000000000000e+00) (0, 0, 0.00000000000000000000e+00) (0, 0, 0.00000000000000000000e+00) (0, 0, 0.00000000000000000000e+00) (0, 0, 0.00000000000000000000e+00) (0, 0, 0.00000000000000000000e+00) (0, 0, 0.00000000000000000000e+00) (0, 0, 0.00000000000000000000e+00) (0, 0, 0.00000000000000000000e+00) (0, 0, 0.00000000000000000000e+00) (0, 0, 0.00000000000000000000e+00) (0, 0, 0.00000000000000000000e+00) (0, 0, 0.00000000000000000000e+00) (0, 0, 0.00000000000000000000e+00) (0, 0, 0.00000000000000000000e+00) (0, 0, 0.00000000000000000000e+00) (0, 0, 0.00000000000000000000e+00) (0, 0, 0.00000000000000000000e+00) (0, 0, 0.00000000000000000000e+00) (0, 0, 0.00000000000000000000e+00) (0, 0, 0.00000000000000000000e+00) (0, 0, 0.00000000000000000000e+00) (0, 0, 0.00000000000000000000e+00) (0, 0, 0.00000000000000000000e+00) (0, 0, 0.00000000000000000000e+00) (0, 0, 0.00000000000000000000e+00) (0, 0, 0.00000000000000000000e+00) (0, 0, 0.00000000000000000000e+00) (0, 0, 0.00000000000000000000e+00) (0, 0, 0.00000000000000000000e+00) (0, 0, 0.00000000000000000000e+00) (0, 0, 0.00000000000000000000e+00) (0, 0, 0.00000000000000000000e+00) (0, 0, 0.00000000000000000000e+00) (0, 0, 0.00000000000000000000e+00) (0, 0, 0.00000000000000000000e+00) (0, 0, 0.00000000000000000000e+00) (0, 0, 0.00000000000000000000e+00) (0, 0, 0.00000000000000000000e+00) (0, 0, 0.00000000000000000000e+00) (0, 0, 0.00000000000000000000e+00) (0, 0, 0.00000000000000000000e+00) (0, 0, 0.00000000000000000000e+00) (0, 0, 0.00000000000000000000e+00) (0, 0, 0.00000000000000000000e+00) (0, 0, 0.00000000000000000000e+00) (0, 0, 0.00000000000000000000e+00) (0, 0, 0.00000000000000000000e+00) (0, 0, 0.00000000000000000000e+00) (0, 0, 0.00000000000000000000e+00) (0, 0, 0.00000000000000000000e+00) (0, 0, 0.00000000000000000000e+00) (0, 0, 0.00000000000000000000e+00) (0, 0, 0.00000000000000000000e+00) (0, 0, 0.00000000000000000000e+00) (0, 0, 0.00000000000000000000e+00) (0, 0, 0.00000000000000000000e+00) (61, 3, 5.00000000000000000000e-01) (61, 3, 5.00000000000000000000e-01) (61, 3, 5.00000000000000000000e-01) (61, 3, 5.00000000000000000000e-01) (61, 3, 5.00000000000000000000e-01) (61, 3, 5.00000000000000000000e-01) (0, 3, 0.00000000000000000000e+00) (7, 3, 5.00000000000000000000e-01) (7, 3, 5.00000000000000000000e-01) (7, 3, 5.00000000000000000000e-01) (7, 3, 5.00000000000000000000e-01) (0, 3, 0.00000000000000000000e+00) 
connections (connected_to_neuron, weight)=(0, 2.28800716400146484375e+01) (1, -7.27753448486328125000e+00) (2, 4.95748043060302734375e+00) (3, -1.58187103271484375000e+01) (4, -2.67997913360595703125e+01) (5, 2.76694526672363281250e+01) (6, -1.91407561302185058594e-01) (7, 4.03491249084472656250e+01) (8, -1.46061382293701171875e+01) (9, 2.00575408935546875000e+01) (10, 1.60053272247314453125e+01) (11, 3.08076114654541015625e+01) (12, 6.17765331268310546875e+00) (13, 3.86057434082031250000e+01) (14, -1.49380321502685546875e+01) (15, -2.25126266479492187500e+01) (16, -3.61859359741210937500e+01) (17, 1.93413772583007812500e+01) (18, -4.60758743286132812500e+01) (19, -1.86346364021301269531e+00) (20, -4.57794547080993652344e-01) (21, 1.36582832336425781250e+01) (22, -2.42923297882080078125e+01) (23, 4.00140571594238281250e+01) (24, -2.00900306701660156250e+01) (25, 2.05988826751708984375e+01) (26, 4.86613807678222656250e+01) (27, 1.96045744419097900391e+00) (28, 3.40079841613769531250e+01) (29, -1.06433916091918945312e+01) (30, 1.31546936035156250000e+01) (31, -1.21613502502441406250e-01) (32, -4.09232521057128906250e+01) (33, 2.15765171051025390625e+01) (34, -6.22632408142089843750e+00) (35, 3.91584777832031250000e+00) (36, -8.07923793792724609375e+00) (37, 1.58880109786987304688e+01) (38, -1.60721511840820312500e+01) (39, -7.28170728683471679688e+00) (40, -3.85572600364685058594e+00) (41, 4.13825683593750000000e+01) (42, 7.64507102966308593750e+00) (43, -1.33774986267089843750e+01) (44, -9.12074661254882812500e+00) (45, -5.73783531188964843750e+01) (46, 6.01195907592773437500e+00) (47, -1.25462043285369873047e+00) (48, 1.33182859420776367188e+00) (49, -3.90738153457641601562e+00) (50, 1.68321495056152343750e+01) (51, -2.82007622718811035156e+00) (52, -4.05724639892578125000e+01) (53, -1.94011020660400390625e+01) (54, -1.56078672409057617188e+00) (55, -2.77839527130126953125e+01) (56, -3.49604949951171875000e+01) (57, -1.18649549484252929688e+01) (58, -2.31123046875000000000e+01) (59, 1.90772666931152343750e+01) (60, -8.38914394378662109375e-01) (0, -3.63934898376464843750e+01) (1, -7.00807094573974609375e+00) (2, 2.48030338287353515625e+01) (3, 2.57664299011230468750e+01) (4, -7.39314270019531250000e+01) (5, -1.73956356048583984375e+01) (6, -4.68267860412597656250e+01) (7, -7.36532115936279296875e+00) (8, -4.24358272552490234375e+00) (9, -8.25185394287109375000e+00) (10, 3.58630228042602539062e+00) (11, 2.53353500366210937500e+00) (12, 1.38580322265625000000e+01) (13, 2.30825090408325195312e+00) (14, 3.33623771667480468750e+01) (15, -2.50919075012207031250e+01) (16, 8.12317371368408203125e+00) (17, 9.77620506286621093750e+00) (18, 2.55545043945312500000e+00) (19, 7.26717138290405273438e+00) (20, 1.13102951049804687500e+01) (21, -4.81793518066406250000e+01) (22, 3.22243995666503906250e+01) (23, -6.22633552551269531250e+00) (24, 1.45224905014038085938e+01) (25, 1.73429450988769531250e+01) (26, 3.68746829032897949219e+00) (27, 1.48143920898437500000e+01) (28, 1.61794319152832031250e+01) (29, 1.05800409317016601562e+01) (30, -4.28940925598144531250e+01) (31, -4.58757019042968750000e+01) (32, 2.38939666748046875000e+01) (33, -3.53081703186035156250e+01) (34, -2.49649543762207031250e+01) (35, -2.41251325607299804688e+00) (36, 3.14280509948730468750e+01) (37, -4.55899505615234375000e+01) (38, 3.15635757446289062500e+01) (39, 4.75068140029907226562e+00) (40, -2.45829887390136718750e+01) (41, -2.40431976318359375000e+00) (42, -1.00027656555175781250e+00) (43, 1.29292793273925781250e+01) (44, -1.88246574401855468750e+01) (45, 2.85867214202880859375e+01) (46, 2.78315639495849609375e+01) (47, -1.11770362854003906250e+01) (48, 9.69143199920654296875e+00) (49, 2.80917568206787109375e+01) (50, 6.91099596023559570312e+00) (51, -1.98660171031951904297e+00) (52, 3.38148803710937500000e+01) (53, -4.75888748168945312500e+01) (54, -1.73721733093261718750e+01) (55, 2.15326900482177734375e+01) (56, 7.89473056793212890625e-01) (57, 2.24794864654541015625e+00) (58, 5.53582859039306640625e+00) (59, 3.16557254791259765625e+01) (60, -3.53732967376708984375e+00) (0, 1.63865833282470703125e+01) (1, 7.08882999420166015625e+00) (2, 1.35104742050170898438e+01) (3, 3.10698966979980468750e+01) (4, 1.06994628906250000000e+01) (5, -6.93925285339355468750e+00) (6, -1.79221630096435546875e-02) (7, 5.14733963012695312500e+01) (8, -4.25056648254394531250e+01) (9, 1.34637699127197265625e+01) (10, 1.66745433807373046875e+01) (11, -2.83295345306396484375e+01) (12, -6.21523189544677734375e+00) (13, -1.23115720748901367188e+01) (14, 1.91538887023925781250e+01) (15, -2.75300540924072265625e+01) (16, 4.70874366760253906250e+01) (17, -2.69362087249755859375e+01) (18, 1.08343734741210937500e+01) (19, 7.62527465820312500000e+00) (20, -9.13498640060424804688e-01) (21, 1.44982624053955078125e+01) (22, -2.12988014221191406250e+01) (23, -2.10217380523681640625e+01) (24, -3.30336341857910156250e+01) (25, 1.24562158584594726562e+01) (26, -6.20662260055541992188e+00) (27, 8.55754661560058593750e+00) (28, -6.33781623840332031250e+00) (29, -6.27523422241210937500e-01) (30, -1.26828985214233398438e+01) (31, -2.48457946777343750000e+01) (32, 6.45556116104125976562e+00) (33, 1.72106761932373046875e+01) (34, 6.77353858947753906250e+00) (35, 3.22466373443603515625e+00) (36, -5.61380290985107421875e+00) (37, 1.50670838356018066406e+00) (38, 1.94055938720703125000e+01) (39, 9.37377071380615234375e+00) (40, 2.01085567474365234375e+01) (41, -3.75677108764648437500e+00) (42, 1.89638347625732421875e+01) (43, 1.13481683731079101562e+01) (44, -2.57791900634765625000e+00) (45, 1.04329385757446289062e+01) (46, 4.90137720108032226562e+00) (47, 2.73891468048095703125e+01) (48, -2.01164207458496093750e+01) (49, 2.11405887603759765625e+01) (50, -1.00641012191772460938e+00) (51, 5.11438322067260742188e+00) (52, 8.39662170410156250000e+00) (53, 4.04582557678222656250e+01) (54, -1.33080253601074218750e+01) (55, 3.90323104858398437500e+01) (56, -2.49334030151367187500e+01) (57, -6.91967296600341796875e+00) (58, -1.18812656402587890625e+01) (59, 2.41447067260742187500e+01) (60, 1.27790689468383789062e+00) (0, -1.45110359191894531250e+01) (1, 4.98101043701171875000e+00) (2, 2.17625694274902343750e+01) (3, -1.87962131500244140625e+01) (4, 8.99641323089599609375e+00) (5, 3.60992546081542968750e+01) (6, 3.71538810729980468750e+01) (7, -9.56870269775390625000e+00) (8, -1.20174341201782226562e+01) (9, 2.52764663696289062500e+01) (10, -2.98731555938720703125e+01) (11, -1.38848552703857421875e+01) (12, -3.87127494812011718750e+00) (13, 8.01353645324707031250e+00) (14, -3.31771049499511718750e+01) (15, -5.06815032958984375000e+01) (16, 1.13537225723266601562e+01) (17, -5.87400054931640625000e+00) (18, 1.41917705535888671875e+01) (19, 5.66481018066406250000e+00) (20, 1.95824754238128662109e+00) (21, -3.26902770996093750000e+01) (22, 2.25474262237548828125e+01) (23, -6.43220710754394531250e+00) (24, 1.26932430267333984375e+01) (25, -1.14915075302124023438e+01) (26, -1.78178024291992187500e+01) (27, -5.68085670471191406250e+00) (28, -4.29535751342773437500e+01) (29, 1.50043220520019531250e+01) (30, 1.94834861755371093750e+01) (31, 6.18119087219238281250e+01) (32, 2.21939029693603515625e+01) (33, 3.01890163421630859375e+01) (34, -4.85775871276855468750e+01) (35, -2.08498611450195312500e+01) (36, 8.75135517120361328125e+00) (37, 5.06627559661865234375e+00) (38, -7.59959936141967773438e-01) (39, -2.73148727416992187500e+00) (40, -1.95829689502716064453e+00) (41, -1.95901489257812500000e+01) (42, -1.44474134445190429688e+01) (43, -3.04269561767578125000e+01) (44, 7.07991647720336914062e+00) (45, -2.90157699584960937500e+01) (46, -3.26015472412109375000e+01) (47, -3.19754467010498046875e+01) (48, -4.40373497009277343750e+01) (49, -1.44551362991333007812e+01) (50, 9.66094589233398437500e+00) (51, 2.63173446655273437500e+01) (52, -9.81776237487792968750e-01) (53, -1.88573493957519531250e+01) (54, -9.59475326538085937500e+00) (55, -9.42872810363769531250e+00) (56, 1.53432979583740234375e+01) (57, 1.75811576843261718750e+01) (58, 2.43527107238769531250e+01) (59, 1.78838977813720703125e+01) (60, 3.73110532760620117188e+00) (0, -3.43758430480957031250e+01) (1, -3.01873741149902343750e+01) (2, 1.83789501190185546875e+01) (3, 2.00819187164306640625e+01) (4, -3.45101547241210937500e+01) (5, -4.59129810333251953125e+00) (6, -2.67533817291259765625e+01) (7, -1.47452926635742187500e+01) (8, -1.35336723327636718750e+01) (9, 1.16215372085571289062e+01) (10, 5.18025550842285156250e+01) (11, -3.62139678001403808594e+00) (12, -7.41084909439086914062e+00) (13, -3.73472690582275390625e+00) (14, -4.29906005859375000000e+01) (15, -1.15824527740478515625e+01) (16, 1.89862289428710937500e+01) (17, 2.94805679321289062500e+01) (18, -1.66783273220062255859e+00) (19, 1.05783939361572265625e+00) (20, -2.94433188438415527344e+00) (21, -1.46809997558593750000e+01) (22, 5.66400003433227539062e+00) (23, 1.40620126724243164062e+01) (24, -2.05277347564697265625e+00) (25, -6.56532049179077148438e+00) (26, -3.02244548797607421875e+01) (27, -8.73261928558349609375e+00) (28, 2.28276309967041015625e+01) (29, 1.52394962310791015625e+01) (30, 4.36266690492630004883e-01) (31, 5.80733728408813476562e+00) (32, -1.50663394927978515625e+01) (33, 1.45691375732421875000e+01) (34, -2.49356288909912109375e+01) (35, -1.99977893829345703125e+01) (36, -1.30049600601196289062e+01) (37, -3.44830589294433593750e+01) (38, -1.06185388565063476562e+01) (39, 2.58634495735168457031e+00) (40, 1.99632225036621093750e+01) (41, 2.44939193725585937500e+01) (42, -3.17612857818603515625e+01) (43, -4.85657835006713867188e+00) (44, 9.68836307525634765625e+00) (45, -7.85646057128906250000e+00) (46, -3.42520561218261718750e+01) (47, 3.09448299407958984375e+01) (48, -5.52659034729003906250e+01) (49, 1.98319854736328125000e+01) (50, 8.86045360565185546875e+00) (51, -3.28015174865722656250e+01) (52, 3.53572921752929687500e+01) (53, -5.34143028259277343750e+01) (54, 9.93357944488525390625e+00) (55, 1.25616531372070312500e+01) (56, 1.61593093872070312500e+01) (57, 5.44135713577270507812e+00) (58, -1.21010036468505859375e+01) (59, 3.20726394653320312500e+01) (60, 5.72335014343261718750e+01) (0, 1.18543708324432373047e+00) (1, -1.04909133911132812500e+01) (2, 3.54332008361816406250e+01) (3, -2.34826698303222656250e+01) (4, 2.41346721649169921875e+01) (5, 1.77625560760498046875e+00) (6, -1.09522647857666015625e+01) (7, -6.53117084503173828125e+00) (8, 5.07816619873046875000e+01) (9, 1.13850040435791015625e+01) (10, -1.67194786071777343750e+01) (11, -3.93490839004516601562e+00) (12, 2.75291309356689453125e+01) (13, -2.46997032165527343750e+01) (14, 1.88316822052001953125e+01) (15, 1.13364276885986328125e+01) (16, -9.02614593505859375000e+00) (17, 2.38777294158935546875e+01) (18, -6.35250520706176757812e+00) (19, -1.44847145080566406250e+01) (20, -3.66196370124816894531e+00) (21, -2.05070762634277343750e+01) (22, 3.51597976684570312500e+01) (23, -5.99115104675292968750e+01) (24, -2.98560676574707031250e+01) (25, -1.08489742279052734375e+01) (26, -2.16592330932617187500e+01) (27, -3.54307022094726562500e+01) (28, 1.20774555206298828125e+01) (29, -9.88434791564941406250e+00) (30, 2.06723442077636718750e+01) (31, -2.13190383911132812500e+01) (32, -3.14694190025329589844e+00) (33, -2.78198795318603515625e+01) (34, -1.41792707443237304688e+01) (35, -1.28912563323974609375e+01) (36, -1.38002824783325195312e+00) (37, -2.34411354064941406250e+01) (38, -2.73308563232421875000e+01) (39, -2.50959510803222656250e+01) (40, 1.72464962005615234375e+01) (41, -1.08969335556030273438e+01) (42, -1.78498210906982421875e+01) (43, 7.81247091293334960938e+00) (44, -2.37440147399902343750e+01) (45, 2.60054874420166015625e+00) (46, 2.54881706237792968750e+01) (47, -4.17901458740234375000e+01) (48, -6.30781211853027343750e+01) (49, -1.55235052108764648438e+00) (50, 7.94509792327880859375e+00) (51, -1.52616100311279296875e+01) (52, -1.60363903045654296875e+01) (53, -1.38627014160156250000e+01) (54, -2.04290218353271484375e+01) (55, 5.07684020996093750000e+01) (56, -1.92736606597900390625e+01) (57, 1.50033025741577148438e+01) (58, -2.69303970336914062500e+01) (59, 2.05196151733398437500e+01) (60, 7.74215126037597656250e+00) (61, -7.69603610038757324219e-01) (62, 7.76878452301025390625e+00) (63, 5.46378211975097656250e+01) (64, -1.84318351745605468750e+01) (65, -3.13754105567932128906e+00) (66, -2.86828060150146484375e+01) (67, 7.32099413871765136719e-01) (61, -2.99722423553466796875e+01) (62, 1.23015413284301757812e+01) (63, 3.99008846282958984375e+00) (64, -1.38155221939086914062e-02) (65, -1.19935445785522460938e+01) (66, 1.15617265701293945312e+01) (67, -7.03609085083007812500e+00) (61, 2.11143245697021484375e+01) (62, -3.13219070434570312500e+01) (63, -2.18921508789062500000e+01) (64, 7.26235389709472656250e-01) (65, -2.00126910209655761719e+00) (66, -1.19276790618896484375e+01) (67, 5.63471460342407226562e+00) (61, -4.61360454559326171875e+00) (62, 1.93531913757324218750e+01) (63, -2.31182632446289062500e+01) (64, -2.94142093658447265625e+01) (65, -6.68731498718261718750e+00) (66, -6.79018878936767578125e+00) (67, 2.23674821853637695312e+00) 
