FANN_FLO_2.1
num_layers=3
learning_rate=0.800000
connection_rate=1.000000
network_type=0
learning_momentum=0.000000
training_algorithm=0
train_error_function=1
train_stop_function=0
cascade_output_change_fraction=0.010000
quickprop_decay=-0.000100
quickprop_mu=1.750000
rprop_increase_factor=1.200000
rprop_decrease_factor=0.500000
rprop_delta_min=0.000000
rprop_delta_max=50.000000
rprop_delta_zero=0.100000
cascade_output_stagnation_epochs=12
cascade_candidate_change_fraction=0.010000
cascade_candidate_stagnation_epochs=12
cascade_max_out_epochs=150
cascade_min_out_epochs=50
cascade_max_cand_epochs=150
cascade_min_cand_epochs=50
cascade_num_candidate_groups=2
bit_fail_limit=3.49999994039535522461e-01
cascade_candidate_limit=1.00000000000000000000e+03
cascade_weight_multiplier=4.00000005960464477539e-01
cascade_activation_functions_count=10
cascade_activation_functions=3 5 7 8 10 11 14 15 16 17 
cascade_activation_steepnesses_count=4
cascade_activation_steepnesses=2.50000000000000000000e-01 5.00000000000000000000e-01 7.50000000000000000000e-01 1.00000000000000000000e+00 
layer_sizes=61 7 5 
scale_included=0
neurons (num_inputs, activation_function, activation_steepness)=(0, 0, 0.00000000000000000000e+00) (0, 0, 0.00000000000000000000e+00) (0, 0, 0.00000000000000000000e+00) (0, 0, 0.00000000000000000000e+00) (0, 0, 0.00000000000000000000e+00) (0, 0, 0.00000000000000000000e+00) (0, 0, 0.00000000000000000000e+00) (0, 0, 0.00000000000000000000e+00) (0, 0, 0.00000000000000000000e+00) (0, 0, 0.00000000000000000000e+00) (0, 0, 0.00000000000000000000e+00) (0, 0, 0.00000000000000000000e+00) (0, 0, 0.00000000000000000000e+00) (0, 0, 0.00000000000000000000e+00) (0, 0, 0.00000000000000000000e+00) (0, 0, 0.00000000000000000000e+00) (0, 0, 0.00000000000000000000e+00) (0, 0, 0.00000000000000000000e+00) (0, 0, 0.00000000000000000000e+00) (0, 0, 0.00000000000000000000e+00) (0, 0, 0.00000000000000000000e+00) (0, 0, 0.00000000000000000000e+00) (0, 0, 0.00000000000000000000e+00) (0, 0, 0.00000000000000000000e+00) (0, 0, 0.00000000000000000000e+00) (0, 0, 0.00000000000000000000e+00) (0, 0, 0.00000000000000000000e+00) (0, 0, 0.00000000000000000000e+00) (0, 0, 0.00000000000000000000e+00) (0, 0, 0.00000000000000000000e+00) (0, 0, 0.00000000000000000000e+00) (0, 0, 0.00000000000000000000e+00) (0, 0, 0.00000000000000000000e+00) (0, 0, 0.00000000000000000000e+00) (0, 0, 0.00000000000000000000e+00) (0, 0, 0.00000000000000000000e+00) (0, 0, 0.00000000000000000000e+00) (0, 0, 0.00000000000000000000e+00) (0, 0, 0.00000000000000000000e+00) (0, 0, 0.00000000000000000000e+00) (0, 0, 0.00000000000000000000e+00) (0, 0, 0.00000000000000000000e+00) (0, 0, 0.00000000000000000000e+00) (0, 0, 0.00000000000000000000e+00) (0, 0, 0.00000000000000000000e+00) (0, 0, 0.00000000000000000000e+00) (0, 0, 0.00000000000000000000e+00) (0, 0, 0.00000000000000000000e+00) (0, 0, 0.00000000000000000000e+00) (0, 0, 0.00000000000000000000e+00) (0, 0, 0.00000000000000000000e+00) (0, 0, 0.00000000000000000000e+00) (0, 0, 0.00000000000000000000e+00) (0, 0, 0.00000000000000000000e+00) (0, 0, 0.00000000000000000000e+00) (0, 0, 0.00000000000000000000e+00) (0, 0, 0.00000000000000000000e+00) (0, 0, 0.00000000000000000000e+00) (0, 0, 0.00000000000000000000e+00) (0, 0, 0.00000000000000000000e+00) (0, 0, 0.00000000000000000000e+00) (61, 3, 5.00000000000000000000e-01) (61, 3, 5.00000000000000000000e-01) (61, 3, 5.00000000000000000000e-01) (61, 3, 5.00000000000000000000e-01) (61, 3, 5.00000000000000000000e-01) (61, 3, 5.00000000000000000000e-01) (0, 3, 0.00000000000000000000e+00) (7, 3, 5.00000000000000000000e-01) (7, 3, 5.00000000000000000000e-01) (7, 3, 5.00000000000000000000e-01) (7, 3, 5.00000000000000000000e-01) (0, 3, 0.00000000000000000000e+00) 
connections (connected_to_neuron, weight)=(0, -1.67073059082031250000e+00) (1, -8.28273487091064453125e+00) (2, -5.78921222686767578125e+00) (3, 7.90132427215576171875e+00) (4, 2.19991588592529296875e+01) (5, -4.98222780227661132812e+00) (6, -8.70950698852539062500e+00) (7, 8.96105670928955078125e+00) (8, 1.82078704833984375000e+01) (9, -2.03103733062744140625e+00) (10, -5.49477291107177734375e+00) (11, -4.72469520568847656250e+00) (12, 2.44867658615112304688e+00) (13, 7.47208213806152343750e+00) (14, -1.17698945999145507812e+01) (15, -2.18333005905151367188e+00) (16, -9.22395610809326171875e+00) (17, -3.11182522773742675781e+00) (18, -5.94661903381347656250e+00) (19, 1.00060749053955078125e+01) (20, -1.08816556930541992188e+01) (21, -4.73021984100341796875e+00) (22, -9.01871013641357421875e+00) (23, 1.18606805801391601562e+00) (24, 8.97485351562500000000e+00) (25, -1.03917875289916992188e+01) (26, -5.64208698272705078125e+00) (27, -1.47917270660400390625e-01) (28, 7.62194538116455078125e+00) (29, 2.95594167709350585938e+00) (30, 8.65018749237060546875e+00) (31, -1.60325870513916015625e+01) (32, -1.04891548156738281250e+01) (33, 1.27152938842773437500e+01) (34, 1.28128433227539062500e+01) (35, 2.62402272224426269531e+00) (36, -2.77809953689575195312e+00) (37, -6.32073163986206054688e+00) (38, 5.43750429153442382812e+00) (39, 8.56861114501953125000e-01) (40, 1.29398059844970703125e+01) (41, 6.89167737960815429688e-01) (42, 5.43982315063476562500e+00) (43, -3.17572355270385742188e-01) (44, -9.74709796905517578125e+00) (45, -5.89763164520263671875e-01) (46, 8.01387500762939453125e+00) (47, -1.93591995239257812500e+01) (48, -4.01060962677001953125e+00) (49, -1.66975855827331542969e+00) (50, 1.40779895782470703125e+01) (51, 9.87482929229736328125e+00) (52, -9.54912567138671875000e+00) (53, 2.86064720153808593750e+00) (54, -1.82997150421142578125e+01) (55, -5.87576484680175781250e+00) (56, 9.15469741821289062500e+00) (57, 1.35311632156372070312e+01) (58, -5.28918838500976562500e+00) (59, -4.97682952880859375000e+00) (60, -8.31899261474609375000e+00) (0, 8.31487464904785156250e+00) (1, -9.88467597961425781250e+00) (2, -6.08017921447753906250e+00) (3, -9.22354507446289062500e+00) (4, -3.18689537048339843750e+00) (5, 1.11393537521362304688e+01) (6, 2.02513837814331054688e+00) (7, -1.47606792449951171875e+01) (8, 9.59357166290283203125e+00) (9, -7.70061206817626953125e+00) (10, 1.87693834304809570312e+00) (11, 6.73131942749023437500e-02) (12, -1.06524353027343750000e+01) (13, 5.34882783889770507812e+00) (14, -5.90134620666503906250e+00) (15, -3.44127869606018066406e+00) (16, -7.97470188140869140625e+00) (17, 2.96947708129882812500e+01) (18, 6.08381795883178710938e+00) (19, 8.53131484985351562500e+00) (20, -6.29958677291870117188e+00) (21, -1.92357373237609863281e+00) (22, 2.11941337585449218750e+01) (23, -1.47394876480102539062e+01) (24, -6.34994935989379882812e+00) (25, 4.17946815490722656250e+00) (26, 1.35848140716552734375e+01) (27, 1.28107795715332031250e+01) (28, 4.20686721801757812500e+00) (29, 8.68018817901611328125e+00) (30, 8.08521842956542968750e+00) (31, 2.03598327636718750000e+01) (32, -7.56253480911254882812e+00) (33, 1.39821939468383789062e+01) (34, 8.60325050354003906250e+00) (35, 9.53835964202880859375e+00) (36, 1.06855182647705078125e+01) (37, 2.01211967468261718750e+01) (38, -3.28719520568847656250e+01) (39, -6.61642074584960937500e-01) (40, -9.55288171768188476562e-01) (41, -9.07969474792480468750e+00) (42, -9.05734443664550781250e+00) (43, -7.70689487457275390625e+00) (44, -5.02538681030273437500e-01) (45, -2.49864053726196289062e+00) (46, -1.98395800590515136719e+00) (47, -1.04159946441650390625e+01) (48, -5.86936044692993164062e+00) (49, 9.14066219329833984375e+00) (50, 1.91512620449066162109e+00) (51, -1.41572866439819335938e+01) (52, -1.82881031036376953125e+01) (53, 1.18363990783691406250e+01) (54, -3.64076066017150878906e+00) (55, -1.41408796310424804688e+01) (56, 3.18512678146362304688e-01) (57, 1.19725370407104492188e+00) (58, 6.47290182113647460938e+00) (59, -4.89175224304199218750e+00) (60, 1.74490509033203125000e+01) (0, 6.93809986114501953125e-01) (1, 3.98794603347778320312e+00) (2, -3.46647739410400390625e-01) (3, -1.84901666641235351562e+00) (4, -1.72237777709960937500e+00) (5, -7.75775766372680664062e+00) (6, -1.74181485176086425781e+00) (7, -1.74078071117401123047e+00) (8, 1.38016347885131835938e+01) (9, -2.93560385704040527344e-01) (10, 1.03117723464965820312e+01) (11, 8.60498428344726562500e+00) (12, 1.01634082794189453125e+01) (13, 3.27425003051757812500e+00) (14, 1.49377326965332031250e+01) (15, -9.99779701232910156250e+00) (16, -2.58313694000244140625e+01) (17, 7.66878557205200195312e+00) (18, -1.98156666755676269531e+00) (19, -1.58245925903320312500e+01) (20, 1.42346763610839843750e+01) (21, 5.00718116760253906250e-01) (22, -1.78646812438964843750e+01) (23, 2.13076066970825195312e+00) (24, -9.94216728210449218750e+00) (25, 4.19219779968261718750e+00) (26, -3.18864750862121582031e+00) (27, -9.94304275512695312500e+00) (28, 1.61858596801757812500e+01) (29, -1.84727039337158203125e+01) (30, -9.79034137725830078125e+00) (31, 7.61074161529541015625e+00) (32, 1.46694412231445312500e+01) (33, 1.38122539520263671875e+01) (34, 1.18161458969116210938e+01) (35, 1.06190576553344726562e+01) (36, -1.25817117691040039062e+01) (37, 2.45023322105407714844e+00) (38, 1.58984327316284179688e+01) (39, -7.51451969146728515625e-01) (40, -2.66115665435791015625e+00) (41, -6.11357307434082031250e+00) (42, 7.41070508956909179688e+00) (43, -5.28675651550292968750e+00) (44, -5.31960964202880859375e+00) (45, -1.98804187774658203125e+00) (46, -1.22148346900939941406e+00) (47, 1.02933549880981445312e+01) (48, -1.68795661926269531250e+01) (49, -1.41747531890869140625e+01) (50, 1.13491535186767578125e+00) (51, -6.89508819580078125000e+00) (52, 1.69687366485595703125e+00) (53, -1.17671561241149902344e+00) (54, -4.14572477340698242188e+00) (55, -1.65100288391113281250e+01) (56, 5.32947206497192382812e+00) (57, 1.12067432403564453125e+01) (58, 4.32175683975219726562e+00) (59, 1.11364326477050781250e+01) (60, 4.85260486602783203125e-02) (0, 1.99138152599334716797e+00) (1, -3.57354593276977539062e+00) (2, 4.20247840881347656250e+00) (3, 1.70440216064453125000e+01) (4, -3.48667716979980468750e+00) (5, 8.30555915832519531250e-01) (6, 1.90245513916015625000e+01) (7, -3.34275293350219726562e+00) (8, 1.26792278289794921875e+01) (9, 5.27600383758544921875e+00) (10, -4.07699406147003173828e-01) (11, 2.17706108093261718750e+00) (12, 2.87074542045593261719e+00) (13, 8.45135879516601562500e+00) (14, 8.43041038513183593750e+00) (15, 4.72972106933593750000e+00) (16, 4.69028759002685546875e+00) (17, -7.64586687088012695312e+00) (18, -1.85165643692016601562e+00) (19, -9.31325435638427734375e-01) (20, 6.93192863464355468750e+00) (21, -1.34760541915893554688e+01) (22, 1.37486457824707031250e-01) (23, -2.27576565742492675781e+00) (24, -9.73592281341552734375e+00) (25, -6.47548770904541015625e+00) (26, -2.10557484626770019531e+00) (27, -1.67005882263183593750e+01) (28, -2.75057601928710937500e+00) (29, -8.69141578674316406250e+00) (30, 1.15492563247680664062e+01) (31, -6.09229087829589843750e+00) (32, 5.75739669799804687500e+00) (33, -1.84173595905303955078e+00) (34, -8.79721164703369140625e-01) (35, -1.89311885833740234375e+01) (36, -1.00212650299072265625e+01) (37, -1.72773170471191406250e+01) (38, -1.70962452888488769531e-01) (39, -1.23747062683105468750e+01) (40, 2.34992074966430664062e+00) (41, -1.38839378356933593750e+01) (42, -7.93068408966064453125e+00) (43, 1.62609329223632812500e+01) (44, 1.91197621822357177734e+00) (45, -2.07918510437011718750e+01) (46, -6.31569719314575195312e+00) (47, 1.17765483856201171875e+01) (48, 4.88237190246582031250e+00) (49, 8.14413356781005859375e+00) (50, -5.60587263107299804688e+00) (51, -7.02508687973022460938e+00) (52, 6.67365407943725585938e+00) (53, -2.81469345092773437500e+00) (54, 1.23767290115356445312e+01) (55, -3.57724833488464355469e+00) (56, -6.16861629486083984375e+00) (57, -4.44165325164794921875e+00) (58, 7.12252616882324218750e-01) (59, -6.90801763534545898438e+00) (60, -1.31935949325561523438e+01) (0, -8.54864692687988281250e+00) (1, 7.65996932983398437500e+00) (2, 1.34664230346679687500e+01) (3, 1.50773704051971435547e+00) (4, 2.08395719528198242188e-01) (5, -7.24552440643310546875e+00) (6, 1.03591756820678710938e+01) (7, 9.00572776794433593750e+00) (8, -1.34638462066650390625e+01) (9, -1.10971698760986328125e+01) (10, -3.95921659469604492188e+00) (11, 4.13542270660400390625e+00) (12, 6.48024559020996093750e+00) (13, 7.25262880325317382812e+00) (14, -1.00374698638916015625e+00) (15, 3.56439208984375000000e+00) (16, 5.26677513122558593750e+00) (17, 1.80277862548828125000e+01) (18, -2.90045666694641113281e+00) (19, 1.83670401573181152344e+00) (20, -5.07191085815429687500e+00) (21, -1.37278718948364257812e+01) (22, -5.28821659088134765625e+00) (23, 9.75470733642578125000e+00) (24, -2.74461221694946289062e+00) (25, 1.57099461555480957031e+00) (26, -9.41214084625244140625e+00) (27, 4.05831718444824218750e+00) (28, -5.34364223480224609375e+00) (29, -9.73346996307373046875e+00) (30, -8.03016281127929687500e+00) (31, -1.18340826034545898438e+01) (32, -4.98011875152587890625e+00) (33, 1.27247638702392578125e+01) (34, 5.04909706115722656250e+00) (35, 9.20657920837402343750e+00) (36, 9.08765792846679687500e+00) (37, 1.75238323211669921875e+00) (38, 7.79041719436645507812e+00) (39, -4.50913858413696289062e+00) (40, -4.85692930221557617188e+00) (41, -7.39742279052734375000e+00) (42, -1.35751676559448242188e+00) (43, 1.34811153411865234375e+01) (44, 9.20912837982177734375e+00) (45, 2.88517785072326660156e+00) (46, -1.29751605987548828125e+01) (47, 2.03439044952392578125e+00) (48, -1.66277885437011718750e-02) (49, -1.17818412780761718750e+01) (50, 4.13455772399902343750e+00) (51, -1.41676521301269531250e+01) (52, -4.73407840728759765625e+00) (53, -1.02253189086914062500e+01) (54, -3.83466100692749023438e+00) (55, 1.17986278533935546875e+01) (56, 5.18972826004028320312e+00) (57, 1.01668243408203125000e+01) (58, -1.44190692901611328125e+00) (59, -7.82536387443542480469e-01) (60, 6.93048477172851562500e+00) (0, -1.84286022186279296875e+00) (1, -5.73721170425415039062e+00) (2, -6.26091241836547851562e-01) (3, 1.94953024387359619141e+00) (4, 4.60199594497680664062e+00) (5, 2.77434992790222167969e+00) (6, 8.71554136276245117188e-01) (7, -1.01165733337402343750e+01) (8, 6.52736186981201171875e+00) (9, -1.80416369438171386719e+00) (10, -1.03338985443115234375e+01) (11, 8.72271537780761718750e-01) (12, 8.63079452514648437500e+00) (13, -2.01804389953613281250e+01) (14, 1.46390266418457031250e+01) (15, 1.05360002517700195312e+01) (16, 1.25121057033538818359e+00) (17, -6.70096874237060546875e-01) (18, -6.81198358535766601562e+00) (19, -4.26812839508056640625e+00) (20, -3.12702870368957519531e+00) (21, -5.05984783172607421875e+00) (22, -8.30884933471679687500e+00) (23, 2.10378932952880859375e+01) (24, -2.39985299110412597656e+00) (25, 1.12549400329589843750e+01) (26, -1.38953042030334472656e+00) (27, -8.38251352310180664062e-01) (28, 1.39460792541503906250e+01) (29, 2.60602855682373046875e+00) (30, -8.94952583312988281250e+00) (31, 1.26405868530273437500e+01) (32, -5.30557632446289062500e-02) (33, 2.68607378005981445312e+00) (34, 1.03905420303344726562e+01) (35, 4.21765851974487304688e+00) (36, 3.65962982177734375000e+00) (37, -4.23845195770263671875e+00) (38, 1.70038127899169921875e+01) (39, -1.05891857147216796875e+01) (40, 1.18158645629882812500e+01) (41, 2.89998793601989746094e+00) (42, 3.76600646972656250000e+00) (43, 3.75703907012939453125e+00) (44, -1.10037269592285156250e+01) (45, 6.00381946563720703125e+00) (46, 7.93584156036376953125e+00) (47, 1.74637436866760253906e+00) (48, 3.34107279777526855469e+00) (49, 6.38230085372924804688e-01) (50, 4.21266365051269531250e+00) (51, 7.70598173141479492188e+00) (52, -3.32279586791992187500e+00) (53, -1.94000015258789062500e+01) (54, 6.19320392608642578125e-01) (55, -7.52236652374267578125e+00) (56, -6.80191040039062500000e+00) (57, -4.00360441207885742188e+00) (58, 6.42399883270263671875e+00) (59, -3.84997892379760742188e+00) (60, -3.32731270790100097656e+00) (61, -1.60325527191162109375e+00) (62, -6.17070198059082031250e+00) (63, -8.97680377960205078125e+00) (64, -5.07769644260406494141e-01) (65, -6.29630088806152343750e-01) (66, 3.44364309310913085938e+00) (67, 4.05096435546875000000e+00) (61, -9.34776210784912109375e+00) (62, 6.70140504837036132812e+00) (63, -5.50862836837768554688e+00) (64, 7.12609767913818359375e+00) (65, 3.84914040565490722656e+00) (66, -7.34805631637573242188e+00) (67, -3.67803359031677246094e+00) (61, -7.53250455856323242188e+00) (62, 9.31623649597167968750e+00) (63, 3.25133728981018066406e+00) (64, -4.89041757583618164062e+00) (65, -2.89768958091735839844e+00) (66, -2.13553595542907714844e+00) (67, -2.80170154571533203125e+00) (61, -1.25825681686401367188e+01) (62, -1.18976058959960937500e+01) (63, -1.00286588668823242188e+01) (64, -2.93443059921264648438e+00) (65, -5.24031448364257812500e+00) (66, 9.13930416107177734375e+00) (67, 8.79846096038818359375e+00) 
