FANN_FLO_2.1
num_layers=3
learning_rate=0.800000
connection_rate=1.000000
network_type=0
learning_momentum=0.000000
training_algorithm=0
train_error_function=1
train_stop_function=0
cascade_output_change_fraction=0.010000
quickprop_decay=-0.000100
quickprop_mu=1.750000
rprop_increase_factor=1.200000
rprop_decrease_factor=0.500000
rprop_delta_min=0.000000
rprop_delta_max=50.000000
rprop_delta_zero=0.100000
cascade_output_stagnation_epochs=12
cascade_candidate_change_fraction=0.010000
cascade_candidate_stagnation_epochs=12
cascade_max_out_epochs=150
cascade_min_out_epochs=50
cascade_max_cand_epochs=150
cascade_min_cand_epochs=50
cascade_num_candidate_groups=2
bit_fail_limit=3.49999994039535522461e-01
cascade_candidate_limit=1.00000000000000000000e+03
cascade_weight_multiplier=4.00000005960464477539e-01
cascade_activation_functions_count=10
cascade_activation_functions=3 5 7 8 10 11 14 15 16 17 
cascade_activation_steepnesses_count=4
cascade_activation_steepnesses=2.50000000000000000000e-01 5.00000000000000000000e-01 7.50000000000000000000e-01 1.00000000000000000000e+00 
layer_sizes=61 7 5 
scale_included=0
neurons (num_inputs, activation_function, activation_steepness)=(0, 0, 0.00000000000000000000e+00) (0, 0, 0.00000000000000000000e+00) (0, 0, 0.00000000000000000000e+00) (0, 0, 0.00000000000000000000e+00) (0, 0, 0.00000000000000000000e+00) (0, 0, 0.00000000000000000000e+00) (0, 0, 0.00000000000000000000e+00) (0, 0, 0.00000000000000000000e+00) (0, 0, 0.00000000000000000000e+00) (0, 0, 0.00000000000000000000e+00) (0, 0, 0.00000000000000000000e+00) (0, 0, 0.00000000000000000000e+00) (0, 0, 0.00000000000000000000e+00) (0, 0, 0.00000000000000000000e+00) (0, 0, 0.00000000000000000000e+00) (0, 0, 0.00000000000000000000e+00) (0, 0, 0.00000000000000000000e+00) (0, 0, 0.00000000000000000000e+00) (0, 0, 0.00000000000000000000e+00) (0, 0, 0.00000000000000000000e+00) (0, 0, 0.00000000000000000000e+00) (0, 0, 0.00000000000000000000e+00) (0, 0, 0.00000000000000000000e+00) (0, 0, 0.00000000000000000000e+00) (0, 0, 0.00000000000000000000e+00) (0, 0, 0.00000000000000000000e+00) (0, 0, 0.00000000000000000000e+00) (0, 0, 0.00000000000000000000e+00) (0, 0, 0.00000000000000000000e+00) (0, 0, 0.00000000000000000000e+00) (0, 0, 0.00000000000000000000e+00) (0, 0, 0.00000000000000000000e+00) (0, 0, 0.00000000000000000000e+00) (0, 0, 0.00000000000000000000e+00) (0, 0, 0.00000000000000000000e+00) (0, 0, 0.00000000000000000000e+00) (0, 0, 0.00000000000000000000e+00) (0, 0, 0.00000000000000000000e+00) (0, 0, 0.00000000000000000000e+00) (0, 0, 0.00000000000000000000e+00) (0, 0, 0.00000000000000000000e+00) (0, 0, 0.00000000000000000000e+00) (0, 0, 0.00000000000000000000e+00) (0, 0, 0.00000000000000000000e+00) (0, 0, 0.00000000000000000000e+00) (0, 0, 0.00000000000000000000e+00) (0, 0, 0.00000000000000000000e+00) (0, 0, 0.00000000000000000000e+00) (0, 0, 0.00000000000000000000e+00) (0, 0, 0.00000000000000000000e+00) (0, 0, 0.00000000000000000000e+00) (0, 0, 0.00000000000000000000e+00) (0, 0, 0.00000000000000000000e+00) (0, 0, 0.00000000000000000000e+00) (0, 0, 0.00000000000000000000e+00) (0, 0, 0.00000000000000000000e+00) (0, 0, 0.00000000000000000000e+00) (0, 0, 0.00000000000000000000e+00) (0, 0, 0.00000000000000000000e+00) (0, 0, 0.00000000000000000000e+00) (0, 0, 0.00000000000000000000e+00) (61, 3, 5.00000000000000000000e-01) (61, 3, 5.00000000000000000000e-01) (61, 3, 5.00000000000000000000e-01) (61, 3, 5.00000000000000000000e-01) (61, 3, 5.00000000000000000000e-01) (61, 3, 5.00000000000000000000e-01) (0, 3, 0.00000000000000000000e+00) (7, 3, 5.00000000000000000000e-01) (7, 3, 5.00000000000000000000e-01) (7, 3, 5.00000000000000000000e-01) (7, 3, 5.00000000000000000000e-01) (0, 3, 0.00000000000000000000e+00) 
connections (connected_to_neuron, weight)=(0, -2.73648357391357421875e+00) (1, -1.37327051162719726562e+00) (2, 1.12710309028625488281e+00) (3, 3.20819449424743652344e+00) (4, -3.03780317306518554688e+00) (5, 8.09312248229980468750e+00) (6, 1.06773996353149414062e+00) (7, -1.82497632503509521484e+00) (8, -3.47932004928588867188e+00) (9, -1.09921121597290039062e+01) (10, -1.47218942642211914062e-01) (11, 3.64021182060241699219e+00) (12, -1.94059669971466064453e+00) (13, -6.98821544647216796875e+00) (14, -2.52432316541671752930e-01) (15, 1.44041764736175537109e+00) (16, 2.68806004524230957031e+00) (17, -5.53665876388549804688e-01) (18, 3.71775627136230468750e+00) (19, 2.16232132911682128906e+00) (20, 1.18345606327056884766e+00) (21, -1.84209510684013366699e-01) (22, 7.68252182006835937500e+00) (23, -1.83647215366363525391e+00) (24, 7.55565285682678222656e-01) (25, 2.06615257263183593750e+00) (26, -2.13206839561462402344e+00) (27, -2.18144989013671875000e+00) (28, -5.93469762802124023438e+00) (29, -1.42277586460113525391e+00) (30, -1.68267166614532470703e+00) (31, 1.28177297115325927734e+00) (32, 2.06809520721435546875e+00) (33, -1.31809324026107788086e-01) (34, 1.05441188812255859375e+00) (35, -7.92521715164184570312e-01) (36, 2.89753913879394531250e+00) (37, 4.42950391769409179688e+00) (38, -2.64903998374938964844e+00) (39, 3.05258512496948242188e+00) (40, -9.63280677795410156250e-01) (41, -4.23654413223266601562e+00) (42, 1.46005320549011230469e+00) (43, -2.81762290000915527344e+00) (44, 8.85853230953216552734e-01) (45, 6.43380582332611083984e-01) (46, -1.41946852207183837891e+00) (47, 1.20684659481048583984e+00) (48, -4.12250280380249023438e+00) (49, -1.09462392330169677734e+00) (50, -1.30030453205108642578e+00) (51, -1.72165822982788085938e+00) (52, -9.13989305496215820312e-01) (53, 4.01230096817016601562e+00) (54, -3.09232187271118164062e+00) (55, 1.24109494686126708984e+00) (56, -7.31269896030426025391e-01) (57, -6.47074937820434570312e-01) (58, 2.25379204750061035156e+00) (59, -1.02340424060821533203e+00) (60, 4.08599424362182617188e+00) (0, 4.99805063009262084961e-01) (1, 7.49668955802917480469e-01) (2, -2.91568934917449951172e-01) (3, 8.22972297668457031250e-01) (4, 1.46846187114715576172e+00) (5, 1.89984217286109924316e-01) (6, -2.84614229202270507812e+00) (7, -4.58593219518661499023e-01) (8, 6.42706394195556640625e-01) (9, 3.22275328636169433594e+00) (10, 2.73481070995330810547e-01) (11, 3.10238242149353027344e-01) (12, -1.03046107292175292969e+00) (13, 4.19830894470214843750e+00) (14, 2.89809441566467285156e+00) (15, -9.07331347465515136719e-01) (16, -7.45050907135009765625e-01) (17, -1.63581633567810058594e+00) (18, -3.43368887901306152344e+00) (19, -2.78545522689819335938e+00) (20, 1.61210381984710693359e+00) (21, 8.89020204544067382812e-01) (22, -1.06454229354858398438e+00) (23, -8.92225027084350585938e-01) (24, -5.96099996566772460938e+00) (25, 8.08326482772827148438e-01) (26, -1.79793989658355712891e+00) (27, -2.02642679214477539062e+00) (28, 3.71056747436523437500e+00) (29, 9.74367260932922363281e-01) (30, 6.04522414505481719971e-02) (31, -4.16577607393264770508e-01) (32, -3.55832844972610473633e-01) (33, 4.65657043457031250000e+00) (34, 4.66327857971191406250e+00) (35, 1.97812187671661376953e+00) (36, 7.52844572067260742188e-01) (37, 3.80780649185180664062e+00) (38, -4.26826763153076171875e+00) (39, 1.08377003669738769531e+00) (40, -2.64254713058471679688e+00) (41, -1.85124492645263671875e+00) (42, 9.92144882678985595703e-01) (43, -5.74888992309570312500e+00) (44, 2.78415560722351074219e+00) (45, 6.54829740524291992188e-02) (46, -4.70892578363418579102e-01) (47, 4.24703598022460937500e+00) (48, -2.40179252624511718750e+00) (49, -1.42556250095367431641e+00) (50, 4.34887218475341796875e+00) (51, -3.23162764310836791992e-01) (52, 2.36335724592208862305e-01) (53, -5.80798745155334472656e-01) (54, -3.92967247962951660156e+00) (55, 2.73786258697509765625e+00) (56, -7.30244994163513183594e-01) (57, 6.44991636276245117188e-01) (58, 1.84275448322296142578e+00) (59, -1.27517831325531005859e+00) (60, 4.76046264171600341797e-01) (0, 1.63065099716186523438e+00) (1, -1.32833230495452880859e+00) (2, -1.96075403690338134766e+00) (3, -1.01245927810668945312e+00) (4, -2.04700374603271484375e+00) (5, -1.91249394416809082031e+00) (6, -1.21243846416473388672e+00) (7, -1.09776377677917480469e-01) (8, -3.19509339332580566406e+00) (9, -5.43318700790405273438e+00) (10, -1.53507661819458007812e+00) (11, 5.44024610519409179688e+00) (12, 4.40411806106567382812e-01) (13, 3.41906738281250000000e+00) (14, -5.53492546081542968750e-01) (15, -4.02918100357055664062e-01) (16, 7.48024046421051025391e-01) (17, -9.65882420539855957031e-01) (18, 3.31049132347106933594e+00) (19, 5.30586302280426025391e-01) (20, 1.83021318912506103516e+00) (21, 2.71934914588928222656e+00) (22, 3.30232930183410644531e+00) (23, -4.11442875862121582031e-01) (24, 3.76836204528808593750e+00) (25, -2.28072836995124816895e-01) (26, -4.79167890548706054688e+00) (27, 1.36869680881500244141e+00) (28, -8.04181385040283203125e+00) (29, 2.49925398826599121094e+00) (30, 1.75244915485382080078e+00) (31, 9.47687268257141113281e-01) (32, 3.88892054557800292969e+00) (33, 4.99092280864715576172e-01) (34, -3.23451852798461914062e+00) (35, -2.84306001663208007812e+00) (36, -2.63613820075988769531e+00) (37, 6.71570181846618652344e-01) (38, -2.74673438072204589844e+00) (39, -2.51133650541305541992e-01) (40, -1.31798195838928222656e+00) (41, 7.10901200771331787109e-01) (42, -1.64632499217987060547e+00) (43, 4.27194881439208984375e+00) (44, -1.94534504413604736328e+00) (45, -2.11594119668006896973e-01) (46, 1.04969060420989990234e+00) (47, -1.40547716617584228516e+00) (48, -2.61795639991760253906e+00) (49, -8.72879385948181152344e-01) (50, -2.51772451400756835938e+00) (51, -3.14069962501525878906e+00) (52, -5.22984552383422851562e+00) (53, -1.35001528263092041016e+00) (54, -4.02053737640380859375e+00) (55, 1.16317951679229736328e+00) (56, -1.40710556507110595703e+00) (57, 2.13864946365356445312e+00) (58, 6.28654384613037109375e+00) (59, 2.65733146667480468750e+00) (60, -3.57171082496643066406e+00) (0, 1.29777002334594726562e+00) (1, -1.37135791778564453125e+00) (2, 1.07646834850311279297e+00) (3, -4.31270629167556762695e-01) (4, -1.10607087612152099609e+00) (5, 4.10867500305175781250e+00) (6, -9.42154884338378906250e-01) (7, -2.26209616661071777344e+00) (8, -2.20202755928039550781e+00) (9, -2.30464935302734375000e+00) (10, -6.73873662948608398438e-01) (11, 6.61212980747222900391e-01) (12, -3.31919097900390625000e+00) (13, 2.23191833496093750000e+00) (14, -8.64258885383605957031e-01) (15, 3.72809469699859619141e-02) (16, -7.42984175682067871094e-01) (17, 3.42167568206787109375e+00) (18, -1.78011655807495117188e+00) (19, 2.56202363967895507812e+00) (20, 2.05059051513671875000e+00) (21, -2.08416604995727539062e+00) (22, 3.45871746540069580078e-01) (23, -8.89920711517333984375e-01) (24, 2.87401628494262695312e+00) (25, -4.49342012405395507812e-01) (26, -1.23414134979248046875e+00) (27, -9.86628234386444091797e-01) (28, -1.99409961700439453125e+00) (29, -5.15325009822845458984e-01) (30, 1.28902280330657958984e+00) (31, -7.74917006492614746094e-01) (32, -2.55602216720581054688e+00) (33, -4.66799497604370117188e+00) (34, -9.00503575801849365234e-01) (35, -2.64026999473571777344e+00) (36, -4.66149902343750000000e+00) (37, -8.35795497894287109375e+00) (38, 2.06339240074157714844e+00) (39, -4.70942825078964233398e-01) (40, 1.10061812400817871094e+00) (41, 3.42421627044677734375e+00) (42, -1.36354207992553710938e-01) (43, 3.81438302993774414062e+00) (44, -1.00067675113677978516e+00) (45, -9.02275443077087402344e-01) (46, 6.55577540397644042969e-01) (47, -1.94383943080902099609e+00) (48, 5.54132270812988281250e+00) (49, 5.83221137523651123047e-01) (50, 1.46296143531799316406e+00) (51, 7.11436331272125244141e-01) (52, 3.21822643280029296875e+00) (53, -3.04156208038330078125e+00) (54, 3.98526716232299804688e+00) (55, -3.53942185640335083008e-01) (56, -7.02282547950744628906e-01) (57, -1.42879617214202880859e+00) (58, -2.28833627700805664062e+00) (59, -2.16992640495300292969e+00) (60, -3.08732008934020996094e+00) (0, 1.63707780838012695312e+00) (1, 3.14434194564819335938e+00) (2, 2.08041954040527343750e+00) (3, 2.41906380653381347656e+00) (4, 5.76339438557624816895e-02) (5, 4.92988920211791992188e+00) (6, -8.48640859127044677734e-01) (7, 9.19390082359313964844e-01) (8, 9.05883431434631347656e-01) (9, 2.85374641418457031250e+00) (10, 3.74428659677505493164e-01) (11, -1.15168273448944091797e+00) (12, 3.22011828422546386719e+00) (13, 8.86479392647743225098e-02) (14, -3.85674327611923217773e-01) (15, -5.66022038459777832031e-01) (16, 2.69763040542602539062e+00) (17, -4.64993381500244140625e+00) (18, 2.85305523872375488281e+00) (19, -1.18583047389984130859e+00) (20, -5.37950322031974792480e-02) (21, -5.92238605022430419922e-01) (22, 1.06225433349609375000e+01) (23, 6.74174010753631591797e-01) (24, 6.67565345764160156250e+00) (25, 8.65922927856445312500e-01) (26, -4.66247606277465820312e+00) (27, 3.04096397012472152710e-02) (28, -3.87956738471984863281e+00) (29, 5.07087516784667968750e+00) (30, 1.91618859767913818359e+00) (31, -2.13738441467285156250e+00) (32, 1.62619268894195556641e+00) (33, -4.38561081886291503906e-01) (34, -3.24704527854919433594e+00) (35, 5.14321029186248779297e-01) (36, 2.23859310150146484375e-01) (37, -2.67119383811950683594e+00) (38, 8.40880990028381347656e-01) (39, -3.92067003250122070312e+00) (40, 4.06511098146438598633e-01) (41, -2.48064899444580078125e+00) (42, -2.72189974784851074219e+00) (43, 3.17291378974914550781e+00) (44, 3.39367896318435668945e-01) (45, 4.57177728414535522461e-01) (46, -2.03580453991889953613e-01) (47, 1.01551115512847900391e+00) (48, -1.44166862964630126953e+00) (49, 2.35194778442382812500e+00) (50, -4.03414331376552581787e-02) (51, 8.73989045619964599609e-01) (52, -3.57314288616180419922e-01) (53, 1.55017721652984619141e+00) (54, -4.65166950225830078125e+00) (55, 2.69082486629486083984e-01) (56, -1.78381398320198059082e-01) (57, 1.95336258411407470703e+00) (58, 1.07406139373779296875e+00) (59, 1.43704712390899658203e-01) (60, 2.96548217535018920898e-01) (0, 3.89755457639694213867e-01) (1, -9.94419276714324951172e-01) (2, 2.09437179565429687500e+00) (3, 4.54381322860717773438e+00) (4, 8.05081307888031005859e-01) (5, -1.00304913520812988281e+00) (6, 2.23633766174316406250e+00) (7, 6.00086879730224609375e+00) (8, 3.41754007339477539062e+00) (9, 7.89064884185791015625e+00) (10, -1.07939362525939941406e+00) (11, -2.02291631698608398438e+00) (12, 4.63227242231369018555e-01) (13, -2.71888184547424316406e+00) (14, -7.28737771511077880859e-01) (15, 9.63243186473846435547e-01) (16, -2.68081545829772949219e-01) (17, -7.33093380928039550781e-01) (18, -3.19440627098083496094e+00) (19, -1.48184704780578613281e+00) (20, -2.70626091957092285156e+00) (21, -1.08702206611633300781e+00) (22, -2.10821890830993652344e+00) (23, 2.57551288604736328125e+00) (24, -7.09732413291931152344e-01) (25, 1.69952034950256347656e-01) (26, -4.39372062683105468750e-01) (27, -3.63440489768981933594e+00) (28, 4.90926313400268554688e+00) (29, -2.17660665512084960938e+00) (30, 1.65509402751922607422e+00) (31, -2.83892369270324707031e+00) (32, 2.75636267662048339844e+00) (33, -5.48868513107299804688e+00) (34, 1.95647224783897399902e-01) (35, 6.50846481323242187500e-01) (36, -4.74494248628616333008e-01) (37, -2.95973873138427734375e+00) (38, 1.83659064769744873047e+00) (39, -2.42271089553833007812e+00) (40, -1.01415491104125976562e+00) (41, -2.85521221160888671875e+00) (42, -1.51527714729309082031e+00) (43, 1.20761179924011230469e+00) (44, 2.79921293258666992188e+00) (45, 4.43851836025714874268e-02) (46, 1.04995298385620117188e+00) (47, -9.67866897583007812500e-01) (48, -3.99548959732055664062e+00) (49, -1.04458928108215332031e+00) (50, -2.39917778968811035156e+00) (51, 2.40530514717102050781e+00) (52, -8.19334149360656738281e-01) (53, 4.69666123390197753906e-01) (54, 4.71046507358551025391e-01) (55, -3.41292023658752441406e+00) (56, -1.95668375492095947266e+00) (57, -2.46547770500183105469e+00) (58, -1.24998605251312255859e+00) (59, 2.15084433555603027344e-01) (60, -1.50036275386810302734e+00) (61, -5.69174957275390625000e+00) (62, 2.96276956796646118164e-01) (63, -3.76917433738708496094e+00) (64, -4.88103437423706054688e+00) (65, 2.46006321907043457031e+00) (66, 4.86789894104003906250e+00) (67, -2.40558862686157226562e+00) (61, 2.97509241104125976562e+00) (62, -3.00401568412780761719e+00) (63, 4.19451236724853515625e+00) (64, -1.57524430751800537109e+00) (65, 2.97612285614013671875e+00) (66, -3.32438969612121582031e+00) (67, -4.54311323165893554688e+00) (61, 3.83428716659545898438e+00) (62, 4.21465682983398437500e+00) (63, -5.79783141613006591797e-01) (64, -4.47027826309204101562e+00) (65, -4.26172924041748046875e+00) (66, -5.34434223175048828125e+00) (67, -1.38542366027832031250e+00) (61, -3.91624498367309570312e+00) (62, -5.55693721771240234375e+00) (63, -3.42273473739624023438e+00) (64, 4.33612871170043945312e+00) (65, -3.53345823287963867188e+00) (66, -9.75315868854522705078e-01) (67, 7.86327242851257324219e-01) 
