FANN_FLO_2.1
num_layers=3
learning_rate=0.800000
connection_rate=1.000000
network_type=0
learning_momentum=0.000000
training_algorithm=0
train_error_function=1
train_stop_function=0
cascade_output_change_fraction=0.010000
quickprop_decay=-0.000100
quickprop_mu=1.750000
rprop_increase_factor=1.200000
rprop_decrease_factor=0.500000
rprop_delta_min=0.000000
rprop_delta_max=50.000000
rprop_delta_zero=0.100000
cascade_output_stagnation_epochs=12
cascade_candidate_change_fraction=0.010000
cascade_candidate_stagnation_epochs=12
cascade_max_out_epochs=150
cascade_min_out_epochs=50
cascade_max_cand_epochs=150
cascade_min_cand_epochs=50
cascade_num_candidate_groups=2
bit_fail_limit=3.49999994039535522461e-01
cascade_candidate_limit=1.00000000000000000000e+03
cascade_weight_multiplier=4.00000005960464477539e-01
cascade_activation_functions_count=10
cascade_activation_functions=3 5 7 8 10 11 14 15 16 17 
cascade_activation_steepnesses_count=4
cascade_activation_steepnesses=2.50000000000000000000e-01 5.00000000000000000000e-01 7.50000000000000000000e-01 1.00000000000000000000e+00 
layer_sizes=61 7 5 
scale_included=0
neurons (num_inputs, activation_function, activation_steepness)=(0, 0, 0.00000000000000000000e+00) (0, 0, 0.00000000000000000000e+00) (0, 0, 0.00000000000000000000e+00) (0, 0, 0.00000000000000000000e+00) (0, 0, 0.00000000000000000000e+00) (0, 0, 0.00000000000000000000e+00) (0, 0, 0.00000000000000000000e+00) (0, 0, 0.00000000000000000000e+00) (0, 0, 0.00000000000000000000e+00) (0, 0, 0.00000000000000000000e+00) (0, 0, 0.00000000000000000000e+00) (0, 0, 0.00000000000000000000e+00) (0, 0, 0.00000000000000000000e+00) (0, 0, 0.00000000000000000000e+00) (0, 0, 0.00000000000000000000e+00) (0, 0, 0.00000000000000000000e+00) (0, 0, 0.00000000000000000000e+00) (0, 0, 0.00000000000000000000e+00) (0, 0, 0.00000000000000000000e+00) (0, 0, 0.00000000000000000000e+00) (0, 0, 0.00000000000000000000e+00) (0, 0, 0.00000000000000000000e+00) (0, 0, 0.00000000000000000000e+00) (0, 0, 0.00000000000000000000e+00) (0, 0, 0.00000000000000000000e+00) (0, 0, 0.00000000000000000000e+00) (0, 0, 0.00000000000000000000e+00) (0, 0, 0.00000000000000000000e+00) (0, 0, 0.00000000000000000000e+00) (0, 0, 0.00000000000000000000e+00) (0, 0, 0.00000000000000000000e+00) (0, 0, 0.00000000000000000000e+00) (0, 0, 0.00000000000000000000e+00) (0, 0, 0.00000000000000000000e+00) (0, 0, 0.00000000000000000000e+00) (0, 0, 0.00000000000000000000e+00) (0, 0, 0.00000000000000000000e+00) (0, 0, 0.00000000000000000000e+00) (0, 0, 0.00000000000000000000e+00) (0, 0, 0.00000000000000000000e+00) (0, 0, 0.00000000000000000000e+00) (0, 0, 0.00000000000000000000e+00) (0, 0, 0.00000000000000000000e+00) (0, 0, 0.00000000000000000000e+00) (0, 0, 0.00000000000000000000e+00) (0, 0, 0.00000000000000000000e+00) (0, 0, 0.00000000000000000000e+00) (0, 0, 0.00000000000000000000e+00) (0, 0, 0.00000000000000000000e+00) (0, 0, 0.00000000000000000000e+00) (0, 0, 0.00000000000000000000e+00) (0, 0, 0.00000000000000000000e+00) (0, 0, 0.00000000000000000000e+00) (0, 0, 0.00000000000000000000e+00) (0, 0, 0.00000000000000000000e+00) (0, 0, 0.00000000000000000000e+00) (0, 0, 0.00000000000000000000e+00) (0, 0, 0.00000000000000000000e+00) (0, 0, 0.00000000000000000000e+00) (0, 0, 0.00000000000000000000e+00) (0, 0, 0.00000000000000000000e+00) (61, 3, 5.00000000000000000000e-01) (61, 3, 5.00000000000000000000e-01) (61, 3, 5.00000000000000000000e-01) (61, 3, 5.00000000000000000000e-01) (61, 3, 5.00000000000000000000e-01) (61, 3, 5.00000000000000000000e-01) (0, 3, 0.00000000000000000000e+00) (7, 3, 5.00000000000000000000e-01) (7, 3, 5.00000000000000000000e-01) (7, 3, 5.00000000000000000000e-01) (7, 3, 5.00000000000000000000e-01) (0, 3, 0.00000000000000000000e+00) 
connections (connected_to_neuron, weight)=(0, -4.09723129272460937500e+01) (1, 1.64074478149414062500e+02) (2, 7.69522399902343750000e+01) (3, 6.52992324829101562500e+01) (4, -3.95200462341308593750e+01) (5, 7.44019079208374023438e+00) (6, 2.19838333129882812500e+01) (7, 7.76082000732421875000e+01) (8, -1.17782600402832031250e+02) (9, -5.12964515686035156250e+01) (10, -4.24653244018554687500e+01) (11, 6.64877128601074218750e+00) (12, 1.29466667175292968750e+01) (13, -1.35523818969726562500e+02) (14, 1.33805990219116210938e+01) (15, 9.29295539855957031250e+00) (16, 1.26691741943359375000e+01) (17, 1.79212036132812500000e+01) (18, -6.89588851928710937500e+01) (19, -4.95829086303710937500e+01) (20, 1.97197360992431640625e+01) (21, -4.31376037597656250000e+01) (22, -8.63002700805664062500e+01) (23, 1.46347671508789062500e+02) (24, 7.54564971923828125000e+01) (25, 3.77418937683105468750e+01) (26, 4.19500770568847656250e+01) (27, 9.46182060241699218750e+00) (28, 3.72135066986083984375e+00) (29, 1.25831079483032226562e+01) (30, -7.52665786743164062500e+01) (31, 2.13978266716003417969e+00) (32, 4.44759988784790039062e+00) (33, 2.68730950355529785156e+00) (34, 5.07536888122558593750e+00) (35, 4.64739513397216796875e+00) (36, 3.67953252792358398438e+00) (37, -6.83401155471801757812e+00) (38, -1.20260918140411376953e+00) (39, -9.37737464904785156250e+00) (40, 2.99220621585845947266e-01) (41, -3.72929310798645019531e+00) (42, -4.35143947601318359375e+00) (43, -2.75923162698745727539e-01) (44, 5.13685464859008789062e+00) (45, -1.14422537386417388916e-01) (46, 2.37446069717407226562e+00) (47, -1.10978031158447265625e+00) (48, -8.33515739440917968750e+00) (49, -6.08038043975830078125e+00) (50, 3.28501915931701660156e+00) (51, -2.24212908744812011719e+00) (52, -1.84905087947845458984e+00) (53, 6.93339109420776367188e+00) (54, 4.66971015930175781250e+00) (55, 4.69139528274536132812e+00) (56, -1.75053879618644714355e-01) (57, -1.94596815109252929688e+00) (58, -7.53909289836883544922e-01) (59, 3.34313321113586425781e+00) (60, -4.43489646911621093750e+00) (0, -6.20541429519653320312e+00) (1, -3.63334631919860839844e+00) (2, 6.04277086257934570312e+00) (3, 1.51240229606628417969e-01) (4, 1.55191075801849365234e+00) (5, 5.86397552490234375000e+00) (6, 5.04216611385345458984e-01) (7, -8.03359985351562500000e+00) (8, -4.38975763320922851562e+00) (9, -7.52383947372436523438e+00) (10, -4.40656328201293945312e+00) (11, 1.98458600044250488281e+00) (12, 1.03526735305786132812e+01) (13, 6.99204492568969726562e+00) (14, -8.85002136230468750000e+00) (15, -6.28665590286254882812e+00) (16, -8.78033351898193359375e+00) (17, -2.31700015068054199219e+00) (18, 1.41381752490997314453e+00) (19, 3.00852656364440917969e+00) (20, 1.06760132312774658203e+00) (21, -9.02434444427490234375e+00) (22, -2.41724610328674316406e+00) (23, -1.95705389976501464844e+00) (24, 1.69901466369628906250e+01) (25, -2.90007066726684570312e+00) (26, -6.34899044036865234375e+00) (27, -6.23139619827270507812e-01) (28, 6.39306783676147460938e-01) (29, -2.14296078681945800781e+00) (30, 2.30638170242309570312e+00) (31, 2.16529011726379394531e+00) (32, -1.78123986721038818359e+00) (33, 1.98325049877166748047e+00) (34, 4.50961971282958984375e+00) (35, 3.90711236000061035156e+00) (36, 5.90356159210205078125e+00) (37, 1.03135223388671875000e+01) (38, -4.64669322967529296875e+00) (39, -1.16350574493408203125e+01) (40, -3.64104175567626953125e+00) (41, -7.76452684402465820312e+00) (42, -1.92579066753387451172e+00) (43, -1.16898667812347412109e+00) (44, 4.94358986616134643555e-01) (45, -3.19213938713073730469e+00) (46, 2.11651349067687988281e+00) (47, -4.92190837860107421875e+00) (48, -6.43225049972534179688e+00) (49, -8.49961185455322265625e+00) (50, 9.29099655151367187500e+00) (51, -8.94440174102783203125e+00) (52, -1.21642649173736572266e+00) (53, -2.12624296545982360840e-03) (54, -1.67597560882568359375e+01) (55, 3.04009151458740234375e+00) (56, 9.03210639953613281250e+00) (57, 8.78345310688018798828e-01) (58, 3.51001954078674316406e+00) (59, -4.07017976045608520508e-01) (60, -1.11251425743103027344e+00) (0, -2.16235947608947753906e+00) (1, -6.12763738632202148438e+00) (2, -2.86032748222351074219e+00) (3, 4.38122272491455078125e+00) (4, 5.73587560653686523438e+00) (5, -2.02678620815277099609e-01) (6, 6.32591533660888671875e+00) (7, -2.44006252288818359375e+00) (8, -8.20474338531494140625e+00) (9, 7.35110235214233398438e+00) (10, -4.10375547409057617188e+00) (11, -9.10502910614013671875e+00) (12, -3.88374376296997070312e+00) (13, -6.57745409011840820312e+00) (14, 6.60959243774414062500e+00) (15, 2.42811822891235351562e+00) (16, -5.31628370285034179688e+00) (17, -6.58860778808593750000e+00) (18, -2.93995046615600585938e+00) (19, 3.83946776390075683594e+00) (20, 6.59466266632080078125e-01) (21, 5.05259275436401367188e+00) (22, 2.92353010177612304688e+00) (23, 9.85657978057861328125e+00) (24, -4.42366981506347656250e+00) (25, 5.18245458602905273438e+00) (26, -3.27619171142578125000e+00) (27, -6.18535205721855163574e-02) (28, -2.66725254058837890625e+00) (29, -5.75357675552368164062e+00) (30, 2.35793375968933105469e+00) (31, -1.36604952812194824219e+00) (32, -6.25575351715087890625e+00) (33, 9.92592144012451171875e+00) (34, 1.42516708374023437500e+00) (35, 8.07836627960205078125e+00) (36, -3.49162960052490234375e+00) (37, 1.77045559883117675781e+00) (38, -7.90270900726318359375e+00) (39, -2.52265661954879760742e-01) (40, -9.41064739227294921875e+00) (41, -9.23728847503662109375e+00) (42, -3.28811812400817871094e+00) (43, -4.32993507385253906250e+00) (44, 7.10906410217285156250e+00) (45, 5.92287158966064453125e+00) (46, -6.51313400268554687500e+00) (47, -2.12161707878112792969e+00) (48, -8.30307388305664062500e+00) (49, 3.05092239379882812500e+00) (50, 4.95733928680419921875e+00) (51, 9.57266616821289062500e+00) (52, -4.48480272293090820312e+00) (53, -4.73770588636398315430e-01) (54, -9.55859661102294921875e+00) (55, 6.43542861938476562500e+00) (56, -4.80298376083374023438e+00) (57, 2.10653376579284667969e+00) (58, -2.50010180473327636719e+00) (59, 2.45742917060852050781e+00) (60, -3.99487066268920898438e+00) (0, -2.34663915634155273438e+00) (1, 3.78273463249206542969e+00) (2, -1.10370719432830810547e+00) (3, 5.48175859451293945312e+00) (4, 5.23429536819458007812e+00) (5, 2.81634807586669921875e+00) (6, 3.00547909736633300781e+00) (7, -1.32880699634552001953e+00) (8, 5.02373516559600830078e-01) (9, -5.00317907333374023438e+00) (10, -2.81251406669616699219e+00) (11, -2.66416072845458984375e+00) (12, 2.55047941207885742188e+00) (13, 6.06466591358184814453e-01) (14, -1.60736894607543945312e+00) (15, 3.71479821205139160156e+00) (16, 5.40063285827636718750e+00) (17, -7.14759588241577148438e+00) (18, 7.88893163204193115234e-01) (19, -3.03956079483032226562e+00) (20, 9.92051243782043457031e-01) (21, -8.69548892974853515625e+00) (22, 5.05201101303100585938e+00) (23, 3.58287453651428222656e+00) (24, -2.61128854751586914062e+00) (25, 8.10694599151611328125e+00) (26, -1.16200879216194152832e-01) (27, 1.94671356678009033203e+00) (28, 5.04392921924591064453e-01) (29, 3.01976871490478515625e+00) (30, 1.96359312534332275391e+00) (31, -2.04128408432006835938e+00) (32, 2.56121724843978881836e-01) (33, -2.22278308868408203125e+00) (34, 1.83186578750610351562e+00) (35, 6.89382255077362060547e-02) (36, -7.13535666465759277344e-01) (37, -2.20709156990051269531e+00) (38, -3.14215868711471557617e-01) (39, -2.97259044647216796875e+00) (40, 3.31164836883544921875e+00) (41, -4.66808462142944335938e+00) (42, -3.68729591369628906250e+00) (43, 1.12614326477050781250e+01) (44, 4.79618120193481445312e+00) (45, 6.73159742355346679688e+00) (46, 3.06658387184143066406e+00) (47, -2.57699108123779296875e+00) (48, 3.19428730010986328125e+00) (49, -1.29193031787872314453e+00) (50, -1.55794835090637207031e+00) (51, -5.00388097763061523438e+00) (52, -5.65183496475219726562e+00) (53, 1.39464712142944335938e+00) (54, -5.46406269073486328125e+00) (55, 2.07692885398864746094e+00) (56, -3.39131116867065429688e+00) (57, 4.90757989883422851562e+00) (58, 4.95016622543334960938e+00) (59, 1.26091594696044921875e+01) (60, -5.83489656448364257812e+00) (0, 8.91095101833343505859e-01) (1, -2.52520918846130371094e+00) (2, -8.02785491943359375000e+00) (3, 3.08535265922546386719e+00) (4, 3.90683102607727050781e+00) (5, 1.04124097824096679688e+01) (6, -1.42731165885925292969e+00) (7, 1.16371097564697265625e+01) (8, -7.85992956161499023438e+00) (9, -1.32412424087524414062e+01) (10, -6.73636913299560546875e-01) (11, 1.19263324737548828125e+01) (12, 7.37709224224090576172e-01) (13, -2.81405162811279296875e+00) (14, -1.62074291706085205078e+00) (15, 1.97857308387756347656e+00) (16, 1.01332845687866210938e+01) (17, -1.42158298492431640625e+01) (18, -3.36284726858139038086e-01) (19, -4.02042627334594726562e+00) (20, 1.81552219390869140625e+00) (21, -2.00268173217773437500e+00) (22, 2.73401808738708496094e+00) (23, 7.27256774902343750000e-01) (24, -2.96165490150451660156e+00) (25, 7.69754076004028320312e+00) (26, -4.29477691650390625000e+00) (27, 1.09561586380004882812e+00) (28, -1.13107604980468750000e+01) (29, 2.17670679092407226562e+00) (30, -2.68175029754638671875e+00) (31, -8.83487510681152343750e+00) (32, 1.03793062269687652588e-01) (33, 6.02775430679321289062e+00) (34, 6.11809492111206054688e+00) (35, 4.43339204788208007812e+00) (36, 2.15202856063842773438e+00) (37, -7.27519798278808593750e+00) (38, -4.49800395965576171875e+00) (39, -1.22634196281433105469e+00) (40, -1.38722985982894897461e-01) (41, 7.00668454170227050781e-01) (42, -7.59864330291748046875e+00) (43, 6.02776622772216796875e+00) (44, 6.33778452873229980469e-01) (45, 2.57802367210388183594e-01) (46, 5.64816188812255859375e+00) (47, -5.48486328125000000000e+00) (48, -3.09693789482116699219e+00) (49, -6.93010950088500976562e+00) (50, -4.42674589157104492188e+00) (51, -3.73921394348144531250e+00) (52, -3.96610856056213378906e+00) (53, -5.52107095718383789062e+00) (54, -1.32032709121704101562e+01) (55, 1.68730521202087402344e+00) (56, 1.80639553070068359375e+00) (57, 8.39092826843261718750e+00) (58, -3.68684649467468261719e-01) (59, 4.54042482376098632812e+00) (60, 3.79211640357971191406e+00) (0, 1.20817959308624267578e-01) (1, 1.91897344589233398438e+00) (2, 9.69732582569122314453e-01) (3, -3.93495947122573852539e-01) (4, -5.91404533386230468750e+00) (5, -3.04801797866821289062e+00) (6, 4.69021111726760864258e-01) (7, -4.26618278026580810547e-01) (8, 2.52452969551086425781e+00) (9, -7.42686128616333007812e+00) (10, 6.41459417343139648438e+00) (11, 2.08199691772460937500e+00) (12, -1.28391523361206054688e+01) (13, -6.16560792922973632812e+00) (14, 7.59574830532073974609e-01) (15, -2.59744286537170410156e+00) (16, -6.34870719909667968750e+00) (17, 7.45067453384399414062e+00) (18, -1.89737951755523681641e+00) (19, -4.21536445617675781250e+00) (20, -5.33172321319580078125e+00) (21, -1.15299630165100097656e+00) (22, -2.27405023574829101562e+00) (23, -7.06298780441284179688e+00) (24, -6.63046264648437500000e+00) (25, 4.25255012512207031250e+00) (26, 9.41929149627685546875e+00) (27, -4.14499139785766601562e+00) (28, 2.48084592819213867188e+00) (29, -2.13409686088562011719e+00) (30, 4.05400562286376953125e+00) (31, -7.17826843261718750000e+00) (32, -9.82909321784973144531e-01) (33, -5.14335870742797851562e-01) (34, 7.68076467514038085938e+00) (35, -3.97427535057067871094e+00) (36, 2.86374616622924804688e+00) (37, -2.58155298233032226562e+00) (38, 5.14630746841430664062e+00) (39, -3.42533731460571289062e+00) (40, -8.70777893066406250000e+00) (41, -1.60295438766479492188e+00) (42, -4.33354854583740234375e+00) (43, 1.42324364185333251953e+00) (44, -2.02225521206855773926e-01) (45, -2.80624675750732421875e+00) (46, -8.88328742980957031250e+00) (47, -1.33327674865722656250e+00) (48, 3.28712463378906250000e+00) (49, 1.20785655975341796875e+01) (50, 7.60623395442962646484e-01) (51, 6.63918256759643554688e+00) (52, 1.25480298995971679688e+01) (53, -3.41853404045104980469e+00) (54, 4.26798963546752929688e+00) (55, -7.59836387634277343750e+00) (56, -2.10476255416870117188e+00) (57, 3.93357932567596435547e-01) (58, -1.02005205154418945312e+01) (59, -7.73778867721557617188e+00) (60, -1.21699333190917968750e+00) (61, 1.29272451400756835938e+01) (62, -6.17757654190063476562e+00) (63, 9.10677242279052734375e+00) (64, 1.20532112121582031250e+01) (65, 5.23691415786743164062e+00) (66, 3.90189838409423828125e+00) (67, -9.86841297149658203125e+00) (61, -8.10631275177001953125e+00) (62, 4.57080411911010742188e+00) (63, 1.67916047573089599609e+00) (64, 4.64388036727905273438e+00) (65, 1.21427049636840820312e+01) (66, -4.89096927642822265625e+00) (67, 1.38659584522247314453e+00) (61, -6.01202154159545898438e+00) (62, 7.92987680435180664062e+00) (63, 8.68546199798583984375e+00) (64, -1.48286712169647216797e+00) (65, -8.20101928710937500000e+00) (66, 4.63898372650146484375e+00) (67, -7.45752286911010742188e+00) (61, -7.76673460006713867188e+00) (62, -3.66233634948730468750e+00) (63, -1.08352508544921875000e+01) (64, 1.12213528156280517578e+00) (65, -1.04178047180175781250e+00) (66, 4.66086387634277343750e+00) (67, -2.82532954216003417969e+00) 
