FANN_FLO_2.1
num_layers=3
learning_rate=0.800000
connection_rate=1.000000
network_type=0
learning_momentum=0.000000
training_algorithm=0
train_error_function=1
train_stop_function=0
cascade_output_change_fraction=0.010000
quickprop_decay=-0.000100
quickprop_mu=1.750000
rprop_increase_factor=1.200000
rprop_decrease_factor=0.500000
rprop_delta_min=0.000000
rprop_delta_max=50.000000
rprop_delta_zero=0.100000
cascade_output_stagnation_epochs=12
cascade_candidate_change_fraction=0.010000
cascade_candidate_stagnation_epochs=12
cascade_max_out_epochs=150
cascade_min_out_epochs=50
cascade_max_cand_epochs=150
cascade_min_cand_epochs=50
cascade_num_candidate_groups=2
bit_fail_limit=3.49999994039535522461e-01
cascade_candidate_limit=1.00000000000000000000e+03
cascade_weight_multiplier=4.00000005960464477539e-01
cascade_activation_functions_count=10
cascade_activation_functions=3 5 7 8 10 11 14 15 16 17 
cascade_activation_steepnesses_count=4
cascade_activation_steepnesses=2.50000000000000000000e-01 5.00000000000000000000e-01 7.50000000000000000000e-01 1.00000000000000000000e+00 
layer_sizes=61 7 5 
scale_included=0
neurons (num_inputs, activation_function, activation_steepness)=(0, 0, 0.00000000000000000000e+00) (0, 0, 0.00000000000000000000e+00) (0, 0, 0.00000000000000000000e+00) (0, 0, 0.00000000000000000000e+00) (0, 0, 0.00000000000000000000e+00) (0, 0, 0.00000000000000000000e+00) (0, 0, 0.00000000000000000000e+00) (0, 0, 0.00000000000000000000e+00) (0, 0, 0.00000000000000000000e+00) (0, 0, 0.00000000000000000000e+00) (0, 0, 0.00000000000000000000e+00) (0, 0, 0.00000000000000000000e+00) (0, 0, 0.00000000000000000000e+00) (0, 0, 0.00000000000000000000e+00) (0, 0, 0.00000000000000000000e+00) (0, 0, 0.00000000000000000000e+00) (0, 0, 0.00000000000000000000e+00) (0, 0, 0.00000000000000000000e+00) (0, 0, 0.00000000000000000000e+00) (0, 0, 0.00000000000000000000e+00) (0, 0, 0.00000000000000000000e+00) (0, 0, 0.00000000000000000000e+00) (0, 0, 0.00000000000000000000e+00) (0, 0, 0.00000000000000000000e+00) (0, 0, 0.00000000000000000000e+00) (0, 0, 0.00000000000000000000e+00) (0, 0, 0.00000000000000000000e+00) (0, 0, 0.00000000000000000000e+00) (0, 0, 0.00000000000000000000e+00) (0, 0, 0.00000000000000000000e+00) (0, 0, 0.00000000000000000000e+00) (0, 0, 0.00000000000000000000e+00) (0, 0, 0.00000000000000000000e+00) (0, 0, 0.00000000000000000000e+00) (0, 0, 0.00000000000000000000e+00) (0, 0, 0.00000000000000000000e+00) (0, 0, 0.00000000000000000000e+00) (0, 0, 0.00000000000000000000e+00) (0, 0, 0.00000000000000000000e+00) (0, 0, 0.00000000000000000000e+00) (0, 0, 0.00000000000000000000e+00) (0, 0, 0.00000000000000000000e+00) (0, 0, 0.00000000000000000000e+00) (0, 0, 0.00000000000000000000e+00) (0, 0, 0.00000000000000000000e+00) (0, 0, 0.00000000000000000000e+00) (0, 0, 0.00000000000000000000e+00) (0, 0, 0.00000000000000000000e+00) (0, 0, 0.00000000000000000000e+00) (0, 0, 0.00000000000000000000e+00) (0, 0, 0.00000000000000000000e+00) (0, 0, 0.00000000000000000000e+00) (0, 0, 0.00000000000000000000e+00) (0, 0, 0.00000000000000000000e+00) (0, 0, 0.00000000000000000000e+00) (0, 0, 0.00000000000000000000e+00) (0, 0, 0.00000000000000000000e+00) (0, 0, 0.00000000000000000000e+00) (0, 0, 0.00000000000000000000e+00) (0, 0, 0.00000000000000000000e+00) (0, 0, 0.00000000000000000000e+00) (61, 3, 5.00000000000000000000e-01) (61, 3, 5.00000000000000000000e-01) (61, 3, 5.00000000000000000000e-01) (61, 3, 5.00000000000000000000e-01) (61, 3, 5.00000000000000000000e-01) (61, 3, 5.00000000000000000000e-01) (0, 3, 0.00000000000000000000e+00) (7, 3, 5.00000000000000000000e-01) (7, 3, 5.00000000000000000000e-01) (7, 3, 5.00000000000000000000e-01) (7, 3, 5.00000000000000000000e-01) (0, 3, 0.00000000000000000000e+00) 
connections (connected_to_neuron, weight)=(0, 9.46399307250976562500e+00) (1, 3.42753715515136718750e+01) (2, 3.82206878662109375000e+01) (3, 8.25004768371582031250e+00) (4, -6.16872901916503906250e+01) (5, 2.69199371337890625000e-01) (6, -4.25559654235839843750e+01) (7, 6.25020179748535156250e+01) (8, -3.81537437438964843750e+01) (9, 1.16892881393432617188e+01) (10, 1.67478790283203125000e+01) (11, -5.71187438964843750000e+01) (12, -2.91352958679199218750e+01) (13, -8.16148948669433593750e+00) (14, 2.54094123840332031250e+01) (15, 5.37362098693847656250e-02) (16, -9.91446781158447265625e+00) (17, -1.20453910827636718750e+01) (18, -2.15634975433349609375e+01) (19, 1.42563762664794921875e+01) (20, 1.31728982925415039062e+01) (21, 1.47058010101318359375e-01) (22, -1.85633106231689453125e+01) (23, 3.55048370361328125000e+01) (24, 4.01024198532104492188e+00) (25, 3.04828643798828125000e+01) (26, 4.49795436859130859375e+00) (27, -3.61316585540771484375e+00) (28, 2.44168052673339843750e+01) (29, 2.38476014137268066406e+00) (30, 1.30333957672119140625e+01) (31, -1.60687065124511718750e+01) (32, 6.22606544494628906250e+01) (33, -3.70082740783691406250e+01) (34, -1.21779689788818359375e+01) (35, 1.44306383132934570312e+01) (36, 2.62556591033935546875e+01) (37, -7.26397628784179687500e+01) (38, -9.19208526611328125000e+00) (39, 4.07778072357177734375e+00) (40, 4.88928735256195068359e-01) (41, 2.40558357238769531250e+01) (42, 2.95579738616943359375e+01) (43, 3.60144081115722656250e+01) (44, 3.77966384887695312500e+01) (45, -3.24785003662109375000e+01) (46, 1.84975738525390625000e+01) (47, 7.80210065841674804688e+00) (48, -1.52563705444335937500e+01) (49, -1.98426399230957031250e+01) (50, -1.86491565704345703125e+01) (51, 2.71005821228027343750e+01) (52, 2.25811061859130859375e+01) (53, -3.02710685729980468750e+01) (54, -8.94256496429443359375e+00) (55, -1.31775836944580078125e+01) (56, -8.78008365631103515625e+00) (57, 2.79223227500915527344e+00) (58, 9.26297283172607421875e+00) (59, 4.40417327880859375000e+01) (60, 9.54054641723632812500e+00) (0, 1.61336669921875000000e+01) (1, -4.01091575622558593750e+00) (2, -4.13920783996582031250e+01) (3, -9.60534191131591796875e+00) (4, -4.03146934509277343750e+01) (5, -2.82523155212402343750e+01) (6, -4.56306686401367187500e+01) (7, 7.98836994171142578125e+00) (8, -2.57005062103271484375e+01) (9, 3.58122444152832031250e+01) (10, -7.80176544189453125000e+01) (11, -1.69636611938476562500e+01) (12, -8.03309154510498046875e+00) (13, -7.42875623703002929688e+00) (14, -8.25445938110351562500e+00) (15, -1.72066268920898437500e+01) (16, 9.78120803833007812500e+00) (17, -9.68155441284179687500e+01) (18, -2.38244390487670898438e+00) (19, 3.51894264221191406250e+01) (20, -8.43673515319824218750e+00) (21, 1.36817731857299804688e+01) (22, 1.58078861236572265625e+00) (23, 3.43358154296875000000e+01) (24, -2.04742860794067382812e+00) (25, 1.90419654846191406250e+01) (26, -2.94961090087890625000e+01) (27, 6.00901794433593750000e+01) (28, 2.43713722229003906250e+01) (29, -2.11396350860595703125e+01) (30, 3.91772880554199218750e+01) (31, -9.11109638214111328125e+00) (32, -1.11470155715942382812e+01) (33, 7.32248916625976562500e+01) (34, 9.86131095886230468750e+00) (35, -3.03066539764404296875e+01) (36, -5.44967117309570312500e+01) (37, 2.50876350402832031250e+01) (38, -3.11687850952148437500e+01) (39, 1.94006519317626953125e+01) (40, 1.34152102470397949219e+00) (41, -4.16115112304687500000e+01) (42, 2.75530719757080078125e+01) (43, -1.69517993927001953125e+01) (44, -4.89551210403442382812e+00) (45, -3.14647808074951171875e+01) (46, -3.79066314697265625000e+01) (47, -4.89157524108886718750e+01) (48, -2.38816928863525390625e+00) (49, 1.13449974060058593750e+01) (50, 2.40257797241210937500e+01) (51, 3.12054920196533203125e+01) (52, -4.59632263183593750000e+01) (53, 1.35034313201904296875e+01) (54, -2.85449676513671875000e+01) (55, -2.72362041473388671875e+01) (56, -1.11358890533447265625e+01) (57, -4.06964416503906250000e+01) (58, 4.16440391540527343750e+01) (59, -1.66251068115234375000e+01) (60, 2.52123680114746093750e+01) (0, 1.90669975280761718750e+01) (1, 4.65986366271972656250e+01) (2, 1.80383472442626953125e+01) (3, 1.41495790481567382812e+01) (4, 3.08087654113769531250e+01) (5, 4.64300155639648437500e+00) (6, 2.22258567810058593750e+01) (7, 6.64806365966796875000e+01) (8, -8.20771408081054687500e+01) (9, 2.22120800018310546875e+01) (10, 5.11147460937500000000e+01) (11, -4.81098098754882812500e+01) (12, 4.22949600219726562500e+00) (13, -1.44493026733398437500e+01) (14, 6.30573129653930664062e+00) (15, -2.17826385498046875000e+01) (16, -5.39434623718261718750e+01) (17, -2.83922843933105468750e+01) (18, -5.01154098510742187500e+01) (19, -4.54710865020751953125e+00) (20, -1.08159732818603515625e+01) (21, -1.55315580368041992188e+01) (22, -3.68835616111755371094e+00) (23, 8.26085357666015625000e+01) (24, -5.39342308044433593750e+01) (25, 2.87163848876953125000e+01) (26, 2.23883476257324218750e+01) (27, -8.90322685241699218750e+00) (28, 4.32954521179199218750e+01) (29, -1.19377908706665039062e+01) (30, 3.16215858459472656250e+01) (31, -1.49548082351684570312e+01) (32, 3.70123786926269531250e+01) (33, -1.45178756713867187500e+01) (34, 6.98907184600830078125e+00) (35, 7.58170604705810546875e+00) (36, 2.78978776931762695312e+00) (37, 5.31026420593261718750e+01) (38, -4.96987457275390625000e+01) (39, -2.92968451976776123047e-01) (40, -5.61701850891113281250e+01) (41, -8.18495750427246093750e+00) (42, 1.32493066787719726562e+01) (43, -1.57040758132934570312e+01) (44, -1.20468556880950927734e+00) (45, 4.11498603820800781250e+01) (46, -2.52458648681640625000e+01) (47, 1.04098119735717773438e+01) (48, 4.06768941879272460938e+00) (49, -9.16644096374511718750e-01) (50, -1.77029705047607421875e+01) (51, 1.35468502044677734375e+01) (52, 1.45292425155639648438e+01) (53, 4.27580604553222656250e+01) (54, 1.55501518249511718750e+01) (55, 4.02890396118164062500e+01) (56, 9.09777164459228515625e+00) (57, -1.04720020294189453125e+01) (58, 1.09176445007324218750e+01) (59, -8.01856899261474609375e+00) (60, 1.83011322021484375000e+01) (0, 1.86309833526611328125e+01) (1, 1.62683677673339843750e+01) (2, -4.26303100585937500000e+01) (3, 9.09198093414306640625e+00) (4, -2.21245250701904296875e+01) (5, 1.13339605331420898438e+01) (6, 3.76588134765625000000e+01) (7, 3.65852279663085937500e+01) (8, 3.09716224670410156250e+01) (9, 4.36863899230957031250e+01) (10, -1.23327484130859375000e+01) (11, 3.98904967308044433594e+00) (12, 1.39313240051269531250e+01) (13, -3.76829147338867187500e+01) (14, -1.73324317932128906250e+01) (15, 3.46025772094726562500e+01) (16, 1.55492906570434570312e+01) (17, -2.26885604858398437500e+01) (18, 5.87744941711425781250e+01) (19, 6.37727088928222656250e+01) (20, -1.42726516723632812500e+01) (21, -6.20515518188476562500e+01) (22, 7.84064102172851562500e+01) (23, 1.07623634338378906250e+01) (24, 1.14356536865234375000e+01) (25, 1.18452777862548828125e+01) (26, 1.68851222991943359375e+01) (27, 2.46644783020019531250e+01) (28, -6.95296325683593750000e+01) (29, -4.11519584655761718750e+01) (30, 3.70007247924804687500e+01) (31, 5.96048393249511718750e+01) (32, 2.20917568206787109375e+01) (33, -6.71349334716796875000e+00) (34, -5.18082952499389648438e+00) (35, 9.29765605926513671875e+00) (36, 4.17416610717773437500e+01) (37, -6.33185958862304687500e+00) (38, 1.60578041076660156250e+01) (39, -3.66565608978271484375e+00) (40, -5.33061943054199218750e+01) (41, -6.78224325180053710938e-01) (42, -3.60147933959960937500e+01) (43, 2.45255832672119140625e+01) (44, -4.66149616241455078125e+00) (45, 6.05663108825683593750e+00) (46, -3.83524322509765625000e+01) (47, -3.25742073059082031250e+01) (48, -7.94863586425781250000e+01) (49, -8.83395290374755859375e+00) (50, -3.91031188964843750000e+01) (51, 5.11779689788818359375e+00) (52, 2.94879937171936035156e+00) (53, 2.65514135360717773438e+00) (54, -7.84563674926757812500e+01) (55, 2.11979541778564453125e+01) (56, 4.67774429321289062500e+01) (57, -1.00270652770996093750e+01) (58, 4.61477127075195312500e+01) (59, -3.85401420593261718750e+01) (60, 3.09796752929687500000e+01) (0, 8.25841808319091796875e+00) (1, -1.41658134460449218750e+01) (2, 1.01674413681030273438e+01) (3, -2.35066909790039062500e+01) (4, -1.06623134613037109375e+01) (5, -3.20604400634765625000e+01) (6, -8.83546650409698486328e-01) (7, -1.49987468719482421875e+01) (8, -4.06622076034545898438e+00) (9, -9.83562469482421875000e+00) (10, -1.83948631286621093750e+01) (11, 1.64560108184814453125e+01) (12, 1.48086767196655273438e+01) (13, 4.45728034973144531250e+01) (14, 1.32409324645996093750e+01) (15, 1.43887586593627929688e+01) (16, 3.07212276458740234375e+01) (17, -3.90988578796386718750e+01) (18, 1.60242629051208496094e+00) (19, 6.82110881805419921875e+00) (20, -3.81183204650878906250e+01) (21, -1.34141120910644531250e+01) (22, 5.80992164611816406250e+01) (23, -2.55452346801757812500e+01) (24, 2.25378093719482421875e+01) (25, 1.55810747146606445312e+01) (26, -2.96551818847656250000e+01) (27, 8.40583610534667968750e+00) (28, -4.78474960327148437500e+01) (29, -5.15909194946289062500e+01) (30, -6.70622014999389648438e+00) (31, 4.50875616073608398438e+00) (32, -2.91689300537109375000e+01) (33, -1.25639705657958984375e+01) (34, -2.15232639312744140625e+01) (35, 1.14655466079711914062e+01) (36, -3.56086993217468261719e+00) (37, 5.79127979278564453125e+00) (38, 1.32610816955566406250e+01) (39, 4.57912025451660156250e+01) (40, 3.68186974525451660156e+00) (41, 2.23070259094238281250e+01) (42, 5.46689701080322265625e+00) (43, -2.57518787384033203125e+01) (44, -2.29312915802001953125e+01) (45, 1.12360372543334960938e+01) (46, 6.21579170227050781250e+00) (47, 4.40095138549804687500e+01) (48, 7.88109436035156250000e+01) (49, -2.95303511619567871094e+00) (50, -2.99081592559814453125e+01) (51, 6.25282621383666992188e+00) (52, -2.74384918212890625000e+01) (53, 4.06901435852050781250e+01) (54, -2.85395393371582031250e+01) (55, -3.78309478759765625000e+01) (56, 5.21349143981933593750e+01) (57, -1.56661434173583984375e+01) (58, -2.16110630035400390625e+01) (59, -8.78602921962738037109e-01) (60, -3.01616802215576171875e+01) (0, -5.40616760253906250000e+01) (1, -3.64786109924316406250e+01) (2, -1.35159816741943359375e+01) (3, -3.00832386016845703125e+01) (4, 2.72536367177963256836e-01) (5, 3.24858546257019042969e-01) (6, -1.45228481292724609375e+01) (7, -7.42544555664062500000e+01) (8, 7.07739334106445312500e+01) (9, -2.66884250640869140625e+01) (10, 2.36459426879882812500e+01) (11, 3.06001091003417968750e+01) (12, 6.29875802993774414062e+00) (13, 1.10109643936157226562e+01) (14, -1.11264524459838867188e+01) (15, 2.93829536437988281250e+01) (16, -4.49574699401855468750e+01) (17, -1.68226757049560546875e+01) (18, -3.37790336608886718750e+01) (19, 1.31551051139831542969e+00) (20, -2.94362754821777343750e+01) (21, -1.14976205825805664062e+01) (22, -2.60396218299865722656e+00) (23, 3.06464347839355468750e+01) (24, -2.45876293182373046875e+01) (25, -1.15566329956054687500e+01) (26, -3.04956493377685546875e+01) (27, 1.58753452301025390625e+01) (28, -3.93336257934570312500e+01) (29, 3.80240201950073242188e+00) (30, 4.86757183074951171875e+00) (31, -5.53430252075195312500e+01) (32, -4.32953491210937500000e+01) (33, -1.47669000625610351562e+01) (34, -5.70730543136596679688e+00) (35, -1.35932025909423828125e+01) (36, 2.74457855224609375000e+01) (37, 7.72858619689941406250e+00) (38, 5.41532173156738281250e+01) (39, 3.37570858001708984375e+00) (40, -4.26144409179687500000e+00) (41, 2.11975326538085937500e+01) (42, -5.26078796386718750000e+00) (43, 1.43384971618652343750e+01) (44, -2.41241025924682617188e+00) (45, 4.88857803344726562500e+01) (46, 3.36972084045410156250e+01) (47, -5.52606544494628906250e+01) (48, 1.50995588302612304688e+01) (49, 1.85236301422119140625e+01) (50, 7.62064123153686523438e+00) (51, -4.63032341003417968750e+00) (52, 5.49648742675781250000e+01) (53, -7.37941055297851562500e+01) (54, 1.94540157318115234375e+01) (55, 2.16030006408691406250e+01) (56, -6.11168251037597656250e+01) (57, -3.65002942085266113281e+00) (58, -3.46452293395996093750e+01) (59, 2.75657081604003906250e+00) (60, -1.03149676322937011719e+00) (61, 7.69820213317871093750e+00) (62, 5.36231136322021484375e+00) (63, 3.50183773040771484375e+00) (64, 1.55196008682250976562e+01) (65, -3.47355728149414062500e+01) (66, -6.43361816406250000000e+01) (67, -3.11614227294921875000e+01) (61, -8.82294559478759765625e+00) (62, 1.15177841186523437500e+01) (63, -5.92391281127929687500e+01) (64, 1.26023511886596679688e+01) (65, 2.69295101165771484375e+01) (66, -4.34872627258300781250e+01) (67, 4.01592826843261718750e+00) (61, -5.10374526977539062500e+01) (62, 3.34555435180664062500e+01) (63, 1.41361589431762695312e+01) (64, 4.75693655014038085938e+00) (65, -3.79947319030761718750e+01) (66, -8.84840202331542968750e+00) (67, -1.68037376403808593750e+01) (61, -2.83791961669921875000e+01) (62, 2.76260356903076171875e+01) (63, -2.83697719573974609375e+01) (64, 1.44143438339233398438e+01) (65, -2.77113189697265625000e+01) (66, 3.60667343139648437500e+01) (67, -3.25595664978027343750e+01) 
