FANN_FLO_2.1
num_layers=3
learning_rate=0.800000
connection_rate=1.000000
network_type=0
learning_momentum=0.000000
training_algorithm=1
train_error_function=1
train_stop_function=0
cascade_output_change_fraction=0.010000
quickprop_decay=-0.000100
quickprop_mu=1.750000
rprop_increase_factor=1.200000
rprop_decrease_factor=0.500000
rprop_delta_min=0.000000
rprop_delta_max=50.000000
rprop_delta_zero=0.100000
cascade_output_stagnation_epochs=12
cascade_candidate_change_fraction=0.010000
cascade_candidate_stagnation_epochs=12
cascade_max_out_epochs=150
cascade_min_out_epochs=50
cascade_max_cand_epochs=150
cascade_min_cand_epochs=50
cascade_num_candidate_groups=2
bit_fail_limit=3.49999994039535522461e-01
cascade_candidate_limit=1.00000000000000000000e+03
cascade_weight_multiplier=4.00000005960464477539e-01
cascade_activation_functions_count=10
cascade_activation_functions=3 5 7 8 10 11 14 15 16 17 
cascade_activation_steepnesses_count=4
cascade_activation_steepnesses=2.50000000000000000000e-01 5.00000000000000000000e-01 7.50000000000000000000e-01 1.00000000000000000000e+00 
layer_sizes=61 7 5 
scale_included=0
neurons (num_inputs, activation_function, activation_steepness)=(0, 0, 0.00000000000000000000e+00) (0, 0, 0.00000000000000000000e+00) (0, 0, 0.00000000000000000000e+00) (0, 0, 0.00000000000000000000e+00) (0, 0, 0.00000000000000000000e+00) (0, 0, 0.00000000000000000000e+00) (0, 0, 0.00000000000000000000e+00) (0, 0, 0.00000000000000000000e+00) (0, 0, 0.00000000000000000000e+00) (0, 0, 0.00000000000000000000e+00) (0, 0, 0.00000000000000000000e+00) (0, 0, 0.00000000000000000000e+00) (0, 0, 0.00000000000000000000e+00) (0, 0, 0.00000000000000000000e+00) (0, 0, 0.00000000000000000000e+00) (0, 0, 0.00000000000000000000e+00) (0, 0, 0.00000000000000000000e+00) (0, 0, 0.00000000000000000000e+00) (0, 0, 0.00000000000000000000e+00) (0, 0, 0.00000000000000000000e+00) (0, 0, 0.00000000000000000000e+00) (0, 0, 0.00000000000000000000e+00) (0, 0, 0.00000000000000000000e+00) (0, 0, 0.00000000000000000000e+00) (0, 0, 0.00000000000000000000e+00) (0, 0, 0.00000000000000000000e+00) (0, 0, 0.00000000000000000000e+00) (0, 0, 0.00000000000000000000e+00) (0, 0, 0.00000000000000000000e+00) (0, 0, 0.00000000000000000000e+00) (0, 0, 0.00000000000000000000e+00) (0, 0, 0.00000000000000000000e+00) (0, 0, 0.00000000000000000000e+00) (0, 0, 0.00000000000000000000e+00) (0, 0, 0.00000000000000000000e+00) (0, 0, 0.00000000000000000000e+00) (0, 0, 0.00000000000000000000e+00) (0, 0, 0.00000000000000000000e+00) (0, 0, 0.00000000000000000000e+00) (0, 0, 0.00000000000000000000e+00) (0, 0, 0.00000000000000000000e+00) (0, 0, 0.00000000000000000000e+00) (0, 0, 0.00000000000000000000e+00) (0, 0, 0.00000000000000000000e+00) (0, 0, 0.00000000000000000000e+00) (0, 0, 0.00000000000000000000e+00) (0, 0, 0.00000000000000000000e+00) (0, 0, 0.00000000000000000000e+00) (0, 0, 0.00000000000000000000e+00) (0, 0, 0.00000000000000000000e+00) (0, 0, 0.00000000000000000000e+00) (0, 0, 0.00000000000000000000e+00) (0, 0, 0.00000000000000000000e+00) (0, 0, 0.00000000000000000000e+00) (0, 0, 0.00000000000000000000e+00) (0, 0, 0.00000000000000000000e+00) (0, 0, 0.00000000000000000000e+00) (0, 0, 0.00000000000000000000e+00) (0, 0, 0.00000000000000000000e+00) (0, 0, 0.00000000000000000000e+00) (0, 0, 0.00000000000000000000e+00) (61, 3, 5.00000000000000000000e-01) (61, 3, 5.00000000000000000000e-01) (61, 3, 5.00000000000000000000e-01) (61, 3, 5.00000000000000000000e-01) (61, 3, 5.00000000000000000000e-01) (61, 3, 5.00000000000000000000e-01) (0, 3, 0.00000000000000000000e+00) (7, 3, 5.00000000000000000000e-01) (7, 3, 5.00000000000000000000e-01) (7, 3, 5.00000000000000000000e-01) (7, 3, 5.00000000000000000000e-01) (0, 3, 0.00000000000000000000e+00) 
connections (connected_to_neuron, weight)=(0, 1.39677727222442626953e+00) (1, 3.26441973447799682617e-01) (2, 2.76511144638061523438e+00) (3, 3.67933058738708496094e+00) (4, 1.24797999858856201172e+00) (5, 2.73112130165100097656e+00) (6, -1.77761232852935791016e+00) (7, 4.71943664550781250000e+00) (8, -1.45025455951690673828e+00) (9, 1.92952740192413330078e+00) (10, 6.49686396121978759766e-01) (11, -1.38389158248901367188e+00) (12, 2.66737073659896850586e-01) (13, -5.12261271476745605469e-01) (14, -5.85552871227264404297e-01) (15, 2.14965939521789550781e-02) (16, -7.83975005149841308594e-01) (17, -7.03373193740844726562e-01) (18, 1.06869208812713623047e+00) (19, 2.09484839439392089844e+00) (20, 2.41910147666931152344e+00) (21, -8.91833126544952392578e-01) (22, 3.01388949155807495117e-01) (23, 3.63904571533203125000e+00) (24, -4.87973499298095703125e+00) (25, -7.95481085777282714844e-01) (26, -6.39034688472747802734e-01) (27, 6.68175518512725830078e-01) (28, -8.71384024620056152344e-01) (29, -3.47491763532161712646e-02) (30, 4.77549999952316284180e-01) (31, -4.88850355148315429688e-01) (32, -1.13114023208618164062e+00) (33, 9.23451423645019531250e-01) (34, -3.25385642051696777344e+00) (35, -4.13379383087158203125e+00) (36, 1.65104627609252929688e+00) (37, 1.93002367019653320312e+00) (38, -9.45026576519012451172e-01) (39, 2.02770662307739257812e+00) (40, 6.67738392949104309082e-02) (41, -6.90306007862091064453e-01) (42, -9.13964867591857910156e-01) (43, 1.12609362602233886719e+00) (44, 1.62428927421569824219e+00) (45, 4.30331230163574218750e-01) (46, 3.99412840604782104492e-01) (47, -1.28754243254661560059e-01) (48, -1.43654787540435791016e+00) (49, -5.61502695083618164062e-01) (50, -1.37295746803283691406e+00) (51, -1.09067833423614501953e+00) (52, -1.29441094398498535156e+00) (53, 1.68674802780151367188e+00) (54, -3.44038558006286621094e+00) (55, 6.57382071018218994141e-01) (56, 1.80457854270935058594e+00) (57, -1.53423857688903808594e+00) (58, -2.44880366325378417969e+00) (59, 7.09029510617256164551e-02) (60, -4.18119788169860839844e-01) (0, -6.91089689731597900391e-01) (1, 6.07286095619201660156e-01) (2, -6.47990167140960693359e-01) (3, -4.61969077587127685547e-01) (4, -2.99613595008850097656e+00) (5, 1.07561361789703369141e+00) (6, 2.26346349716186523438e+00) (7, -5.64436674118041992188e-01) (8, 9.16165411472320556641e-01) (9, -1.31071794033050537109e+00) (10, 9.20527204871177673340e-02) (11, 2.38749241828918457031e+00) (12, 1.90362977981567382812e+00) (13, -4.70626926422119140625e+00) (14, 3.56589961051940917969e+00) (15, -2.97730863094329833984e-02) (16, 9.83880758285522460938e-01) (17, 7.31351196765899658203e-01) (18, 1.85866892337799072266e-01) (19, 7.60837376117706298828e-01) (20, 5.04642985761165618896e-02) (21, -2.19056606292724609375e+00) (22, 3.72827410697937011719e+00) (23, -1.03920698165893554688e+00) (24, -4.25171256065368652344e-01) (25, 1.93045899271965026855e-01) (26, -2.09153032302856445312e+00) (27, 1.86228847503662109375e+00) (28, -1.86368560791015625000e+00) (29, 1.47771227359771728516e+00) (30, 8.13642263412475585938e-01) (31, -1.75679993629455566406e+00) (32, 9.86224710941314697266e-01) (33, 6.21236848831176757812e+00) (34, 2.30124425888061523438e+00) (35, 1.41801154613494873047e+00) (36, 1.71837699413299560547e+00) (37, 5.09107208251953125000e+00) (38, 2.36758613586425781250e+00) (39, -1.92223772406578063965e-01) (40, 7.09866106510162353516e-01) (41, 1.76720762252807617188e+00) (42, -2.63943338394165039062e+00) (43, -1.81636524200439453125e+00) (44, 1.25595080852508544922e+00) (45, -7.02911376953125000000e-01) (46, 2.40079864859580993652e-01) (47, -2.07749533653259277344e+00) (48, -2.29435706138610839844e+00) (49, -1.07522392272949218750e+00) (50, -1.39397430419921875000e+00) (51, 1.62192094326019287109e+00) (52, -8.03467333316802978516e-01) (53, 3.90891695022583007812e+00) (54, -3.19859671592712402344e+00) (55, -8.44801008701324462891e-01) (56, -3.41641098260879516602e-01) (57, 2.30939936637878417969e+00) (58, 3.93722200393676757812e+00) (59, 2.92360615730285644531e+00) (60, 1.25792646408081054688e+00) (0, 2.48592332005500793457e-01) (1, 1.34416389465332031250e+00) (2, -2.36314013600349426270e-01) (3, -5.10383903980255126953e-01) (4, 1.12450230121612548828e+00) (5, 2.82538080215454101562e+00) (6, 9.96726334095001220703e-01) (7, 4.63721990585327148438e+00) (8, 2.06118091940879821777e-01) (9, 3.97141885757446289062e+00) (10, 1.14615595340728759766e+00) (11, 5.85556864738464355469e-01) (12, 1.76410257816314697266e+00) (13, -5.61697292327880859375e+00) (14, -1.69746828079223632812e+00) (15, -6.96849763393402099609e-01) (16, 1.17408001422882080078e+00) (17, -4.49292957782745361328e-01) (18, 1.86355745792388916016e+00) (19, 8.89934897422790527344e-01) (20, -5.16217052936553955078e-01) (21, 2.12909030914306640625e+00) (22, 2.16241765022277832031e+00) (23, -1.63342154026031494141e+00) (24, 4.20599985122680664062e+00) (25, -4.61561940610408782959e-02) (26, 4.74321889877319335938e+00) (27, -2.19450736045837402344e+00) (28, -2.69314861297607421875e+00) (29, -3.00724577903747558594e+00) (30, 2.61839389801025390625e-01) (31, -1.08573925495147705078e+00) (32, -1.86326813697814941406e+00) (33, -5.32000017166137695312e+00) (34, -1.86687088012695312500e+00) (35, 2.34116244316101074219e+00) (36, -3.88899779319763183594e+00) (37, 1.96807885169982910156e+00) (38, 7.76571333408355712891e-01) (39, -5.33471059799194335938e+00) (40, -8.05388629436492919922e-01) (41, -2.21254393458366394043e-01) (42, 1.22286617755889892578e-01) (43, 2.78723216056823730469e+00) (44, -1.59702897071838378906e-01) (45, 4.67308998107910156250e-01) (46, -7.09057271480560302734e-01) (47, -1.03900265693664550781e+00) (48, -5.55359411239624023438e+00) (49, -3.16334295272827148438e+00) (50, -6.33219599723815917969e-01) (51, -5.19621908664703369141e-01) (52, -5.21248388290405273438e+00) (53, -3.03276419639587402344e-01) (54, -6.11518478393554687500e+00) (55, -2.15012595057487487793e-01) (56, 3.56435227394104003906e+00) (57, 1.33543705940246582031e+00) (58, 3.02261567115783691406e+00) (59, 9.91792082786560058594e-01) (60, 2.03671669960021972656e+00) (0, 2.01588416099548339844e+00) (1, -4.82837343215942382812e+00) (2, 2.40075206756591796875e+00) (3, -1.11523163318634033203e+00) (4, -6.03500485420227050781e-01) (5, -3.92652511596679687500e-01) (6, 1.13356947898864746094e+00) (7, -9.14223492145538330078e-01) (8, 6.74649286270141601562e+00) (9, 2.04391002655029296875e+00) (10, 4.07011240720748901367e-01) (11, -1.37275266647338867188e+00) (12, -2.70396447181701660156e+00) (13, 1.50961995124816894531e-01) (14, -4.37919944524765014648e-01) (15, -4.41312715411186218262e-02) (16, -9.09524202346801757812e-01) (17, 5.10931909084320068359e-01) (18, -7.95653104782104492188e+00) (19, 6.91363871097564697266e-01) (20, -9.16767597198486328125e-01) (21, 9.67342078685760498047e-01) (22, -9.03798294067382812500e+00) (23, -1.53976023197174072266e+00) (24, -4.79889154434204101562e+00) (25, -2.12410736083984375000e+00) (26, 1.83636045455932617188e+00) (27, 1.75792646408081054688e+00) (28, 1.87670350074768066406e+00) (29, 4.25749158859252929688e+00) (30, 5.23011207580566406250e-01) (31, 2.53243088722229003906e+00) (32, 3.29056429862976074219e+00) (33, 1.82372832298278808594e+00) (34, -2.43730932474136352539e-01) (35, -1.68759334087371826172e+00) (36, -9.60825979709625244141e-01) (37, 9.58927512168884277344e-01) (38, 3.23850959539413452148e-02) (39, 4.20419931411743164062e+00) (40, 2.00211429595947265625e+00) (41, 7.72007822990417480469e-01) (42, -1.74500310420989990234e+00) (43, -9.91081774234771728516e-01) (44, -7.65122294425964355469e-01) (45, 9.13500785827636718750e-04) (46, 8.62473130226135253906e-01) (47, 1.52749955654144287109e+00) (48, 1.49603831768035888672e+00) (49, 1.60350334644317626953e+00) (50, 2.12820053100585937500e+00) (51, -1.76779651641845703125e+00) (52, 1.54620194435119628906e+00) (53, 2.78322720527648925781e+00) (54, 2.42227029800415039062e+00) (55, -2.31167227029800415039e-01) (56, 1.04866838455200195312e+00) (57, 1.86805474758148193359e+00) (58, -2.60977077484130859375e+00) (59, 1.51591390371322631836e-01) (60, 7.48704612255096435547e-01) (0, -6.44166052341461181641e-01) (1, -5.03995227813720703125e+00) (2, -1.96346056461334228516e+00) (3, -5.99042534828186035156e-01) (4, -2.36141347885131835938e+00) (5, 2.53467726707458496094e+00) (6, -8.36051553487777709961e-02) (7, -2.51685571670532226562e+00) (8, 2.37572908401489257812e+00) (9, -3.33812689781188964844e+00) (10, -1.00851213932037353516e+00) (11, 5.94048595428466796875e+00) (12, 3.36078882217407226562e-01) (13, 3.00804901123046875000e+00) (14, 1.70639526844024658203e+00) (15, 1.08411967754364013672e-01) (16, 4.49617028236389160156e-01) (17, 5.74535310268402099609e-01) (18, 8.71224284172058105469e-01) (19, 1.85576009750366210938e+00) (20, 3.79406023025512695312e+00) (21, 2.26996850967407226562e+00) (22, 3.29769968986511230469e+00) (23, -1.50693082809448242188e+00) (24, 2.25165748596191406250e+00) (25, 1.74127197265625000000e+00) (26, -6.77760243415832519531e-01) (27, -7.07513511180877685547e-01) (28, -6.32921755313873291016e-02) (29, 4.33799028396606445312e-01) (30, -6.19529150426387786865e-02) (31, -1.48733186721801757812e+00) (32, 3.84083676338195800781e+00) (33, -2.19732356071472167969e+00) (34, -2.33283591270446777344e+00) (35, -5.31497669219970703125e+00) (36, 4.85082954168319702148e-01) (37, 2.48220014572143554688e+00) (38, -1.53553068637847900391e+00) (39, 1.57982027530670166016e+00) (40, -8.91202926635742187500e-01) (41, -1.52356758713722229004e-01) (42, 8.11150729656219482422e-01) (43, -1.72078698873519897461e-01) (44, -1.74479520320892333984e+00) (45, -6.97300136089324951172e-01) (46, -1.28701496124267578125e+00) (47, -4.55922514200210571289e-01) (48, 2.81823682785034179688e+00) (49, 1.37542992830276489258e-01) (50, 2.20349979400634765625e+00) (51, 1.97625368833541870117e-01) (52, -3.01909059286117553711e-01) (53, 1.06012237071990966797e+00) (54, -2.06079459190368652344e+00) (55, 2.41208732128143310547e-01) (56, 1.37734961509704589844e+00) (57, -2.37310481071472167969e+00) (58, -2.95610904693603515625e+00) (59, -5.60321629047393798828e-01) (60, -2.03738880157470703125e+00) (0, -9.71862375736236572266e-02) (1, 6.85967683792114257812e-01) (2, 9.44231271743774414062e-01) (3, 1.50345468521118164062e+00) (4, 9.20957624912261962891e-01) (5, 2.06953620910644531250e+00) (6, -4.52217769622802734375e+00) (7, -1.55565118789672851562e+00) (8, -7.11898088455200195312e-01) (9, -1.70600488781929016113e-02) (10, -1.53764843940734863281e+00) (11, -1.13416826725006103516e+00) (12, 1.17819583415985107422e+00) (13, 3.02199244499206542969e+00) (14, 1.50812389329075813293e-02) (15, 5.16259253025054931641e-01) (16, 5.88841295242309570312e+00) (17, -4.82911050319671630859e-01) (18, -2.18585944175720214844e+00) (19, 1.21575713157653808594e+00) (20, 2.25818467140197753906e+00) (21, -1.66543817520141601562e+00) (22, 4.72314071655273437500e+00) (23, -1.34224867820739746094e+00) (24, 2.36334729194641113281e+00) (25, 2.42301273345947265625e+00) (26, -3.23587608337402343750e+00) (27, -5.40189325809478759766e-01) (28, -1.86379063129425048828e+00) (29, 7.19937205314636230469e-01) (30, -3.04294872283935546875e+00) (31, 1.43536043167114257812e+00) (32, 1.90195894241333007812e+00) (33, 5.95102727413177490234e-01) (34, 2.50703454017639160156e-01) (35, -1.53725838661193847656e+00) (36, -6.45373314619064331055e-02) (37, -2.97544074058532714844e+00) (38, 2.89189410209655761719e+00) (39, -6.74292039871215820312e+00) (40, -1.71643388271331787109e+00) (41, -8.46431076526641845703e-01) (42, -8.78459513187408447266e-02) (43, 2.43097591400146484375e+00) (44, 1.54491066932678222656e+00) (45, -2.36445724964141845703e-01) (46, 3.02845764160156250000e+00) (47, -3.34542489051818847656e+00) (48, 6.53364801406860351562e+00) (49, 8.12193632125854492188e-01) (50, -1.25061392784118652344e+00) (51, 2.90892934799194335938e+00) (52, 3.70147585868835449219e+00) (53, 7.59974241256713867188e-01) (54, 3.99799847602844238281e+00) (55, 1.34726667404174804688e+00) (56, 7.30201780796051025391e-01) (57, -8.14527869224548339844e-01) (58, -1.33946573734283447266e+00) (59, 2.24800395965576171875e+00) (60, 1.37114131450653076172e+00) (61, 1.07354898452758789062e+01) (62, -5.84655141830444335938e+00) (63, 1.02446346282958984375e+01) (64, 5.07430028915405273438e+00) (65, -1.03125953674316406250e+01) (66, -3.24872106313705444336e-01) (67, -5.95244169235229492188e+00) (61, -1.18107185363769531250e+01) (62, 3.48283529281616210938e+00) (63, 5.64089345932006835938e+00) (64, -1.06186580657958984375e+01) (65, 8.57025909423828125000e+00) (66, 3.04621458053588867188e+00) (67, -7.30946874618530273438e+00) (61, -3.42516040802001953125e+00) (62, 9.80628967285156250000e+00) (63, -9.65053081512451171875e+00) (64, 2.89571070671081542969e+00) (65, 6.01066780090332031250e+00) (66, -1.27992019653320312500e+01) (67, -4.87824583053588867188e+00) (61, -6.09900140762329101562e+00) (62, -1.05780954360961914062e+01) (63, -6.57986497879028320312e+00) (64, 7.72039651870727539062e+00) (65, -5.90331077575683593750e+00) (66, 1.03350696563720703125e+01) (67, -2.84034872055053710938e+00) 
