FANN_FLO_2.1
num_layers=3
learning_rate=0.800000
connection_rate=1.000000
network_type=0
learning_momentum=0.000000
training_algorithm=1
train_error_function=1
train_stop_function=0
cascade_output_change_fraction=0.010000
quickprop_decay=-0.000100
quickprop_mu=1.750000
rprop_increase_factor=1.200000
rprop_decrease_factor=0.500000
rprop_delta_min=0.000000
rprop_delta_max=50.000000
rprop_delta_zero=0.100000
cascade_output_stagnation_epochs=12
cascade_candidate_change_fraction=0.010000
cascade_candidate_stagnation_epochs=12
cascade_max_out_epochs=150
cascade_min_out_epochs=50
cascade_max_cand_epochs=150
cascade_min_cand_epochs=50
cascade_num_candidate_groups=2
bit_fail_limit=3.49999994039535522461e-01
cascade_candidate_limit=1.00000000000000000000e+03
cascade_weight_multiplier=4.00000005960464477539e-01
cascade_activation_functions_count=10
cascade_activation_functions=3 5 7 8 10 11 14 15 16 17 
cascade_activation_steepnesses_count=4
cascade_activation_steepnesses=2.50000000000000000000e-01 5.00000000000000000000e-01 7.50000000000000000000e-01 1.00000000000000000000e+00 
layer_sizes=61 7 5 
scale_included=0
neurons (num_inputs, activation_function, activation_steepness)=(0, 0, 0.00000000000000000000e+00) (0, 0, 0.00000000000000000000e+00) (0, 0, 0.00000000000000000000e+00) (0, 0, 0.00000000000000000000e+00) (0, 0, 0.00000000000000000000e+00) (0, 0, 0.00000000000000000000e+00) (0, 0, 0.00000000000000000000e+00) (0, 0, 0.00000000000000000000e+00) (0, 0, 0.00000000000000000000e+00) (0, 0, 0.00000000000000000000e+00) (0, 0, 0.00000000000000000000e+00) (0, 0, 0.00000000000000000000e+00) (0, 0, 0.00000000000000000000e+00) (0, 0, 0.00000000000000000000e+00) (0, 0, 0.00000000000000000000e+00) (0, 0, 0.00000000000000000000e+00) (0, 0, 0.00000000000000000000e+00) (0, 0, 0.00000000000000000000e+00) (0, 0, 0.00000000000000000000e+00) (0, 0, 0.00000000000000000000e+00) (0, 0, 0.00000000000000000000e+00) (0, 0, 0.00000000000000000000e+00) (0, 0, 0.00000000000000000000e+00) (0, 0, 0.00000000000000000000e+00) (0, 0, 0.00000000000000000000e+00) (0, 0, 0.00000000000000000000e+00) (0, 0, 0.00000000000000000000e+00) (0, 0, 0.00000000000000000000e+00) (0, 0, 0.00000000000000000000e+00) (0, 0, 0.00000000000000000000e+00) (0, 0, 0.00000000000000000000e+00) (0, 0, 0.00000000000000000000e+00) (0, 0, 0.00000000000000000000e+00) (0, 0, 0.00000000000000000000e+00) (0, 0, 0.00000000000000000000e+00) (0, 0, 0.00000000000000000000e+00) (0, 0, 0.00000000000000000000e+00) (0, 0, 0.00000000000000000000e+00) (0, 0, 0.00000000000000000000e+00) (0, 0, 0.00000000000000000000e+00) (0, 0, 0.00000000000000000000e+00) (0, 0, 0.00000000000000000000e+00) (0, 0, 0.00000000000000000000e+00) (0, 0, 0.00000000000000000000e+00) (0, 0, 0.00000000000000000000e+00) (0, 0, 0.00000000000000000000e+00) (0, 0, 0.00000000000000000000e+00) (0, 0, 0.00000000000000000000e+00) (0, 0, 0.00000000000000000000e+00) (0, 0, 0.00000000000000000000e+00) (0, 0, 0.00000000000000000000e+00) (0, 0, 0.00000000000000000000e+00) (0, 0, 0.00000000000000000000e+00) (0, 0, 0.00000000000000000000e+00) (0, 0, 0.00000000000000000000e+00) (0, 0, 0.00000000000000000000e+00) (0, 0, 0.00000000000000000000e+00) (0, 0, 0.00000000000000000000e+00) (0, 0, 0.00000000000000000000e+00) (0, 0, 0.00000000000000000000e+00) (0, 0, 0.00000000000000000000e+00) (61, 3, 5.00000000000000000000e-01) (61, 3, 5.00000000000000000000e-01) (61, 3, 5.00000000000000000000e-01) (61, 3, 5.00000000000000000000e-01) (61, 3, 5.00000000000000000000e-01) (61, 3, 5.00000000000000000000e-01) (0, 3, 0.00000000000000000000e+00) (7, 3, 5.00000000000000000000e-01) (7, 3, 5.00000000000000000000e-01) (7, 3, 5.00000000000000000000e-01) (7, 3, 5.00000000000000000000e-01) (0, 3, 0.00000000000000000000e+00) 
connections (connected_to_neuron, weight)=(0, -5.52248835563659667969e-01) (1, -3.03985595703125000000e-01) (2, -1.16484165191650390625e+00) (3, -5.99646747112274169922e-01) (4, -1.53497695922851562500e+00) (5, -5.52239306271076202393e-02) (6, 4.85589265823364257812e-01) (7, -1.92866301536560058594e+00) (8, 9.88125860691070556641e-01) (9, 2.72520512342453002930e-01) (10, 1.34878344833850860596e-02) (11, -1.54678666591644287109e+00) (12, 1.41741633415222167969e-01) (13, -4.57127531990408897400e-03) (14, 8.15410017967224121094e-01) (15, -1.15956795215606689453e+00) (16, 2.93495863676071166992e-01) (17, -7.99399971961975097656e-01) (18, -3.65024000406265258789e-01) (19, -9.43071126937866210938e-01) (20, -7.15090274810791015625e-01) (21, -2.63059973716735839844e-01) (22, -4.99771547317504882812e+00) (23, 1.24633528292179107666e-01) (24, -2.40204215049743652344e+00) (25, 5.72438299655914306641e-01) (26, 9.49926614761352539062e-01) (27, -2.92998641729354858398e-01) (28, 3.21513622999191284180e-01) (29, 8.69388520717620849609e-01) (30, -1.74284589290618896484e+00) (31, -1.35506665706634521484e+00) (32, 9.28405284881591796875e-01) (33, -5.99235296249389648438e-01) (34, 1.54991793632507324219e+00) (35, -2.72502452135086059570e-01) (36, 5.17301969230175018311e-02) (37, -5.57970225811004638672e-01) (38, -1.58353224396705627441e-01) (39, 2.45107340812683105469e+00) (40, 1.96153533458709716797e+00) (41, -1.57751393318176269531e+00) (42, -4.74592626094818115234e-01) (43, -1.13783061504364013672e+00) (44, 1.66916584968566894531e+00) (45, -1.87438145279884338379e-01) (46, -7.94783830642700195312e-02) (47, 2.32586169242858886719e+00) (48, 4.40648645162582397461e-01) (49, 1.03669750690460205078e+00) (50, -4.91100773215293884277e-02) (51, 6.47656759247183799744e-03) (52, 2.67460060119628906250e+00) (53, 1.14287570118904113770e-01) (54, 7.33983814716339111328e-01) (55, 6.74760714173316955566e-02) (56, 6.91674128174781799316e-02) (57, 5.53337752819061279297e-01) (58, -6.83645248413085937500e-01) (59, -1.62437868118286132812e+00) (60, 1.98237240314483642578e-01) (0, -1.42396652698516845703e+00) (1, -1.24802041053771972656e+00) (2, 1.90150392055511474609e+00) (3, 1.77774035930633544922e+00) (4, 1.06656277179718017578e+00) (5, -1.00159370899200439453e+00) (6, -5.92545807361602783203e-01) (7, 4.07368516921997070312e+00) (8, -1.40576767921447753906e+00) (9, 2.63866543769836425781e+00) (10, 7.26849675178527832031e-01) (11, -2.09181785583496093750e+00) (12, -3.23388814926147460938e-01) (13, -8.04202914237976074219e-01) (14, -2.18866395950317382812e+00) (15, -1.56840646266937255859e+00) (16, -3.86307984590530395508e-02) (17, -1.24608814716339111328e+00) (18, -2.26351594924926757812e+00) (19, 8.98427069187164306641e-01) (20, 4.89938527345657348633e-01) (21, 8.46055448055267333984e-02) (22, -5.54163515567779541016e-01) (23, 1.50869369506835937500e+00) (24, -2.32247114181518554688e+00) (25, -1.27186381816864013672e+00) (26, -9.55278277397155761719e-01) (27, 6.82239115238189697266e-01) (28, 2.39552235603332519531e+00) (29, 1.27733123302459716797e+00) (30, -6.18730783462524414062e-01) (31, -2.42624926567077636719e+00) (32, -2.76137185096740722656e+00) (33, -3.42408418655395507812e+00) (34, -8.66103827953338623047e-01) (35, -7.54257798194885253906e-01) (36, -4.19865071773529052734e-01) (37, -4.43166208267211914062e+00) (38, 6.18750810623168945312e-01) (39, -1.66442561149597167969e+00) (40, -1.22425174713134765625e+00) (41, 1.46637097001075744629e-01) (42, 7.99639344215393066406e-01) (43, 3.26231867074966430664e-01) (44, 5.33103287220001220703e-01) (45, 2.47177314758300781250e+00) (46, -2.04574561119079589844e+00) (47, 9.61544215679168701172e-02) (48, 2.10055208206176757812e+00) (49, -1.06638923287391662598e-01) (50, 2.07780122756958007812e+00) (51, 7.09404706954956054688e-01) (52, 2.47096323966979980469e+00) (53, -2.34045720100402832031e+00) (54, 2.89226007461547851562e+00) (55, -1.40155553817749023438e-01) (56, 2.25971412658691406250e+00) (57, -1.84833979606628417969e+00) (58, -2.73959517478942871094e+00) (59, -7.98368334770202636719e-01) (60, -8.57772409915924072266e-01) (0, -9.41520988941192626953e-01) (1, -6.70355439186096191406e-01) (2, -4.15969192981719970703e-01) (3, 5.71047902107238769531e-01) (4, 1.89526259899139404297e+00) (5, 7.98465371131896972656e-01) (6, -7.45109558105468750000e-01) (7, 2.05444264411926269531e+00) (8, -1.28910553455352783203e+00) (9, 2.96029996871948242188e+00) (10, 2.65976618975400924683e-02) (11, -6.06775343418121337891e-01) (12, -5.96650317311286926270e-02) (13, -1.47017478942871093750e+00) (14, -1.58277511596679687500e+00) (15, -1.05417978763580322266e+00) (16, -7.05094933509826660156e-01) (17, -2.24667239189147949219e+00) (18, -3.54382014274597167969e+00) (19, -2.36177062988281250000e+00) (20, -3.08376598358154296875e+00) (21, -1.74157893657684326172e+00) (22, -2.06790375709533691406e+00) (23, -8.17887127399444580078e-01) (24, -2.45494031906127929688e+00) (25, -7.16508328914642333984e-01) (26, -1.42727005481719970703e+00) (27, -4.96272802352905273438e-01) (28, 1.45605611801147460938e+00) (29, 2.40892753005027770996e-01) (30, -7.72738635540008544922e-01) (31, 7.93984055519104003906e-01) (32, 1.14996945858001708984e+00) (33, 1.43647682666778564453e+00) (34, 4.18499559164047241211e-01) (35, 2.58313804864883422852e-01) (36, -1.29834210872650146484e+00) (37, -8.20813477039337158203e-02) (38, -6.31126403808593750000e-01) (39, 2.98556065559387207031e+00) (40, 5.64317822456359863281e-01) (41, -1.03589737415313720703e+00) (42, 1.22331237792968750000e+00) (43, -1.32835626602172851562e+00) (44, -1.68826007843017578125e+00) (45, -7.48718261718750000000e-01) (46, 7.73131847381591796875e-01) (47, -1.74604094028472900391e+00) (48, -9.16423857212066650391e-01) (49, -1.43345999717712402344e+00) (50, -1.11694097518920898438e+00) (51, -1.63444614410400390625e+00) (52, -1.69784379005432128906e+00) (53, -1.47900092601776123047e+00) (54, -2.18403387069702148438e+00) (55, -9.33748722076416015625e-01) (56, 5.45027196407318115234e-01) (57, 3.02874237298965454102e-01) (58, 1.36812770366668701172e+00) (59, -1.17114290595054626465e-01) (60, 2.16928720474243164062e+00) (0, 1.45275807380676269531e+00) (1, -2.24024653434753417969e+00) (2, -1.33345949649810791016e+00) (3, 1.11429119110107421875e+00) (4, -1.07752597332000732422e+00) (5, -2.90469193458557128906e+00) (6, -1.68898975849151611328e+00) (7, -2.54193139076232910156e+00) (8, -2.02596753835678100586e-01) (9, -6.63445889949798583984e-01) (10, 7.56853595376014709473e-02) (11, 5.57522475719451904297e-01) (12, -1.65940070152282714844e+00) (13, 1.58570218086242675781e+00) (14, -1.28733360767364501953e+00) (15, 1.21907818317413330078e+00) (16, 1.49126303195953369141e+00) (17, -7.91794836521148681641e-01) (18, 1.23123526573181152344e+00) (19, -8.93214881420135498047e-01) (20, 2.79673600196838378906e+00) (21, 7.16785311698913574219e-01) (22, 4.99974399805068969727e-01) (23, -2.69738167524337768555e-01) (24, 2.23406791687011718750e+00) (25, -1.43314576148986816406e+00) (26, -6.59858658909797668457e-02) (27, 1.39636313915252685547e+00) (28, -5.48977971076965332031e-01) (29, -4.52819347381591796875e-01) (30, 5.43083548545837402344e-01) (31, 5.70995174348354339600e-02) (32, 2.60717606544494628906e+00) (33, 3.97667348384857177734e-01) (34, -1.22772824764251708984e+00) (35, 2.22992396354675292969e+00) (36, 3.81842106580734252930e-01) (37, 4.59821367263793945312e+00) (38, -9.22451972961425781250e-01) (39, 1.49337136745452880859e+00) (40, -2.09733918309211730957e-01) (41, -1.12014913558959960938e+00) (42, -4.04089465737342834473e-02) (43, -6.73803806304931640625e-01) (44, 3.02192363888025283813e-02) (45, -2.51585412025451660156e+00) (46, 1.48348093032836914062e-01) (47, -5.31464338302612304688e-01) (48, -3.74155378341674804688e+00) (49, -1.28719842433929443359e+00) (50, -5.78095257282257080078e-01) (51, 1.08675591647624969482e-01) (52, -1.18411850929260253906e+00) (53, -5.25618910789489746094e-01) (54, -3.52312350273132324219e+00) (55, -7.41629183292388916016e-01) (56, -4.60922330617904663086e-01) (57, -1.98845446109771728516e+00) (58, 1.60174214839935302734e+00) (59, 9.27355647087097167969e-01) (60, 1.57175529003143310547e+00) (0, 1.86128258705139160156e+00) (1, -1.93340802192687988281e+00) (2, -4.13752257823944091797e-01) (3, -2.05358147621154785156e+00) (4, 1.60551801323890686035e-01) (5, -1.11465311050415039062e+00) (6, -1.21122688055038452148e-01) (7, -1.51028013229370117188e+00) (8, -1.70144170522689819336e-01) (9, -3.71146559715270996094e+00) (10, 1.78323224186897277832e-01) (11, 7.28895127773284912109e-01) (12, 2.71237138658761978149e-02) (13, 6.08007490634918212891e-01) (14, -2.54324197769165039062e-01) (15, 4.18949931859970092773e-01) (16, 1.11825037002563476562e+00) (17, 1.85037338733673095703e+00) (18, 1.72076356410980224609e+00) (19, 1.25457000732421875000e+00) (20, -1.51599395275115966797e+00) (21, -1.12039697170257568359e+00) (22, 2.26337000727653503418e-01) (23, 9.37168121337890625000e-01) (24, 2.53591275215148925781e+00) (25, 1.38434708118438720703e+00) (26, 1.07575511932373046875e+00) (27, -5.00110328197479248047e-01) (28, -2.34462666511535644531e+00) (29, -1.76008924841880798340e-01) (30, 1.31960761547088623047e+00) (31, -4.84662093222141265869e-02) (32, -6.21777057647705078125e-01) (33, -1.78886568546295166016e+00) (34, 2.82229278236627578735e-02) (35, -3.42648148536682128906e-01) (36, -9.49598133563995361328e-01) (37, -1.95657789707183837891e+00) (38, 1.29387652873992919922e+00) (39, -1.70707225799560546875e+00) (40, -9.82330515980720520020e-02) (41, 1.32413148880004882812e+00) (42, 7.46576368808746337891e-01) (43, 1.56311833858489990234e+00) (44, 1.31548142433166503906e+00) (45, 9.00481224060058593750e-01) (46, -9.64308738708496093750e-01) (47, 8.73198211193084716797e-01) (48, -1.00926589965820312500e+00) (49, 1.76202857494354248047e+00) (50, 1.13292193412780761719e+00) (51, 1.74178883433341979980e-01) (52, 1.73340737819671630859e+00) (53, -1.28560376167297363281e+00) (54, 4.30458784103393554688e+00) (55, 8.92073750495910644531e-01) (56, -1.90621471405029296875e+00) (57, -6.49946749210357666016e-01) (58, -1.04466700553894042969e+00) (59, 1.50768801569938659668e-01) (60, -2.40514859557151794434e-01) (0, -1.10896575450897216797e+00) (1, 3.00672650337219238281e-01) (2, -1.52753368020057678223e-01) (3, 3.07150268554687500000e+00) (4, 2.60087442398071289062e+00) (5, 2.51008319854736328125e+00) (6, 1.51646867394447326660e-01) (7, 3.09236717224121093750e+00) (8, -1.26712799072265625000e+00) (9, 2.55521750450134277344e+00) (10, 7.83771514892578125000e-01) (11, -2.79557436704635620117e-01) (12, -7.31046378612518310547e-01) (13, -1.19965648651123046875e+00) (14, 4.65127915143966674805e-01) (15, 1.37947225570678710938e+00) (16, 5.31710505485534667969e-01) (17, -1.01447963714599609375e+00) (18, 2.71634817123413085938e-01) (19, 2.30962276458740234375e+00) (20, 1.38255739212036132812e+00) (21, 2.46170148253440856934e-01) (22, 2.96190071105957031250e+00) (23, -1.08726906776428222656e+00) (24, 6.61330819129943847656e-01) (25, 6.49612247943878173828e-01) (26, -4.85660612583160400391e-01) (27, -1.77284312248229980469e+00) (28, -2.24920654296875000000e+00) (29, 1.60495877265930175781e-01) (30, 1.64763307571411132812e+00) (31, -7.76180088520050048828e-01) (32, -6.80279850959777832031e-01) (33, -2.81745290756225585938e+00) (34, -1.39657962322235107422e+00) (35, -9.11438763141632080078e-01) (36, 1.37100517749786376953e+00) (37, 1.46907222270965576172e+00) (38, 3.03238540887832641602e-01) (39, -2.84314489364624023438e+00) (40, -2.33070135116577148438e-01) (41, -4.39163833856582641602e-01) (42, 1.40875279903411865234e-01) (43, 1.15653336048126220703e+00) (44, 7.88825213909149169922e-01) (45, 2.64547556638717651367e-01) (46, -1.63761138916015625000e+00) (47, -2.08195853233337402344e+00) (48, -1.84257996082305908203e+00) (49, -1.21670007705688476562e+00) (50, -1.06593978404998779297e+00) (51, -1.08045661449432373047e+00) (52, -4.35439729690551757812e+00) (53, 3.46724778413772583008e-01) (54, -2.17590808868408203125e+00) (55, -2.72241950035095214844e-01) (56, -7.76727020740509033203e-01) (57, 8.53445976972579956055e-02) (58, 4.04294401407241821289e-01) (59, -1.06919169425964355469e+00) (60, 2.56352162361145019531e+00) (61, -5.24558544158935546875e+00) (62, 4.14232301712036132812e+00) (63, 4.39662504196166992188e+00) (64, -4.00508260726928710938e+00) (65, -4.06628465652465820312e+00) (66, 4.29773378372192382812e+00) (67, -2.80360484123229980469e+00) (61, -6.49729204177856445312e+00) (62, -5.17343330383300781250e+00) (63, -5.48347568511962890625e+00) (64, 2.05381464958190917969e+00) (65, 4.76483011245727539062e+00) (66, 4.97232151031494140625e+00) (67, -2.45170235633850097656e+00) (61, 5.94657468795776367188e+00) (62, -5.53609466552734375000e+00) (63, 3.12391376495361328125e+00) (64, 5.27176284790039062500e+00) (65, -5.26630306243896484375e+00) (66, -6.84329128265380859375e+00) (67, -2.81707501411437988281e+00) (61, 1.56123793125152587891e+00) (62, 7.92724132537841796875e+00) (63, -6.58230781555175781250e+00) (64, -5.88152027130126953125e+00) (65, 3.52760934829711914062e+00) (66, -5.58844566345214843750e+00) (67, -1.01958417892456054688e+00) 
