FANN_FLO_2.1
num_layers=3
learning_rate=0.800000
connection_rate=1.000000
network_type=0
learning_momentum=0.000000
training_algorithm=0
train_error_function=1
train_stop_function=0
cascade_output_change_fraction=0.010000
quickprop_decay=-0.000100
quickprop_mu=1.750000
rprop_increase_factor=1.200000
rprop_decrease_factor=0.500000
rprop_delta_min=0.000000
rprop_delta_max=50.000000
rprop_delta_zero=0.100000
cascade_output_stagnation_epochs=12
cascade_candidate_change_fraction=0.010000
cascade_candidate_stagnation_epochs=12
cascade_max_out_epochs=150
cascade_min_out_epochs=50
cascade_max_cand_epochs=150
cascade_min_cand_epochs=50
cascade_num_candidate_groups=2
bit_fail_limit=3.49999994039535522461e-01
cascade_candidate_limit=1.00000000000000000000e+03
cascade_weight_multiplier=4.00000005960464477539e-01
cascade_activation_functions_count=10
cascade_activation_functions=3 5 7 8 10 11 14 15 16 17 
cascade_activation_steepnesses_count=4
cascade_activation_steepnesses=2.50000000000000000000e-01 5.00000000000000000000e-01 7.50000000000000000000e-01 1.00000000000000000000e+00 
layer_sizes=61 7 5 
scale_included=0
neurons (num_inputs, activation_function, activation_steepness)=(0, 0, 0.00000000000000000000e+00) (0, 0, 0.00000000000000000000e+00) (0, 0, 0.00000000000000000000e+00) (0, 0, 0.00000000000000000000e+00) (0, 0, 0.00000000000000000000e+00) (0, 0, 0.00000000000000000000e+00) (0, 0, 0.00000000000000000000e+00) (0, 0, 0.00000000000000000000e+00) (0, 0, 0.00000000000000000000e+00) (0, 0, 0.00000000000000000000e+00) (0, 0, 0.00000000000000000000e+00) (0, 0, 0.00000000000000000000e+00) (0, 0, 0.00000000000000000000e+00) (0, 0, 0.00000000000000000000e+00) (0, 0, 0.00000000000000000000e+00) (0, 0, 0.00000000000000000000e+00) (0, 0, 0.00000000000000000000e+00) (0, 0, 0.00000000000000000000e+00) (0, 0, 0.00000000000000000000e+00) (0, 0, 0.00000000000000000000e+00) (0, 0, 0.00000000000000000000e+00) (0, 0, 0.00000000000000000000e+00) (0, 0, 0.00000000000000000000e+00) (0, 0, 0.00000000000000000000e+00) (0, 0, 0.00000000000000000000e+00) (0, 0, 0.00000000000000000000e+00) (0, 0, 0.00000000000000000000e+00) (0, 0, 0.00000000000000000000e+00) (0, 0, 0.00000000000000000000e+00) (0, 0, 0.00000000000000000000e+00) (0, 0, 0.00000000000000000000e+00) (0, 0, 0.00000000000000000000e+00) (0, 0, 0.00000000000000000000e+00) (0, 0, 0.00000000000000000000e+00) (0, 0, 0.00000000000000000000e+00) (0, 0, 0.00000000000000000000e+00) (0, 0, 0.00000000000000000000e+00) (0, 0, 0.00000000000000000000e+00) (0, 0, 0.00000000000000000000e+00) (0, 0, 0.00000000000000000000e+00) (0, 0, 0.00000000000000000000e+00) (0, 0, 0.00000000000000000000e+00) (0, 0, 0.00000000000000000000e+00) (0, 0, 0.00000000000000000000e+00) (0, 0, 0.00000000000000000000e+00) (0, 0, 0.00000000000000000000e+00) (0, 0, 0.00000000000000000000e+00) (0, 0, 0.00000000000000000000e+00) (0, 0, 0.00000000000000000000e+00) (0, 0, 0.00000000000000000000e+00) (0, 0, 0.00000000000000000000e+00) (0, 0, 0.00000000000000000000e+00) (0, 0, 0.00000000000000000000e+00) (0, 0, 0.00000000000000000000e+00) (0, 0, 0.00000000000000000000e+00) (0, 0, 0.00000000000000000000e+00) (0, 0, 0.00000000000000000000e+00) (0, 0, 0.00000000000000000000e+00) (0, 0, 0.00000000000000000000e+00) (0, 0, 0.00000000000000000000e+00) (0, 0, 0.00000000000000000000e+00) (61, 3, 5.00000000000000000000e-01) (61, 3, 5.00000000000000000000e-01) (61, 3, 5.00000000000000000000e-01) (61, 3, 5.00000000000000000000e-01) (61, 3, 5.00000000000000000000e-01) (61, 3, 5.00000000000000000000e-01) (0, 3, 0.00000000000000000000e+00) (7, 3, 5.00000000000000000000e-01) (7, 3, 5.00000000000000000000e-01) (7, 3, 5.00000000000000000000e-01) (7, 3, 5.00000000000000000000e-01) (0, 3, 0.00000000000000000000e+00) 
connections (connected_to_neuron, weight)=(0, -2.70015201568603515625e+01) (1, 1.97349834442138671875e+01) (2, -1.66786804199218750000e+01) (3, -3.06335926055908203125e+01) (4, 5.81356086730957031250e+01) (5, 3.19564437866210937500e+00) (6, -3.07489204406738281250e+01) (7, 1.72676963806152343750e+01) (8, -6.11719703674316406250e+00) (9, 7.72054977416992187500e+01) (10, 2.70280742645263671875e+00) (11, -9.39463882446289062500e+01) (12, -8.72365093231201171875e+00) (13, -6.18943023681640625000e+00) (14, -2.40138607025146484375e+01) (15, -7.55862236022949218750e+00) (16, -5.46342802047729492188e+00) (17, -1.36361465454101562500e+02) (18, -5.37187995910644531250e+01) (19, -3.32252235412597656250e+01) (20, 1.10611610412597656250e+01) (21, 2.16725921630859375000e+01) (22, -2.23285846710205078125e+01) (23, -1.16543712615966796875e+01) (24, -6.60325851440429687500e+01) (25, -1.43440656661987304688e+01) (26, 9.32544517517089843750e+00) (27, -2.31169090270996093750e+01) (28, 7.45904803276062011719e-01) (29, -2.46362571716308593750e+01) (30, -8.45256519317626953125e+00) (31, 2.43101482391357421875e+01) (32, 2.80511150360107421875e+01) (33, 4.24791831970214843750e+01) (34, 6.42798602581024169922e-01) (35, 5.43859302997589111328e-01) (36, 1.07837133407592773438e+01) (37, 2.74604511260986328125e+01) (38, 3.07444248199462890625e+01) (39, 4.58799324035644531250e+01) (40, 2.28005657196044921875e+01) (41, -2.34653854370117187500e+01) (42, 4.68993949890136718750e+00) (43, -5.19583587646484375000e+01) (44, -2.51012001037597656250e+01) (45, -5.42037391662597656250e+00) (46, 3.36881675720214843750e+01) (47, -1.00246200561523437500e+01) (48, 9.03851413726806640625e+00) (49, 2.09603538513183593750e+01) (50, -2.54152488708496093750e+01) (51, -1.61175575256347656250e+01) (52, -3.81392288208007812500e+01) (53, 2.32488880157470703125e+01) (54, -3.23435783386230468750e+01) (55, -6.05970096588134765625e+00) (56, 1.15977859497070312500e+01) (57, -3.35941734313964843750e+01) (58, 3.61459808349609375000e+01) (59, -6.73862743377685546875e+00) (60, 9.74715328216552734375e+00) (0, -2.07220816612243652344e+00) (1, -1.59932937622070312500e+01) (2, 2.10521736145019531250e+01) (3, 4.44558411836624145508e-01) (4, 4.67846059799194335938e+00) (5, 8.17822456359863281250e+00) (6, 4.57733345031738281250e+00) (7, 1.55322713851928710938e+01) (8, 1.30335235595703125000e+01) (9, -7.42468690872192382812e+00) (10, -1.56083059310913085938e+00) (11, -1.77495708465576171875e+01) (12, 1.28966999053955078125e+01) (13, -1.19314908981323242188e+01) (14, -5.98936605453491210938e+00) (15, -8.27915763854980468750e+00) (16, -1.28330821990966796875e+01) (17, -2.84972333908081054688e+00) (18, 1.15457372665405273438e+01) (19, -1.50238571166992187500e+01) (20, -8.05052852630615234375e+00) (21, -1.28607664108276367188e+01) (22, -3.96946668624877929688e+00) (23, -4.59455060958862304688e+00) (24, -9.46306228637695312500e+00) (25, 8.80226325988769531250e+00) (26, -2.41653671264648437500e+01) (27, 8.25881767272949218750e+00) (28, 1.15405797958374023438e+01) (29, 7.45237970352172851562e+00) (30, -1.66728067398071289062e+00) (31, -4.83046951293945312500e+01) (32, -2.55446834564208984375e+01) (33, -2.40568122863769531250e+01) (34, -5.78101692199707031250e+01) (35, -1.25291891098022460938e+01) (36, 4.50855064392089843750e+00) (37, -4.78598365783691406250e+01) (38, 1.99976768493652343750e+01) (39, -1.94307708740234375000e+01) (40, -7.61036920547485351562e+00) (41, -8.58980846405029296875e+00) (42, -4.72995424270629882812e+00) (43, 1.73010330200195312500e+01) (44, -1.68981969356536865234e+00) (45, 8.40684890747070312500e+00) (46, -1.24530982971191406250e+01) (47, 1.15358629226684570312e+01) (48, 1.26933298110961914062e+01) (49, 1.84905071258544921875e+01) (50, 2.67550506591796875000e+01) (51, 9.90585136413574218750e+00) (52, 8.13887977600097656250e+00) (53, 2.26093444824218750000e+01) (54, 5.30011482238769531250e+01) (55, 1.02257461547851562500e+01) (56, 9.51880550384521484375e+00) (57, -6.86875343322753906250e+00) (58, -2.65695476531982421875e+01) (59, 4.78585863113403320312e+00) (60, -4.68988227844238281250e+01) (0, -5.11850230395793914795e-02) (1, 1.32233536243438720703e+00) (2, 3.35072593688964843750e+01) (3, 1.43848121166229248047e+00) (4, 4.61875267028808593750e+01) (5, 2.99922962188720703125e+01) (6, 1.89200515747070312500e+01) (7, 7.43324356079101562500e+01) (8, -1.79455165863037109375e+01) (9, 6.62435073852539062500e+01) (10, 2.75158810615539550781e+00) (11, 2.60370063781738281250e+01) (12, 2.96026158332824707031e+00) (13, -1.54581241607666015625e+01) (14, -1.23332199096679687500e+02) (15, 1.27748222351074218750e+01) (16, -4.48182029724121093750e+01) (17, -2.30865287780761718750e+01) (18, 4.97066421508789062500e+01) (19, 2.90837192535400390625e+01) (20, 1.06476707458496093750e+01) (21, -1.32699222564697265625e+01) (22, 6.78147201538085937500e+01) (23, -1.86348133087158203125e+01) (24, 2.82405338287353515625e+01) (25, -3.95291900634765625000e+01) (26, 5.55821371078491210938e+00) (27, -1.59096632003784179688e+01) (28, -1.15255432128906250000e+01) (29, 3.19425415992736816406e+00) (30, 8.54279708862304687500e+00) (31, -3.54418296813964843750e+01) (32, -3.17628231048583984375e+01) (33, -4.71841278076171875000e+01) (34, -1.57920293807983398438e+01) (35, -1.14833822250366210938e+01) (36, -9.43816757202148437500e+00) (37, -2.94962158203125000000e+01) (38, 2.80321717262268066406e+00) (39, -7.87920989990234375000e+01) (40, -7.17874603271484375000e+01) (41, -7.76434850692749023438e+00) (42, 1.27383985519409179688e+01) (43, 2.65165195465087890625e+01) (44, 1.16995567321777343750e+02) (45, -1.93763756752014160156e+00) (46, -4.01406288146972656250e+01) (47, -1.24909496307373046875e+01) (48, -3.31683197021484375000e+01) (49, -2.82673001289367675781e+00) (50, -6.46725416183471679688e+00) (51, -6.15385591983795166016e-01) (52, -4.27928543090820312500e+01) (53, 7.87795877456665039062e+00) (54, -2.71543788909912109375e+01) (55, -4.58183288574218750000e+00) (56, -2.80060977935791015625e+01) (57, 9.90198230743408203125e+00) (58, 1.00021190643310546875e+01) (59, -3.76019058227539062500e+01) (60, 3.77650904655456542969e+00) (0, -3.61587905883789062500e+01) (1, -3.15333652496337890625e+01) (2, -3.31599159240722656250e+01) (3, 3.45602493286132812500e+01) (4, 7.05070638656616210938e+00) (5, 7.98240756988525390625e+00) (6, 4.41348505020141601562e+00) (7, 4.37547836303710937500e+01) (8, -5.66024971008300781250e+00) (9, 1.26542877197265625000e+02) (10, 2.47971630096435546875e+00) (11, 2.00607814788818359375e+01) (12, 2.23923053741455078125e+01) (13, -7.55938470363616943359e-01) (14, -2.31406280517578125000e+02) (15, 1.43469591140747070312e+01) (16, 5.67513847351074218750e+01) (17, 1.28828783035278320312e+01) (18, -1.34661731719970703125e+01) (19, 1.16624183654785156250e+01) (20, -2.82256660461425781250e+01) (21, -1.03580179214477539062e+01) (22, 1.17353229522705078125e+01) (23, -1.74836151123046875000e+02) (24, -7.08421802520751953125e+00) (25, -2.23780803680419921875e+01) (26, -1.71023284912109375000e+02) (27, 3.82637715339660644531e+00) (28, 2.13092098236083984375e+01) (29, 1.18112363815307617188e+01) (30, -1.56556046009063720703e+00) (31, 8.58823204040527343750e+00) (32, -1.20568866729736328125e+01) (33, 5.78614044189453125000e+00) (34, -2.15393853187561035156e+00) (35, 8.98334884643554687500e+00) (36, 5.02100992202758789062e+00) (37, 9.90976333618164062500e+00) (38, -6.68985137939453125000e+01) (39, -2.78384323120117187500e+01) (40, -3.44190673828125000000e+01) (41, -8.78182411193847656250e+00) (42, -2.18950004577636718750e+01) (43, 1.36256895065307617188e+01) (44, -4.32811784744262695312e+00) (45, -5.24105691909790039062e+00) (46, -2.64197540283203125000e+01) (47, -8.73228132724761962891e-01) (48, -1.22280139923095703125e+01) (49, -1.23515644073486328125e+01) (50, 2.58002305030822753906e+00) (51, 6.95097541809082031250e+00) (52, 8.05780410766601562500e+00) (53, 2.37696781158447265625e+01) (54, -2.36276512145996093750e+01) (55, -7.12304925918579101562e+00) (56, 2.92568607330322265625e+01) (57, -1.58027868270874023438e+01) (58, 2.74952983856201171875e+01) (59, 3.95056419372558593750e+01) (60, -1.36751922607421875000e+02) (0, -1.62059440612792968750e+01) (1, -5.13845491409301757812e+00) (2, 1.32400262355804443359e+00) (3, -8.52144241333007812500e+00) (4, -1.24645786285400390625e+01) (5, -1.18654327392578125000e+01) (6, 2.57603198289871215820e-01) (7, -2.22447013854980468750e+01) (8, 2.73838977813720703125e+01) (9, 8.25320339202880859375e+00) (10, 3.77010196447372436523e-01) (11, -1.37755870819091796875e+01) (12, 1.59315776824951171875e+01) (13, -2.52098488807678222656e+00) (14, 7.18415558338165283203e-01) (15, -1.32501039505004882812e+01) (16, 2.26914691925048828125e+00) (17, -1.19629735946655273438e+01) (18, -6.03272438049316406250e+00) (19, -1.89036140441894531250e+01) (20, -7.65236139297485351562e+00) (21, -7.72009181976318359375e+00) (22, -3.40524978637695312500e+01) (23, -5.20153570175170898438e+00) (24, -1.55529647827148437500e+02) (25, 3.81004953384399414062e+00) (26, 6.45539224147796630859e-01) (27, 3.31027030944824218750e+00) (28, 1.49794216156005859375e+01) (29, 9.04762420654296875000e+01) (30, -2.48535480499267578125e+01) (31, -1.52485980987548828125e+01) (32, 1.72680110931396484375e+01) (33, 9.03096771240234375000e+00) (34, 2.26541118621826171875e+01) (35, 2.26256918907165527344e+00) (36, -1.90034258365631103516e+00) (37, -1.94304257631301879883e-01) (38, -1.79620826244354248047e+00) (39, 1.59354125976562500000e+02) (40, 3.14695472717285156250e+01) (41, -1.37090997695922851562e+01) (42, -3.86926722526550292969e+00) (43, -1.35294570922851562500e+01) (44, -7.97254562377929687500e+01) (45, -3.68353462219238281250e+00) (46, 2.38465070724487304688e+00) (47, -5.62301397323608398438e+00) (48, -6.62908363342285156250e+00) (49, -2.49100685119628906250e+00) (50, 4.98063230514526367188e+00) (51, 5.49198675155639648438e+00) (52, 2.72713432312011718750e+01) (53, -2.72013366222381591797e-01) (54, -1.13316297531127929688e+01) (55, -2.15357065200805664062e-01) (56, 1.53807754516601562500e+01) (57, 1.09025325775146484375e+01) (58, 1.00612699985504150391e+00) (59, -4.15660095214843750000e+01) (60, 4.60000228881835937500e+00) (0, 5.23811569213867187500e+01) (1, -6.20424222946166992188e+00) (2, -2.06828613281250000000e+01) (3, -2.97620925903320312500e+01) (4, -6.53689241409301757812e+00) (5, 1.29224987030029296875e+01) (6, 8.11802089214324951172e-01) (7, -2.51854782104492187500e+01) (8, 6.58468399047851562500e+01) (9, -5.07083435058593750000e+01) (10, -4.68902558088302612305e-01) (11, 3.04928188323974609375e+01) (12, 1.70569932460784912109e+00) (13, 1.77278156280517578125e+01) (14, 4.60745096206665039062e+00) (15, 1.11533641815185546875e+01) (16, 2.08574733734130859375e+01) (17, 3.72910082340240478516e-01) (18, 4.00319595336914062500e+01) (19, 1.12638461589813232422e+00) (20, 5.53785741329193115234e-01) (21, 3.60600185394287109375e+00) (22, 1.78732929229736328125e+01) (23, -1.24715232849121093750e+01) (24, 6.70437717437744140625e+00) (25, 6.45003032684326171875e+00) (26, -2.18355617523193359375e+01) (27, 6.73611998558044433594e-01) (28, -1.89562721252441406250e+01) (29, -1.21535015106201171875e+01) (30, 7.14045333862304687500e+00) (31, 9.56957054138183593750e+00) (32, 3.37563667297363281250e+01) (33, 2.14717426300048828125e+01) (34, -1.32931890487670898438e+01) (35, 1.17583227157592773438e+01) (36, 1.65269851684570312500e+01) (37, 4.52663154602050781250e+01) (38, -1.58541660308837890625e+01) (39, 1.30553989410400390625e+01) (40, 2.47475891113281250000e+01) (41, -2.33697757720947265625e+01) (42, -7.86578702926635742188e+00) (43, -3.69845056533813476562e+00) (44, -8.08652019500732421875e+00) (45, -3.30247764587402343750e+01) (46, 2.21915283203125000000e+01) (47, -1.61419448852539062500e+01) (48, -3.13575534820556640625e+01) (49, -4.51791238784790039062e+00) (50, -5.36406576633453369141e-01) (51, -6.79624223709106445312e+00) (52, -3.84822921752929687500e+01) (53, 1.74287624359130859375e+01) (54, -1.82915077209472656250e+01) (55, -7.67230653762817382812e+00) (56, -1.78316974639892578125e+01) (57, -6.67081642150878906250e+00) (58, 2.10769500732421875000e+01) (59, 7.32854747772216796875e+00) (60, 2.56234321594238281250e+01) (61, 4.28017425537109375000e+00) (62, -2.88163352012634277344e+00) (63, 9.79829406738281250000e+00) (64, 7.46698427200317382812e+00) (65, 2.53856348991394042969e+00) (66, -5.06060171127319335938e+00) (67, -9.84199810028076171875e+00) (61, -9.42970657348632812500e+00) (62, -4.51624774932861328125e+00) (63, 5.25770187377929687500e+00) (64, -1.05718832015991210938e+01) (65, -5.74907541275024414062e+00) (66, 5.92476654052734375000e+00) (67, -2.88071370124816894531e+00) (61, 6.10806035995483398438e+00) (62, -8.77163219451904296875e+00) (63, -9.83759212493896484375e+00) (64, -8.47240066528320312500e+00) (65, 6.93921995162963867188e+00) (66, 4.39292049407958984375e+00) (67, -8.54025173187255859375e+00) (61, -5.72262668609619140625e+00) (62, 6.40714120864868164062e+00) (63, -4.79759263992309570312e+00) (64, -7.16033840179443359375e+00) (65, -9.34847891330718994141e-01) (66, -5.80577373504638671875e+00) (67, 2.64179348945617675781e+00) 
