FANN_FLO_2.1
num_layers=3
learning_rate=0.800000
connection_rate=1.000000
network_type=0
learning_momentum=0.000000
training_algorithm=0
train_error_function=1
train_stop_function=0
cascade_output_change_fraction=0.010000
quickprop_decay=-0.000100
quickprop_mu=1.750000
rprop_increase_factor=1.200000
rprop_decrease_factor=0.500000
rprop_delta_min=0.000000
rprop_delta_max=50.000000
rprop_delta_zero=0.100000
cascade_output_stagnation_epochs=12
cascade_candidate_change_fraction=0.010000
cascade_candidate_stagnation_epochs=12
cascade_max_out_epochs=150
cascade_min_out_epochs=50
cascade_max_cand_epochs=150
cascade_min_cand_epochs=50
cascade_num_candidate_groups=2
bit_fail_limit=3.49999994039535522461e-01
cascade_candidate_limit=1.00000000000000000000e+03
cascade_weight_multiplier=4.00000005960464477539e-01
cascade_activation_functions_count=10
cascade_activation_functions=3 5 7 8 10 11 14 15 16 17 
cascade_activation_steepnesses_count=4
cascade_activation_steepnesses=2.50000000000000000000e-01 5.00000000000000000000e-01 7.50000000000000000000e-01 1.00000000000000000000e+00 
layer_sizes=61 7 5 
scale_included=0
neurons (num_inputs, activation_function, activation_steepness)=(0, 0, 0.00000000000000000000e+00) (0, 0, 0.00000000000000000000e+00) (0, 0, 0.00000000000000000000e+00) (0, 0, 0.00000000000000000000e+00) (0, 0, 0.00000000000000000000e+00) (0, 0, 0.00000000000000000000e+00) (0, 0, 0.00000000000000000000e+00) (0, 0, 0.00000000000000000000e+00) (0, 0, 0.00000000000000000000e+00) (0, 0, 0.00000000000000000000e+00) (0, 0, 0.00000000000000000000e+00) (0, 0, 0.00000000000000000000e+00) (0, 0, 0.00000000000000000000e+00) (0, 0, 0.00000000000000000000e+00) (0, 0, 0.00000000000000000000e+00) (0, 0, 0.00000000000000000000e+00) (0, 0, 0.00000000000000000000e+00) (0, 0, 0.00000000000000000000e+00) (0, 0, 0.00000000000000000000e+00) (0, 0, 0.00000000000000000000e+00) (0, 0, 0.00000000000000000000e+00) (0, 0, 0.00000000000000000000e+00) (0, 0, 0.00000000000000000000e+00) (0, 0, 0.00000000000000000000e+00) (0, 0, 0.00000000000000000000e+00) (0, 0, 0.00000000000000000000e+00) (0, 0, 0.00000000000000000000e+00) (0, 0, 0.00000000000000000000e+00) (0, 0, 0.00000000000000000000e+00) (0, 0, 0.00000000000000000000e+00) (0, 0, 0.00000000000000000000e+00) (0, 0, 0.00000000000000000000e+00) (0, 0, 0.00000000000000000000e+00) (0, 0, 0.00000000000000000000e+00) (0, 0, 0.00000000000000000000e+00) (0, 0, 0.00000000000000000000e+00) (0, 0, 0.00000000000000000000e+00) (0, 0, 0.00000000000000000000e+00) (0, 0, 0.00000000000000000000e+00) (0, 0, 0.00000000000000000000e+00) (0, 0, 0.00000000000000000000e+00) (0, 0, 0.00000000000000000000e+00) (0, 0, 0.00000000000000000000e+00) (0, 0, 0.00000000000000000000e+00) (0, 0, 0.00000000000000000000e+00) (0, 0, 0.00000000000000000000e+00) (0, 0, 0.00000000000000000000e+00) (0, 0, 0.00000000000000000000e+00) (0, 0, 0.00000000000000000000e+00) (0, 0, 0.00000000000000000000e+00) (0, 0, 0.00000000000000000000e+00) (0, 0, 0.00000000000000000000e+00) (0, 0, 0.00000000000000000000e+00) (0, 0, 0.00000000000000000000e+00) (0, 0, 0.00000000000000000000e+00) (0, 0, 0.00000000000000000000e+00) (0, 0, 0.00000000000000000000e+00) (0, 0, 0.00000000000000000000e+00) (0, 0, 0.00000000000000000000e+00) (0, 0, 0.00000000000000000000e+00) (0, 0, 0.00000000000000000000e+00) (61, 3, 5.00000000000000000000e-01) (61, 3, 5.00000000000000000000e-01) (61, 3, 5.00000000000000000000e-01) (61, 3, 5.00000000000000000000e-01) (61, 3, 5.00000000000000000000e-01) (61, 3, 5.00000000000000000000e-01) (0, 3, 0.00000000000000000000e+00) (7, 3, 5.00000000000000000000e-01) (7, 3, 5.00000000000000000000e-01) (7, 3, 5.00000000000000000000e-01) (7, 3, 5.00000000000000000000e-01) (0, 3, 0.00000000000000000000e+00) 
connections (connected_to_neuron, weight)=(0, -6.95475459098815917969e-01) (1, -1.41164565086364746094e+00) (2, 2.41036605834960937500e+00) (3, 2.72406768798828125000e+00) (4, 4.77788782119750976562e+00) (5, -8.20674705505371093750e+00) (6, -8.20106804370880126953e-01) (7, 8.28878307342529296875e+00) (8, 3.81987810134887695312e+00) (9, 9.38401412963867187500e+00) (10, 8.38848233222961425781e-01) (11, -1.58375859260559082031e+00) (12, 1.40542328357696533203e+00) (13, 2.58601069450378417969e+00) (14, 2.98640060424804687500e+00) (15, 6.04010701179504394531e-01) (16, 2.02606599777936935425e-02) (17, -2.94446086883544921875e+00) (18, -1.95502257347106933594e+00) (19, -1.35246098041534423828e+00) (20, -3.02409768104553222656e+00) (21, -1.34585058689117431641e+00) (22, -1.38118386268615722656e+00) (23, 6.32486879825592041016e-01) (24, -3.79470825195312500000e+00) (25, 6.79060041904449462891e-01) (26, -7.99741029739379882812e-01) (27, -1.67290937900543212891e+00) (28, 6.68059110641479492188e+00) (29, -2.94814944267272949219e-01) (30, 4.10726428031921386719e-01) (31, -7.90292099118232727051e-02) (32, -5.57733833789825439453e-01) (33, -1.56338584423065185547e+00) (34, 1.68883156776428222656e+00) (35, 1.38612246513366699219e+00) (36, 1.09423887729644775391e+00) (37, -1.18624973297119140625e+00) (38, -4.33878719806671142578e-01) (39, -3.25227117538452148438e+00) (40, 2.30727255344390869141e-01) (41, 6.04418069124221801758e-02) (42, -2.55197310447692871094e+00) (43, 1.23166573047637939453e+00) (44, -5.84766745567321777344e-01) (45, 5.42323172092437744141e-01) (46, 9.10224858671426773071e-03) (47, 5.17764151096343994141e-01) (48, -5.87477159500122070312e+00) (49, 1.90310680866241455078e+00) (50, -3.20247721672058105469e+00) (51, 1.60214340686798095703e+00) (52, -5.12259542942047119141e-01) (53, 1.28931891918182373047e+00) (54, 4.10650610923767089844e-01) (55, 2.35547915101051330566e-01) (56, -4.31692749261856079102e-01) (57, -6.52660489082336425781e-01) (58, -3.61837530136108398438e+00) (59, 1.23575925827026367188e+00) (60, -6.57222568988800048828e-01) (0, 4.99552249908447265625e-01) (1, -2.07148241996765136719e+00) (2, 1.77411520481109619141e+00) (3, -2.47100687026977539062e+00) (4, -7.89533555507659912109e-01) (5, -4.31344413757324218750e+00) (6, -3.28864002227783203125e+00) (7, -1.26073575019836425781e+00) (8, -2.11745405197143554688e+00) (9, -6.70775890350341796875e+00) (10, -3.06760132312774658203e-01) (11, 1.51198279857635498047e+00) (12, 1.01229870319366455078e+00) (13, 2.39363241195678710938e+00) (14, -5.05143022537231445312e+00) (15, 5.66334128379821777344e-02) (16, 7.21521556377410888672e-01) (17, 1.65644359588623046875e+00) (18, 3.66704320907592773438e+00) (19, 2.85100728273391723633e-01) (20, 4.67395454645156860352e-01) (21, 1.89295911788940429688e+00) (22, 2.12081193923950195312e+00) (23, -7.90309086441993713379e-02) (24, 7.30451107025146484375e-01) (25, 6.90243422985076904297e-01) (26, -2.72976613044738769531e+00) (27, 4.27917861938476562500e+00) (28, -2.35290503501892089844e+00) (29, 2.17964553833007812500e+00) (30, 5.92924952507019042969e-02) (31, 9.41622376441955566406e-01) (32, 6.41498088836669921875e-01) (33, 4.37758624553680419922e-01) (34, 1.41005706787109375000e+00) (35, -6.35233297944068908691e-02) (36, 5.33515834808349609375e+00) (37, 6.80344629287719726562e+00) (38, -1.58026146888732910156e+00) (39, 3.43564891815185546875e+00) (40, -1.81737947463989257812e+00) (41, -4.22003698348999023438e+00) (42, 6.39231741428375244141e-01) (43, -4.54560995101928710938e+00) (44, 1.29965484142303466797e+00) (45, 1.08049988746643066406e+00) (46, -1.27171671390533447266e+00) (47, 1.23632907867431640625e-01) (48, -6.79743528366088867188e+00) (49, 3.66688609123229980469e-01) (50, 5.19572138786315917969e-01) (51, -4.40437746047973632812e+00) (52, -3.47545623779296875000e+00) (53, 2.56334257125854492188e+00) (54, -6.88912916183471679688e+00) (55, 1.01432144641876220703e-01) (56, -5.54077565670013427734e-01) (57, -1.08499288558959960938e+00) (58, 3.75043177604675292969e+00) (59, -1.25713869929313659668e-01) (60, 2.23618984222412109375e+00) (0, -6.54472529888153076172e-01) (1, -2.14311376214027404785e-01) (2, -2.60655570030212402344e+00) (3, 9.18181598186492919922e-01) (4, -2.67372459173202514648e-01) (5, 1.82555007934570312500e+00) (6, 4.07397651672363281250e+00) (7, 1.35671889781951904297e+00) (8, 3.14402550458908081055e-01) (9, 6.36414289474487304688e+00) (10, 2.20088616013526916504e-01) (11, -2.63163208961486816406e+00) (12, 1.78570342063903808594e+00) (13, -8.64215850830078125000e+00) (14, 1.43906402587890625000e+00) (15, -2.08905100822448730469e-01) (16, -2.64746689796447753906e+00) (17, -4.06619882583618164062e+00) (18, -2.39016628265380859375e+00) (19, -2.84279537200927734375e+00) (20, -2.45288896560668945312e+00) (21, -9.83673155307769775391e-01) (22, -4.55973768234252929688e+00) (23, 6.42360627651214599609e-01) (24, -6.34685230255126953125e+00) (25, 1.98416411876678466797e-01) (26, 1.21186268329620361328e+00) (27, -1.92350602149963378906e+00) (28, 1.65398204326629638672e+00) (29, -5.13908624649047851562e-01) (30, 1.92656576633453369141e-01) (31, 6.38337492942810058594e-01) (32, 1.05573439598083496094e+00) (33, 5.54201459884643554688e+00) (34, 7.48065042495727539062e+00) (35, 6.91524648666381835938e+00) (36, 1.12700021266937255859e+00) (37, -4.28995400667190551758e-01) (38, -2.81221938133239746094e+00) (39, 5.46530723571777343750e-01) (40, -3.18624901771545410156e+00) (41, -9.48160350322723388672e-01) (42, 8.80118548870086669922e-01) (43, -7.51021051406860351562e+00) (44, 2.76488709449768066406e+00) (45, 6.02014303207397460938e-01) (46, -1.28043043613433837891e+00) (47, 8.38815021514892578125e+00) (48, -1.66639292240142822266e+00) (49, -1.75035929679870605469e+00) (50, 1.44442999362945556641e+00) (51, 8.85335087776184082031e-01) (52, -4.92719936370849609375e+00) (53, 1.16049838066101074219e+00) (54, -7.35771512985229492188e+00) (55, 3.41153740882873535156e-01) (56, -4.37015265226364135742e-01) (57, 3.21874409914016723633e-01) (58, 1.00689816474914550781e+00) (59, -1.57679125666618347168e-01) (60, 3.40999454259872436523e-01) (0, -4.68069523572921752930e-01) (1, -7.74060428142547607422e-01) (2, -1.33780860900878906250e+00) (3, 2.42691159248352050781e+00) (4, 1.17457103729248046875e+00) (5, 1.59767866134643554688e+00) (6, 1.85955119132995605469e+00) (7, -1.51946234703063964844e+00) (8, 6.76290154457092285156e-01) (9, 1.36009693145751953125e+00) (10, -3.48379492759704589844e-01) (11, -7.18338608741760253906e-01) (12, 2.10678768157958984375e+00) (13, -2.76005935668945312500e+00) (14, 1.18094825744628906250e+00) (15, -4.00471448898315429688e-01) (16, -8.99751424789428710938e-01) (17, -3.28726744651794433594e+00) (18, 4.87165498733520507812e+00) (19, -1.58442640304565429688e+00) (20, 2.49018478393554687500e+00) (21, 3.58016699552536010742e-01) (22, 1.25458316802978515625e+01) (23, 3.60910922288894653320e-01) (24, 7.24519300460815429688e+00) (25, 7.34031558036804199219e-01) (26, -5.49894952774047851562e+00) (27, -3.61662578582763671875e+00) (28, -2.71042776107788085938e+00) (29, 4.37239885330200195312e+00) (30, 4.06633019447326660156e-01) (31, 1.23549306392669677734e+00) (32, 3.44942402839660644531e+00) (33, -9.66732084751129150391e-01) (34, -8.48593354225158691406e-01) (35, 5.64444541931152343750e-01) (36, -4.35974502563476562500e+00) (37, -1.81247448921203613281e+00) (38, 9.90910947322845458984e-01) (39, -4.55964183807373046875e+00) (40, -1.98903059959411621094e+00) (41, -1.89134359359741210938e+00) (42, 1.18701167404651641846e-01) (43, 4.54737281799316406250e+00) (44, 2.33109688758850097656e+00) (45, 2.35249727964401245117e-01) (46, 2.44705662131309509277e-01) (47, -5.37114202976226806641e-01) (48, -4.03400659561157226562e-01) (49, 3.89941692352294921875e+00) (50, -9.38782811164855957031e-01) (51, -2.87624287605285644531e+00) (52, -3.90366935729980468750e+00) (53, -1.16285467147827148438e+00) (54, -4.43824005126953125000e+00) (55, 6.25156760215759277344e-01) (56, -2.89565324783325195312e-01) (57, 2.59689446538686752319e-02) (58, 3.73757779598236083984e-01) (59, 2.65656590461730957031e+00) (60, -1.58848917484283447266e+00) (0, 2.23689079284667968750e-01) (1, 2.99817776679992675781e+00) (2, -4.78073596954345703125e+00) (3, 8.96231174468994140625e-01) (4, -4.43417787551879882812e-01) (5, -4.34366321563720703125e+00) (6, -4.66339921951293945312e+00) (7, -3.05974304676055908203e-01) (8, -3.97940254211425781250e+00) (9, -5.01136589050292968750e+00) (10, -3.67922745645046234131e-02) (11, 1.74461972713470458984e+00) (12, 9.83859181404113769531e-01) (13, 5.64530706405639648438e+00) (14, -1.27384805679321289062e+00) (15, -5.79133570194244384766e-01) (16, 2.17084813117980957031e+00) (17, -2.59715819358825683594e+00) (18, -8.81512224674224853516e-01) (19, 3.93070936203002929688e+00) (20, 7.29646325111389160156e-01) (21, -1.43216073513031005859e+00) (22, -1.76738703250885009766e+00) (23, 8.30118078738451004028e-03) (24, 5.88966560363769531250e+00) (25, 8.23898077011108398438e-01) (26, -8.39470446109771728516e-01) (27, 1.55651056766510009766e+00) (28, -6.61296844482421875000e+00) (29, -1.06458850204944610596e-01) (30, -3.74057471752166748047e-01) (31, 3.27832579612731933594e+00) (32, 6.94912552833557128906e-01) (33, 2.25284004211425781250e+00) (34, 1.76258563995361328125e+00) (35, 2.55926012992858886719e+00) (36, 8.97834151983261108398e-02) (37, -2.54865527153015136719e-01) (38, -1.54746437072753906250e+00) (39, -9.22041237354278564453e-01) (40, 5.99687147140502929688e+00) (41, -2.88236474990844726562e+00) (42, -4.20422983169555664062e+00) (43, 4.55993032455444335938e+00) (44, -4.61688488721847534180e-01) (45, 6.15313470363616943359e-01) (46, -1.31382143497467041016e+00) (47, 4.87229153513908386230e-02) (48, -4.99702501296997070312e+00) (49, -1.91772830486297607422e+00) (50, -3.91052269935607910156e+00) (51, 6.14230155944824218750e-01) (52, -6.71644163131713867188e+00) (53, -1.73640775680541992188e+00) (54, -7.49461364746093750000e+00) (55, 1.02542586624622344971e-01) (56, -1.16305530071258544922e+00) (57, 1.94033825397491455078e+00) (58, 1.33953917026519775391e+00) (59, 1.23876377940177917480e-01) (60, 2.79748153686523437500e+00) (0, 3.23643922805786132812e-01) (1, 3.01445889472961425781e+00) (2, -2.39974111318588256836e-01) (3, 2.40624442696571350098e-01) (4, -3.77240419387817382812e-01) (5, -1.71526825428009033203e+00) (6, -6.26660525798797607422e-01) (7, -2.49934762716293334961e-01) (8, -5.25835573673248291016e-01) (9, -3.51026868820190429688e+00) (10, 2.79897004365921020508e-01) (11, -7.26972818374633789062e-01) (12, -3.34828257560729980469e+00) (13, -7.06084668636322021484e-01) (14, 4.08160018920898437500e+00) (15, -1.47320806980133056641e-01) (16, -2.06268757581710815430e-01) (17, 2.52540683746337890625e+00) (18, -3.02018690109252929688e+00) (19, -1.17862403392791748047e+00) (20, 1.95273816585540771484e+00) (21, -3.12885022163391113281e+00) (22, -7.94335603713989257812e+00) (23, 4.92217689752578735352e-01) (24, -3.51017165184020996094e+00) (25, -2.53366678953170776367e-01) (26, 2.62605166435241699219e+00) (27, -2.40386009216308593750e+00) (28, 1.92782902717590332031e+00) (29, -2.76519703865051269531e+00) (30, 6.80577874183654785156e-01) (31, 1.97661057114601135254e-01) (32, -1.23161244392395019531e+00) (33, 1.00483918190002441406e+00) (34, 2.80594825744628906250e+00) (35, 4.87526446580886840820e-01) (36, -1.52473676204681396484e+00) (37, 2.92037129402160644531e-02) (38, -2.42978990077972412109e-01) (39, 2.55913734436035156250e+00) (40, -1.56121671199798583984e+00) (41, 3.74677228927612304688e+00) (42, -3.17300409078598022461e-01) (43, -9.81796264648437500000e-01) (44, -1.42171168327331542969e+00) (45, 4.35178458690643310547e-01) (46, 6.80206227116286754608e-04) (47, 3.92063379287719726562e-01) (48, 8.83415281772613525391e-01) (49, 3.94620239734649658203e-01) (50, 2.46004748344421386719e+00) (51, -2.30261325836181640625e+00) (52, 3.56428790092468261719e+00) (53, 3.82677800953388214111e-02) (54, 3.56848144531250000000e+00) (55, 1.45673930644989013672e-01) (56, -3.15774112939834594727e-01) (57, -2.48003935813903808594e+00) (58, -1.38461112976074218750e+00) (59, 3.77393156290054321289e-01) (60, 4.59599941968917846680e-01) (61, 6.80879068374633789062e+00) (62, -3.19544649124145507812e+00) (63, 3.89341926574707031250e+00) (64, 2.19911503791809082031e+00) (65, -4.84056234359741210938e+00) (66, -4.41241168975830078125e+00) (67, -4.33149385452270507812e+00) (61, -4.20089387893676757812e+00) (62, 1.65951013565063476562e+00) (63, -4.80871009826660156250e+00) (64, 4.08893346786499023438e+00) (65, 4.99784231185913085938e+00) (66, -5.04625606536865234375e+00) (67, -4.22891378402709960938e+00) (61, -3.91890406608581542969e+00) (62, 6.20332002639770507812e+00) (63, 5.04377508163452148438e+00) (64, -3.91792845726013183594e+00) (65, -3.53578472137451171875e+00) (66, 2.11396312713623046875e+00) (67, -4.29448747634887695312e+00) (61, -2.76347923278808593750e+00) (62, -8.65069007873535156250e+00) (63, -8.82014942169189453125e+00) (64, -3.73610496520996093750e+00) (65, -4.70024394989013671875e+00) (66, 4.18998527526855468750e+00) (67, 1.94711005687713623047e+00) 
