FANN_FLO_2.1
num_layers=3
learning_rate=0.800000
connection_rate=1.000000
network_type=0
learning_momentum=0.000000
training_algorithm=0
train_error_function=1
train_stop_function=0
cascade_output_change_fraction=0.010000
quickprop_decay=-0.000100
quickprop_mu=1.750000
rprop_increase_factor=1.200000
rprop_decrease_factor=0.500000
rprop_delta_min=0.000000
rprop_delta_max=50.000000
rprop_delta_zero=0.100000
cascade_output_stagnation_epochs=12
cascade_candidate_change_fraction=0.010000
cascade_candidate_stagnation_epochs=12
cascade_max_out_epochs=150
cascade_min_out_epochs=50
cascade_max_cand_epochs=150
cascade_min_cand_epochs=50
cascade_num_candidate_groups=2
bit_fail_limit=3.49999994039535522461e-01
cascade_candidate_limit=1.00000000000000000000e+03
cascade_weight_multiplier=4.00000005960464477539e-01
cascade_activation_functions_count=10
cascade_activation_functions=3 5 7 8 10 11 14 15 16 17 
cascade_activation_steepnesses_count=4
cascade_activation_steepnesses=2.50000000000000000000e-01 5.00000000000000000000e-01 7.50000000000000000000e-01 1.00000000000000000000e+00 
layer_sizes=61 7 5 
scale_included=0
neurons (num_inputs, activation_function, activation_steepness)=(0, 0, 0.00000000000000000000e+00) (0, 0, 0.00000000000000000000e+00) (0, 0, 0.00000000000000000000e+00) (0, 0, 0.00000000000000000000e+00) (0, 0, 0.00000000000000000000e+00) (0, 0, 0.00000000000000000000e+00) (0, 0, 0.00000000000000000000e+00) (0, 0, 0.00000000000000000000e+00) (0, 0, 0.00000000000000000000e+00) (0, 0, 0.00000000000000000000e+00) (0, 0, 0.00000000000000000000e+00) (0, 0, 0.00000000000000000000e+00) (0, 0, 0.00000000000000000000e+00) (0, 0, 0.00000000000000000000e+00) (0, 0, 0.00000000000000000000e+00) (0, 0, 0.00000000000000000000e+00) (0, 0, 0.00000000000000000000e+00) (0, 0, 0.00000000000000000000e+00) (0, 0, 0.00000000000000000000e+00) (0, 0, 0.00000000000000000000e+00) (0, 0, 0.00000000000000000000e+00) (0, 0, 0.00000000000000000000e+00) (0, 0, 0.00000000000000000000e+00) (0, 0, 0.00000000000000000000e+00) (0, 0, 0.00000000000000000000e+00) (0, 0, 0.00000000000000000000e+00) (0, 0, 0.00000000000000000000e+00) (0, 0, 0.00000000000000000000e+00) (0, 0, 0.00000000000000000000e+00) (0, 0, 0.00000000000000000000e+00) (0, 0, 0.00000000000000000000e+00) (0, 0, 0.00000000000000000000e+00) (0, 0, 0.00000000000000000000e+00) (0, 0, 0.00000000000000000000e+00) (0, 0, 0.00000000000000000000e+00) (0, 0, 0.00000000000000000000e+00) (0, 0, 0.00000000000000000000e+00) (0, 0, 0.00000000000000000000e+00) (0, 0, 0.00000000000000000000e+00) (0, 0, 0.00000000000000000000e+00) (0, 0, 0.00000000000000000000e+00) (0, 0, 0.00000000000000000000e+00) (0, 0, 0.00000000000000000000e+00) (0, 0, 0.00000000000000000000e+00) (0, 0, 0.00000000000000000000e+00) (0, 0, 0.00000000000000000000e+00) (0, 0, 0.00000000000000000000e+00) (0, 0, 0.00000000000000000000e+00) (0, 0, 0.00000000000000000000e+00) (0, 0, 0.00000000000000000000e+00) (0, 0, 0.00000000000000000000e+00) (0, 0, 0.00000000000000000000e+00) (0, 0, 0.00000000000000000000e+00) (0, 0, 0.00000000000000000000e+00) (0, 0, 0.00000000000000000000e+00) (0, 0, 0.00000000000000000000e+00) (0, 0, 0.00000000000000000000e+00) (0, 0, 0.00000000000000000000e+00) (0, 0, 0.00000000000000000000e+00) (0, 0, 0.00000000000000000000e+00) (0, 0, 0.00000000000000000000e+00) (61, 3, 5.00000000000000000000e-01) (61, 3, 5.00000000000000000000e-01) (61, 3, 5.00000000000000000000e-01) (61, 3, 5.00000000000000000000e-01) (61, 3, 5.00000000000000000000e-01) (61, 3, 5.00000000000000000000e-01) (0, 3, 0.00000000000000000000e+00) (7, 3, 5.00000000000000000000e-01) (7, 3, 5.00000000000000000000e-01) (7, 3, 5.00000000000000000000e-01) (7, 3, 5.00000000000000000000e-01) (0, 3, 0.00000000000000000000e+00) 
connections (connected_to_neuron, weight)=(0, 8.68207073211669921875e+00) (1, 4.94618463516235351562e+00) (2, -5.58038043975830078125e+00) (3, -4.27050590515136718750e+01) (4, -9.72994709014892578125e+00) (5, -3.01710057258605957031e+00) (6, -2.83113241195678710938e+00) (7, -3.28444709777832031250e+01) (8, 1.65953617095947265625e+01) (9, -2.18960838317871093750e+01) (10, 1.77705478668212890625e+00) (11, 3.13661527633666992188e+00) (12, 5.05573463439941406250e+00) (13, -7.93106973171234130859e-01) (14, -1.18131315708160400391e+00) (15, -1.06320686340332031250e+01) (16, 3.06198287010192871094e+00) (17, 7.30698466300964355469e-01) (18, -9.80615711212158203125e+00) (19, -1.94920558929443359375e+01) (20, -1.75712566375732421875e+01) (21, -2.47292208671569824219e+00) (22, -3.56739807128906250000e+01) (23, 1.09312570095062255859e+00) (24, -1.48750181198120117188e+01) (25, 4.94099617004394531250e+00) (26, 9.82254219055175781250e+00) (27, 1.35894651412963867188e+01) (28, 1.38521413803100585938e+01) (29, 3.15694952011108398438e+00) (30, -2.07236881256103515625e+01) (31, -1.14149465560913085938e+01) (32, -2.81408876180648803711e-01) (33, 6.93746709823608398438e+00) (34, 1.94825782775878906250e+01) (35, 7.26442098617553710938e+00) (36, 9.25483465194702148438e-01) (37, -1.31993877887725830078e+00) (38, -9.39207363128662109375e+00) (39, 1.25263481140136718750e+01) (40, 4.39620437622070312500e+01) (41, 1.14679181575775146484e+00) (42, -4.93340313434600830078e-01) (43, -3.40994668006896972656e+00) (44, -4.45321273803710937500e+00) (45, 1.23643136024475097656e+00) (46, 9.02640724182128906250e+00) (47, 1.50569620132446289062e+01) (48, 1.59780807495117187500e+01) (49, 5.48907661437988281250e+00) (50, -4.05024671554565429688e+00) (51, -1.55573129653930664062e+00) (52, 2.79890785217285156250e+01) (53, -1.03183965682983398438e+01) (54, 1.69938242435455322266e+00) (55, 1.27146899700164794922e+00) (56, -1.22128486633300781250e+00) (57, -2.41630697250366210938e+00) (58, -5.89643597602844238281e-01) (59, -1.82635974884033203125e+00) (60, 2.80138325691223144531e+00) (0, 3.46766114234924316406e+00) (1, -2.15251464843750000000e+01) (2, 1.13253526687622070312e+01) (3, 1.20843505859375000000e+00) (4, -7.16929864883422851562e+00) (5, -5.72716665267944335938e+00) (6, 9.98729038238525390625e+00) (7, 7.94938421249389648438e+00) (8, 3.14638543128967285156e+00) (9, -8.18857097625732421875e+00) (10, 1.50650727748870849609e+00) (11, 2.75610256195068359375e+00) (12, 1.23626298904418945312e+01) (13, -1.85711070895195007324e-01) (14, -3.01880288124084472656e+00) (15, -5.85621500015258789062e+00) (16, -6.04850625991821289062e+00) (17, 1.73991565704345703125e+01) (18, 7.86211156845092773438e+00) (19, 1.35781741142272949219e+00) (20, -5.69636774063110351562e+00) (21, -6.68353605270385742188e+00) (22, -3.71188712120056152344e+00) (23, 7.27313089370727539062e+00) (24, -1.14690475463867187500e+01) (25, 1.06044692993164062500e+01) (26, 6.09261894226074218750e+00) (27, -9.97352790832519531250e+00) (28, -4.46735572814941406250e+00) (29, -1.05128459930419921875e+01) (30, -7.30667304992675781250e+00) (31, -1.14667148590087890625e+01) (32, -1.28586864471435546875e+01) (33, -6.61651229858398437500e+00) (34, -4.84323692321777343750e+00) (35, -3.35216636657714843750e+01) (36, -8.25330448150634765625e+00) (37, -7.07558288574218750000e+01) (38, 6.09312915802001953125e+00) (39, -1.52211475372314453125e+01) (40, -2.59721603393554687500e+01) (41, 6.25804233551025390625e+00) (42, -1.89877057075500488281e+00) (43, 7.56833839416503906250e+00) (44, 3.74176812171936035156e+00) (45, 1.88315143585205078125e+01) (46, -6.53257012367248535156e-01) (47, 3.13637518882751464844e+00) (48, 1.20500450134277343750e+01) (49, 1.98537292480468750000e+01) (50, 2.52048435211181640625e+01) (51, 2.12655487060546875000e+01) (52, -2.63560414314270019531e+00) (53, 3.02677440643310546875e+00) (54, 1.35997686386108398438e+01) (55, 9.61252212524414062500e+00) (56, -4.73651933670043945312e+00) (57, -8.51589775085449218750e+00) (58, -2.53953437805175781250e+01) (59, -4.45465183258056640625e+00) (60, 9.75905799865722656250e+00) (0, -1.96229305267333984375e+01) (1, -1.36442101001739501953e+00) (2, 1.68288269042968750000e+01) (3, -4.71290445327758789062e+00) (4, 1.67258892059326171875e+01) (5, 3.81911635398864746094e+00) (6, -9.99661731719970703125e+00) (7, 3.19517059326171875000e+01) (8, -6.42691373825073242188e+00) (9, 2.70497112274169921875e+01) (10, 2.18425512313842773438e+00) (11, -3.60201644897460937500e+01) (12, -3.94483661651611328125e+00) (13, -9.74685001373291015625e+00) (14, -1.75922336578369140625e+01) (15, -1.92878270149230957031e+00) (16, -1.21379547119140625000e+01) (17, -6.85218143463134765625e+00) (18, -3.42048759460449218750e+01) (19, -3.21618194580078125000e+01) (20, -2.05987625122070312500e+01) (21, -1.38851709365844726562e+01) (22, -9.60083770751953125000e+00) (23, -9.56264591217041015625e+00) (24, -1.14360151290893554688e+01) (25, -2.18467178344726562500e+01) (26, -3.65734138488769531250e+01) (27, -5.03400659561157226562e+00) (28, 2.33646945953369140625e+01) (29, -1.53717970848083496094e+00) (30, -6.74697303771972656250e+00) (31, 9.75619614124298095703e-01) (32, 1.89259967803955078125e+01) (33, 5.02330720424652099609e-01) (34, 1.40740947723388671875e+01) (35, 8.01653003692626953125e+00) (36, 2.17799758911132812500e+00) (37, 6.96240234375000000000e+00) (38, -2.41558322906494140625e+01) (39, 2.38946056365966796875e+01) (40, 2.19507503509521484375e+01) (41, -1.66274261474609375000e+01) (42, 1.43367376327514648438e+01) (43, -1.44353170394897460938e+01) (44, -2.75638890266418457031e+00) (45, 7.53875970840454101562e-01) (46, 9.15750885009765625000e+00) (47, 4.35820865631103515625e+00) (48, -3.08497447967529296875e+01) (49, 2.54752540588378906250e+01) (50, -3.20631294250488281250e+01) (51, -2.70574903488159179688e+00) (52, -1.63737392425537109375e+01) (53, -3.34182286262512207031e+00) (54, -3.12961788177490234375e+01) (55, -4.01144325733184814453e-01) (56, 6.96478307247161865234e-01) (57, -2.22324109077453613281e+00) (58, 1.77732200622558593750e+01) (59, 4.70608425140380859375e+00) (60, 1.03018045425415039062e+01) (0, -2.97462787628173828125e+01) (1, 8.72932529449462890625e+00) (2, 2.54100284576416015625e+01) (3, 8.26327323913574218750e+00) (4, 8.08056640625000000000e+00) (5, 9.14103910326957702637e-02) (6, -8.06049251556396484375e+00) (7, 4.43758049011230468750e+01) (8, -1.50140342712402343750e+01) (9, 3.05933303833007812500e+01) (10, 2.68881857395172119141e-01) (11, -2.37262153625488281250e+01) (12, -1.27522718906402587891e+00) (13, -1.08930187225341796875e+01) (14, 2.12162947654724121094e+00) (15, -2.30515861511230468750e+01) (16, -7.32173395156860351562e+00) (17, 4.40175867080688476562e+00) (18, -2.25418472290039062500e+01) (19, -5.47835469245910644531e-01) (20, -5.71466159820556640625e+00) (21, 3.13634824752807617188e+00) (22, -6.13428306579589843750e+00) (23, 7.49009323120117187500e+00) (24, -3.72684764862060546875e+00) (25, -5.71889817714691162109e-01) (26, 2.22704052925109863281e+00) (27, 2.68906569480895996094e+00) (28, 1.17194347381591796875e+01) (29, 1.68984451293945312500e+01) (30, -7.52048635482788085938e+00) (31, -1.55092363357543945312e+01) (32, -2.83993606567382812500e+01) (33, -2.81280879974365234375e+01) (34, 2.17134451866149902344e+00) (35, -1.10925235748291015625e+01) (36, -1.15028870105743408203e+00) (37, -5.36039924621582031250e+01) (38, 1.75778980255126953125e+01) (39, -2.29363002777099609375e+01) (40, -4.24514465332031250000e+01) (41, -5.34674024581909179688e+00) (42, 8.09745979309082031250e+00) (43, 1.37773418426513671875e+01) (44, -4.15247440338134765625e+00) (45, 2.93758392333984375000e+01) (46, -1.35970258712768554688e+00) (47, 4.85625505447387695312e+00) (48, 2.36479530334472656250e+01) (49, 8.19557309150695800781e-01) (50, 9.31428527832031250000e+00) (51, -1.15424931049346923828e+00) (52, 2.68845767974853515625e+01) (53, -1.69555282592773437500e+01) (54, 1.80854549407958984375e+01) (55, 1.74471628665924072266e+00) (56, 3.93592023849487304688e+00) (57, -4.95394229888916015625e+00) (58, -1.99007968902587890625e+01) (59, 3.73649954795837402344e+00) (60, -1.57466058731079101562e+01) (0, -3.37378845214843750000e+01) (1, 2.94763927459716796875e+01) (2, 3.15313415527343750000e+01) (3, 3.66426658630371093750e+01) (4, 3.30628051757812500000e+01) (5, 6.35654878616333007812e+00) (6, -1.39868621826171875000e+01) (7, 2.46791210174560546875e+01) (8, 1.13518152236938476562e+01) (9, 8.66871795654296875000e+01) (10, -5.82498741149902343750e+00) (11, 3.31466217041015625000e+01) (12, 4.22751846313476562500e+01) (13, -2.32114562988281250000e+01) (14, -2.05016326904296875000e+02) (15, 1.17346441745758056641e+00) (16, -1.55762166976928710938e+01) (17, 6.35840654373168945312e+00) (18, 5.39949378967285156250e+01) (19, 2.56149749755859375000e+01) (20, -1.63215827941894531250e+01) (21, -2.68909282684326171875e+01) (22, 9.70467090606689453125e+00) (23, -1.05385618209838867188e+01) (24, -2.78567867279052734375e+01) (25, 3.54347991943359375000e+00) (26, -2.15942978858947753906e+00) (27, -5.57184371948242187500e+01) (28, -4.23657341003417968750e+01) (29, -1.52141056060791015625e+01) (30, -1.69689788818359375000e+01) (31, -2.08518810272216796875e+01) (32, -1.58972263336181640625e+01) (33, -7.03361511230468750000e+00) (34, -2.77569389343261718750e+01) (35, 7.90520324707031250000e+01) (36, -2.74535465240478515625e+01) (37, -4.25367240905761718750e+01) (38, -1.35868635177612304688e+01) (39, -4.20181655883789062500e+01) (40, -4.63353614807128906250e+01) (41, 5.63569068908691406250e+01) (42, -4.04904441833496093750e+01) (43, -1.58161096572875976562e+01) (44, -2.79265499114990234375e+01) (45, 1.46382055282592773438e+01) (46, -2.07781467437744140625e+01) (47, -1.26184453964233398438e+01) (48, 4.33777838945388793945e-01) (49, -4.20781850814819335938e+00) (50, -3.67567749023437500000e+01) (51, 1.94093298912048339844e+00) (52, -5.48123121261596679688e+00) (53, -4.36239004135131835938e+00) (54, -1.11147584915161132812e+01) (55, 7.68379509449005126953e-01) (56, 1.13671150207519531250e+01) (57, -7.01376571655273437500e+01) (58, 7.32649459838867187500e+01) (59, -1.53330678939819335938e+01) (60, -7.57205810546875000000e+01) (0, 4.43571519851684570312e+00) (1, 1.33210973739624023438e+01) (2, -8.37971115112304687500e+00) (3, -1.37182111740112304688e+01) (4, -8.51494407653808593750e+00) (5, -1.21568164825439453125e+01) (6, 2.21617436408996582031e+00) (7, -2.25299377441406250000e+01) (8, 2.36918010711669921875e+01) (9, 1.41472253799438476562e+01) (10, 8.49262475967407226562e-01) (11, -3.10631370544433593750e+01) (12, 1.22462768554687500000e+01) (13, 9.50982761383056640625e+00) (14, 1.42087388038635253906e+00) (15, -5.19753026962280273438e+00) (16, -1.39517183303833007812e+01) (17, -1.10543527603149414062e+01) (18, -1.06200542449951171875e+01) (19, -6.84888744354248046875e+00) (20, 1.85410678386688232422e+00) (21, 1.81213188171386718750e+01) (22, -5.82830085754394531250e+01) (23, -2.62344574928283691406e+00) (24, -5.01730461120605468750e+01) (25, -1.89304580688476562500e+01) (26, 1.56869297027587890625e+01) (27, -6.01714754104614257812e+00) (28, 2.49527587890625000000e+01) (29, 1.37768383026123046875e+01) (30, -1.28628101348876953125e+01) (31, -3.26940078735351562500e+01) (32, -2.55010819435119628906e+00) (33, 5.27109241485595703125e+00) (34, 3.86779136657714843750e+01) (35, 1.06482493877410888672e+00) (36, -8.26590633392333984375e+00) (37, 3.54108095169067382812e+00) (38, 1.18007917404174804688e+01) (39, 4.36499748229980468750e+01) (40, 2.44900741577148437500e+01) (41, -2.68890991210937500000e+01) (42, -1.56817302703857421875e+01) (43, -2.23464469909667968750e+01) (44, -3.51712951660156250000e+01) (45, 3.63557004928588867188e+00) (46, 1.62531681060791015625e+01) (47, 2.32296199798583984375e+01) (48, 1.18145370483398437500e+01) (49, -1.05025606155395507812e+01) (50, 1.28929119110107421875e+01) (51, -8.00664997100830078125e+00) (52, 3.08458576202392578125e+01) (53, -1.20786058902740478516e+00) (54, 3.05265083312988281250e+01) (55, -3.51289391517639160156e-01) (56, -1.56211233139038085938e+01) (57, 7.53683567047119140625e+00) (58, -5.30128812789916992188e+00) (59, -1.74438152313232421875e+01) (60, -2.83605804443359375000e+01) (61, -1.10266160964965820312e+01) (62, -2.52076220512390136719e+00) (63, 5.62148952484130859375e+00) (64, 4.90539932250976562500e+00) (65, 1.04138851165771484375e+01) (66, -9.62387204170227050781e-01) (67, -3.76804208755493164062e+00) (61, -4.60610961914062500000e+00) (62, -3.04235506057739257812e+00) (63, -7.51340913772583007812e+00) (64, -4.75488758087158203125e+00) (65, -9.78771972656250000000e+00) (66, -8.58772754669189453125e+00) (67, 5.35841608047485351562e+00) (61, 5.58739328384399414062e+00) (62, -9.54779720306396484375e+00) (63, 4.42447471618652343750e+00) (64, -8.69694614410400390625e+00) (65, -9.48469638824462890625e+00) (66, 6.89787578582763671875e+00) (67, -5.38580226898193359375e+00) (61, 4.45093250274658203125e+00) (62, 7.15443134307861328125e+00) (63, -9.04505443572998046875e+00) (64, 7.52909708023071289062e+00) (65, -8.18596076965332031250e+00) (66, 3.39316558837890625000e+00) (67, -9.71945953369140625000e+00) 
