FANN_FLO_2.1
num_layers=3
learning_rate=0.800000
connection_rate=1.000000
network_type=0
learning_momentum=0.000000
training_algorithm=0
train_error_function=1
train_stop_function=0
cascade_output_change_fraction=0.010000
quickprop_decay=-0.000100
quickprop_mu=1.750000
rprop_increase_factor=1.200000
rprop_decrease_factor=0.500000
rprop_delta_min=0.000000
rprop_delta_max=50.000000
rprop_delta_zero=0.100000
cascade_output_stagnation_epochs=12
cascade_candidate_change_fraction=0.010000
cascade_candidate_stagnation_epochs=12
cascade_max_out_epochs=150
cascade_min_out_epochs=50
cascade_max_cand_epochs=150
cascade_min_cand_epochs=50
cascade_num_candidate_groups=2
bit_fail_limit=3.49999994039535522461e-01
cascade_candidate_limit=1.00000000000000000000e+03
cascade_weight_multiplier=4.00000005960464477539e-01
cascade_activation_functions_count=10
cascade_activation_functions=3 5 7 8 10 11 14 15 16 17 
cascade_activation_steepnesses_count=4
cascade_activation_steepnesses=2.50000000000000000000e-01 5.00000000000000000000e-01 7.50000000000000000000e-01 1.00000000000000000000e+00 
layer_sizes=61 7 5 
scale_included=0
neurons (num_inputs, activation_function, activation_steepness)=(0, 0, 0.00000000000000000000e+00) (0, 0, 0.00000000000000000000e+00) (0, 0, 0.00000000000000000000e+00) (0, 0, 0.00000000000000000000e+00) (0, 0, 0.00000000000000000000e+00) (0, 0, 0.00000000000000000000e+00) (0, 0, 0.00000000000000000000e+00) (0, 0, 0.00000000000000000000e+00) (0, 0, 0.00000000000000000000e+00) (0, 0, 0.00000000000000000000e+00) (0, 0, 0.00000000000000000000e+00) (0, 0, 0.00000000000000000000e+00) (0, 0, 0.00000000000000000000e+00) (0, 0, 0.00000000000000000000e+00) (0, 0, 0.00000000000000000000e+00) (0, 0, 0.00000000000000000000e+00) (0, 0, 0.00000000000000000000e+00) (0, 0, 0.00000000000000000000e+00) (0, 0, 0.00000000000000000000e+00) (0, 0, 0.00000000000000000000e+00) (0, 0, 0.00000000000000000000e+00) (0, 0, 0.00000000000000000000e+00) (0, 0, 0.00000000000000000000e+00) (0, 0, 0.00000000000000000000e+00) (0, 0, 0.00000000000000000000e+00) (0, 0, 0.00000000000000000000e+00) (0, 0, 0.00000000000000000000e+00) (0, 0, 0.00000000000000000000e+00) (0, 0, 0.00000000000000000000e+00) (0, 0, 0.00000000000000000000e+00) (0, 0, 0.00000000000000000000e+00) (0, 0, 0.00000000000000000000e+00) (0, 0, 0.00000000000000000000e+00) (0, 0, 0.00000000000000000000e+00) (0, 0, 0.00000000000000000000e+00) (0, 0, 0.00000000000000000000e+00) (0, 0, 0.00000000000000000000e+00) (0, 0, 0.00000000000000000000e+00) (0, 0, 0.00000000000000000000e+00) (0, 0, 0.00000000000000000000e+00) (0, 0, 0.00000000000000000000e+00) (0, 0, 0.00000000000000000000e+00) (0, 0, 0.00000000000000000000e+00) (0, 0, 0.00000000000000000000e+00) (0, 0, 0.00000000000000000000e+00) (0, 0, 0.00000000000000000000e+00) (0, 0, 0.00000000000000000000e+00) (0, 0, 0.00000000000000000000e+00) (0, 0, 0.00000000000000000000e+00) (0, 0, 0.00000000000000000000e+00) (0, 0, 0.00000000000000000000e+00) (0, 0, 0.00000000000000000000e+00) (0, 0, 0.00000000000000000000e+00) (0, 0, 0.00000000000000000000e+00) (0, 0, 0.00000000000000000000e+00) (0, 0, 0.00000000000000000000e+00) (0, 0, 0.00000000000000000000e+00) (0, 0, 0.00000000000000000000e+00) (0, 0, 0.00000000000000000000e+00) (0, 0, 0.00000000000000000000e+00) (0, 0, 0.00000000000000000000e+00) (61, 3, 5.00000000000000000000e-01) (61, 3, 5.00000000000000000000e-01) (61, 3, 5.00000000000000000000e-01) (61, 3, 5.00000000000000000000e-01) (61, 3, 5.00000000000000000000e-01) (61, 3, 5.00000000000000000000e-01) (0, 3, 0.00000000000000000000e+00) (7, 3, 5.00000000000000000000e-01) (7, 3, 5.00000000000000000000e-01) (7, 3, 5.00000000000000000000e-01) (7, 3, 5.00000000000000000000e-01) (0, 3, 0.00000000000000000000e+00) 
connections (connected_to_neuron, weight)=(0, -1.24313116073608398438e+01) (1, 4.54105300903320312500e+01) (2, 3.77392311096191406250e+01) (3, 9.00463390350341796875e+00) (4, -3.78582878112792968750e+01) (5, -4.58180332183837890625e+00) (6, -2.04518299102783203125e+01) (7, 4.26648788452148437500e+01) (8, -2.13613300323486328125e+01) (9, 1.04879064559936523438e+01) (10, 3.38252449035644531250e+00) (11, -5.61444587707519531250e+01) (12, -8.48017597198486328125e+00) (13, -1.02638101577758789062e+01) (14, 1.73723735809326171875e+01) (15, -7.46623468399047851562e+00) (16, 4.99572038650512695312e+00) (17, -3.31893882751464843750e+01) (18, -3.08852596282958984375e+01) (19, 1.57628211975097656250e+01) (20, 1.47111082077026367188e+01) (21, 1.02997961044311523438e+01) (22, -9.84340190887451171875e+00) (23, 1.93399930000305175781e+00) (24, 5.92162036895751953125e+00) (25, 1.94245929718017578125e+01) (26, -2.85987329483032226562e+00) (27, -3.19489345550537109375e+01) (28, 2.30525550842285156250e+01) (29, 1.63645958900451660156e+00) (30, 2.41513562202453613281e+00) (31, -2.31231021881103515625e+01) (32, 4.12518844604492187500e+01) (33, -4.00127449035644531250e+01) (34, -1.86804389953613281250e+01) (35, 2.99763107299804687500e+01) (36, 2.14195327758789062500e+01) (37, -5.74261894226074218750e+01) (38, -1.64673995971679687500e+00) (39, 1.27749023437500000000e+01) (40, 1.32401351928710937500e+01) (41, 5.18575515747070312500e+01) (42, 2.72728271484375000000e+01) (43, 1.14259090423583984375e+01) (44, 5.17702636718750000000e+01) (45, 1.08668518066406250000e+01) (46, -4.22639369964599609375e+00) (47, -2.41833090782165527344e+00) (48, 6.12247133255004882812e+00) (49, -2.60423622131347656250e+01) (50, -1.24469776153564453125e+01) (51, 5.14411735534667968750e+00) (52, 1.75575180053710937500e+01) (53, 4.46296262741088867188e+00) (54, -7.20207118988037109375e+00) (55, -5.98142671585083007812e+00) (56, -2.10869617462158203125e+01) (57, -3.08298373222351074219e+00) (58, 7.44276189804077148438e+00) (59, 3.49276123046875000000e+01) (60, -3.43354344367980957031e+00) (0, 2.75914630889892578125e+01) (1, -3.17181186676025390625e+01) (2, -1.61496996879577636719e+00) (3, 8.90256595611572265625e+00) (4, -3.48500900268554687500e+01) (5, -2.51857852935791015625e+01) (6, -1.66932315826416015625e+01) (7, 3.60412192344665527344e+00) (8, -1.03844165802001953125e+01) (9, 3.64498062133789062500e+01) (10, -4.66534805297851562500e+01) (11, -2.61020126342773437500e+01) (12, -7.29362678527832031250e+00) (13, -1.58043212890625000000e+01) (14, -7.67583703994750976562e+00) (15, -1.53534364700317382812e+01) (16, 2.69236412048339843750e+01) (17, -3.74326858520507812500e+01) (18, -8.05777931213378906250e+00) (19, 1.75187549591064453125e+01) (20, 3.61309852600097656250e+01) (21, -1.78931677341461181641e+00) (22, 1.04771642684936523438e+01) (23, 3.62803573608398437500e+01) (24, -7.36420536041259765625e+00) (25, 1.27869625091552734375e+01) (26, -5.38692617416381835938e+00) (27, 6.12272415161132812500e+01) (28, 1.74508113861083984375e+01) (29, -1.58329448699951171875e+01) (30, 9.74429321289062500000e+00) (31, -1.61692104339599609375e+01) (32, -7.97726058959960937500e+00) (33, 2.95876102447509765625e+01) (34, 4.06709003448486328125e+00) (35, -2.17745342254638671875e+01) (36, -4.41654968261718750000e+01) (37, 2.00889453887939453125e+01) (38, -6.20422315597534179688e+00) (39, 2.98379440307617187500e+01) (40, 5.41132450103759765625e+00) (41, -5.00486087799072265625e+00) (42, 1.13759994506835937500e+00) (43, -6.07070589065551757812e+00) (44, -1.38800263404846191406e-01) (45, -1.23409128189086914062e+01) (46, -2.13712196350097656250e+01) (47, -5.29739456176757812500e+01) (48, -1.89169044494628906250e+01) (49, 1.17889699935913085938e+01) (50, 6.13813400268554687500e-02) (51, 2.56171154975891113281e+00) (52, -5.01288185119628906250e+01) (53, 6.33216047286987304688e+00) (54, -1.13216314315795898438e+01) (55, -1.09575653076171875000e+01) (56, -6.43086338043212890625e+00) (57, -4.26556282043457031250e+01) (58, 2.77435531616210937500e+01) (59, -1.29016628265380859375e+01) (60, 2.32110996246337890625e+01) (0, 9.60554504394531250000e+00) (1, 4.18107643127441406250e+01) (2, 2.56676864624023437500e+01) (3, -5.30476522445678710938e+00) (4, 3.90985488891601562500e+01) (5, -1.62200355529785156250e+01) (6, 1.33649682998657226562e+01) (7, 4.07729835510253906250e+01) (8, -4.92412033081054687500e+01) (9, 1.84266719818115234375e+01) (10, 4.77089653015136718750e+01) (11, -3.92755279541015625000e+01) (12, 8.43978118896484375000e+00) (13, -2.74140262603759765625e+00) (14, -1.07080535888671875000e+01) (15, -2.78768959045410156250e+01) (16, -1.82400932312011718750e+01) (17, -3.06409988403320312500e+01) (18, -6.09344596862792968750e+01) (19, -1.74741697311401367188e+00) (20, 7.51693820953369140625e+00) (21, -1.71072387695312500000e+01) (22, -3.02465991973876953125e+01) (23, 6.46582412719726562500e+01) (24, -3.35194702148437500000e+01) (25, 1.05945911407470703125e+01) (26, 2.47547950744628906250e+01) (27, 2.34932422637939453125e+00) (28, 3.83048286437988281250e+01) (29, -2.80416431427001953125e+01) (30, 1.57947216033935546875e+01) (31, 7.70756912231445312500e+00) (32, -6.47611618041992187500e-02) (33, -2.76126241683959960938e+00) (34, -1.75421180725097656250e+01) (35, -2.65440797805786132812e+00) (36, -1.48730516433715820312e+01) (37, 3.58911590576171875000e+01) (38, -3.28994712829589843750e+01) (39, 2.08279285430908203125e+01) (40, -7.28545713424682617188e+00) (41, 1.13903322219848632812e+01) (42, 9.02716350555419921875e+00) (43, -2.34997177124023437500e+01) (44, 2.33565101623535156250e+01) (45, 3.15717868804931640625e+01) (46, -1.15700063705444335938e+01) (47, 2.11621475219726562500e+01) (48, 1.19878826141357421875e+01) (49, 1.32298326492309570312e+01) (50, -2.54552960395812988281e+00) (51, 8.36736869812011718750e+00) (52, 4.81472206115722656250e+00) (53, 2.76298847198486328125e+01) (54, 7.15103101730346679688e+00) (55, 1.29719581604003906250e+01) (56, -2.39050149917602539062e+00) (57, -3.32962846755981445312e+00) (58, -1.03344860076904296875e+01) (59, 1.22631340026855468750e+01) (60, -2.49215364456176757812e+00) (0, 6.06719493865966796875e-01) (1, -6.06813764572143554688e+00) (2, -1.96837902069091796875e+01) (3, -4.70667934417724609375e+00) (4, -2.78594722747802734375e+01) (5, 9.00383663177490234375e+00) (6, 4.38308296203613281250e+01) (7, 2.19287910461425781250e+01) (8, 2.73951950073242187500e+01) (9, 1.47856788635253906250e+01) (10, -5.94516515731811523438e+00) (11, -1.35621223449707031250e+01) (12, -3.09745264053344726562e+00) (13, -2.89885559082031250000e+01) (14, -2.84308185577392578125e+01) (15, -2.41345329284667968750e+01) (16, 3.01301441192626953125e+01) (17, -7.56285381317138671875e+00) (18, 4.12673912048339843750e+01) (19, 5.29764862060546875000e+01) (20, -5.49952745437622070312e-01) (21, -4.10921516418457031250e+01) (22, 3.70170669555664062500e+01) (23, 2.07253437042236328125e+01) (24, 1.19128980636596679688e+01) (25, 1.09456501007080078125e+01) (26, 1.85726814270019531250e+01) (27, 1.32041299343109130859e+00) (28, -6.72494583129882812500e+01) (29, -3.48248100280761718750e+01) (30, 2.46757640838623046875e+01) (31, 4.69967384338378906250e+01) (32, 2.33674755096435546875e+01) (33, -1.37828598022460937500e+01) (34, 3.95567607879638671875e+00) (35, 6.06222200393676757812e+00) (36, 5.22942638397216796875e+00) (37, 1.89597282409667968750e+01) (38, 2.19844627380371093750e+01) (39, -1.73730754852294921875e+01) (40, -5.55451393127441406250e+01) (41, -9.54914665222167968750e+00) (42, -1.20205125808715820312e+01) (43, 2.69384117126464843750e+01) (44, -1.15566043853759765625e+01) (45, 4.24963617324829101562e+00) (46, -4.99237785339355468750e+01) (47, -1.35706882476806640625e+01) (48, -5.17966690063476562500e+01) (49, 1.37362508773803710938e+01) (50, -1.98579835891723632812e+00) (51, 1.44480113983154296875e+01) (52, 6.08924293518066406250e+00) (53, 1.05051984786987304688e+01) (54, -8.88158340454101562500e+01) (55, 3.33693428039550781250e+01) (56, 4.78431205749511718750e+01) (57, -3.16176376342773437500e+01) (58, 1.89349689483642578125e+01) (59, -2.04328498840332031250e+01) (60, 3.44725265502929687500e+01) (0, 1.45121536254882812500e+01) (1, 5.82746624946594238281e-01) (2, 1.98131122589111328125e+01) (3, -3.12161369323730468750e+01) (4, -1.72546710968017578125e+01) (5, -2.92605152130126953125e+01) (6, -1.69598159790039062500e+01) (7, -1.69260578155517578125e+01) (8, 3.00305309295654296875e+01) (9, 2.10735759735107421875e+01) (10, 8.69916057586669921875e+00) (11, 2.76230792999267578125e+01) (12, -1.09275722503662109375e+01) (13, 3.29554290771484375000e+01) (14, 5.44409036636352539062e+00) (15, 2.43239116668701171875e+00) (16, 1.35459127426147460938e+01) (17, -4.48135452270507812500e+01) (18, 2.14267044067382812500e+01) (19, -1.94973716735839843750e+01) (20, -3.78930244445800781250e+01) (21, -1.57031850814819335938e+01) (22, 5.69222831726074218750e+01) (23, -6.02969589233398437500e+01) (24, 4.63385391235351562500e+00) (25, 2.43319439888000488281e+00) (26, -2.65549354553222656250e+01) (27, 6.12291622161865234375e+00) (28, -3.31093597412109375000e+01) (29, -6.10154953002929687500e+01) (30, 7.51508533954620361328e-01) (31, 1.13118534088134765625e+01) (32, -1.21387748718261718750e+01) (33, -7.19527721405029296875e+00) (34, -2.24860000610351562500e+01) (35, -1.34698486328125000000e+01) (36, -1.07493114471435546875e+01) (37, 1.86006050109863281250e+01) (38, -4.31925201416015625000e+00) (39, 2.87707481384277343750e+01) (40, -1.06868104934692382812e+01) (41, -5.99518966674804687500e+00) (42, 2.51740837097167968750e+01) (43, -2.88320865631103515625e+01) (44, -2.46758341789245605469e+00) (45, 9.78254222869873046875e+00) (46, 1.22102298736572265625e+01) (47, 3.99397926330566406250e+01) (48, 3.17393398284912109375e+01) (49, 5.33354568481445312500e+00) (50, -1.13373537063598632812e+01) (51, 1.13075494766235351562e-01) (52, -3.03312778472900390625e+01) (53, 3.50421600341796875000e+01) (54, -3.45924453735351562500e+01) (55, -3.60950012207031250000e+01) (56, 2.31241626739501953125e+01) (57, -2.12547092437744140625e+01) (58, 1.18017606735229492188e+01) (59, -1.73092269897460937500e+00) (60, -1.40535058975219726562e+01) (0, -4.79676933288574218750e+01) (1, -3.20727233886718750000e+01) (2, 2.97195792198181152344e+00) (3, -6.44347000122070312500e+00) (4, 3.13526582717895507812e+00) (5, -1.48558044433593750000e+01) (6, 1.72435474395751953125e+00) (7, -5.73535194396972656250e+01) (8, 4.66121978759765625000e+01) (9, -2.01300163269042968750e+01) (10, 9.82105731964111328125e+00) (11, 2.41201057434082031250e+01) (12, -1.04987058639526367188e+01) (13, 4.58339357376098632812e+00) (14, -6.72287702560424804688e+00) (15, 4.22254142761230468750e+01) (16, -3.12270984649658203125e+01) (17, -3.87839202880859375000e+01) (18, -3.22792739868164062500e+01) (19, 1.70984077453613281250e+01) (20, -1.06953096389770507812e+01) (21, 5.22518777847290039062e+00) (22, 2.50734233856201171875e+00) (23, 1.81825428009033203125e+01) (24, -3.69183845520019531250e+01) (25, -9.49351692199707031250e+00) (26, -3.58983039855957031250e+01) (27, -2.37840056419372558594e+00) (28, -1.71122817993164062500e+01) (29, 6.00927686691284179688e+00) (30, -1.11622991561889648438e+01) (31, -2.45600376129150390625e+01) (32, -2.13973121643066406250e+01) (33, -3.00222034454345703125e+01) (34, -2.75558547973632812500e+01) (35, -3.53456544876098632812e+00) (36, 3.59365344047546386719e-02) (37, 9.17954921722412109375e+00) (38, 1.66752033233642578125e+01) (39, -5.08790111541748046875e+00) (40, -4.74761819839477539062e+00) (41, 1.41541452407836914062e+01) (42, 1.12816286087036132812e+01) (43, 2.31255359649658203125e+01) (44, -3.44391202926635742188e+00) (45, 4.04758377075195312500e+01) (46, 9.40348052978515625000e+00) (47, -3.60405540466308593750e+01) (48, 2.16668281555175781250e+01) (49, 3.15530986785888671875e+01) (50, 6.33970856666564941406e-01) (51, -2.68499355316162109375e+01) (52, 3.98282241821289062500e+01) (53, -4.91924247741699218750e+01) (54, 2.81937179565429687500e+01) (55, 3.96517276763916015625e-01) (56, -4.91407470703125000000e+01) (57, -6.35144948959350585938e-01) (58, -1.68553848266601562500e+01) (59, 1.61031460762023925781e+00) (60, 1.45144939422607421875e-01) (61, 5.63501930236816406250e+00) (62, 2.35091781616210937500e+01) (63, 1.00469532012939453125e+01) (64, 4.05688905715942382812e+00) (65, -2.27683753967285156250e+01) (66, -5.80488281250000000000e+01) (67, -3.57668762207031250000e+01) (61, 1.03357696533203125000e+01) (62, 2.51923866271972656250e+01) (63, -4.60221519470214843750e+01) (64, 1.02316856384277343750e+01) (65, 3.13021106719970703125e+01) (66, -2.14415245056152343750e+01) (67, -1.99406261444091796875e+01) (61, -4.25292892456054687500e+01) (62, 2.22748031616210937500e+01) (63, 1.42253999710083007812e+01) (64, 2.23817706108093261719e-01) (65, -2.82032890319824218750e+01) (66, -1.49951887130737304688e+01) (67, -1.95148830413818359375e+01) (61, -1.83424816131591796875e+01) (62, 1.02976484298706054688e+01) (63, -1.76485118865966796875e+01) (64, 9.96750831604003906250e+00) (65, -2.30706176757812500000e+01) (66, 2.79130935668945312500e+01) (67, -2.79228878021240234375e+01) 
