FANN_FLO_2.1
num_layers=3
learning_rate=0.800000
connection_rate=1.000000
network_type=0
learning_momentum=0.000000
training_algorithm=0
train_error_function=1
train_stop_function=0
cascade_output_change_fraction=0.010000
quickprop_decay=-0.000100
quickprop_mu=1.750000
rprop_increase_factor=1.200000
rprop_decrease_factor=0.500000
rprop_delta_min=0.000000
rprop_delta_max=50.000000
rprop_delta_zero=0.100000
cascade_output_stagnation_epochs=12
cascade_candidate_change_fraction=0.010000
cascade_candidate_stagnation_epochs=12
cascade_max_out_epochs=150
cascade_min_out_epochs=50
cascade_max_cand_epochs=150
cascade_min_cand_epochs=50
cascade_num_candidate_groups=2
bit_fail_limit=3.49999994039535522461e-01
cascade_candidate_limit=1.00000000000000000000e+03
cascade_weight_multiplier=4.00000005960464477539e-01
cascade_activation_functions_count=10
cascade_activation_functions=3 5 7 8 10 11 14 15 16 17 
cascade_activation_steepnesses_count=4
cascade_activation_steepnesses=2.50000000000000000000e-01 5.00000000000000000000e-01 7.50000000000000000000e-01 1.00000000000000000000e+00 
layer_sizes=61 7 5 
scale_included=0
neurons (num_inputs, activation_function, activation_steepness)=(0, 0, 0.00000000000000000000e+00) (0, 0, 0.00000000000000000000e+00) (0, 0, 0.00000000000000000000e+00) (0, 0, 0.00000000000000000000e+00) (0, 0, 0.00000000000000000000e+00) (0, 0, 0.00000000000000000000e+00) (0, 0, 0.00000000000000000000e+00) (0, 0, 0.00000000000000000000e+00) (0, 0, 0.00000000000000000000e+00) (0, 0, 0.00000000000000000000e+00) (0, 0, 0.00000000000000000000e+00) (0, 0, 0.00000000000000000000e+00) (0, 0, 0.00000000000000000000e+00) (0, 0, 0.00000000000000000000e+00) (0, 0, 0.00000000000000000000e+00) (0, 0, 0.00000000000000000000e+00) (0, 0, 0.00000000000000000000e+00) (0, 0, 0.00000000000000000000e+00) (0, 0, 0.00000000000000000000e+00) (0, 0, 0.00000000000000000000e+00) (0, 0, 0.00000000000000000000e+00) (0, 0, 0.00000000000000000000e+00) (0, 0, 0.00000000000000000000e+00) (0, 0, 0.00000000000000000000e+00) (0, 0, 0.00000000000000000000e+00) (0, 0, 0.00000000000000000000e+00) (0, 0, 0.00000000000000000000e+00) (0, 0, 0.00000000000000000000e+00) (0, 0, 0.00000000000000000000e+00) (0, 0, 0.00000000000000000000e+00) (0, 0, 0.00000000000000000000e+00) (0, 0, 0.00000000000000000000e+00) (0, 0, 0.00000000000000000000e+00) (0, 0, 0.00000000000000000000e+00) (0, 0, 0.00000000000000000000e+00) (0, 0, 0.00000000000000000000e+00) (0, 0, 0.00000000000000000000e+00) (0, 0, 0.00000000000000000000e+00) (0, 0, 0.00000000000000000000e+00) (0, 0, 0.00000000000000000000e+00) (0, 0, 0.00000000000000000000e+00) (0, 0, 0.00000000000000000000e+00) (0, 0, 0.00000000000000000000e+00) (0, 0, 0.00000000000000000000e+00) (0, 0, 0.00000000000000000000e+00) (0, 0, 0.00000000000000000000e+00) (0, 0, 0.00000000000000000000e+00) (0, 0, 0.00000000000000000000e+00) (0, 0, 0.00000000000000000000e+00) (0, 0, 0.00000000000000000000e+00) (0, 0, 0.00000000000000000000e+00) (0, 0, 0.00000000000000000000e+00) (0, 0, 0.00000000000000000000e+00) (0, 0, 0.00000000000000000000e+00) (0, 0, 0.00000000000000000000e+00) (0, 0, 0.00000000000000000000e+00) (0, 0, 0.00000000000000000000e+00) (0, 0, 0.00000000000000000000e+00) (0, 0, 0.00000000000000000000e+00) (0, 0, 0.00000000000000000000e+00) (0, 0, 0.00000000000000000000e+00) (61, 3, 5.00000000000000000000e-01) (61, 3, 5.00000000000000000000e-01) (61, 3, 5.00000000000000000000e-01) (61, 3, 5.00000000000000000000e-01) (61, 3, 5.00000000000000000000e-01) (61, 3, 5.00000000000000000000e-01) (0, 3, 0.00000000000000000000e+00) (7, 3, 5.00000000000000000000e-01) (7, 3, 5.00000000000000000000e-01) (7, 3, 5.00000000000000000000e-01) (7, 3, 5.00000000000000000000e-01) (0, 3, 0.00000000000000000000e+00) 
connections (connected_to_neuron, weight)=(0, -8.13647651672363281250e+00) (1, 3.16737499237060546875e+01) (2, 1.40348148345947265625e+01) (3, 3.14745788574218750000e+01) (4, -1.76875457763671875000e+01) (5, -5.59628343582153320312e+00) (6, -2.56404924392700195312e+00) (7, 4.72896881103515625000e+01) (8, 2.71809148788452148438e+00) (9, 1.96199798583984375000e+01) (10, 1.25951766967773437500e+00) (11, -3.83981704711914062500e+01) (12, -1.40065650939941406250e+01) (13, 7.79287815093994140625e+00) (14, 1.76952800750732421875e+01) (15, 1.08335981369018554688e+01) (16, -1.14123144149780273438e+01) (17, -3.34190864562988281250e+01) (18, -1.78493232727050781250e+01) (19, 2.12787799835205078125e+01) (20, 1.46065969467163085938e+01) (21, -8.45280075073242187500e+00) (22, 1.28920631408691406250e+01) (23, 1.64504508972167968750e+01) (24, -2.34119415283203125000e+00) (25, 2.65060558319091796875e+01) (26, -1.62737293243408203125e+01) (27, -3.28563308715820312500e+01) (28, 1.14557828903198242188e+01) (29, -1.49280595779418945312e+01) (30, 1.02593147754669189453e+00) (31, -9.10368251800537109375e+00) (32, 1.30284967422485351562e+01) (33, -1.71847991943359375000e+01) (34, 3.52475881576538085938e+00) (35, -5.44869565963745117188e+00) (36, 1.18757162094116210938e+01) (37, -2.82648830413818359375e+01) (38, -5.84179925918579101562e+00) (39, 2.31979942321777343750e+00) (40, -2.06188678741455078125e+00) (41, 4.35267639160156250000e+01) (42, 2.43566379547119140625e+01) (43, 3.38255929946899414062e+00) (44, 4.93406219482421875000e+01) (45, -3.37375926971435546875e+00) (46, -5.37600898742675781250e+00) (47, 8.70575809478759765625e+00) (48, -6.24802112579345703125e-01) (49, -1.11055307388305664062e+01) (50, -1.76087722778320312500e+01) (51, 2.33162059783935546875e+01) (52, 2.63679656982421875000e+01) (53, 1.49000692367553710938e+01) (54, -2.31177368164062500000e+01) (55, -1.73800334930419921875e+01) (56, 4.33082532882690429688e+00) (57, -2.63265838623046875000e+01) (58, -5.50303936004638671875e+00) (59, 6.85252761840820312500e+00) (60, -1.66900432109832763672e+00) (0, 1.39240179061889648438e+01) (1, -2.71883354187011718750e+01) (2, -4.69561958312988281250e+00) (3, -1.32068526744842529297e+00) (4, -2.27366256713867187500e+01) (5, -8.57595729827880859375e+00) (6, -5.23364257812500000000e+00) (7, 1.03814144134521484375e+01) (8, -3.01730251312255859375e+01) (9, -2.95161771774291992188e+00) (10, -1.16408023834228515625e+01) (11, -1.92440147399902343750e+01) (12, 1.15013065338134765625e+01) (13, 3.99211120605468750000e+00) (14, -7.11411905288696289062e+00) (15, 1.85882949829101562500e+00) (16, -1.58612613677978515625e+01) (17, -2.54980735778808593750e+01) (18, 7.76904869079589843750e+00) (19, 4.46621131896972656250e+00) (20, 1.52164134979248046875e+01) (21, -3.98816323280334472656e+00) (22, 8.34706592559814453125e+00) (23, 3.18783111572265625000e+01) (24, 1.65669727325439453125e+01) (25, 6.35656118392944335938e+00) (26, -1.33012952804565429688e+01) (27, 4.88479423522949218750e+01) (28, 1.32815628051757812500e+01) (29, 1.86227188110351562500e+01) (30, 3.12190413475036621094e+00) (31, -2.21485519409179687500e+01) (32, -2.08292365074157714844e-01) (33, 1.95052852630615234375e+01) (34, -1.09723386764526367188e+01) (35, 8.22324275970458984375e+00) (36, -1.67464542388916015625e+01) (37, 5.33475685119628906250e+00) (38, -2.19598388671875000000e+01) (39, 2.20841503143310546875e+01) (40, 2.78515129089355468750e+01) (41, 2.00000972747802734375e+01) (42, 4.68359088897705078125e+00) (43, -5.02438592910766601562e+00) (44, 1.28759169578552246094e+00) (45, -3.33491134643554687500e+00) (46, -1.08745698928833007812e+01) (47, -3.07882690429687500000e+01) (48, -2.62863407135009765625e+01) (49, -1.03924589157104492188e+01) (50, 1.90834093093872070312e+00) (51, 1.16432988643646240234e+00) (52, -2.50597114562988281250e+01) (53, 1.07717752456665039062e+01) (54, -1.58315730094909667969e+00) (55, -7.38856077194213867188e+00) (56, -1.13325953483581542969e-01) (57, -2.01749496459960937500e+01) (58, 3.02993621826171875000e+01) (59, 6.98756599426269531250e+00) (60, 2.61714625358581542969e+00) (0, -1.36435909271240234375e+01) (1, 1.20284738540649414062e+01) (2, -1.15092682838439941406e+00) (3, -1.59610831737518310547e+00) (4, 2.40569763183593750000e+01) (5, -5.92636299133300781250e+00) (6, 1.35693836212158203125e+01) (7, 3.18281345367431640625e+01) (8, -3.77631988525390625000e+01) (9, 2.11591243743896484375e+01) (10, 4.13378028869628906250e+01) (11, -2.98986434936523437500e+01) (12, -4.38862228393554687500e+00) (13, 1.48594689369201660156e+00) (14, -1.16448507308959960938e+01) (15, 1.31863641738891601562e+00) (16, -2.25717449188232421875e+01) (17, -9.67479705810546875000e+00) (18, -1.90656700134277343750e+01) (19, -1.97590045928955078125e+01) (20, -1.75360317230224609375e+01) (21, -1.34000215530395507812e+01) (22, -1.78671340942382812500e+01) (23, 4.55470962524414062500e+01) (24, -1.25215320587158203125e+01) (25, 2.33463745117187500000e+01) (26, 3.27292084693908691406e+00) (27, 7.77263164520263671875e+00) (28, 2.64388608932495117188e+00) (29, -1.49265012741088867188e+01) (30, -1.31351680755615234375e+01) (31, -4.71033477783203125000e+00) (32, 9.95926856994628906250e+00) (33, 1.58520946502685546875e+01) (34, -5.98713588714599609375e+00) (35, 4.63009023666381835938e+00) (36, -8.65333938598632812500e+00) (37, 7.23917245864868164062e+00) (38, -2.85323162078857421875e+01) (39, 1.86730003356933593750e+01) (40, 1.98468360900878906250e+01) (41, 2.23417205810546875000e+01) (42, -2.99516034126281738281e+00) (43, -1.19466609954833984375e+01) (44, -6.15501046180725097656e-01) (45, 2.99499835968017578125e+01) (46, 3.41268181800842285156e+00) (47, 9.93892765045166015625e+00) (48, -3.47785329818725585938e+00) (49, -1.54623584747314453125e+01) (50, 1.64423501491546630859e+00) (51, 6.30467224121093750000e+00) (52, 4.20921993255615234375e+00) (53, 2.20622501373291015625e+01) (54, -6.49314832687377929688e+00) (55, -1.60305175781250000000e+01) (56, -1.69201529026031494141e+00) (57, 2.10288906097412109375e+00) (58, -8.10240364074707031250e+00) (59, -6.44284486770629882812e+00) (60, -1.98165822029113769531e+00) (0, 1.96711502075195312500e+01) (1, -1.34156999588012695312e+01) (2, -1.67044296264648437500e+01) (3, -1.81601314544677734375e+01) (4, -1.95075416564941406250e+01) (5, 5.21706295013427734375e+00) (6, 2.58875923156738281250e+01) (7, 6.65374374389648437500e+00) (8, 1.74932899475097656250e+01) (9, 1.34770536422729492188e+01) (10, 4.86932373046875000000e+00) (11, 2.68558216094970703125e+01) (12, -1.14783658981323242188e+01) (13, -1.73732357025146484375e+01) (14, -1.70927753448486328125e+01) (15, -4.64462547302246093750e+01) (16, -2.80420303344726562500e-01) (17, -1.25152206420898437500e+00) (18, 2.94231815338134765625e+01) (19, 1.36311502456665039062e+01) (20, -1.63366012573242187500e+01) (21, -1.78402805328369140625e+01) (22, 2.61321907043457031250e+01) (23, 3.79576148986816406250e+01) (24, -2.63002109527587890625e+00) (25, 2.38622093200683593750e+01) (26, -1.13814353942871093750e+00) (27, 6.80480623245239257812e+00) (28, -2.41819629669189453125e+01) (29, -3.64967842102050781250e+01) (30, -8.21116256713867187500e+00) (31, 1.24583168029785156250e+01) (32, 1.81538429260253906250e+01) (33, 1.33505010604858398438e+00) (34, 4.47185611724853515625e+00) (35, -2.19171380996704101562e+00) (36, 1.26566143035888671875e+01) (37, -2.07183704376220703125e+01) (38, -1.59136033058166503906e+00) (39, 4.49662065505981445312e+00) (40, -1.83926277160644531250e+01) (41, -1.80108222961425781250e+01) (42, -3.28226423263549804688e+00) (43, 2.94311981201171875000e+01) (44, 1.66083316802978515625e+01) (45, 1.97450447082519531250e+01) (46, 8.16600227355957031250e+00) (47, -7.19742918014526367188e+00) (48, -3.62461090087890625000e+01) (49, 1.12818098068237304688e+01) (50, 2.53256916999816894531e+00) (51, 1.19232349395751953125e+01) (52, 7.27104425430297851562e+00) (53, -7.49131822586059570312e+00) (54, -4.36828727722167968750e+01) (55, 3.07120075225830078125e+01) (56, 9.93974685668945312500e+00) (57, -3.00539665222167968750e+01) (58, 9.21756553649902343750e+00) (59, -1.39200057983398437500e+01) (60, 1.52903738021850585938e+01) (0, 4.32452583312988281250e+00) (1, 2.50801753997802734375e+01) (2, 1.60633449554443359375e+01) (3, -2.33796043395996093750e+01) (4, -2.51989860534667968750e+01) (5, -9.82115077972412109375e+00) (6, -3.53310356140136718750e+01) (7, -2.91087379455566406250e+01) (8, 9.71686935424804687500e+00) (9, 9.14571857452392578125e+00) (10, 8.16313362121582031250e+00) (11, 2.07857837677001953125e+01) (12, -8.27595293521881103516e-02) (13, 1.66062526702880859375e+01) (14, 1.06774120330810546875e+01) (15, 1.23693847656250000000e+01) (16, -5.66327476501464843750e+00) (17, -4.78187026977539062500e+01) (18, -2.14589357376098632812e-01) (19, -2.72184009552001953125e+01) (20, -4.39590597152709960938e+00) (21, -9.59244441986083984375e+00) (22, 3.29043922424316406250e+01) (23, -4.29537048339843750000e+01) (24, 1.24577827453613281250e+01) (25, -3.92500114440917968750e+00) (26, -2.27549419403076171875e+01) (27, 1.01550722122192382812e+01) (28, -3.82608299255371093750e+01) (29, -2.90178012847900390625e+01) (30, -1.00541791915893554688e+01) (31, 2.56445522308349609375e+01) (32, -6.37150239944458007812e+00) (33, 3.63695025444030761719e+00) (34, -1.20857524871826171875e+01) (35, -4.75153636932373046875e+00) (36, -4.81937074661254882812e+00) (37, 1.69923610687255859375e+01) (38, -9.27754211425781250000e+00) (39, 4.24492416381835937500e+01) (40, 1.22067041397094726562e+01) (41, -2.41605491638183593750e+01) (42, 1.97365036010742187500e+01) (43, -4.80612564086914062500e+01) (44, 1.09234676361083984375e+01) (45, 2.71340808868408203125e+01) (46, 1.43834447860717773438e+00) (47, 3.48870801925659179688e+00) (48, -9.12771511077880859375e+00) (49, 5.92312955856323242188e+00) (50, 2.55311222076416015625e+01) (51, 1.33568410873413085938e+01) (52, -2.64553337097167968750e+01) (53, 9.44789600372314453125e+00) (54, -3.86296768188476562500e+01) (55, -1.29348526000976562500e+01) (56, 4.68366241455078125000e+01) (57, -1.59972190856933593750e+01) (58, 2.46700820922851562500e+01) (59, -1.19485187530517578125e+01) (60, -1.38064498901367187500e+01) (0, -4.31092529296875000000e+01) (1, -1.61694488525390625000e+01) (2, 1.97939395904541015625e+01) (3, -1.72542171478271484375e+01) (4, 1.20895814895629882812e+01) (5, -1.44749164581298828125e+01) (6, 9.00555419921875000000e+00) (7, -3.27252693176269531250e+01) (8, 3.22211074829101562500e+01) (9, -1.95983734130859375000e+01) (10, -1.44319748878479003906e+00) (11, 6.71037292480468750000e+00) (12, 3.03693222999572753906e+00) (13, -6.49931812286376953125e+00) (14, -2.58593702316284179688e+00) (15, 4.02257614135742187500e+01) (16, -3.22945098876953125000e+01) (17, -1.75307655334472656250e+01) (18, -5.43459892272949218750e+00) (19, 3.41921348571777343750e+01) (20, -1.78729648590087890625e+01) (21, 4.73478651046752929688e+00) (22, -1.32457275390625000000e+01) (23, 1.24873781204223632812e+01) (24, -1.64202346801757812500e+01) (25, -1.14702825546264648438e+01) (26, -1.61941070556640625000e+01) (27, -3.37259635925292968750e+01) (28, -1.53217105865478515625e+01) (29, -2.65663051605224609375e+00) (30, 1.36340513229370117188e+01) (31, -1.87591056823730468750e+01) (32, -2.57456474304199218750e+01) (33, -3.61373949050903320312e+00) (34, -5.76183462142944335938e+00) (35, 1.11913120746612548828e+00) (36, -2.44008693695068359375e+01) (37, -1.32656106948852539062e+01) (38, 2.69568634033203125000e+01) (39, 1.97082843780517578125e+01) (40, -2.05849342346191406250e+01) (41, -1.13059043884277343750e-01) (42, 9.17891597747802734375e+00) (43, 1.08985824584960937500e+01) (44, -1.37460088729858398438e+00) (45, 7.04511833190917968750e+00) (46, 3.23549103736877441406e+00) (47, -2.41565570831298828125e+01) (48, 1.65921173095703125000e+01) (49, -7.18376934528350830078e-01) (50, -9.91891264915466308594e-01) (51, -1.03379859924316406250e+01) (52, 3.67171516418457031250e+01) (53, -1.47047119140625000000e+01) (54, -1.26976609230041503906e-01) (55, 1.39442129135131835938e+01) (56, -1.63932991027832031250e+01) (57, 5.09874773025512695312e+00) (58, -9.43011760711669921875e+00) (59, 2.19385004043579101562e+00) (60, -1.78715002536773681641e+00) (61, 3.57263565063476562500e+00) (62, 1.36635112762451171875e+01) (63, 1.08860845565795898438e+01) (64, -1.00102987289428710938e+01) (65, -1.26173667907714843750e+01) (66, -3.46054153442382812500e+01) (67, -1.60655326843261718750e+01) (61, 3.14922475814819335938e+00) (62, 2.87090415954589843750e+01) (63, -4.17482490539550781250e+01) (64, 1.41936216354370117188e+01) (65, 1.04090700149536132812e+01) (66, -1.49528760910034179688e+01) (67, -7.33224391937255859375e+00) (61, -3.88320884704589843750e+01) (62, 2.21983394622802734375e+01) (63, 1.11203873157501220703e+00) (64, -9.99195575714111328125e-02) (65, -1.78762054443359375000e+00) (66, -5.98021316528320312500e+00) (67, -3.37276840209960937500e+00) (61, -2.19036426544189453125e+01) (62, -2.48511219024658203125e+00) (63, -1.11690177917480468750e+01) (64, 1.55119657516479492188e+01) (65, -8.32083320617675781250e+00) (66, 2.95713844299316406250e+01) (67, -4.02876758575439453125e+00) 
