FANN_FLO_2.1
num_layers=3
learning_rate=0.800000
connection_rate=1.000000
network_type=0
learning_momentum=0.000000
training_algorithm=0
train_error_function=1
train_stop_function=0
cascade_output_change_fraction=0.010000
quickprop_decay=-0.000100
quickprop_mu=1.750000
rprop_increase_factor=1.200000
rprop_decrease_factor=0.500000
rprop_delta_min=0.000000
rprop_delta_max=50.000000
rprop_delta_zero=0.100000
cascade_output_stagnation_epochs=12
cascade_candidate_change_fraction=0.010000
cascade_candidate_stagnation_epochs=12
cascade_max_out_epochs=150
cascade_min_out_epochs=50
cascade_max_cand_epochs=150
cascade_min_cand_epochs=50
cascade_num_candidate_groups=2
bit_fail_limit=3.49999994039535522461e-01
cascade_candidate_limit=1.00000000000000000000e+03
cascade_weight_multiplier=4.00000005960464477539e-01
cascade_activation_functions_count=10
cascade_activation_functions=3 5 7 8 10 11 14 15 16 17 
cascade_activation_steepnesses_count=4
cascade_activation_steepnesses=2.50000000000000000000e-01 5.00000000000000000000e-01 7.50000000000000000000e-01 1.00000000000000000000e+00 
layer_sizes=61 7 5 
scale_included=0
neurons (num_inputs, activation_function, activation_steepness)=(0, 0, 0.00000000000000000000e+00) (0, 0, 0.00000000000000000000e+00) (0, 0, 0.00000000000000000000e+00) (0, 0, 0.00000000000000000000e+00) (0, 0, 0.00000000000000000000e+00) (0, 0, 0.00000000000000000000e+00) (0, 0, 0.00000000000000000000e+00) (0, 0, 0.00000000000000000000e+00) (0, 0, 0.00000000000000000000e+00) (0, 0, 0.00000000000000000000e+00) (0, 0, 0.00000000000000000000e+00) (0, 0, 0.00000000000000000000e+00) (0, 0, 0.00000000000000000000e+00) (0, 0, 0.00000000000000000000e+00) (0, 0, 0.00000000000000000000e+00) (0, 0, 0.00000000000000000000e+00) (0, 0, 0.00000000000000000000e+00) (0, 0, 0.00000000000000000000e+00) (0, 0, 0.00000000000000000000e+00) (0, 0, 0.00000000000000000000e+00) (0, 0, 0.00000000000000000000e+00) (0, 0, 0.00000000000000000000e+00) (0, 0, 0.00000000000000000000e+00) (0, 0, 0.00000000000000000000e+00) (0, 0, 0.00000000000000000000e+00) (0, 0, 0.00000000000000000000e+00) (0, 0, 0.00000000000000000000e+00) (0, 0, 0.00000000000000000000e+00) (0, 0, 0.00000000000000000000e+00) (0, 0, 0.00000000000000000000e+00) (0, 0, 0.00000000000000000000e+00) (0, 0, 0.00000000000000000000e+00) (0, 0, 0.00000000000000000000e+00) (0, 0, 0.00000000000000000000e+00) (0, 0, 0.00000000000000000000e+00) (0, 0, 0.00000000000000000000e+00) (0, 0, 0.00000000000000000000e+00) (0, 0, 0.00000000000000000000e+00) (0, 0, 0.00000000000000000000e+00) (0, 0, 0.00000000000000000000e+00) (0, 0, 0.00000000000000000000e+00) (0, 0, 0.00000000000000000000e+00) (0, 0, 0.00000000000000000000e+00) (0, 0, 0.00000000000000000000e+00) (0, 0, 0.00000000000000000000e+00) (0, 0, 0.00000000000000000000e+00) (0, 0, 0.00000000000000000000e+00) (0, 0, 0.00000000000000000000e+00) (0, 0, 0.00000000000000000000e+00) (0, 0, 0.00000000000000000000e+00) (0, 0, 0.00000000000000000000e+00) (0, 0, 0.00000000000000000000e+00) (0, 0, 0.00000000000000000000e+00) (0, 0, 0.00000000000000000000e+00) (0, 0, 0.00000000000000000000e+00) (0, 0, 0.00000000000000000000e+00) (0, 0, 0.00000000000000000000e+00) (0, 0, 0.00000000000000000000e+00) (0, 0, 0.00000000000000000000e+00) (0, 0, 0.00000000000000000000e+00) (0, 0, 0.00000000000000000000e+00) (61, 3, 5.00000000000000000000e-01) (61, 3, 5.00000000000000000000e-01) (61, 3, 5.00000000000000000000e-01) (61, 3, 5.00000000000000000000e-01) (61, 3, 5.00000000000000000000e-01) (61, 3, 5.00000000000000000000e-01) (0, 3, 0.00000000000000000000e+00) (7, 3, 5.00000000000000000000e-01) (7, 3, 5.00000000000000000000e-01) (7, 3, 5.00000000000000000000e-01) (7, 3, 5.00000000000000000000e-01) (0, 3, 0.00000000000000000000e+00) 
connections (connected_to_neuron, weight)=(0, 2.80773715972900390625e+01) (1, -3.90267562866210937500e+00) (2, 8.15735578536987304688e-01) (3, 4.24152412414550781250e+01) (4, 8.98581695556640625000e+00) (5, -6.53652143478393554688e+00) (6, 1.58684720993041992188e+01) (7, 1.68357124328613281250e+01) (8, -2.70772056579589843750e+01) (9, -1.41599977016448974609e+00) (10, 1.29722070693969726562e+01) (11, 1.54385576248168945312e+01) (12, -2.34709191322326660156e+00) (13, -1.38158149719238281250e+01) (14, 1.97681331634521484375e+00) (15, -1.64404582977294921875e+00) (16, -1.63813762664794921875e+01) (17, -1.27733373641967773438e+01) (18, 1.31514539718627929688e+01) (19, -8.80102443695068359375e+00) (20, -4.00274991989135742188e+00) (21, 2.91332936286926269531e+00) (22, -1.07922191619873046875e+01) (23, 4.14705324172973632812e+00) (24, -4.73713111877441406250e+00) (25, -2.34665584564208984375e+01) (26, -6.91998958587646484375e-01) (27, -1.89046325683593750000e+01) (28, 6.58348083496093750000e+00) (29, 9.10691261291503906250e+00) (30, -2.80474147796630859375e+01) (31, 5.74249458312988281250e+00) (32, -5.81564044952392578125e+00) (33, -1.99071006774902343750e+01) (34, 2.34617877006530761719e+00) (35, -1.29335889816284179688e+01) (36, 2.36286125183105468750e+01) (37, -2.83929691314697265625e+01) (38, -2.28914585113525390625e+01) (39, -9.66814327239990234375e+00) (40, -1.24651088714599609375e+01) (41, 1.08913841247558593750e+01) (42, 9.61352252960205078125e+00) (43, -1.91941852569580078125e+01) (44, -2.28446865081787109375e+00) (45, -6.26515102386474609375e+00) (46, 5.02551984786987304688e+00) (47, 5.35377025604248046875e-01) (48, -6.01456546783447265625e+00) (49, 2.76867465972900390625e+01) (50, -1.14917593002319335938e+01) (51, 1.74699172973632812500e+01) (52, -1.05833759307861328125e+01) (53, 2.05013408660888671875e+01) (54, 2.93561992645263671875e+01) (55, -3.51585912704467773438e+00) (56, -6.80818080902099609375e+00) (57, -7.63374280929565429688e+00) (58, -4.58221626281738281250e+00) (59, -7.33336687088012695312e+00) (60, -1.51369075775146484375e+01) (0, 1.36455650329589843750e+01) (1, 5.25824594497680664062e+00) (2, 3.41193046569824218750e+01) (3, 8.19187450408935546875e+00) (4, -2.32212257385253906250e+00) (5, -6.31590795516967773438e+00) (6, 6.28736162185668945312e+00) (7, -3.82844877243041992188e+00) (8, -3.78669357299804687500e+01) (9, -2.90624523162841796875e+01) (10, -1.38320169448852539062e+01) (11, 3.19455146789550781250e+00) (12, 9.60934352874755859375e+00) (13, -3.12500643730163574219e+00) (14, 2.74399614334106445312e+00) (15, -1.22208538055419921875e+01) (16, -1.52643718719482421875e+01) (17, -5.91914749145507812500e+00) (18, -1.50874309539794921875e+01) (19, 3.20250749588012695312e+00) (20, 1.48229942321777343750e+01) (21, 8.12477874755859375000e+00) (22, 1.60871295928955078125e+01) (23, 1.43302631378173828125e+00) (24, 1.72555208206176757812e-01) (25, -5.69012701511383056641e-01) (26, -1.48705148696899414062e+00) (27, -1.24640645980834960938e+01) (28, -2.23002529144287109375e+01) (29, 2.29986310005187988281e-01) (30, -3.46551990509033203125e+00) (31, 9.76545810699462890625e+00) (32, -1.29357252120971679688e+01) (33, 1.71924424171447753906e+00) (34, 3.46136784553527832031e+00) (35, -4.38613128662109375000e+00) (36, 1.67251567840576171875e+01) (37, -1.19517345428466796875e+01) (38, 6.02382373809814453125e+00) (39, 6.14715862274169921875e+00) (40, -8.88116645812988281250e+00) (41, -6.32709026336669921875e-01) (42, 6.88071775436401367188e+00) (43, 2.62853074073791503906e+00) (44, -1.28618407249450683594e+00) (45, -2.46230506896972656250e+01) (46, -4.00463628768920898438e+00) (47, -1.34510612487792968750e+01) (48, -1.29001770019531250000e+01) (49, -1.68634757995605468750e+01) (50, 1.06938247680664062500e+01) (51, -2.27488923072814941406e+00) (52, -1.69953517913818359375e+01) (53, -3.51134848594665527344e+00) (54, 1.87099475860595703125e+01) (55, -3.92086029052734375000e+00) (56, -1.61749916076660156250e+01) (57, -2.92501091957092285156e-01) (58, -4.84833669662475585938e+00) (59, 1.10581321716308593750e+01) (60, 1.94067363739013671875e+01) (0, -1.11500930786132812500e+01) (1, -6.86144542694091796875e+00) (2, 9.21162962913513183594e-01) (3, -7.13423013687133789062e-01) (4, 1.60442581176757812500e+01) (5, 1.62699527740478515625e+01) (6, 1.47427282333374023438e+01) (7, 4.46695518493652343750e+00) (8, 6.20131731033325195312e+00) (9, 1.18483543395996093750e+01) (10, -8.68572425842285156250e+00) (11, 1.12069904804229736328e-01) (12, 5.77780151367187500000e+00) (13, -1.25894603729248046875e+01) (14, 2.95958652496337890625e+01) (15, 1.49403467178344726562e+01) (16, 1.49742813110351562500e+01) (17, 6.40445804595947265625e+00) (18, -2.34566745758056640625e+01) (19, -1.09867248535156250000e+01) (20, 6.96632242202758789062e+00) (21, 1.94000492095947265625e+01) (22, -1.39596443176269531250e+01) (23, 3.65930061340332031250e+01) (24, -2.93862247467041015625e+01) (25, 1.51384649276733398438e+01) (26, -9.80382919311523437500e+00) (27, 8.86794090270996093750e+00) (28, 9.51013374328613281250e+00) (29, -4.85097706317901611328e-01) (30, 1.12571516036987304688e+01) (31, -7.49290752410888671875e+00) (32, 7.09301757812500000000e+00) (33, 6.94409656524658203125e+00) (34, 5.46999359130859375000e+00) (35, 1.58697605133056640625e+00) (36, -1.55330820083618164062e+01) (37, 9.35440659523010253906e-01) (38, -1.79610481262207031250e+01) (39, 1.83473262786865234375e+01) (40, 2.62131309509277343750e+00) (41, 2.96980686187744140625e+01) (42, 5.14925718307495117188e+00) (43, -1.24209823608398437500e+01) (44, 1.04302968978881835938e+01) (45, 7.14467048645019531250e-01) (46, 1.75815124511718750000e+01) (47, -4.73515176773071289062e+00) (48, -6.24160194396972656250e+00) (49, 1.00899915695190429688e+01) (50, -3.89147996902465820312e+00) (51, 4.22761678695678710938e+00) (52, -1.99974822998046875000e+01) (53, -5.95060491561889648438e+00) (54, -1.46785283088684082031e+00) (55, -3.00274658203125000000e+00) (56, 6.09904384613037109375e+00) (57, -1.21326246261596679688e+01) (58, 1.54521286487579345703e+00) (59, -4.51174068450927734375e+00) (60, 2.07730484008789062500e+00) (0, -2.49942612648010253906e+00) (1, 2.47922635078430175781e+00) (2, -5.14644908905029296875e+00) (3, 2.51202440261840820312e+00) (4, 2.00467987060546875000e+01) (5, 2.09489798545837402344e+00) (6, 2.11293625831604003906e+00) (7, 1.16235458850860595703e+00) (8, -6.76161003112792968750e+00) (9, 4.40993738174438476562e+00) (10, -3.58941864967346191406e+00) (11, -1.01822967529296875000e+01) (12, 1.04443550109863281250e-01) (13, 4.72705364227294921875e-02) (14, -6.69819641113281250000e+00) (15, 8.24810791015625000000e+00) (16, -7.89781236648559570312e+00) (17, 8.08103656768798828125e+00) (18, 2.37826747894287109375e+01) (19, -9.35302925109863281250e+00) (20, -6.84743261337280273438e+00) (21, -3.05593132972717285156e+00) (22, 9.59737396240234375000e+00) (23, -2.06774082183837890625e+01) (24, -1.09029989242553710938e+01) (25, 4.92378234863281250000e+00) (26, 2.89446383714675903320e-01) (27, 1.48469650745391845703e+00) (28, -1.64652462005615234375e+01) (29, 7.97061014175415039062e+00) (30, -2.30297298431396484375e+01) (31, -6.50306034088134765625e+00) (32, -2.95566101074218750000e+01) (33, -3.47334241867065429688e+00) (34, -2.28817195892333984375e+01) (35, -1.18073482513427734375e+01) (36, 8.60275173187255859375e+00) (37, -1.69843101501464843750e+01) (38, 1.58080682754516601562e+01) (39, 4.72569942474365234375e+00) (40, 5.76319932937622070312e-01) (41, -1.84907829761505126953e+00) (42, -6.70974874496459960938e+00) (43, 4.71479892730712890625e-02) (44, 2.35974311828613281250e+01) (45, 8.18405818939208984375e+00) (46, 1.86924064159393310547e+00) (47, -3.20854835510253906250e+01) (48, -9.44252586364746093750e+00) (49, 3.69034271240234375000e+01) (50, 1.33983983993530273438e+01) (51, -2.38391399383544921875e+00) (52, -7.86217260360717773438e+00) (53, 2.78661274909973144531e+00) (54, -6.36473512649536132812e+00) (55, -1.35358982086181640625e+01) (56, -5.65534472465515136719e-01) (57, 4.76101303100585937500e+00) (58, -1.09404916763305664062e+01) (59, 7.71155738830566406250e+00) (60, 1.92295970916748046875e+01) (0, 9.06180763244628906250e+00) (1, -1.25155019760131835938e+00) (2, 2.59867191314697265625e+00) (3, 5.82003498077392578125e+00) (4, 3.67187347412109375000e+01) (5, -1.74734458923339843750e+01) (6, -1.35025615692138671875e+01) (7, 1.31251792907714843750e+01) (8, 6.60225200653076171875e+00) (9, -3.85673999786376953125e-01) (10, -1.11535358428955078125e+01) (11, 2.58541278839111328125e+01) (12, 1.15369281768798828125e+01) (13, -6.19022274017333984375e+00) (14, 9.24569487571716308594e-01) (15, -3.89492917060852050781e+00) (16, -3.15257692337036132812e+00) (17, 6.97946596145629882812e+00) (18, -1.25820798873901367188e+01) (19, -1.83570117950439453125e+01) (20, -1.42992553710937500000e+01) (21, -6.64625120162963867188e+00) (22, -1.43820762634277343750e-01) (23, -2.37895526885986328125e+01) (24, 3.05094566345214843750e+01) (25, 1.85240383148193359375e+01) (26, -1.33258271217346191406e+00) (27, -1.29286613464355468750e+01) (28, -2.38564186096191406250e+01) (29, -1.60589046478271484375e+01) (30, -1.06390609741210937500e+01) (31, 2.07674465179443359375e+01) (32, -5.54105424880981445312e+00) (33, -5.46354627609252929688e+00) (34, 8.68958091735839843750e+00) (35, -3.99236965179443359375e+00) (36, -2.22426295280456542969e-01) (37, -4.94006729125976562500e+00) (38, -9.65533638000488281250e+00) (39, 5.32516193389892578125e+00) (40, -1.58119268417358398438e+01) (41, 2.45112152099609375000e+01) (42, 6.49907588958740234375e+00) (43, -2.62136721611022949219e+00) (44, 1.16654310226440429688e+01) (45, 2.83239212036132812500e+01) (46, 2.33498954772949218750e+00) (47, 1.03900299072265625000e+01) (48, -6.00300312042236328125e+00) (49, -5.40662670135498046875e+00) (50, -1.54833955764770507812e+01) (51, 4.81706047058105468750e+00) (52, 4.75575208663940429688e+00) (53, 1.67118301391601562500e+01) (54, -1.87779026031494140625e+01) (55, 1.34197826385498046875e+01) (56, -2.80419111251831054688e-01) (57, 1.15826568603515625000e+01) (58, 5.49765348434448242188e+00) (59, -1.17394781112670898438e+01) (60, 1.23626899719238281250e+01) (0, 2.92500734329223632812e+00) (1, 4.79779434204101562500e+00) (2, 4.06371116638183593750e-01) (3, 8.56391334533691406250e+00) (4, -8.97647476196289062500e+00) (5, 1.86218070983886718750e+00) (6, -9.51876926422119140625e+00) (7, 3.59828448295593261719e+00) (8, -1.54496707916259765625e+01) (9, -1.97030353546142578125e+01) (10, -1.99588763713836669922e+00) (11, 4.29595708847045898438e+00) (12, -1.24761943817138671875e+01) (13, -1.03129901885986328125e+01) (14, -1.29663228988647460938e+01) (15, 5.52611160278320312500e+00) (16, -1.57440690994262695312e+01) (17, -3.88586699962615966797e-01) (18, -1.62862567901611328125e+01) (19, -3.76710438728332519531e+00) (20, 5.70041561126708984375e+00) (21, 9.93048548698425292969e-01) (22, -5.43209695816040039062e+00) (23, 1.87522315979003906250e+01) (24, -6.40225410461425781250e+00) (25, 3.25626277923583984375e+00) (26, 1.51015644073486328125e+01) (27, -4.14438819885253906250e+00) (28, 2.26421661376953125000e+01) (29, -3.19623394012451171875e+01) (30, -1.60670852661132812500e+01) (31, 1.45261106491088867188e+01) (32, 1.04186859130859375000e+01) (33, 2.23063449859619140625e+01) (34, -6.82725763320922851562e+00) (35, 4.11293745040893554688e+00) (36, 1.28147239685058593750e+01) (37, -3.94763231277465820312e+00) (38, 1.59137754440307617188e+01) (39, 1.09179916381835937500e+01) (40, 1.32930338382720947266e+00) (41, -1.39698066711425781250e+01) (42, 1.21653518676757812500e+01) (43, 7.95343875885009765625e+00) (44, -2.21926450729370117188e+00) (45, 4.64405212402343750000e+01) (46, 1.33246779441833496094e+00) (47, -9.99917209148406982422e-01) (48, -1.24542961120605468750e+01) (49, -2.51609058380126953125e+01) (50, 1.20604205131530761719e+00) (51, -1.92500534057617187500e+01) (52, 5.45022869110107421875e+00) (53, -1.90511837005615234375e+01) (54, 2.24927568435668945312e+00) (55, 1.24261703491210937500e+01) (56, 4.02101373672485351562e+00) (57, 8.96508038043975830078e-01) (58, 4.97630834579467773438e-01) (59, 2.43268966674804687500e+01) (60, 5.05646133422851562500e+00) (61, 2.68012218475341796875e+01) (62, 3.86963033676147460938e+00) (63, -2.36539721488952636719e-01) (64, -1.39966926574707031250e+01) (65, -1.53845796585083007812e+01) (66, 2.52659969329833984375e+01) (67, -9.44883918762207031250e+00) (61, -1.81007404327392578125e+01) (62, 1.43742618560791015625e+01) (63, -1.58730525970458984375e+01) (64, 1.76962394714355468750e+01) (65, 8.25594615936279296875e+00) (66, -1.63804244995117187500e+01) (67, -2.96035671234130859375e+01) (61, -5.78722953796386718750e+00) (62, -1.35537071228027343750e+01) (63, 1.05951747894287109375e+01) (64, -2.01570987701416015625e+01) (65, 3.08260273933410644531e+00) (66, 3.65132761001586914062e+00) (67, -9.57465648651123046875e+00) (61, -1.97465438842773437500e+01) (62, 1.99672496318817138672e+00) (63, -4.41022682189941406250e+00) (64, -5.82618570327758789062e+00) (65, -1.91017799377441406250e+01) (66, -3.34406900405883789062e+00) (67, 1.60807342529296875000e+01) 
