FANN_FLO_2.1
num_layers=3
learning_rate=0.800000
connection_rate=1.000000
network_type=0
learning_momentum=0.000000
training_algorithm=0
train_error_function=1
train_stop_function=0
cascade_output_change_fraction=0.010000
quickprop_decay=-0.000100
quickprop_mu=1.750000
rprop_increase_factor=1.200000
rprop_decrease_factor=0.500000
rprop_delta_min=0.000000
rprop_delta_max=50.000000
rprop_delta_zero=0.100000
cascade_output_stagnation_epochs=12
cascade_candidate_change_fraction=0.010000
cascade_candidate_stagnation_epochs=12
cascade_max_out_epochs=150
cascade_min_out_epochs=50
cascade_max_cand_epochs=150
cascade_min_cand_epochs=50
cascade_num_candidate_groups=2
bit_fail_limit=3.49999994039535522461e-01
cascade_candidate_limit=1.00000000000000000000e+03
cascade_weight_multiplier=4.00000005960464477539e-01
cascade_activation_functions_count=10
cascade_activation_functions=3 5 7 8 10 11 14 15 16 17 
cascade_activation_steepnesses_count=4
cascade_activation_steepnesses=2.50000000000000000000e-01 5.00000000000000000000e-01 7.50000000000000000000e-01 1.00000000000000000000e+00 
layer_sizes=61 7 5 
scale_included=0
neurons (num_inputs, activation_function, activation_steepness)=(0, 0, 0.00000000000000000000e+00) (0, 0, 0.00000000000000000000e+00) (0, 0, 0.00000000000000000000e+00) (0, 0, 0.00000000000000000000e+00) (0, 0, 0.00000000000000000000e+00) (0, 0, 0.00000000000000000000e+00) (0, 0, 0.00000000000000000000e+00) (0, 0, 0.00000000000000000000e+00) (0, 0, 0.00000000000000000000e+00) (0, 0, 0.00000000000000000000e+00) (0, 0, 0.00000000000000000000e+00) (0, 0, 0.00000000000000000000e+00) (0, 0, 0.00000000000000000000e+00) (0, 0, 0.00000000000000000000e+00) (0, 0, 0.00000000000000000000e+00) (0, 0, 0.00000000000000000000e+00) (0, 0, 0.00000000000000000000e+00) (0, 0, 0.00000000000000000000e+00) (0, 0, 0.00000000000000000000e+00) (0, 0, 0.00000000000000000000e+00) (0, 0, 0.00000000000000000000e+00) (0, 0, 0.00000000000000000000e+00) (0, 0, 0.00000000000000000000e+00) (0, 0, 0.00000000000000000000e+00) (0, 0, 0.00000000000000000000e+00) (0, 0, 0.00000000000000000000e+00) (0, 0, 0.00000000000000000000e+00) (0, 0, 0.00000000000000000000e+00) (0, 0, 0.00000000000000000000e+00) (0, 0, 0.00000000000000000000e+00) (0, 0, 0.00000000000000000000e+00) (0, 0, 0.00000000000000000000e+00) (0, 0, 0.00000000000000000000e+00) (0, 0, 0.00000000000000000000e+00) (0, 0, 0.00000000000000000000e+00) (0, 0, 0.00000000000000000000e+00) (0, 0, 0.00000000000000000000e+00) (0, 0, 0.00000000000000000000e+00) (0, 0, 0.00000000000000000000e+00) (0, 0, 0.00000000000000000000e+00) (0, 0, 0.00000000000000000000e+00) (0, 0, 0.00000000000000000000e+00) (0, 0, 0.00000000000000000000e+00) (0, 0, 0.00000000000000000000e+00) (0, 0, 0.00000000000000000000e+00) (0, 0, 0.00000000000000000000e+00) (0, 0, 0.00000000000000000000e+00) (0, 0, 0.00000000000000000000e+00) (0, 0, 0.00000000000000000000e+00) (0, 0, 0.00000000000000000000e+00) (0, 0, 0.00000000000000000000e+00) (0, 0, 0.00000000000000000000e+00) (0, 0, 0.00000000000000000000e+00) (0, 0, 0.00000000000000000000e+00) (0, 0, 0.00000000000000000000e+00) (0, 0, 0.00000000000000000000e+00) (0, 0, 0.00000000000000000000e+00) (0, 0, 0.00000000000000000000e+00) (0, 0, 0.00000000000000000000e+00) (0, 0, 0.00000000000000000000e+00) (0, 0, 0.00000000000000000000e+00) (61, 3, 5.00000000000000000000e-01) (61, 3, 5.00000000000000000000e-01) (61, 3, 5.00000000000000000000e-01) (61, 3, 5.00000000000000000000e-01) (61, 3, 5.00000000000000000000e-01) (61, 3, 5.00000000000000000000e-01) (0, 3, 0.00000000000000000000e+00) (7, 3, 5.00000000000000000000e-01) (7, 3, 5.00000000000000000000e-01) (7, 3, 5.00000000000000000000e-01) (7, 3, 5.00000000000000000000e-01) (0, 3, 0.00000000000000000000e+00) 
connections (connected_to_neuron, weight)=(0, -1.86453571319580078125e+01) (1, 4.45145874023437500000e+01) (2, 1.79104537963867187500e+01) (3, 3.23800277709960937500e+01) (4, -8.92416763305664062500e+00) (5, 1.94315509796142578125e+01) (6, -8.02000617980957031250e+00) (7, 5.37903366088867187500e+01) (8, 2.09025430679321289062e+00) (9, 3.10491008758544921875e+01) (10, -2.66781544685363769531e+00) (11, -3.92906036376953125000e+01) (12, -4.83946084976196289062e+00) (13, -1.81857419013977050781e+00) (14, -3.85120391845703125000e+00) (15, -2.67588472366333007812e+00) (16, -5.30166482925415039062e+00) (17, -3.42490158081054687500e+01) (18, -2.46974487304687500000e+01) (19, 2.93414096832275390625e+01) (20, 1.53491318225860595703e+00) (21, -2.59455633163452148438e+00) (22, 1.02318468093872070312e+01) (23, 2.46025142669677734375e+01) (24, -1.49590671062469482422e+00) (25, 3.33586997985839843750e+01) (26, 6.96714925765991210938e+00) (27, -1.49419021606445312500e+01) (28, 8.54705905914306640625e+00) (29, -1.41538381576538085938e+01) (30, 1.47665965557098388672e+00) (31, -1.60338325500488281250e+01) (32, 2.79985370635986328125e+01) (33, -3.90088043212890625000e+01) (34, -2.36498430371284484863e-01) (35, 7.73479843139648437500e+00) (36, 2.11922302246093750000e+01) (37, -3.24404373168945312500e+01) (38, -7.31414747238159179688e+00) (39, -3.29149174690246582031e+00) (40, 8.34212422370910644531e-01) (41, 4.74443054199218750000e+01) (42, 3.65186958312988281250e+01) (43, -9.88709735870361328125e+00) (44, 5.09914779663085937500e+01) (45, 3.22304248809814453125e+00) (46, -9.78920555114746093750e+00) (47, 1.19817113876342773438e+01) (48, 5.45586872100830078125e+00) (49, -7.01439571380615234375e+00) (50, -1.58290271759033203125e+01) (51, 2.99868602752685546875e+01) (52, 6.17925071716308593750e+00) (53, 2.58405709266662597656e+00) (54, -2.34442901611328125000e+01) (55, -8.19320964813232421875e+00) (56, 3.14124536514282226562e+00) (57, -1.22633266448974609375e+01) (58, -1.50948858261108398438e+01) (59, 1.53402328491210937500e+01) (60, 1.01696968078613281250e+01) (0, 1.00995044708251953125e+01) (1, -2.22740802764892578125e+01) (2, 1.13967132568359375000e+01) (3, -1.32093274593353271484e+00) (4, -2.30572319030761718750e+01) (5, -2.69422168731689453125e+01) (6, 4.50940752029418945312e+00) (7, 1.69589290618896484375e+01) (8, -1.75907211303710937500e+01) (9, 2.58420391082763671875e+01) (10, -1.89061889648437500000e+01) (11, -2.63215408325195312500e+01) (12, -1.41185483932495117188e+01) (13, -1.06473970413208007812e+00) (14, 7.92463827133178710938e+00) (15, 4.52180480957031250000e+00) (16, 7.30084609985351562500e+00) (17, -2.56418704986572265625e+01) (18, -4.15500211715698242188e+00) (19, -2.72113347053527832031e+00) (20, 3.28605155944824218750e+01) (21, 5.86887502670288085938e+00) (22, 8.67447853088378906250e+00) (23, 2.83469371795654296875e+01) (24, 1.55452079772949218750e+01) (25, 2.54080343246459960938e+00) (26, -1.44250049591064453125e+01) (27, 6.56096725463867187500e+01) (28, 1.33941183090209960938e+01) (29, 1.10012750625610351562e+01) (30, 2.10926761627197265625e+01) (31, -2.40341930389404296875e+01) (32, 7.41950798034667968750e+00) (33, 2.54896144866943359375e+01) (34, -1.87480106353759765625e+01) (35, -1.45875873565673828125e+01) (36, -2.59971389770507812500e+01) (37, 1.09889259338378906250e+01) (38, -4.95960664749145507812e+00) (39, 2.92830543518066406250e+01) (40, 1.86096267700195312500e+01) (41, -6.08036899566650390625e+00) (42, -1.16571884155273437500e+01) (43, -1.94812736511230468750e+01) (44, 3.40847444534301757812e+00) (45, -6.65731668472290039062e+00) (46, -3.06614875793457031250e+01) (47, -2.57071475982666015625e+01) (48, -7.43948698043823242188e+00) (49, -5.97366523742675781250e+00) (50, -4.80132150650024414062e+00) (51, 1.22358789443969726562e+01) (52, -3.40254440307617187500e+01) (53, 1.04242630004882812500e+01) (54, 3.79066324234008789062e+00) (55, 4.90797615051269531250e+00) (56, -1.87034244537353515625e+01) (57, -1.26482105255126953125e+01) (58, 3.36638298034667968750e+01) (59, 1.24764096736907958984e+00) (60, -9.09718894958496093750e+00) (0, -2.54398560523986816406e+00) (1, 2.46029434204101562500e+01) (2, 1.36258411407470703125e+01) (3, 7.16051197052001953125e+00) (4, 2.14575023651123046875e+01) (5, -6.67814111709594726562e+00) (6, 1.72030048370361328125e+01) (7, 1.57307901382446289062e+01) (8, -5.27194175720214843750e+01) (9, 1.72253246307373046875e+01) (10, 6.08162269592285156250e+01) (11, -3.53318367004394531250e+01) (12, 5.08075094223022460938e+00) (13, -1.39820289611816406250e+01) (14, -1.86553535461425781250e+01) (15, -2.08939208984375000000e+01) (16, -2.24086093902587890625e+01) (17, -1.04147109985351562500e+01) (18, -2.92259654998779296875e+01) (19, -9.63136100769042968750e+00) (20, -3.06260585784912109375e+00) (21, -1.54861297607421875000e+01) (22, -1.81352272033691406250e+01) (23, 6.73527069091796875000e+01) (24, -1.07822885513305664062e+01) (25, 2.57294788360595703125e+01) (26, 1.46020097732543945312e+01) (27, -8.78874397277832031250e+00) (28, 2.96514892578125000000e+01) (29, -1.25893182754516601562e+01) (30, -1.36465778350830078125e+01) (31, 3.18103551864624023438e-01) (32, 1.25655193328857421875e+01) (33, -3.73456621170043945312e+00) (34, -2.78169212341308593750e+01) (35, 3.00380134582519531250e+00) (36, -4.59077644348144531250e+00) (37, 1.50278816223144531250e+01) (38, -4.74748229980468750000e+01) (39, 1.83595581054687500000e+01) (40, 4.79798793792724609375e+00) (41, 2.25858688354492187500e+01) (42, -1.17795324325561523438e+00) (43, -1.87735004425048828125e+01) (44, 9.77005958557128906250e-01) (45, 2.95084438323974609375e+01) (46, -1.23355617523193359375e+01) (47, 6.64997100830078125000e+00) (48, 9.42926025390625000000e+00) (49, 1.52684450149536132812e-01) (50, -9.32891273498535156250e+00) (51, 3.88257813453674316406e+00) (52, 3.78648877143859863281e+00) (53, 1.67026290893554687500e+01) (54, 9.26714134216308593750e+00) (55, -9.74304008483886718750e+00) (56, 1.01223468780517578125e+01) (57, 2.56974458694458007812e+00) (58, -6.07889413833618164062e+00) (59, 2.23627853393554687500e+00) (60, 2.32552194595336914062e+00) (0, 1.14367942810058593750e+01) (1, -1.24144105911254882812e+01) (2, -1.66381187438964843750e+01) (3, -1.91303291320800781250e+01) (4, -1.39854221343994140625e+01) (5, 8.68319416046142578125e+00) (6, 4.69563903808593750000e+01) (7, 1.75114974975585937500e+01) (8, 1.85904369354248046875e+01) (9, 8.83193016052246093750e+00) (10, -1.22777957916259765625e+01) (11, 1.09682254791259765625e+01) (12, -1.27405428886413574219e+00) (13, -2.23421649932861328125e+01) (14, -2.61659278869628906250e+01) (15, -3.90585746765136718750e+01) (16, 2.20980224609375000000e+01) (17, -9.98044776916503906250e+00) (18, 3.09895439147949218750e+01) (19, 3.47836227416992187500e+01) (20, -3.92431020736694335938e+00) (21, -1.49398612976074218750e+01) (22, 1.70790977478027343750e+01) (23, 2.70404911041259765625e+01) (24, 4.97299146652221679688e+00) (25, 1.01365499496459960938e+01) (26, 1.79819164276123046875e+01) (27, 8.54658508300781250000e+00) (28, -4.07474098205566406250e+01) (29, -4.17635002136230468750e+01) (30, 1.68605861663818359375e+01) (31, 2.11067256927490234375e+01) (32, 2.15672607421875000000e+01) (33, -2.15854334831237792969e+00) (34, 4.33765172958374023438e+00) (35, 1.64564323425292968750e+01) (36, 1.44605331420898437500e+01) (37, 1.29915523529052734375e+01) (38, 1.65448055267333984375e+01) (39, -1.83009123802185058594e+00) (40, -2.92373218536376953125e+01) (41, -1.25675163269042968750e+01) (42, -2.01134033203125000000e+01) (43, 2.28474044799804687500e+01) (44, -5.78129816055297851562e+00) (45, 1.34931859970092773438e+01) (46, 6.25105261802673339844e-01) (47, -7.41798353195190429688e+00) (48, -4.01390838623046875000e+01) (49, 1.80659599304199218750e+01) (50, -2.16390562057495117188e+00) (51, 7.45858049392700195312e+00) (52, -1.51051082611083984375e+01) (53, -5.93466377258300781250e+00) (54, -6.18574714660644531250e+01) (55, 2.31467876434326171875e+01) (56, 2.42633075714111328125e+01) (57, -4.78887252807617187500e+01) (58, 2.40389862060546875000e+01) (59, -4.20135450363159179688e+00) (60, 2.49025783538818359375e+01) (0, 2.40331516265869140625e+01) (1, 1.32199096679687500000e+01) (2, 7.29681205749511718750e+00) (3, -2.57586688995361328125e+01) (4, -1.93544349670410156250e+01) (5, -1.30161266326904296875e+01) (6, -2.67850627899169921875e+01) (7, -1.43969879150390625000e+01) (8, 1.69344539642333984375e+01) (9, 7.24692344665527343750e+00) (10, 4.85083055496215820312e+00) (11, 2.57360801696777343750e+01) (12, 7.67950201034545898438e+00) (13, 2.31044368743896484375e+01) (14, 1.29735040664672851562e+01) (15, 1.02258567810058593750e+01) (16, 5.71161389350891113281e-01) (17, -4.78289146423339843750e+01) (18, -1.13221263885498046875e+01) (19, -1.19229345321655273438e+01) (20, -1.16003017425537109375e+01) (21, -5.07466506958007812500e+00) (22, 4.56656608581542968750e+01) (23, -4.73774337768554687500e+01) (24, 1.37745170593261718750e+01) (25, -7.99847841262817382812e-01) (26, -1.30952930450439453125e+01) (27, 1.78131694793701171875e+01) (28, -2.64155406951904296875e+01) (29, -4.38805885314941406250e+01) (30, -2.17022681236267089844e+00) (31, 3.72529907226562500000e+01) (32, -1.17657928466796875000e+01) (33, 3.20626783370971679688e+00) (34, -1.79932403564453125000e+01) (35, 4.95435857772827148438e+00) (36, 7.99175405502319335938e+00) (37, 1.50635747909545898438e+01) (38, -1.46998286247253417969e+00) (39, 4.02190780639648437500e+01) (40, 1.08517522811889648438e+01) (41, -1.60703029632568359375e+01) (42, 2.42350082397460937500e+01) (43, -5.06005744934082031250e+01) (44, 4.38616752624511718750e+00) (45, 1.29581518173217773438e+01) (46, -2.82242941856384277344e+00) (47, 1.27552528381347656250e+01) (48, -4.61736106872558593750e+00) (49, 6.09697532653808593750e+00) (50, 7.22438716888427734375e+00) (51, 1.19134578704833984375e+01) (52, -1.58414955139160156250e+01) (53, 2.64166526794433593750e+01) (54, -4.46350402832031250000e+01) (55, -1.41315593719482421875e+01) (56, 4.72218246459960937500e+01) (57, -2.54731082916259765625e+01) (58, 2.27173175811767578125e+01) (59, -5.91947174072265625000e+00) (60, -1.29672451019287109375e+01) (0, -3.98005561828613281250e+01) (1, -2.18497562408447265625e+01) (2, -7.40682125091552734375e-01) (3, -9.86221504211425781250e+00) (4, 1.21212911605834960938e+01) (5, -1.35251312255859375000e+01) (6, 4.07904767990112304688e+00) (7, -5.01534042358398437500e+01) (8, 4.05201416015625000000e+01) (9, -1.86611614227294921875e+01) (10, 3.09266114234924316406e+00) (11, -2.46774005889892578125e+00) (12, -9.23693656921386718750e+00) (13, 1.49343833923339843750e+01) (14, -7.52903032302856445312e+00) (15, 3.68463401794433593750e+01) (16, -2.64297676086425781250e+01) (17, -9.83355903625488281250e+00) (18, -1.47413434982299804688e+01) (19, 2.43439311981201171875e+01) (20, -1.17574920654296875000e+01) (21, 1.70353603363037109375e+01) (22, -5.99523830413818359375e+00) (23, 2.81518802642822265625e+01) (24, -2.29808464050292968750e+01) (25, -8.47957134246826171875e+00) (26, -2.82556324005126953125e+01) (27, -2.79186840057373046875e+01) (28, -1.95970954895019531250e+01) (29, -6.23575830459594726562e+00) (30, 2.21486663818359375000e+00) (31, -2.31287860870361328125e+01) (32, -2.80204391479492187500e+01) (33, -1.93886508941650390625e+01) (34, -2.03514995574951171875e+01) (35, -5.46427822113037109375e+00) (36, -1.45178585052490234375e+01) (37, 7.85546898841857910156e-02) (38, 2.77815895080566406250e+01) (39, 1.33598966598510742188e+01) (40, -4.13053464889526367188e+00) (41, -2.36144638061523437500e+00) (42, 4.19765138626098632812e+00) (43, -6.42818260192871093750e+00) (44, 2.79849958419799804688e+00) (45, 1.91748428344726562500e+01) (46, -4.32757377624511718750e+00) (47, -2.79424819946289062500e+01) (48, 1.10084209442138671875e+01) (49, 1.40358352661132812500e+01) (50, 2.26258420944213867188e+00) (51, -1.33589878082275390625e+01) (52, 3.59056892395019531250e+01) (53, -1.72046165466308593750e+01) (54, 1.44465484619140625000e+01) (55, 9.60020637512207031250e+00) (56, -2.53333702087402343750e+01) (57, 7.43433380126953125000e+00) (58, -1.88119525909423828125e+01) (59, 2.56039905548095703125e+00) (60, 4.59264421463012695312e+00) (61, 1.31278963088989257812e+01) (62, 1.43506259918212890625e+01) (63, 8.30049610137939453125e+00) (64, -6.14265251159667968750e+00) (65, -1.86654701232910156250e+01) (66, -3.57315292358398437500e+01) (67, -2.51812400817871093750e+01) (61, -9.51228141784667968750e-02) (62, 1.29309530258178710938e+01) (63, -5.11908264160156250000e+01) (64, 1.51430644989013671875e+01) (65, 2.18690242767333984375e+01) (66, -2.41913223266601562500e+01) (67, 2.92696571350097656250e+00) (61, -3.66002044677734375000e+01) (62, 2.42741127014160156250e+01) (63, 9.43064117431640625000e+00) (64, 7.94558382034301757812e+00) (65, -6.33631896972656250000e+00) (66, -8.89540863037109375000e+00) (67, -1.91731433868408203125e+01) (61, -3.18766231536865234375e+01) (62, 1.26382589340209960938e+00) (63, -2.02659034729003906250e+01) (64, 2.36618843078613281250e+01) (65, -2.11296100616455078125e+01) (66, 2.81608505249023437500e+01) (67, -4.93575716018676757812e+00) 
