FANN_FLO_2.1
num_layers=3
learning_rate=0.800000
connection_rate=1.000000
network_type=0
learning_momentum=0.000000
training_algorithm=0
train_error_function=1
train_stop_function=0
cascade_output_change_fraction=0.010000
quickprop_decay=-0.000100
quickprop_mu=1.750000
rprop_increase_factor=1.200000
rprop_decrease_factor=0.500000
rprop_delta_min=0.000000
rprop_delta_max=50.000000
rprop_delta_zero=0.100000
cascade_output_stagnation_epochs=12
cascade_candidate_change_fraction=0.010000
cascade_candidate_stagnation_epochs=12
cascade_max_out_epochs=150
cascade_min_out_epochs=50
cascade_max_cand_epochs=150
cascade_min_cand_epochs=50
cascade_num_candidate_groups=2
bit_fail_limit=3.49999994039535522461e-01
cascade_candidate_limit=1.00000000000000000000e+03
cascade_weight_multiplier=4.00000005960464477539e-01
cascade_activation_functions_count=10
cascade_activation_functions=3 5 7 8 10 11 14 15 16 17 
cascade_activation_steepnesses_count=4
cascade_activation_steepnesses=2.50000000000000000000e-01 5.00000000000000000000e-01 7.50000000000000000000e-01 1.00000000000000000000e+00 
layer_sizes=61 7 5 
scale_included=0
neurons (num_inputs, activation_function, activation_steepness)=(0, 0, 0.00000000000000000000e+00) (0, 0, 0.00000000000000000000e+00) (0, 0, 0.00000000000000000000e+00) (0, 0, 0.00000000000000000000e+00) (0, 0, 0.00000000000000000000e+00) (0, 0, 0.00000000000000000000e+00) (0, 0, 0.00000000000000000000e+00) (0, 0, 0.00000000000000000000e+00) (0, 0, 0.00000000000000000000e+00) (0, 0, 0.00000000000000000000e+00) (0, 0, 0.00000000000000000000e+00) (0, 0, 0.00000000000000000000e+00) (0, 0, 0.00000000000000000000e+00) (0, 0, 0.00000000000000000000e+00) (0, 0, 0.00000000000000000000e+00) (0, 0, 0.00000000000000000000e+00) (0, 0, 0.00000000000000000000e+00) (0, 0, 0.00000000000000000000e+00) (0, 0, 0.00000000000000000000e+00) (0, 0, 0.00000000000000000000e+00) (0, 0, 0.00000000000000000000e+00) (0, 0, 0.00000000000000000000e+00) (0, 0, 0.00000000000000000000e+00) (0, 0, 0.00000000000000000000e+00) (0, 0, 0.00000000000000000000e+00) (0, 0, 0.00000000000000000000e+00) (0, 0, 0.00000000000000000000e+00) (0, 0, 0.00000000000000000000e+00) (0, 0, 0.00000000000000000000e+00) (0, 0, 0.00000000000000000000e+00) (0, 0, 0.00000000000000000000e+00) (0, 0, 0.00000000000000000000e+00) (0, 0, 0.00000000000000000000e+00) (0, 0, 0.00000000000000000000e+00) (0, 0, 0.00000000000000000000e+00) (0, 0, 0.00000000000000000000e+00) (0, 0, 0.00000000000000000000e+00) (0, 0, 0.00000000000000000000e+00) (0, 0, 0.00000000000000000000e+00) (0, 0, 0.00000000000000000000e+00) (0, 0, 0.00000000000000000000e+00) (0, 0, 0.00000000000000000000e+00) (0, 0, 0.00000000000000000000e+00) (0, 0, 0.00000000000000000000e+00) (0, 0, 0.00000000000000000000e+00) (0, 0, 0.00000000000000000000e+00) (0, 0, 0.00000000000000000000e+00) (0, 0, 0.00000000000000000000e+00) (0, 0, 0.00000000000000000000e+00) (0, 0, 0.00000000000000000000e+00) (0, 0, 0.00000000000000000000e+00) (0, 0, 0.00000000000000000000e+00) (0, 0, 0.00000000000000000000e+00) (0, 0, 0.00000000000000000000e+00) (0, 0, 0.00000000000000000000e+00) (0, 0, 0.00000000000000000000e+00) (0, 0, 0.00000000000000000000e+00) (0, 0, 0.00000000000000000000e+00) (0, 0, 0.00000000000000000000e+00) (0, 0, 0.00000000000000000000e+00) (0, 0, 0.00000000000000000000e+00) (61, 3, 5.00000000000000000000e-01) (61, 3, 5.00000000000000000000e-01) (61, 3, 5.00000000000000000000e-01) (61, 3, 5.00000000000000000000e-01) (61, 3, 5.00000000000000000000e-01) (61, 3, 5.00000000000000000000e-01) (0, 3, 0.00000000000000000000e+00) (7, 3, 5.00000000000000000000e-01) (7, 3, 5.00000000000000000000e-01) (7, 3, 5.00000000000000000000e-01) (7, 3, 5.00000000000000000000e-01) (0, 3, 0.00000000000000000000e+00) 
connections (connected_to_neuron, weight)=(0, -1.22662906646728515625e+01) (1, 4.16596298217773437500e+01) (2, 3.58852348327636718750e+01) (3, 7.28610754013061523438e+00) (4, -3.52756919860839843750e+01) (5, -4.20722484588623046875e+00) (6, -1.29913902282714843750e+01) (7, 4.36161918640136718750e+01) (8, -2.13613300323486328125e+01) (9, 1.09562511444091796875e+01) (10, 1.11440181732177734375e+01) (11, -5.79713554382324218750e+01) (12, -8.52729415893554687500e+00) (13, -1.61067123413085937500e+01) (14, 1.38477687835693359375e+01) (15, -6.17422342300415039062e+00) (16, 8.02404785156250000000e+00) (17, -2.64489364624023437500e+01) (18, -2.75883846282958984375e+01) (19, 1.50554676055908203125e+01) (20, 1.86360378265380859375e+01) (21, 9.88903903961181640625e+00) (22, -1.20566082000732421875e+01) (23, 3.12524676322937011719e+00) (24, 6.48423051834106445312e+00) (25, 1.66539993286132812500e+01) (26, -1.22332310676574707031e+00) (27, -3.06210594177246093750e+01) (28, 2.58138446807861328125e+01) (29, -3.73235702514648437500e+00) (30, 7.06075620651245117188e+00) (31, -2.50440883636474609375e+01) (32, 4.36417198181152343750e+01) (33, -3.74839401245117187500e+01) (34, -1.74148826599121093750e+01) (35, 3.46116867065429687500e+01) (36, 2.47947845458984375000e+01) (37, -5.31852951049804687500e+01) (38, 6.66058897972106933594e-01) (39, 1.33896875381469726562e+01) (40, 1.86657218933105468750e+01) (41, 4.85772857666015625000e+01) (42, 2.47302799224853515625e+01) (43, 1.59821605682373046875e+01) (44, 5.47635765075683593750e+01) (45, 4.39994955062866210938e+00) (46, -5.18935585021972656250e+00) (47, -2.08494234085083007812e+00) (48, 5.32479810714721679688e+00) (49, -2.77149753570556640625e+01) (50, -1.09023571014404296875e+01) (51, 1.31258487701416015625e+00) (52, 8.13972091674804687500e+00) (53, 9.63845729827880859375e-01) (54, -1.15349292755126953125e+00) (55, -6.75672531127929687500e+00) (56, -1.92954196929931640625e+01) (57, -3.97442913055419921875e+00) (58, 7.04062843322753906250e+00) (59, 3.06497726440429687500e+01) (60, -3.69814109802246093750e+00) (0, 2.73720607757568359375e+01) (1, -2.51969337463378906250e+01) (2, -2.86590695381164550781e+00) (3, 8.54218864440917968750e+00) (4, -3.45347290039062500000e+01) (5, -2.92951240539550781250e+01) (6, -8.34599781036376953125e+00) (7, 7.63542270660400390625e+00) (8, -1.40643367767333984375e+01) (9, 3.60988998413085937500e+01) (10, -5.06916580200195312500e+01) (11, -2.47828903198242187500e+01) (12, -1.02921934127807617188e+01) (13, -1.82137451171875000000e+01) (14, -7.72274589538574218750e+00) (15, -1.30114774703979492188e+01) (16, 2.33471927642822265625e+01) (17, -3.46626930236816406250e+01) (18, -7.24688625335693359375e+00) (19, 2.26059951782226562500e+01) (20, 2.93241786956787109375e+01) (21, -1.10114932060241699219e+00) (22, 7.48266410827636718750e+00) (23, 3.72208938598632812500e+01) (24, -5.34665822982788085938e+00) (25, 9.15155601501464843750e+00) (26, -7.29306030273437500000e+00) (27, 5.46390800476074218750e+01) (28, 1.10281581878662109375e+01) (29, -1.40992317199707031250e+01) (30, 1.11833877563476562500e+01) (31, -1.58518733978271484375e+01) (32, -2.03221678733825683594e+00) (33, 2.78675689697265625000e+01) (34, 1.07019538879394531250e+01) (35, -2.68079586029052734375e+01) (36, -4.84473457336425781250e+01) (37, 2.00784015655517578125e+01) (38, -4.99793481826782226562e+00) (39, 3.06876087188720703125e+01) (40, 1.20925712585449218750e+01) (41, -9.40673828125000000000e+00) (42, -6.59301638603210449219e-01) (43, -9.39861583709716796875e+00) (44, -1.42728412151336669922e+00) (45, -2.12958889007568359375e+01) (46, -2.91441898345947265625e+01) (47, -4.74784355163574218750e+01) (48, -1.93075180053710937500e+01) (49, 1.13150215148925781250e+01) (50, 5.17881298065185546875e+00) (51, 1.38546752929687500000e+00) (52, -4.52972068786621093750e+01) (53, 1.07665061950683593750e+01) (54, -3.80149054527282714844e+00) (55, -1.22054796218872070312e+01) (56, -4.18098068237304687500e+00) (57, -4.24402961730957031250e+01) (58, 3.12762260437011718750e+01) (59, -3.39172959327697753906e+00) (60, 2.29716358184814453125e+01) (0, 1.29734516143798828125e+01) (1, 4.11641044616699218750e+01) (2, 1.91021118164062500000e+01) (3, 1.70100641250610351562e+00) (4, 4.25573348999023437500e+01) (5, -1.45847787857055664062e+01) (6, 1.01912269592285156250e+01) (7, 3.93600082397460937500e+01) (8, -5.21963005065917968750e+01) (9, 2.03715553283691406250e+01) (10, 4.97117691040039062500e+01) (11, -3.54353981018066406250e+01) (12, 4.42063283920288085938e+00) (13, -2.92601323127746582031e+00) (14, -1.55018272399902343750e+01) (15, -2.58214626312255859375e+01) (16, -2.34492149353027343750e+01) (17, -3.32218818664550781250e+01) (18, -4.94404144287109375000e+01) (19, -5.17275047302246093750e+00) (20, 2.96412110328674316406e+00) (21, -1.83731460571289062500e+01) (22, -3.10718650817871093750e+01) (23, 6.26368103027343750000e+01) (24, -3.33966217041015625000e+01) (25, 1.95075168609619140625e+01) (26, 2.78300838470458984375e+01) (27, 1.69620740413665771484e+00) (28, 3.66298294067382812500e+01) (29, -2.70059223175048828125e+01) (30, 1.76605358123779296875e+01) (31, 7.60435962677001953125e+00) (32, 2.28561735153198242188e+00) (33, -5.71378231048583984375e-01) (34, -2.40280704498291015625e+01) (35, 2.23254489898681640625e+00) (36, -9.90702819824218750000e+00) (37, 3.24636611938476562500e+01) (38, -3.38992652893066406250e+01) (39, 1.96899948120117187500e+01) (40, -4.86058616638183593750e+00) (41, 1.79406185150146484375e+01) (42, 5.22356128692626953125e+00) (43, -2.16621932983398437500e+01) (44, 1.92335624694824218750e+01) (45, 1.40694961547851562500e+01) (46, -1.59108037948608398438e+01) (47, 2.45474395751953125000e+01) (48, 8.17545986175537109375e+00) (49, 1.32298326492309570312e+01) (50, -5.60694408416748046875e+00) (51, 3.96105623245239257812e+00) (52, 5.59206581115722656250e+00) (53, 2.34688873291015625000e+01) (54, 4.05824279785156250000e+00) (55, 1.35062541961669921875e+01) (56, -6.69188642501831054688e+00) (57, -1.48738622665405273438e-02) (58, -1.14767198562622070312e+01) (59, 1.22358980178833007812e+01) (60, -4.28206348419189453125e+00) (0, 4.33620643615722656250e+00) (1, -4.52162075042724609375e+00) (2, -2.07321472167968750000e+01) (3, -1.52061271667480468750e+00) (4, -1.97719116210937500000e+01) (5, 1.17714452743530273438e+01) (6, 4.38287467956542968750e+01) (7, 1.80000286102294921875e+01) (8, 2.39778785705566406250e+01) (9, 1.27508401870727539062e+01) (10, -3.56520938873291015625e+00) (11, -1.86011238098144531250e+01) (12, -3.94306564331054687500e+00) (13, -2.61660194396972656250e+01) (14, -2.60732688903808593750e+01) (15, -1.86136817932128906250e+01) (16, 2.97167816162109375000e+01) (17, -1.32394390106201171875e+01) (18, 3.07902870178222656250e+01) (19, 5.35403594970703125000e+01) (20, 1.17104368209838867188e+01) (21, -4.29681053161621093750e+01) (22, 3.99500579833984375000e+01) (23, 2.26817550659179687500e+01) (24, 1.31651296615600585938e+01) (25, 1.55149383544921875000e+01) (26, 2.02350330352783203125e+01) (27, 4.98013925552368164062e+00) (28, -7.36013793945312500000e+01) (29, -2.96907081604003906250e+01) (30, 2.52090129852294921875e+01) (31, 4.53005294799804687500e+01) (32, 2.54099483489990234375e+01) (33, -1.37828598022460937500e+01) (34, 6.82740211486816406250e+00) (35, 3.09306073188781738281e+00) (36, 5.36287832260131835938e+00) (37, 2.86302070617675781250e+01) (38, 2.35096302032470703125e+01) (39, -1.75747871398925781250e+01) (40, -5.80617790222167968750e+01) (41, -1.19593753814697265625e+01) (42, -1.18484582901000976562e+01) (43, 2.68700447082519531250e+01) (44, -1.50583820343017578125e+01) (45, -7.24608993530273437500e+00) (46, -4.92540893554687500000e+01) (47, -1.71929283142089843750e+01) (48, -4.78340568542480468750e+01) (49, 8.47987842559814453125e+00) (50, -5.75507259368896484375e+00) (51, 1.14047451019287109375e+01) (52, 1.21995270252227783203e+00) (53, -2.64952683448791503906e+00) (54, -9.14638061523437500000e+01) (55, 3.56120223999023437500e+01) (56, 5.12187042236328125000e+01) (57, -3.43367233276367187500e+01) (58, 1.97758407592773437500e+01) (59, -2.39174385070800781250e+01) (60, 3.69347763061523437500e+01) (0, 1.36542081832885742188e+01) (1, -2.46739220619201660156e+00) (2, 1.97145767211914062500e+01) (3, -3.38013839721679687500e+01) (4, -1.92591381072998046875e+01) (5, -2.69331035614013671875e+01) (6, -2.21474761962890625000e+01) (7, -2.00995693206787109375e+01) (8, 2.66375598907470703125e+01) (9, 2.00439853668212890625e+01) (10, 1.09399354457855224609e+00) (11, 2.47007179260253906250e+01) (12, -6.02351284027099609375e+00) (13, 2.80758762359619140625e+01) (14, 4.15501976013183593750e+00) (15, 3.34809756278991699219e+00) (16, 1.07068634033203125000e+01) (17, -4.39873390197753906250e+01) (18, 1.42803096771240234375e+01) (19, -2.90291900634765625000e+01) (20, -3.49656867980957031250e+01) (21, -1.38894100189208984375e+01) (22, 5.55197830200195312500e+01) (23, -5.02494888305664062500e+01) (24, 6.16047859191894531250e+00) (25, 5.96428966522216796875e+00) (26, -2.48386917114257812500e+01) (27, 7.86991596221923828125e+00) (28, -3.29364166259765625000e+01) (29, -5.81435775756835937500e+01) (30, -1.02228069305419921875e+00) (31, 1.47098474502563476562e+01) (32, -7.30784225463867187500e+00) (33, -4.80725288391113281250e+00) (34, -2.10259246826171875000e+01) (35, -9.61157894134521484375e+00) (36, -1.25236387252807617188e+01) (37, 1.69659576416015625000e+01) (38, 8.34650278091430664062e-01) (39, 2.91807727813720703125e+01) (40, -1.05055103302001953125e+01) (41, -1.93172645568847656250e+00) (42, 2.72152023315429687500e+01) (43, -2.88320865631103515625e+01) (44, -2.59800767898559570312e+00) (45, 1.45661373138427734375e+01) (46, 4.61263418197631835938e+00) (47, 4.17233161926269531250e+01) (48, 3.32996520996093750000e+01) (49, 6.07276916503906250000e+00) (50, -1.09652709960937500000e+01) (51, 3.31152319908142089844e-01) (52, -3.17454776763916015625e+01) (53, 2.98355655670166015625e+01) (54, -3.37726821899414062500e+01) (55, -3.73075561523437500000e+01) (56, 2.96092586517333984375e+01) (57, -2.21532840728759765625e+01) (58, 9.44351959228515625000e+00) (59, -8.11501121520996093750e+00) (60, -1.34703807830810546875e+01) (0, -4.42189140319824218750e+01) (1, -3.74394912719726562500e+01) (2, -1.09955396652221679688e+01) (3, -4.64922142028808593750e+00) (4, 5.86636781692504882812e+00) (5, -1.29652700424194335938e+01) (6, -2.60384726524353027344e+00) (7, -6.43685150146484375000e+01) (8, 4.85533370971679687500e+01) (9, -2.49824142456054687500e+01) (10, 1.65692520141601562500e+01) (11, 2.42199993133544921875e+01) (12, -9.86019420623779296875e+00) (13, 8.69135379791259765625e+00) (14, -6.04573440551757812500e+00) (15, 4.52626304626464843750e+01) (16, -3.12270984649658203125e+01) (17, -3.45982322692871093750e+01) (18, -3.11009445190429687500e+01) (19, 1.20554609298706054688e+01) (20, -8.01389789581298828125e+00) (21, 1.11751949787139892578e+00) (22, 1.93680453300476074219e+00) (23, 1.72640419006347656250e+01) (24, -3.45711784362792968750e+01) (25, -7.92642784118652343750e+00) (26, -3.84245452880859375000e+01) (27, -3.46696019172668457031e-01) (28, -1.72052116394042968750e+01) (29, 1.81145629882812500000e+01) (30, -9.28562545776367187500e+00) (31, -2.77080497741699218750e+01) (32, -2.81494426727294921875e+01) (33, -2.93830795288085937500e+01) (34, -2.84878540039062500000e+01) (35, -6.57055902481079101562e+00) (36, 4.61784076690673828125e+00) (37, 4.40320110321044921875e+00) (38, 1.64995746612548828125e+01) (39, 3.51663732528686523438e+00) (40, -4.87579202651977539062e+00) (41, 7.29798936843872070312e+00) (42, 1.97146263122558593750e+01) (43, 9.86627101898193359375e+00) (44, -9.86709785461425781250e+00) (45, 4.00090484619140625000e+01) (46, 8.51927280426025390625e+00) (47, -3.72617301940917968750e+01) (48, 3.41794662475585937500e+01) (49, 2.82414302825927734375e+01) (50, 2.07726240158081054688e+00) (51, -3.17946166992187500000e+01) (52, 3.89247894287109375000e+01) (53, -5.08490371704101562500e+01) (54, 2.64716987609863281250e+01) (55, 7.03838825225830078125e+00) (56, -5.83987579345703125000e+01) (57, 5.27855634689331054688e+00) (58, -2.01389732360839843750e+01) (59, -9.89413261413574218750e-02) (60, 1.17315518856048583984e+00) (61, 3.02936172485351562500e+00) (62, 1.46480159759521484375e+01) (63, 1.45915346145629882812e+01) (64, -1.13196969032287597656e+00) (65, -2.71488742828369140625e+01) (66, -5.04400634765625000000e+01) (67, -4.24162521362304687500e+01) (61, 1.79215407371520996094e+00) (62, 1.08266210556030273438e+01) (63, -4.97513122558593750000e+01) (64, 1.58534851074218750000e+01) (65, 3.23430023193359375000e+01) (66, -2.56963787078857421875e+01) (67, -1.86705513000488281250e+01) (61, -4.42439880371093750000e+01) (62, 2.29100723266601562500e+01) (63, 1.56354560852050781250e+01) (64, -1.03754329681396484375e+00) (65, -2.41628875732421875000e+01) (66, -1.52032880783081054688e+01) (67, -2.61771411895751953125e+01) (61, -2.12204513549804687500e+01) (62, 1.10579128265380859375e+01) (63, -1.78357162475585937500e+01) (64, 5.64907598495483398438e+00) (65, -2.05388107299804687500e+01) (66, 2.79130935668945312500e+01) (67, -2.82952384948730468750e+01) 
