FANN_FLO_2.1
num_layers=3
learning_rate=0.800000
connection_rate=1.000000
network_type=0
learning_momentum=0.000000
training_algorithm=0
train_error_function=1
train_stop_function=0
cascade_output_change_fraction=0.010000
quickprop_decay=-0.000100
quickprop_mu=1.750000
rprop_increase_factor=1.200000
rprop_decrease_factor=0.500000
rprop_delta_min=0.000000
rprop_delta_max=50.000000
rprop_delta_zero=0.100000
cascade_output_stagnation_epochs=12
cascade_candidate_change_fraction=0.010000
cascade_candidate_stagnation_epochs=12
cascade_max_out_epochs=150
cascade_min_out_epochs=50
cascade_max_cand_epochs=150
cascade_min_cand_epochs=50
cascade_num_candidate_groups=2
bit_fail_limit=3.49999994039535522461e-01
cascade_candidate_limit=1.00000000000000000000e+03
cascade_weight_multiplier=4.00000005960464477539e-01
cascade_activation_functions_count=10
cascade_activation_functions=3 5 7 8 10 11 14 15 16 17 
cascade_activation_steepnesses_count=4
cascade_activation_steepnesses=2.50000000000000000000e-01 5.00000000000000000000e-01 7.50000000000000000000e-01 1.00000000000000000000e+00 
layer_sizes=61 7 5 
scale_included=0
neurons (num_inputs, activation_function, activation_steepness)=(0, 0, 0.00000000000000000000e+00) (0, 0, 0.00000000000000000000e+00) (0, 0, 0.00000000000000000000e+00) (0, 0, 0.00000000000000000000e+00) (0, 0, 0.00000000000000000000e+00) (0, 0, 0.00000000000000000000e+00) (0, 0, 0.00000000000000000000e+00) (0, 0, 0.00000000000000000000e+00) (0, 0, 0.00000000000000000000e+00) (0, 0, 0.00000000000000000000e+00) (0, 0, 0.00000000000000000000e+00) (0, 0, 0.00000000000000000000e+00) (0, 0, 0.00000000000000000000e+00) (0, 0, 0.00000000000000000000e+00) (0, 0, 0.00000000000000000000e+00) (0, 0, 0.00000000000000000000e+00) (0, 0, 0.00000000000000000000e+00) (0, 0, 0.00000000000000000000e+00) (0, 0, 0.00000000000000000000e+00) (0, 0, 0.00000000000000000000e+00) (0, 0, 0.00000000000000000000e+00) (0, 0, 0.00000000000000000000e+00) (0, 0, 0.00000000000000000000e+00) (0, 0, 0.00000000000000000000e+00) (0, 0, 0.00000000000000000000e+00) (0, 0, 0.00000000000000000000e+00) (0, 0, 0.00000000000000000000e+00) (0, 0, 0.00000000000000000000e+00) (0, 0, 0.00000000000000000000e+00) (0, 0, 0.00000000000000000000e+00) (0, 0, 0.00000000000000000000e+00) (0, 0, 0.00000000000000000000e+00) (0, 0, 0.00000000000000000000e+00) (0, 0, 0.00000000000000000000e+00) (0, 0, 0.00000000000000000000e+00) (0, 0, 0.00000000000000000000e+00) (0, 0, 0.00000000000000000000e+00) (0, 0, 0.00000000000000000000e+00) (0, 0, 0.00000000000000000000e+00) (0, 0, 0.00000000000000000000e+00) (0, 0, 0.00000000000000000000e+00) (0, 0, 0.00000000000000000000e+00) (0, 0, 0.00000000000000000000e+00) (0, 0, 0.00000000000000000000e+00) (0, 0, 0.00000000000000000000e+00) (0, 0, 0.00000000000000000000e+00) (0, 0, 0.00000000000000000000e+00) (0, 0, 0.00000000000000000000e+00) (0, 0, 0.00000000000000000000e+00) (0, 0, 0.00000000000000000000e+00) (0, 0, 0.00000000000000000000e+00) (0, 0, 0.00000000000000000000e+00) (0, 0, 0.00000000000000000000e+00) (0, 0, 0.00000000000000000000e+00) (0, 0, 0.00000000000000000000e+00) (0, 0, 0.00000000000000000000e+00) (0, 0, 0.00000000000000000000e+00) (0, 0, 0.00000000000000000000e+00) (0, 0, 0.00000000000000000000e+00) (0, 0, 0.00000000000000000000e+00) (0, 0, 0.00000000000000000000e+00) (61, 3, 5.00000000000000000000e-01) (61, 3, 5.00000000000000000000e-01) (61, 3, 5.00000000000000000000e-01) (61, 3, 5.00000000000000000000e-01) (61, 3, 5.00000000000000000000e-01) (61, 3, 5.00000000000000000000e-01) (0, 3, 0.00000000000000000000e+00) (7, 3, 5.00000000000000000000e-01) (7, 3, 5.00000000000000000000e-01) (7, 3, 5.00000000000000000000e-01) (7, 3, 5.00000000000000000000e-01) (0, 3, 0.00000000000000000000e+00) 
connections (connected_to_neuron, weight)=(0, -1.06366932392120361328e+00) (1, 5.39204216003417968750e+00) (2, 1.05508232116699218750e+01) (3, 1.85498313903808593750e+01) (4, 7.42085123062133789062e+00) (5, -1.78654270172119140625e+01) (6, 8.89943027496337890625e+00) (7, 2.22896423339843750000e+01) (8, 8.44078254699707031250e+00) (9, 9.86693572998046875000e+00) (10, 4.42780780792236328125e+00) (11, 3.90614151954650878906e-01) (12, -9.97678279876708984375e+00) (13, 1.20261726379394531250e+01) (14, 2.26261959075927734375e+01) (15, -1.92413759231567382812e+00) (16, -1.32572011947631835938e+01) (17, 7.03280735015869140625e+00) (18, 1.33941926956176757812e+01) (19, -9.70368003845214843750e+00) (20, 2.05648784637451171875e+01) (21, 1.08569831848144531250e+01) (22, 9.08216655254364013672e-01) (23, 8.55821228027343750000e+00) (24, -4.42494869232177734375e+00) (25, 2.22338104248046875000e+00) (26, 2.12287306785583496094e+00) (27, -5.01236248016357421875e+00) (28, 1.14470643997192382812e+01) (29, -1.60884678363800048828e+00) (30, -1.91893911361694335938e+00) (31, -2.70305919647216796875e+00) (32, 2.15924406051635742188e+00) (33, -4.44027137756347656250e+00) (34, 1.39382934570312500000e+01) (35, 5.44001865386962890625e+00) (36, -5.93730068206787109375e+00) (37, 1.32347660064697265625e+01) (38, 3.54339385032653808594e+00) (39, -8.78475189208984375000e+00) (40, -1.09397411346435546875e+00) (41, 8.79069042205810546875e+00) (42, 5.39414501190185546875e+00) (43, -2.17086601257324218750e+00) (44, 1.21981925964355468750e+01) (45, -2.44110202789306640625e+00) (46, -1.11415958404541015625e+01) (47, -3.94368982315063476562e+00) (48, -1.75809040069580078125e+01) (49, 1.18155822753906250000e+01) (50, -1.58452491760253906250e+01) (51, 6.92271041870117187500e+00) (52, -6.21986818313598632812e+00) (53, 5.45404005050659179688e+00) (54, 1.68313980102539062500e+01) (55, 4.41483020782470703125e+00) (56, 5.39532947540283203125e+00) (57, -1.75552284717559814453e+00) (58, -2.10372734069824218750e+00) (59, 1.06539812088012695312e+01) (60, -1.95466117858886718750e+01) (0, -7.92416715621948242188e+00) (1, -4.38499355316162109375e+00) (2, -1.01007139682769775391e+00) (3, -7.93542861938476562500e+00) (4, 1.13570365905761718750e+01) (5, -1.91377937793731689453e-01) (6, 8.78942012786865234375e+00) (7, 7.88269758224487304688e-01) (8, -7.48912429809570312500e+00) (9, -5.69268655776977539062e+00) (10, 2.61222648620605468750e+00) (11, 4.98886489868164062500e+00) (12, 1.69056167602539062500e+01) (13, 1.42412042617797851562e+00) (14, -1.27003984451293945312e+01) (15, -1.89308567047119140625e+01) (16, 1.07194662094116210938e+00) (17, 6.09457063674926757812e+00) (18, 1.37026195526123046875e+01) (19, -8.93021869659423828125e+00) (20, -1.47225484848022460938e+01) (21, -3.89913296699523925781e+00) (22, -3.85993123054504394531e+00) (23, 7.97557401657104492188e+00) (24, -3.84343814849853515625e+00) (25, -1.62196493148803710938e+00) (26, -1.36109037399291992188e+01) (27, -9.57823276519775390625e+00) (28, 3.37548375129699707031e+00) (29, 9.18344116210937500000e+00) (30, 1.34069347381591796875e+01) (31, 8.44724416732788085938e-01) (32, 1.41088857650756835938e+01) (33, 7.47171020507812500000e+00) (34, -8.83924293518066406250e+00) (35, -1.81474971771240234375e+01) (36, 1.45746839046478271484e+00) (37, 1.68303585052490234375e+01) (38, 1.46892452239990234375e+01) (39, -1.03030014038085937500e+01) (40, -8.98571777343750000000e+00) (41, -8.41769695281982421875e+00) (42, 4.14872360229492187500e+00) (43, -1.21888847351074218750e+01) (44, 3.70808386802673339844e+00) (45, 1.50975036621093750000e+01) (46, -1.27075233459472656250e+01) (47, 1.26136913299560546875e+01) (48, -3.84388732910156250000e+00) (49, -2.14270138740539550781e+00) (50, 8.27615261077880859375e-02) (51, 4.13940668106079101562e+00) (52, 1.04975605010986328125e+01) (53, -4.59444999694824218750e+00) (54, 2.92169022560119628906e+00) (55, -9.82097089290618896484e-01) (56, 2.13042716979980468750e+01) (57, -2.18999528884887695312e+00) (58, 1.46171224117279052734e+00) (59, -2.86646008491516113281e+00) (60, -3.10503888130187988281e+00) (0, -1.25479831695556640625e+01) (1, 1.70358600616455078125e+01) (2, -2.43356800079345703125e+00) (3, 1.65459084510803222656e+00) (4, 2.01553764343261718750e+01) (5, -6.03731822967529296875e+00) (6, 9.28699302673339843750e+00) (7, 9.34560012817382812500e+00) (8, 5.11294484138488769531e-01) (9, 1.12750434875488281250e+01) (10, 7.47651195526123046875e+00) (11, -2.83078460693359375000e+01) (12, -4.37453889846801757812e+00) (13, -6.33894395828247070312e+00) (14, -9.93232154846191406250e+00) (15, -4.97453975677490234375e+00) (16, -5.01993751525878906250e+00) (17, -2.93196315765380859375e+01) (18, -1.86098480224609375000e+01) (19, -1.01987857818603515625e+01) (20, 8.22289085388183593750e+00) (21, -2.11967968940734863281e+00) (22, -7.06475877761840820312e+00) (23, 2.57841467857360839844e-01) (24, -1.62160873413085937500e+01) (25, -1.28232841491699218750e+01) (26, -4.41404962539672851562e+00) (27, 1.55848836898803710938e+00) (28, 1.19901046752929687500e+01) (29, -3.64772915840148925781e-01) (30, -2.06665563583374023438e+00) (31, 1.82953491210937500000e+01) (32, 3.45126485824584960938e+00) (33, 9.34269142150878906250e+00) (34, 1.18557815551757812500e+01) (35, -1.56398832798004150391e+00) (36, 1.28630475997924804688e+01) (37, 1.13479347229003906250e+01) (38, 1.32547206878662109375e+01) (39, 1.05733060836791992188e+01) (40, 4.48894405364990234375e+00) (41, 7.31546926498413085938e+00) (42, -1.07624950408935546875e+01) (43, -1.60905532836914062500e+01) (44, -2.43930840492248535156e+00) (45, -1.12747621536254882812e+01) (46, -8.77464389801025390625e+00) (47, 7.39209651947021484375e-01) (48, -3.31525707244873046875e+00) (49, -1.22169570922851562500e+01) (50, 6.03282451629638671875e+00) (51, -2.16269707679748535156e+00) (52, -7.18927335739135742188e+00) (53, -4.57630395889282226562e+00) (54, -1.26133918762207031250e+01) (55, 1.30326533317565917969e+00) (56, -4.84916162490844726562e+00) (57, -4.86860609054565429688e+00) (58, 8.15108299255371093750e+00) (59, 2.55098438262939453125e+00) (60, -1.44343280792236328125e+00) (0, 6.59452557563781738281e-01) (1, -3.37892436981201171875e+00) (2, -6.50078058242797851562e+00) (3, -1.69985294342041015625e-02) (4, 6.38723611831665039062e-01) (5, 1.05327157974243164062e+01) (6, 4.45420074462890625000e+00) (7, 6.44713878631591796875e+00) (8, -5.59675598144531250000e+00) (9, -9.18170928955078125000e+00) (10, 8.73147201538085937500e+00) (11, -6.81416130065917968750e+00) (12, 8.84067726135253906250e+00) (13, 1.23259687423706054688e+01) (14, -4.54769372940063476562e-01) (15, -5.16089344024658203125e+00) (16, -1.28109121322631835938e+00) (17, -3.45670604705810546875e+00) (18, -1.21823132038116455078e-01) (19, 3.12533307075500488281e+00) (20, 3.10726881027221679688e+00) (21, 1.32023344039916992188e+01) (22, -4.33202385902404785156e-01) (23, -5.95577287673950195312e+00) (24, 1.07498931884765625000e+01) (25, 1.04772949218750000000e+01) (26, -5.02507686614990234375e-01) (27, -1.34779720306396484375e+01) (28, 2.89512777328491210938e+00) (29, -1.99098110198974609375e+01) (30, 7.44027042388916015625e+00) (31, -2.79213809967041015625e+00) (32, 1.23104362487792968750e+01) (33, 1.55266058444976806641e+00) (34, 8.21807289123535156250e+00) (35, -1.53087415695190429688e+01) (36, -3.78304314613342285156e+00) (37, -2.79538965225219726562e+00) (38, 2.89710998535156250000e+00) (39, 5.37235403060913085938e+00) (40, 3.16262674331665039062e+00) (41, -4.27879428863525390625e+00) (42, -3.29102659225463867188e+00) (43, 8.01163864135742187500e+00) (44, 7.11703252792358398438e+00) (45, -4.08596563339233398438e+00) (46, -2.58799374103546142578e-01) (47, -1.90750885009765625000e+00) (48, -7.72879123687744140625e+00) (49, 1.92767086029052734375e+01) (50, -9.46606922149658203125e+00) (51, -1.41607904434204101562e+00) (52, -8.61915874481201171875e+00) (53, -1.95183677673339843750e+01) (54, -6.30962228775024414062e+00) (55, 2.64629173278808593750e+00) (56, -7.36799955368041992188e+00) (57, 1.35561428070068359375e+01) (58, -2.68247532844543457031e+00) (59, 1.29671888351440429688e+01) (60, 6.61280965805053710938e+00) (0, -1.60701406002044677734e+00) (1, 5.21026134490966796875e+00) (2, -1.06094951629638671875e+01) (3, -2.76362156867980957031e+00) (4, 6.88791322708129882812e+00) (5, 1.46639752388000488281e+00) (6, 2.86742043495178222656e+00) (7, 7.19882202148437500000e+00) (8, -7.85685300827026367188e+00) (9, 8.21521997451782226562e-01) (10, 1.38898448944091796875e+01) (11, -1.50774965286254882812e+01) (12, -5.54968500137329101562e+00) (13, -1.53402948379516601562e+00) (14, -8.56931877136230468750e+00) (15, 1.83978843688964843750e+00) (16, 1.71267967224121093750e+01) (17, -1.99658508300781250000e+01) (18, 1.47469148635864257812e+01) (19, 1.64371061325073242188e+00) (20, 1.27571105957031250000e-01) (21, -3.23111271858215332031e+00) (22, -2.59036922454833984375e+00) (23, 4.68214225769042968750e+00) (24, 1.43951539993286132812e+01) (25, -4.11139869689941406250e+00) (26, -1.26008472442626953125e+01) (27, -4.40471792221069335938e+00) (28, -1.38177652359008789062e+01) (29, -1.22397670745849609375e+01) (30, 2.35719776153564453125e+00) (31, 1.00928001403808593750e+01) (32, -5.31948471069335937500e+00) (33, -7.40871071815490722656e-01) (34, -2.97996449470520019531e+00) (35, -1.15022907257080078125e+01) (36, 8.90664196014404296875e+00) (37, 3.61962294578552246094e+00) (38, -5.93843173980712890625e+00) (39, -3.53120708465576171875e+00) (40, 3.99172115325927734375e+00) (41, -4.10058879852294921875e+00) (42, 1.13620738983154296875e+01) (43, -5.01133799552917480469e-01) (44, -2.74821043014526367188e-01) (45, -5.85436677932739257812e+00) (46, -2.13955059051513671875e+01) (47, 8.10328769683837890625e+00) (48, -1.52516336441040039062e+01) (49, -1.71736946105957031250e+01) (50, -1.50092382431030273438e+01) (51, 2.33923864364624023438e+00) (52, -1.31366376876831054688e+01) (53, -1.91224098205566406250e+00) (54, -9.17302417755126953125e+00) (55, 5.99263858795166015625e+00) (56, 1.84667911529541015625e+01) (57, 1.33841590881347656250e+01) (58, -3.85196065902709960938e+00) (59, 4.41977882385253906250e+00) (60, -1.11294075846672058105e-01) (0, -6.47504568099975585938e-01) (1, -3.46775436401367187500e+00) (2, -1.65153694152832031250e+00) (3, -1.29716243743896484375e+01) (4, 1.01243829727172851562e+01) (5, 5.51130533218383789062e+00) (6, 3.34866523742675781250e-01) (7, -5.01389980316162109375e+00) (8, 9.32692241668701171875e+00) (9, 6.23539066314697265625e+00) (10, 6.61799240112304687500e+00) (11, 4.94298839569091796875e+00) (12, -6.32007884979248046875e+00) (13, 1.49710912704467773438e+01) (14, 3.36309528350830078125e+00) (15, -8.59263610839843750000e+00) (16, 8.36976146697998046875e+00) (17, 1.36906871795654296875e+01) (18, -1.30238370895385742188e+01) (19, -1.19667663574218750000e+01) (20, 9.56043243408203125000e+00) (21, -1.02272033691406250000e+01) (22, 4.57936143875122070312e+00) (23, 1.56083946228027343750e+01) (24, -5.99786281585693359375e+00) (25, -8.91286194324493408203e-01) (26, 6.04419469833374023438e+00) (27, -1.32078466415405273438e+01) (28, 6.12775707244873046875e+00) (29, 1.91161823272705078125e+01) (30, 1.97152256965637207031e+00) (31, 1.79610748291015625000e+01) (32, 8.61830520629882812500e+00) (33, -2.10375070571899414062e+00) (34, 1.01145114898681640625e+01) (35, -1.01721525192260742188e+01) (36, -1.20920622348785400391e+00) (37, -1.83396518230438232422e+00) (38, -1.55008087158203125000e+01) (39, 7.06453037261962890625e+00) (40, 1.00257854461669921875e+01) (41, -3.50878047943115234375e+00) (42, 1.53762006759643554688e+00) (43, -1.10640001296997070312e+01) (44, -5.66387081146240234375e+00) (45, -1.40670957565307617188e+01) (46, 3.38829088211059570312e+00) (47, 3.49177074432373046875e+00) (48, -1.48543071746826171875e+01) (49, 2.31969852447509765625e+01) (50, 1.64386010169982910156e+00) (51, -1.45679235458374023438e+01) (52, -3.55165410041809082031e+00) (53, 1.26522803306579589844e+00) (54, 7.04247236251831054688e-01) (55, 3.85937213897705078125e-01) (56, 4.88727283477783203125e+00) (57, -1.25228238105773925781e+00) (58, 2.09346723556518554688e+00) (59, 7.55510902404785156250e+00) (60, -7.07129669189453125000e+00) (61, 8.80285739898681640625e+00) (62, 2.30275440216064453125e+00) (63, 1.35155410766601562500e+01) (64, 4.90663337707519531250e+00) (65, 4.86495971679687500000e+00) (66, -1.39699544906616210938e+01) (67, -1.46834239959716796875e+01) (61, -7.10566473007202148438e+00) (62, -1.95642364025115966797e+00) (63, -1.47314720153808593750e+01) (64, 1.70821533203125000000e+01) (65, 1.95551795959472656250e+01) (66, -1.34018554687500000000e+01) (67, -8.96231079101562500000e+00) (61, 1.36080300807952880859e+00) (62, 3.09176659584045410156e+00) (63, 1.34265985488891601562e+01) (64, 4.99795103073120117188e+00) (65, 1.58501958847045898438e+00) (66, 1.62356243133544921875e+01) (67, -1.59883556365966796875e+01) (61, 2.70672464370727539062e+00) (62, 9.79639291763305664062e-02) (63, 4.53703284263610839844e-01) (64, 1.16634106636047363281e+00) (65, -1.96847934722900390625e+01) (66, -6.14922618865966796875e+00) (67, 1.18857669830322265625e+01) 
